{
  "type": "exit_agent",
  "timestamp": "2026-02-02T10:34:59.317Z",
  "episode": 25,
  "config": {
    "dataFile": "data/BTCUSDT_1h.json",
    "recentMonths": 6,
    "entry": {
      "fastEMA": 9,
      "slowEMA": 21,
      "rsiPeriod": 14,
      "rsiLongThreshold": 60,
      "rsiShortThreshold": 40,
      "minBarsBetweenTrades": 2
    },
    "agent": {
      "actions": 2,
      "hiddenLayers": [
        32,
        16
      ],
      "learningRate": 0.001,
      "gamma": 0.95,
      "epsilonStart": 1,
      "epsilonEnd": 0.05,
      "epsilonDecay": 0.998,
      "batchSize": 32,
      "memorySize": 10000,
      "targetUpdateFreq": 100,
      "dropout": 0.1,
      "l2Regularization": 0.001
    },
    "training": {
      "episodes": 300,
      "maxStepsPerEpisode": 500,
      "validationFreq": 25,
      "earlyStoppingPatience": 75
    },
    "position": {
      "maxHoldBars": 48,
      "stopLossPct": 0.02,
      "takeProfitPct": 0.04
    },
    "featureReduction": "moderate"
  },
  "agentConfig": {
    "inputSize": 7,
    "hiddenLayers": [
      32,
      16
    ],
    "learningRate": 0.001,
    "gamma": 0.95,
    "epsilonStart": 1,
    "epsilonEnd": 0.05,
    "epsilonDecay": 0.998,
    "batchSize": 32,
    "memorySize": 10000,
    "targetUpdateFreq": 100,
    "dropout": 0.1,
    "l2Regularization": 0.001
  },
  "featureReducerModel": {
    "config": {
      "method": "pca",
      "targetDimensions": 50,
      "varianceThreshold": 0.95,
      "topKFeatures": 50,
      "correlationThreshold": 0.9,
      "warmupSamples": 1000
    },
    "pcaModel": {
      "mean": [
        -0.02,
        0.10416666666666663,
        0.014162817820612517,
        0,
        0,
        -0.027983462784200084,
        0.0425960365427483,
        0.09669924633997397,
        0.6954163047934568,
        0.2198310284522556,
        0.011280853983746807,
        0.02009969484423444,
        0.382362323758757,
        -0.03667927575589454,
        0.9706327585203458,
        0.9916560382048271,
        0,
        0.10416666666666663,
        0.06461258082948176
      ],
      "components": [
        [
          -0.050296591525538586,
          1.0767485045853305e-33,
          -0.009015040972980186,
          0,
          0,
          -0.1680268923159115,
          -0.29301543261516516,
          -0.39651224302729415,
          -0.014996753084468337,
          -0.8286203988603764,
          -0.10234892640971173,
          -0.16759731572844974,
          -0.0009786544085787596,
          0.008938371437962818,
          -0.01161688513885329,
          0.0047168148944206865,
          0,
          1.0767485045853305e-33,
          -0.02090595981860278
        ],
        [
          0.9759637874755481,
          1.766493327233008e-33,
          0.02298434210222359,
          0,
          0,
          -0.00036386262817668147,
          -0.0808309945419932,
          0.007814255211099975,
          -0.004949311877043431,
          -0.03137089140936229,
          -0.04740049549937929,
          -0.012146158614380311,
          0.018132589549993527,
          -0.0012802786513184468,
          -0.009777526329544069,
          -0.008324751910738224,
          0,
          1.766493327233008e-33,
          0.19097974972254778
        ],
        [
          0.18907728147622826,
          1.2333489562774409e-34,
          -0.09872497908955033,
          0,
          0,
          -0.03538175203685696,
          -0.049968557517178616,
          0.02754670740042193,
          -0.031954008380943366,
          -0.009857823010077345,
          0.05408590098783629,
          0.1480822271575295,
          -0.05088825561566814,
          -0.013738943736175702,
          -0.05632217442261987,
          0.012107711158308984,
          0,
          1.2333489562774409e-34,
          -0.9580848557302705
        ],
        [
          -0.05563041356992265,
          -1.2217165135533934e-33,
          -0.003985311176559516,
          0,
          0,
          -0.4594631407298428,
          -0.6556418706907524,
          0.02336373704534783,
          0.04626879190406616,
          0.18392725866325343,
          0.22632998034937135,
          0.4953298881176085,
          0.037813309383991224,
          -0.0667306756188662,
          0.03974288292140844,
          0.013847433324420805,
          0,
          -1.2217165135533934e-33,
          0.12316572835432534
        ],
        [
          -0.030951253099539708,
          -1.1547160670303588e-33,
          -0.002767587365306492,
          0,
          0,
          -0.372049470682984,
          -0.3162593780213073,
          0.21297724941128102,
          -0.01750202528358629,
          0.2767884544916081,
          -0.4450616011648687,
          -0.6485603045761563,
          0.08733912336484626,
          0.034175301521876165,
          -0.021141352613918044,
          -0.011664492065179524,
          0,
          -1.1547160670303588e-33,
          -0.10112710319724684
        ],
        [
          -0.017133406151789043,
          2.96842233843638e-32,
          -0.034365318480977465,
          0,
          0,
          0.18195677152235928,
          -0.11835251362565964,
          0.041381696437561934,
          -0.07106915830766232,
          -0.0006473404623768267,
          -0.03173949637515144,
          -0.07542309037522182,
          -0.14185761395242363,
          -0.9363597833772319,
          -0.20136718787280972,
          0.0005279883545882802,
          0,
          2.96842233843638e-32,
          0.022536861022946348
        ],
        [
          0.013432865433980134,
          -4.154129315536886e-32,
          0.017104322737458294,
          0,
          0,
          -0.4214233551462614,
          0.25321627403616753,
          0.2769525168178151,
          -0.2963930951139982,
          -0.14332951662374405,
          -0.02710027860220325,
          0.06208488121841586,
          -0.7460949024877235,
          0.011620673340649616,
          0.08356084975053332,
          -0.011006810471693006,
          0,
          -4.154129315536886e-32,
          0.06504455550460515
        ]
      ],
      "explainedVariance": [
        0.5449620774785153,
        0.18836179728105718,
        0.0955166836446786,
        0.05880966556193936,
        0.03864377039361051,
        0.018519815910560206,
        0.016354138324543813
      ],
      "nComponents": 7
    },
    "selectedFeatureIndices": null
  },
  "validation": {
    "trades": 39,
    "winRate": 0.8205128205128205,
    "avgPnL": -0.0009416826061659195,
    "totalPnL": -0.036725621640470864,
    "sharpe": -1.7268439473023482,
    "agentExits": 33,
    "stopLosses": 5,
    "takeProfits": 0,
    "maxHolds": 1,
    "avgBarsHeld": 10.256410256410257
  },
  "weights": [
    {
      "shape": [
        7,
        32
      ],
      "data": [
        -0.922062873840332,
        -0.6519400477409363,
        -0.6119400858879089,
        0.8579272627830505,
        -0.418228417634964,
        0.6886153817176819,
        0.5229731202125549,
        0.35217756032943726,
        0.2731872797012329,
        0.5695358514785767,
        0.9200656414031982,
        0.45152053236961365,
        -0.4687844216823578,
        -0.6168177127838135,
        -0.6716420650482178,
        -0.7340750098228455,
        0.1597108542919159,
        -0.5034498572349548,
        -0.5948927402496338,
        0.4307434856891632,
        -0.3555424213409424,
        -0.4177538752555847,
        0.17205733060836792,
        0.3166152238845825,
        0.2584077715873718,
        0.2618228495121002,
        0.7027791142463684,
        -0.5336428284645081,
        -0.24685218930244446,
        0.26281464099884033,
        0.5455327033996582,
        -0.374759316444397,
        0.187870055437088,
        -0.1676410436630249,
        0.3579431474208832,
        0.2785711884498596,
        0.5764107704162598,
        0.16832278668880463,
        -0.36316412687301636,
        -0.6093981862068176,
        -0.5687241554260254,
        0.3120369017124176,
        0.32610976696014404,
        -0.45732420682907104,
        -0.8587697744369507,
        0.5840470194816589,
        -0.595043957233429,
        -0.4858120381832123,
        -0.357001394033432,
        -0.6431761980056763,
        0.19453741610050201,
        -0.4748058617115021,
        0.5871812701225281,
        -0.620002031326294,
        -0.6468892693519592,
        -0.40890631079673767,
        -0.5928101539611816,
        -0.6069222688674927,
        0.39411407709121704,
        0.5058010220527649,
        -0.016941731795668602,
        -0.4663558006286621,
        -0.4438627362251282,
        0.5191051959991455,
        0.01933949813246727,
        -0.2740589380264282,
        0.3287810981273651,
        0.27840766310691833,
        0.25262656807899475,
        0.4416095018386841,
        -0.17721915245056152,
        0.10790400952100754,
        -0.15003050863742828,
        -0.1647293120622635,
        0.29757407307624817,
        -0.14261311292648315,
        -0.4485613703727722,
        0.14886297285556793,
        -0.41753679513931274,
        -0.40539467334747314,
        -0.08313866704702377,
        -0.2203754335641861,
        0.10813145339488983,
        0.025067897513508797,
        0.4128645360469818,
        0.06622404605150223,
        -0.04946470633149147,
        -0.3587394952774048,
        0.01603040099143982,
        0.05026716738939285,
        -0.07303375750780106,
        0.3646569848060608,
        0.027852002531290054,
        -0.1786300539970398,
        0.042646266520023346,
        0.20322532951831818,
        0.2690850496292114,
        0.23056088387966156,
        0.17316386103630066,
        -0.07651831954717636,
        -0.05206393823027611,
        -0.22229833900928497,
        -0.05447329953312874,
        -0.0697641596198082,
        0.08817283809185028,
        -0.32522404193878174,
        -0.07015791535377502,
        -0.21126878261566162,
        0.33783286809921265,
        -0.02018941380083561,
        0.3469404876232147,
        0.34863293170928955,
        -0.0563846230506897,
        0.12037631124258041,
        0.35155558586120605,
        0.0007611537585034966,
        -0.14565254747867584,
        -0.3848418891429901,
        0.16627587378025055,
        -0.09212970733642578,
        -0.03996720537543297,
        -0.05988949537277222,
        -0.16032718122005463,
        -0.01274094171822071,
        -0.4021773338317871,
        0.2277461588382721,
        -0.024604078382253647,
        -0.0891605019569397,
        0.2894882261753082,
        0.2964864671230316,
        0.1250610649585724,
        -0.26135724782943726,
        0.14777539670467377,
        0.3036486506462097,
        0.08086636662483215,
        -0.01538966502994299,
        0.08965595811605453,
        -0.15135370194911957,
        -0.2225281447172165,
        -0.43609553575515747,
        0.24261583387851715,
        0.29991263151168823,
        0.21472126245498657,
        0.1619601845741272,
        0.7135053277015686,
        0.22546124458312988,
        0.31485801935195923,
        -0.040328264236450195,
        0.29184454679489136,
        0.7597809433937073,
        -0.3604789078235626,
        -0.662261426448822,
        -0.019209591671824455,
        0.010607711039483547,
        -0.4869883954524994,
        0.037128716707229614,
        -0.5521224737167358,
        0.15337511897087097,
        0.05403115600347519,
        0.5167810320854187,
        0.33784741163253784,
        -0.23781438171863556,
        -0.013972234912216663,
        -0.0947028324007988,
        0.01639719493687153,
        -0.023889085277915,
        -0.04806555062532425,
        0.14413538575172424,
        0.012765886262059212,
        -0.2914815843105316,
        -0.16393813490867615,
        -0.4425864517688751,
        -0.020719554275274277,
        0.05050332471728325,
        -0.0100407674908638,
        -0.029945852234959602,
        0.1691776067018509,
        0.09055314213037491,
        0.6371817588806152,
        -0.0565263070166111,
        -0.14407305419445038,
        0.14091728627681732,
        -0.26130443811416626,
        -0.14887142181396484,
        -0.08958131819963455,
        0.10398520529270172,
        0.12833131849765778,
        -0.1891852170228958,
        -0.20349840819835663,
        0.058205146342515945,
        -0.08296938240528107,
        -0.33443140983581543,
        -0.29909831285476685,
        -0.49774354696273804,
        -0.1083894819021225,
        0.8151775002479553,
        -0.06027156859636307,
        1.260011076927185,
        0.9914648532867432,
        0.26035070419311523,
        0.7287387847900391,
        0.27330687642097473,
        0.92410808801651,
        0.09042438119649887,
        0.0571446567773819,
        -0.16335049271583557,
        -0.22024017572402954,
        -0.3494226038455963,
        0.14987148344516754,
        -0.4730569124221802,
        0.363757848739624,
        0.41808658838272095,
        0.04070023447275162,
        -0.14805470407009125,
        -0.7722961902618408,
        0.25704795122146606,
        0.17257991433143616,
        0.15581808984279633,
        0.17644736170768738,
        -0.2618287205696106,
        0.18923601508140564,
        0.8282660841941833,
        0.7363868951797485,
        -0.05574512109160423
      ]
    },
    {
      "shape": [
        32
      ],
      "data": [
        -0.21673835813999176,
        0.1675959676504135,
        -0.27077674865722656,
        -0.1525757610797882,
        -0.529280424118042,
        -0.2156105786561966,
        -0.4313376545906067,
        -0.5312480926513672,
        -0.6262304186820984,
        -0.26456961035728455,
        -0.1553748995065689,
        -0.11230970919132233,
        -0.7379424571990967,
        -0.466126948595047,
        -0.30869635939598083,
        -0.1784292757511139,
        -0.5009076595306396,
        -0.2961134612560272,
        -0.20848725736141205,
        -0.5239983797073364,
        -0.4137747585773468,
        -0.43521636724472046,
        0.20447300374507904,
        -0.04785808548331261,
        -0.5720376372337341,
        -0.5680119395256042,
        -0.314374178647995,
        -0.4241807758808136,
        -0.5122922658920288,
        -0.6248588562011719,
        -0.5534734129905701,
        -0.2134566307067871
      ]
    },
    {
      "shape": [
        32,
        16
      ],
      "data": [
        0.0058186911046504974,
        -1.0591386556625366,
        -0.14627693593502045,
        0.15205347537994385,
        -0.026277512311935425,
        0.004724085796624422,
        0.011831645853817463,
        -1.0146450996398926,
        -0.2439405769109726,
        0.17159129679203033,
        -0.0006776266382075846,
        -1.000612735748291,
        -1.317222237586975,
        -1.221466302871704,
        0.294286847114563,
        -0.28398874402046204,
        -0.039900392293930054,
        -1.4751853942871094,
        0.0035628839395940304,
        -0.4258466362953186,
        0.39549732208251953,
        -0.08764667063951492,
        -0.45248281955718994,
        -0.003494955599308014,
        0.00011130244820378721,
        -0.01571652665734291,
        0.08923912793397903,
        -0.08801749348640442,
        0.052645184099674225,
        -1.3378503322601318,
        0.012480407021939754,
        0.07312152534723282,
        -0.22830674052238464,
        -0.5123556852340698,
        0.603161096572876,
        0.3285040259361267,
        -0.2950264513492584,
        -0.28705352544784546,
        0.516301691532135,
        -0.8896232843399048,
        -1.4338051080703735,
        0.38195306062698364,
        -0.2191227674484253,
        -0.7679027318954468,
        -1.3831795454025269,
        -0.7350950837135315,
        0.4736303985118866,
        -0.2731407880783081,
        -3.0834105014801025,
        0.06813906133174896,
        -0.20698413252830505,
        -0.12077268213033676,
        -1.4396193027496338,
        -2.7187962532043457,
        -0.3387104272842407,
        -2.8031322956085205,
        -2.8750133514404297,
        -0.18966256082057953,
        -2.7908689975738525,
        -0.044826000928878784,
        -2.831040143966675,
        -0.03404385223984718,
        -0.2267782837152481,
        -2.1548960208892822,
        -0.6246029734611511,
        -0.3370700180530548,
        0.46541863679885864,
        0.6512964963912964,
        0.117664635181427,
        -0.47001028060913086,
        0.34694626927375793,
        -0.21742179989814758,
        -0.7319197058677673,
        0.4163717031478882,
        -0.5431228280067444,
        -0.15045270323753357,
        -0.19394461810588837,
        -0.15516594052314758,
        0.33275946974754333,
        -0.110089510679245,
        -2.2698378562927246,
        -0.0881107971072197,
        -0.28157082200050354,
        -0.23320043087005615,
        -1.1201478242874146,
        -2.550520896911621,
        -0.5385222434997559,
        -1.9275243282318115,
        -2.61559796333313,
        -0.22759157419204712,
        -1.992226004600525,
        0.03716278448700905,
        -2.4790189266204834,
        0.1663578897714615,
        -0.2308512032032013,
        -1.8503154516220093,
        0.032029904425144196,
        -2.437614679336548,
        0.18258702754974365,
        0.38249891996383667,
        -0.4423489272594452,
        0.058993611484766006,
        0.31062018871307373,
        -0.09166935831308365,
        -0.009923870675265789,
        0.04028613865375519,
        -0.12959496676921844,
        -1.3930673599243164,
        -0.004098974168300629,
        -0.729732096195221,
        0.1612306535243988,
        0.0703873336315155,
        0.24469593167304993,
        -0.5846352577209473,
        0.44429880380630493,
        0.38802164793014526,
        -0.3995656967163086,
        0.28930991888046265,
        0.10628863424062729,
        0.02873614802956581,
        0.16164803504943848,
        0.6716670393943787,
        0.07540705054998398,
        -0.05046457052230835,
        0.3690938651561737,
        -0.9165222644805908,
        0.5275576114654541,
        -0.08629092574119568,
        0.12797950208187103,
        -0.470087468624115,
        0.7581695318222046,
        0.45619165897369385,
        -0.7605690956115723,
        0.02614765614271164,
        0.2515750825405121,
        0.23241853713989258,
        -0.13001318275928497,
        0.6819074153900146,
        0.20877797901630402,
        -0.5460821390151978,
        0.02957623265683651,
        -0.6331599354743958,
        0.7122800946235657,
        -0.1424015760421753,
        -1.572395920753479,
        -0.11186937242746353,
        -0.23034058511257172,
        -0.3838556706905365,
        -0.06937677413225174,
        -1.489304542541504,
        -0.18986400961875916,
        -1.6502019166946411,
        -1.2839946746826172,
        -0.267920583486557,
        -1.604380488395691,
        -0.06789734959602356,
        -1.492689847946167,
        0.12497201561927795,
        -0.3827933073043823,
        -1.527529239654541,
        -2.1099369525909424,
        0.045134324580430984,
        -0.16373193264007568,
        -0.16695576906204224,
        -1.2047662734985352,
        -2.159467935562134,
        -0.2755082845687866,
        -1.9694515466690063,
        -2.0003743171691895,
        -0.22949320077896118,
        -2.1005640029907227,
        -0.06172952428460121,
        -2.2022616863250732,
        -0.026500480249524117,
        -0.19434072077274323,
        -1.8446646928787231,
        0.07531790435314178,
        -1.6001818180084229,
        -0.14919668436050415,
        0.22532281279563904,
        -1.0288875102996826,
        0.06855881214141846,
        0.061474479734897614,
        -0.07613939791917801,
        -0.13252802193164825,
        0.05552060157060623,
        0.11204445362091064,
        -0.23175594210624695,
        0.07794046401977539,
        0.20780368149280548,
        0.18430887162685394,
        0.010702285915613174,
        -0.04808320477604866,
        -0.1435956358909607,
        -1.2750983238220215,
        -1.4057631492614746,
        -1.1870694160461426,
        -0.06747850030660629,
        -2.200248956680298,
        -0.16884933412075043,
        -0.21879751980304718,
        -1.8271265029907227,
        -0.05214265361428261,
        -0.013743935152888298,
        -0.030696330592036247,
        -0.7520915269851685,
        -1.9540584087371826,
        -0.6492131352424622,
        -0.6939871907234192,
        -0.233994722366333,
        0.5249316096305847,
        0.3184477388858795,
        -0.19491027295589447,
        -0.5737542510032654,
        -0.005886310711503029,
        -0.5250131487846375,
        -0.7771236896514893,
        0.47238489985466003,
        -0.6449812054634094,
        -0.26880523562431335,
        -0.4982396960258484,
        -0.1683415025472641,
        0.25637269020080566,
        -0.23256948590278625,
        -0.0844532772898674,
        -0.27439844608306885,
        -0.4716564416885376,
        -0.266387015581131,
        -0.009245077148079872,
        0.019643394276499748,
        -2.2364253997802734,
        -0.0677998811006546,
        -0.03226074203848839,
        -0.35984987020492554,
        0.039481375366449356,
        -0.055963966995477676,
        0.00962668377906084,
        -0.7294532060623169,
        -0.5984857678413391,
        -0.22808893024921417,
        0.058910567313432693,
        -1.6841295957565308,
        -0.19881126284599304,
        -0.3921780586242676,
        0.15248742699623108,
        -0.01844833418726921,
        -1.9801363945007324,
        -0.03864988684654236,
        0.036945972591638565,
        -0.45701929926872253,
        -0.06421637535095215,
        -0.0659424290060997,
        -0.12416405230760574,
        -1.2779572010040283,
        -0.38628312945365906,
        0.03119438700377941,
        0.01598316803574562,
        0.9761567711830139,
        0.6338967680931091,
        0.8062402606010437,
        -1.4952869415283203,
        0.3513393998146057,
        0.4717506468296051,
        0.1993764191865921,
        0.23309272527694702,
        0.43500247597694397,
        -0.16449646651744843,
        0.985410213470459,
        0.2625025510787964,
        1.095617651939392,
        0.6790536642074585,
        0.08223414421081543,
        0.05488776043057442,
        -1.1039776802062988,
        -0.5123686194419861,
        -0.24521580338478088,
        -0.2770427167415619,
        0.032609786838293076,
        -1.6260266304016113,
        -0.03350361809134483,
        0.18791615962982178,
        -0.5678529739379883,
        -0.060698967427015305,
        -0.006478933151811361,
        -0.04324503615498543,
        -1.2324392795562744,
        -0.4956985414028168,
        -0.3005463480949402,
        -0.1039004921913147,
        0.04550636187195778,
        0.23289437592029572,
        0.318439781665802,
        -0.00358522217720747,
        -0.010479786433279514,
        0.3514128625392914,
        -1.4329752922058105,
        -0.6245542168617249,
        0.46841368079185486,
        -0.03636239841580391,
        -0.36405375599861145,
        -1.8593906164169312,
        -0.04705825075507164,
        0.3086361885070801,
        -0.3722786009311676,
        -0.28969529271125793,
        -0.38828280568122864,
        0.23784011602401733,
        0.17783191800117493,
        -0.28253206610679626,
        -0.07388951629400253,
        0.5249381065368652,
        -0.11841614544391632,
        -0.04231239855289459,
        0.2955312728881836,
        -0.4272555112838745,
        -1.2058018445968628,
        -0.38375869393348694,
        -2.0720622539520264,
        0.7415820360183716,
        -0.6001536846160889,
        -0.8526912331581116,
        0.41347983479499817,
        0.015783414244651794,
        0.02495412901043892,
        0.6073297262191772,
        -0.6527000069618225,
        0.08559343218803406,
        -0.5844627618789673,
        -1.1513707637786865,
        0.35433870553970337,
        -0.7273722887039185,
        0.2176452875137329,
        -0.39385634660720825,
        0.42717045545578003,
        0.121053546667099,
        -0.3842799961566925,
        -0.024889439344406128,
        -0.760028064250946,
        -0.6768668293952942,
        -0.727241039276123,
        -1.3402113914489746,
        0.04835136979818344,
        -0.2817317545413971,
        -0.15059272944927216,
        -0.02362055331468582,
        -0.9391240477561951,
        -0.029726767912507057,
        -0.2095382958650589,
        -0.07945620268583298,
        -0.8565846681594849,
        -1.01945161819458,
        -0.160050168633461,
        0.057609520852565765,
        -2.5364699363708496,
        0.020841609686613083,
        -0.2140962779521942,
        -1.5778684616088867,
        -0.07703421264886856,
        0.18931081891059875,
        -0.010674652643501759,
        0.05542639270424843,
        0.03041790798306465,
        0.09266826510429382,
        -0.07230664044618607,
        -0.024378271773457527,
        -2.0883724689483643,
        0.04989341273903847,
        0.06527811288833618,
        -0.039352595806121826,
        -0.09049251675605774,
        0.22116445004940033,
        -0.14648041129112244,
        -2.8357248306274414,
        -0.08159906417131424,
        0.2584810256958008,
        0.06623488664627075,
        -0.12416709959506989,
        0.10720479488372803,
        0.015271803364157677,
        -0.1012042984366417,
        -0.06111074611544609,
        0.4872973561286926,
        -0.02015751600265503,
        0.40935051441192627,
        0.18069586157798767,
        -0.2549523711204529,
        0.6492230296134949,
        0.7927154898643494,
        0.00674959784373641,
        0.42612698674201965,
        0.42003947496414185,
        0.29250264167785645,
        0.3030635118484497,
        0.8863233327865601,
        0.016101136803627014,
        0.668839156627655,
        0.5103113055229187,
        -0.3894355893135071,
        0.8792019486427307,
        0.07570171356201172,
        0.07480910420417786,
        -0.10274382680654526,
        0.5352684259414673,
        0.8205304145812988,
        -0.11983141303062439,
        0.3446555733680725,
        0.5999283790588379,
        0.26904407143592834,
        0.7261351346969604,
        0.854750394821167,
        0.363815575838089,
        0.11789289116859436,
        0.3536890149116516,
        -0.3252824544906616,
        0.5955749750137329,
        0.025016166269779205,
        -1.3133946657180786,
        0.018915284425020218,
        -0.1743961125612259,
        -0.29717501997947693,
        -1.6656593084335327,
        -1.181710958480835,
        -0.2642536461353302,
        -1.470076084136963,
        -1.2131370306015015,
        -0.23789657652378082,
        -1.3008263111114502,
        -0.16710489988327026,
        -1.3160649538040161,
        -0.04242299497127533,
        -0.13197144865989685,
        -1.5056021213531494,
        -0.7147358655929565,
        0.23225238919258118,
        0.14403463900089264,
        0.6809260845184326,
        -0.05653270706534386,
        -1.3308145999908447,
        0.20363402366638184,
        -0.8305678367614746,
        -1.2073997259140015,
        0.39793404936790466,
        -0.7550289630889893,
        -0.09108390659093857,
        -0.9328211545944214,
        0.07592091709375381,
        0.24323682487010956,
        -0.23129558563232422,
        0.12914492189884186,
        0.4345572292804718,
        0.3383348286151886,
        0.45419588685035706,
        0.24120058119297028,
        0.31450948119163513,
        -0.1683695912361145,
        0.2026698887348175,
        0.5116350054740906,
        0.2154184728860855,
        -0.12902355194091797,
        0.5917654633522034,
        0.2984515428543091,
        0.7962102293968201,
        0.4823237359523773,
        -0.05323149636387825,
        0.29541540145874023,
        -0.05008286237716675,
        0.8704773783683777,
        0.9198637008666992,
        -0.2812504470348358,
        0.17745356261730194,
        0.4040701985359192,
        0.2391580045223236,
        0.4113558828830719,
        0.7045096755027771,
        0.14546218514442444,
        0.08331058919429779,
        0.30585765838623047,
        -0.3877978026866913,
        0.4364735782146454,
        0.21451231837272644,
        -0.4644584655761719,
        -1.7574477195739746,
        0.5799723863601685,
        0.3677547574043274,
        -0.600091278553009,
        -0.20169049501419067,
        0.11642482876777649,
        -0.20950137078762054,
        -0.2477324903011322,
        0.5249810814857483,
        -0.21454006433486938,
        -1.3590174913406372,
        -0.38982096314430237,
        -0.5927983522415161,
        0.3454679548740387,
        -0.6124671101570129,
        -1.0546064376831055,
        0.3472364544868469,
        0.3092016875743866,
        -0.04757251217961311,
        0.4215066432952881,
        -1.2028582096099854,
        -0.2196924090385437,
        -0.5987972617149353,
        -1.7045538425445557,
        0.05715683475136757,
        -0.897004246711731,
        0.08063798397779465,
        -0.23974348604679108,
        0.41985201835632324,
        0.27081602811813354,
        -0.11015482991933823
      ]
    },
    {
      "shape": [
        16
      ],
      "data": [
        0.45687851309776306,
        0.4079866409301758,
        0.5433114767074585,
        0.6881711483001709,
        0.8821489214897156,
        0.41884177923202515,
        0.6045145392417908,
        0.4233616292476654,
        0.5744206309318542,
        0.5598865747451782,
        0.42987605929374695,
        0.5960638523101807,
        0.430725634098053,
        0.5494682192802429,
        0.5331606864929199,
        0.27401551604270935
      ]
    },
    {
      "shape": [
        16,
        2
      ],
      "data": [
        0.46768543124198914,
        -1.0461223125457764,
        1.4034912586212158,
        -0.9649648070335388,
        0.3451273441314697,
        0.8917548060417175,
        0.39881378412246704,
        0.9405771493911743,
        0.6189585328102112,
        1.5102170705795288,
        0.8201088905334473,
        -1.1341211795806885,
        0.5017545819282532,
        1.6452827453613281,
        0.7380784153938293,
        -1.2956455945968628,
        0.6202448010444641,
        -0.7521346211433411,
        0.3391469120979309,
        0.9432457685470581,
        0.34569764137268066,
        -1.1294294595718384,
        1.6477153301239014,
        -0.6880855560302734,
        0.846183180809021,
        -1.1847063302993774,
        0.8344976902008057,
        -0.5027055740356445,
        0.34750819206237793,
        0.9574460387229919,
        0.19876901805400848,
        -1.630808711051941
      ]
    },
    {
      "shape": [
        2
      ],
      "data": [
        4.374857425689697,
        1.761921763420105
      ]
    }
  ]
}