{
  "type": "exit_agent",
  "timestamp": "2026-02-02T10:35:25.725Z",
  "episode": 50,
  "config": {
    "dataFile": "data/BTCUSDT_1h.json",
    "recentMonths": 6,
    "entry": {
      "fastEMA": 9,
      "slowEMA": 21,
      "rsiPeriod": 14,
      "rsiLongThreshold": 60,
      "rsiShortThreshold": 40,
      "minBarsBetweenTrades": 2
    },
    "agent": {
      "actions": 2,
      "hiddenLayers": [
        32,
        16
      ],
      "learningRate": 0.001,
      "gamma": 0.95,
      "epsilonStart": 1,
      "epsilonEnd": 0.05,
      "epsilonDecay": 0.998,
      "batchSize": 32,
      "memorySize": 10000,
      "targetUpdateFreq": 100,
      "dropout": 0.1,
      "l2Regularization": 0.001
    },
    "training": {
      "episodes": 300,
      "maxStepsPerEpisode": 500,
      "validationFreq": 25,
      "earlyStoppingPatience": 75
    },
    "position": {
      "maxHoldBars": 48,
      "stopLossPct": 0.02,
      "takeProfitPct": 0.04
    },
    "featureReduction": "moderate"
  },
  "agentConfig": {
    "inputSize": 7,
    "hiddenLayers": [
      32,
      16
    ],
    "learningRate": 0.001,
    "gamma": 0.95,
    "epsilonStart": 1,
    "epsilonEnd": 0.05,
    "epsilonDecay": 0.998,
    "batchSize": 32,
    "memorySize": 10000,
    "targetUpdateFreq": 100,
    "dropout": 0.1,
    "l2Regularization": 0.001
  },
  "featureReducerModel": {
    "config": {
      "method": "pca",
      "targetDimensions": 50,
      "varianceThreshold": 0.95,
      "topKFeatures": 50,
      "correlationThreshold": 0.9,
      "warmupSamples": 1000
    },
    "pcaModel": {
      "mean": [
        -0.02,
        0.10416666666666663,
        0.014162817820612517,
        0,
        0,
        -0.027983462784200084,
        0.0425960365427483,
        0.09669924633997397,
        0.6954163047934568,
        0.2198310284522556,
        0.011280853983746807,
        0.02009969484423444,
        0.382362323758757,
        -0.03667927575589454,
        0.9706327585203458,
        0.9916560382048271,
        0,
        0.10416666666666663,
        0.06461258082948176
      ],
      "components": [
        [
          -0.050296591525538586,
          1.0767485045853305e-33,
          -0.009015040972980186,
          0,
          0,
          -0.1680268923159115,
          -0.29301543261516516,
          -0.39651224302729415,
          -0.014996753084468337,
          -0.8286203988603764,
          -0.10234892640971173,
          -0.16759731572844974,
          -0.0009786544085787596,
          0.008938371437962818,
          -0.01161688513885329,
          0.0047168148944206865,
          0,
          1.0767485045853305e-33,
          -0.02090595981860278
        ],
        [
          0.9759637874755481,
          1.766493327233008e-33,
          0.02298434210222359,
          0,
          0,
          -0.00036386262817668147,
          -0.0808309945419932,
          0.007814255211099975,
          -0.004949311877043431,
          -0.03137089140936229,
          -0.04740049549937929,
          -0.012146158614380311,
          0.018132589549993527,
          -0.0012802786513184468,
          -0.009777526329544069,
          -0.008324751910738224,
          0,
          1.766493327233008e-33,
          0.19097974972254778
        ],
        [
          0.18907728147622826,
          1.2333489562774409e-34,
          -0.09872497908955033,
          0,
          0,
          -0.03538175203685696,
          -0.049968557517178616,
          0.02754670740042193,
          -0.031954008380943366,
          -0.009857823010077345,
          0.05408590098783629,
          0.1480822271575295,
          -0.05088825561566814,
          -0.013738943736175702,
          -0.05632217442261987,
          0.012107711158308984,
          0,
          1.2333489562774409e-34,
          -0.9580848557302705
        ],
        [
          -0.05563041356992265,
          -1.2217165135533934e-33,
          -0.003985311176559516,
          0,
          0,
          -0.4594631407298428,
          -0.6556418706907524,
          0.02336373704534783,
          0.04626879190406616,
          0.18392725866325343,
          0.22632998034937135,
          0.4953298881176085,
          0.037813309383991224,
          -0.0667306756188662,
          0.03974288292140844,
          0.013847433324420805,
          0,
          -1.2217165135533934e-33,
          0.12316572835432534
        ],
        [
          -0.030951253099539708,
          -1.1547160670303588e-33,
          -0.002767587365306492,
          0,
          0,
          -0.372049470682984,
          -0.3162593780213073,
          0.21297724941128102,
          -0.01750202528358629,
          0.2767884544916081,
          -0.4450616011648687,
          -0.6485603045761563,
          0.08733912336484626,
          0.034175301521876165,
          -0.021141352613918044,
          -0.011664492065179524,
          0,
          -1.1547160670303588e-33,
          -0.10112710319724684
        ],
        [
          -0.017133406151789043,
          2.96842233843638e-32,
          -0.034365318480977465,
          0,
          0,
          0.18195677152235928,
          -0.11835251362565964,
          0.041381696437561934,
          -0.07106915830766232,
          -0.0006473404623768267,
          -0.03173949637515144,
          -0.07542309037522182,
          -0.14185761395242363,
          -0.9363597833772319,
          -0.20136718787280972,
          0.0005279883545882802,
          0,
          2.96842233843638e-32,
          0.022536861022946348
        ],
        [
          0.013432865433980134,
          -4.154129315536886e-32,
          0.017104322737458294,
          0,
          0,
          -0.4214233551462614,
          0.25321627403616753,
          0.2769525168178151,
          -0.2963930951139982,
          -0.14332951662374405,
          -0.02710027860220325,
          0.06208488121841586,
          -0.7460949024877235,
          0.011620673340649616,
          0.08356084975053332,
          -0.011006810471693006,
          0,
          -4.154129315536886e-32,
          0.06504455550460515
        ]
      ],
      "explainedVariance": [
        0.5449620774785153,
        0.18836179728105718,
        0.0955166836446786,
        0.05880966556193936,
        0.03864377039361051,
        0.018519815910560206,
        0.016354138324543813
      ],
      "nComponents": 7
    },
    "selectedFeatureIndices": null
  },
  "validation": {
    "trades": 39,
    "winRate": 0.8205128205128205,
    "avgPnL": -0.0006553523861650921,
    "totalPnL": -0.02555874306043859,
    "sharpe": -1.1735004009752172,
    "agentExits": 33,
    "stopLosses": 5,
    "takeProfits": 0,
    "maxHolds": 1,
    "avgBarsHeld": 10.282051282051283
  },
  "weights": [
    {
      "shape": [
        7,
        32
      ],
      "data": [
        -1.0031249523162842,
        -0.8544047474861145,
        -0.6474319696426392,
        0.9512706995010376,
        -0.4471806585788727,
        0.6557257175445557,
        0.48077717423439026,
        0.3810100555419922,
        0.4008159339427948,
        0.7662709355354309,
        1.0146234035491943,
        0.5684863328933716,
        -0.5283633470535278,
        -0.69674152135849,
        -0.7771884799003601,
        -0.7827366590499878,
        0.11653663218021393,
        -0.42282602190971375,
        -0.6545557379722595,
        0.504662811756134,
        -0.28696829080581665,
        -0.4341456890106201,
        0.08331689238548279,
        0.41555967926979065,
        0.30424147844314575,
        0.2643580436706543,
        0.8165216445922852,
        -0.5945202708244324,
        -0.18840807676315308,
        0.2641252279281616,
        0.5714513659477234,
        -0.3280925452709198,
        0.17506064474582672,
        -0.2638430893421173,
        0.3933109939098358,
        0.278239369392395,
        0.5972923636436462,
        0.18653716146945953,
        -0.4275827407836914,
        -0.6828486323356628,
        -0.573855996131897,
        0.37580984830856323,
        0.33673012256622314,
        -0.5611193776130676,
        -1.0164213180541992,
        0.5895846486091614,
        -0.7321782112121582,
        -0.630347490310669,
        -0.3765711486339569,
        -0.8878001570701599,
        0.18754221498966217,
        -0.4789300262928009,
        0.5111802816390991,
        -0.7539417743682861,
        -0.8053128123283386,
        -0.35782551765441895,
        -0.6107140183448792,
        -0.6719191074371338,
        0.49118703603744507,
        0.5375947952270508,
        -0.07741747051477432,
        -0.4739401936531067,
        -0.3955724239349365,
        0.4452383518218994,
        -0.027738632634282112,
        -0.23333333432674408,
        0.42012152075767517,
        0.3296106159687042,
        0.4085851311683655,
        0.4784834086894989,
        -0.24428638815879822,
        0.1367170661687851,
        -0.1652713268995285,
        -0.09128350764513016,
        0.3571905791759491,
        -0.15760257840156555,
        -0.42294782400131226,
        0.08996991068124771,
        -0.39398467540740967,
        -0.3637118339538574,
        -0.12632034718990326,
        -0.29359573125839233,
        0.016567720100283623,
        0.08192318677902222,
        0.5852547883987427,
        -0.033344484865665436,
        -0.014200379140675068,
        -0.5065813064575195,
        0.08419595658779144,
        0.052343059331178665,
        -0.21282163262367249,
        0.33558639883995056,
        -0.013520871289074421,
        -0.18452699482440948,
        -0.009776282124221325,
        -0.025012094527482986,
        0.1969100832939148,
        0.32318875193595886,
        0.0893230140209198,
        -0.07586170732975006,
        0.03544580191373825,
        -0.09959110617637634,
        -0.19254985451698303,
        -0.17826569080352783,
        0.0486040823161602,
        -0.284728080034256,
        -0.07414177805185318,
        -0.33029574155807495,
        0.25630462169647217,
        -0.010961995460093021,
        0.2174273282289505,
        0.3571052551269531,
        -0.1046997532248497,
        0.13373081386089325,
        0.4595479965209961,
        0.15544234216213226,
        -0.23648127913475037,
        -0.42603033781051636,
        0.17676116526126862,
        -0.002091968199238181,
        -0.09005962312221527,
        -0.10602939128875732,
        -0.19094784557819366,
        -0.0853194147348404,
        -0.39672884345054626,
        0.3795405924320221,
        0.14591987431049347,
        0.10306443274021149,
        0.31522804498672485,
        0.35894063115119934,
        0.1869688183069229,
        -0.32855290174484253,
        0.07041329890489578,
        0.3838254511356354,
        0.08199384063482285,
        0.029363073408603668,
        -0.08298341184854507,
        -0.38592013716697693,
        -0.33073440194129944,
        -0.4755304455757141,
        0.22334694862365723,
        0.3250768780708313,
        0.29673075675964355,
        0.2553766369819641,
        0.7989845275878906,
        0.14953722059726715,
        0.3331241011619568,
        -0.1309986263513565,
        0.27210110425949097,
        0.6977102756500244,
        -0.2883278429508209,
        -0.7199452519416809,
        0.0412430614233017,
        0.02373977191746235,
        -0.3530552387237549,
        0.17597556114196777,
        -0.8081257343292236,
        0.029077937826514244,
        0.11590485274791718,
        0.6111490726470947,
        0.3730003237724304,
        -0.14058859646320343,
        0.0010596738429740071,
        -0.05597374215722084,
        -0.006146335043013096,
        0.04565893113613129,
        -0.1619221568107605,
        0.22565589845180511,
        -0.07809781283140182,
        -0.1529761105775833,
        -0.08479008078575134,
        -0.6487529277801514,
        0.02262265421450138,
        0.22716420888900757,
        0.020487891510128975,
        0.061115916818380356,
        0.1455642133951187,
        0.05469583719968796,
        0.5538991093635559,
        -0.04927825555205345,
        0.038854166865348816,
        0.24856235086917877,
        -0.3795558512210846,
        -0.2866629362106323,
        -0.2261859029531479,
        0.18145142495632172,
        0.160298690199852,
        -0.40832170844078064,
        -0.02525457739830017,
        0.09507543593645096,
        -0.1738000512123108,
        -0.4104226529598236,
        -0.4495631158351898,
        -0.3365182876586914,
        -0.03655676171183586,
        0.8013162016868591,
        -0.022720983251929283,
        1.3693077564239502,
        0.9909411668777466,
        0.22297370433807373,
        0.5850257277488708,
        0.2470870465040207,
        0.8754125833511353,
        0.3127635717391968,
        -0.12755948305130005,
        -0.22021403908729553,
        -0.41526541113853455,
        -0.40352463722229004,
        0.056572504341602325,
        -0.3392508029937744,
        0.3786500096321106,
        0.20148888230323792,
        0.31385546922683716,
        -0.23813790082931519,
        -0.749096691608429,
        0.15899834036827087,
        0.19824513792991638,
        0.1394876092672348,
        0.14585089683532715,
        -0.27496904134750366,
        0.16042913496494293,
        0.8711351156234741,
        0.9030547738075256,
        0.026662858203053474
      ]
    },
    {
      "shape": [
        32
      ],
      "data": [
        -0.2798008918762207,
        0.18659767508506775,
        -0.3467654585838318,
        -0.20745430886745453,
        -0.5827646255493164,
        -0.2643040120601654,
        -0.533633828163147,
        -0.5918481349945068,
        -0.7049145102500916,
        -0.2997277081012726,
        -0.21317492425441742,
        -0.26424357295036316,
        -0.80778968334198,
        -0.5752591490745544,
        -0.3505157232284546,
        -0.28652843832969666,
        -0.5813819766044617,
        -0.6494781970977783,
        -0.24279549717903137,
        -0.5900816321372986,
        -0.5586621165275574,
        -0.5916257500648499,
        0.2958667576313019,
        -0.08757828921079636,
        -0.6314997673034668,
        -0.6106826663017273,
        -0.45921406149864197,
        -0.5563421845436096,
        -0.660058856010437,
        -0.6507006883621216,
        -0.6058911681175232,
        -0.19199523329734802
      ]
    },
    {
      "shape": [
        32,
        16
      ],
      "data": [
        0.016384324058890343,
        -1.792478084564209,
        -0.0642327219247818,
        0.20366236567497253,
        -0.10850211977958679,
        -0.03458486869931221,
        -0.0678241178393364,
        -1.5301873683929443,
        0.026778224855661392,
        0.17223027348518372,
        -0.015105469152331352,
        -0.9727498888969421,
        -1.9338020086288452,
        -1.6230990886688232,
        0.3065025806427002,
        -0.5362817049026489,
        -0.02720559388399124,
        -3.289576768875122,
        0.01914178766310215,
        -0.34695690870285034,
        0.22642458975315094,
        -0.04082651063799858,
        -0.33223044872283936,
        0.039436984807252884,
        0.010588295757770538,
        -0.03595230355858803,
        0.006014799699187279,
        -0.1703311800956726,
        0.04546483978629112,
        -2.4982264041900635,
        -0.04904470965266228,
        0.08114068955183029,
        -0.14221347868442535,
        -0.5676102638244629,
        0.5816121101379395,
        0.3511156439781189,
        -0.4391247630119324,
        -0.49821606278419495,
        0.4523458182811737,
        -1.0296283960342407,
        -2.1008553504943848,
        0.3478456437587738,
        -0.009020625613629818,
        -1.0997140407562256,
        -1.5275778770446777,
        -1.0045422315597534,
        0.4586806893348694,
        -0.6814946532249451,
        -4.61517333984375,
        0.02436065673828125,
        -0.1835770606994629,
        -0.16481322050094604,
        -1.9899609088897705,
        -4.00408935546875,
        -0.3248578906059265,
        -3.76444935798645,
        -4.057644367218018,
        -0.17773647606372833,
        -4.442659854888916,
        -0.03791208565235138,
        -3.6806440353393555,
        0.002002330031245947,
        -0.19310466945171356,
        -3.8971872329711914,
        -1.7489392757415771,
        -0.523198127746582,
        0.5302895307540894,
        0.6486255526542664,
        -0.11819064617156982,
        -1.3922274112701416,
        0.32433435320854187,
        -0.3747531771659851,
        -1.0834453105926514,
        0.4146568477153778,
        -1.8038153648376465,
        -0.7375286221504211,
        -0.2875649929046631,
        -0.5695133209228516,
        0.32181689143180847,
        -0.6767876148223877,
        -2.0356802940368652,
        -0.018363887444138527,
        -0.33301761746406555,
        -0.2715219259262085,
        -1.8696444034576416,
        -2.8877475261688232,
        -0.41216611862182617,
        -2.576690196990967,
        -3.2226765155792236,
        -0.26847437024116516,
        -1.4460506439208984,
        0.06951166689395905,
        -3.422123670578003,
        -0.029410889372229576,
        -0.303558886051178,
        -2.2981128692626953,
        0.06716428697109222,
        -3.097327947616577,
        0.20493929088115692,
        0.4319435656070709,
        -0.9617074131965637,
        -0.03547963500022888,
        0.08480323106050491,
        -0.22201606631278992,
        -0.10675456374883652,
        0.11591071635484695,
        0.03527339547872543,
        -2.004051923751831,
        -0.2365686595439911,
        -0.28696882724761963,
        0.23621810972690582,
        0.09640247374773026,
        0.2451678067445755,
        -0.7110388875007629,
        0.6174718737602234,
        0.5732555985450745,
        -1.2374556064605713,
        0.3247131109237671,
        0.045045334845781326,
        0.2367374747991562,
        0.1935238391160965,
        0.7013561725616455,
        0.09124554693698883,
        -0.22229525446891785,
        0.5768561363220215,
        -2.0620272159576416,
        0.6359680891036987,
        0.18783621490001678,
        0.007988423109054565,
        -0.550834059715271,
        0.8275423049926758,
        0.6070505976676941,
        -0.9709671139717102,
        -0.07231218367815018,
        -0.17216385900974274,
        0.15533055365085602,
        -0.13699185848236084,
        0.707719624042511,
        0.09237395972013474,
        -1.7371835708618164,
        -0.06398490071296692,
        -1.9526225328445435,
        0.7775041460990906,
        -0.2431895136833191,
        -2.7664732933044434,
        0.01190500520169735,
        -0.1136312186717987,
        -0.21741247177124023,
        -1.2306530475616455,
        -2.402298927307129,
        -0.43310999870300293,
        -2.269495964050293,
        -2.223724365234375,
        -0.13669931888580322,
        -2.846916437149048,
        -0.11518324166536331,
        -2.0145015716552734,
        0.012849639169871807,
        -0.1664268523454666,
        -2.8708391189575195,
        -3.5769026279449463,
        0.012780546210706234,
        -0.16884058713912964,
        -0.16526344418525696,
        -1.6014678478240967,
        -3.354567766189575,
        -0.2858372926712036,
        -2.9801671504974365,
        -3.178767204284668,
        -0.17373330891132355,
        -3.6432504653930664,
        -0.04894360154867172,
        -3.0786187648773193,
        -0.0003736010112334043,
        -0.16880950331687927,
        -3.4337265491485596,
        0.12012044340372086,
        -4.152070999145508,
        -0.06256867945194244,
        0.2854107618331909,
        -2.12094783782959,
        0.0594823881983757,
        0.09316454827785492,
        -0.06828048080205917,
        -0.06867684423923492,
        0.07122734189033508,
        0.17530909180641174,
        -0.20495298504829407,
        -0.05684031546115875,
        0.5417650938034058,
        0.20061078667640686,
        0.08402355015277863,
        -0.02405836246907711,
        -0.30160120129585266,
        -1.9942703247070312,
        -2.5770936012268066,
        -2.2347283363342285,
        -0.027002841234207153,
        -3.6489675045013428,
        -0.07735134661197662,
        -0.08370479941368103,
        -2.938692092895508,
        -0.05809183046221733,
        0.02944592945277691,
        -0.027594581246376038,
        -1.2650772333145142,
        -3.0049057006835938,
        -0.8841203451156616,
        -1.2937273979187012,
        -0.7796697020530701,
        0.5789554119110107,
        0.3318309783935547,
        -0.37072035670280457,
        -1.4342292547225952,
        -0.04164722189307213,
        -0.6214956045150757,
        -0.9846513271331787,
        0.43908438086509705,
        -1.07738196849823,
        -0.24034039676189423,
        -0.5767449736595154,
        -0.5331815481185913,
        0.2520499527454376,
        -0.2970663905143738,
        -0.024070216342806816,
        -0.5290021896362305,
        -0.36916184425354004,
        -0.2325613647699356,
        0.23650029301643372,
        -0.024747129529714584,
        -4.378407955169678,
        -0.023894453421235085,
        -0.01675521209836006,
        -0.3183639645576477,
        -0.009110460057854652,
        -0.052384153008461,
        0.0029649948701262474,
        -1.3937530517578125,
        -0.5327036380767822,
        -0.18392623960971832,
        0.00908961333334446,
        -1.9266453981399536,
        -0.1605328917503357,
        -0.3045857548713684,
        0.29452285170555115,
        -0.03639765828847885,
        -3.2887275218963623,
        0.031170643866062164,
        0.0014009876176714897,
        -0.36782214045524597,
        -0.03281807154417038,
        -0.056255217641592026,
        -0.02668505348265171,
        -1.9379210472106934,
        -0.3691851794719696,
        -0.06067823991179466,
        -0.2683568596839905,
        2.2687320709228516,
        0.4266827404499054,
        0.610316276550293,
        -2.6362977027893066,
        0.053463712334632874,
        0.2405095249414444,
        0.13988928496837616,
        0.0347735621035099,
        0.36312299966812134,
        -0.415190190076828,
        1.1140367984771729,
        0.30357781052589417,
        2.185699701309204,
        0.4995921552181244,
        0.052334852516651154,
        -0.006092095747590065,
        -1.2901806831359863,
        -1.0199661254882812,
        -1.0969823598861694,
        -0.9372966885566711,
        -0.0326341912150383,
        -3.695512533187866,
        -0.0503789447247982,
        0.06895856559276581,
        -1.1740272045135498,
        -0.057472918182611465,
        -0.03411383926868439,
        -0.0484241284430027,
        -1.7114511728286743,
        -1.139559030532837,
        -0.39363253116607666,
        -0.0764983668923378,
        0.35610660910606384,
        0.07540705800056458,
        0.20634929835796356,
        0.025370486080646515,
        -0.10479867458343506,
        0.15250003337860107,
        -3.727975606918335,
        -0.8686109185218811,
        0.304944783449173,
        -0.0652117058634758,
        -0.16667459905147552,
        -4.252861976623535,
        0.34899401664733887,
        0.12917926907539368,
        -0.6327382326126099,
        0.015593047253787518,
        -0.606927216053009,
        0.1931242197751999,
        0.24702668190002441,
        -0.8846265077590942,
        0.007962376810610294,
        0.2407531440258026,
        -0.17955264449119568,
        -0.03994889184832573,
        0.24154771864414215,
        -0.015134958550333977,
        -2.4258131980895996,
        -0.4149472415447235,
        -2.860557794570923,
        0.6470804810523987,
        -0.23675014078617096,
        -1.4209249019622803,
        0.5901264548301697,
        -0.09105005115270615,
        -0.041388917714357376,
        0.6992923021316528,
        -1.1957870721817017,
        0.0361737385392189,
        -0.4222320318222046,
        -1.1600894927978516,
        0.19294558465480804,
        -1.1752569675445557,
        0.4622681438922882,
        -0.35159486532211304,
        0.7491525411605835,
        -0.031155947595834732,
        -0.49682557582855225,
        0.01624838262796402,
        -0.8644749522209167,
        -1.332491159439087,
        -1.085313320159912,
        -1.759988784790039,
        0.08625718951225281,
        0.014435436576604843,
        -0.1362919807434082,
        0.023193232715129852,
        -1.2800331115722656,
        0.007669555023312569,
        -0.11396242678165436,
        -0.15353919565677643,
        -0.8723808526992798,
        -1.252259373664856,
        -0.9396769404411316,
        -0.030446605756878853,
        -4.387880802154541,
        0.013452664948999882,
        -0.1701289713382721,
        -1.2938281297683716,
        -0.00034056525328196585,
        0.2827877104282379,
        0.023282330483198166,
        0.04115841165184975,
        0.03044939413666725,
        -0.025605984032154083,
        -0.038620080798864365,
        0.02193903923034668,
        -3.686934471130371,
        0.010704463347792625,
        0.0050433906726539135,
        0.02018413506448269,
        0.35604938864707947,
        0.15150468051433563,
        -0.03958525508642197,
        -4.066524028778076,
        0.0029014989268034697,
        0.16073234379291534,
        -0.027652649208903313,
        -0.04842317849397659,
        0.11839452385902405,
        0.053528741002082825,
        0.09325961023569107,
        -0.14104807376861572,
        0.4265266954898834,
        -0.011220386251807213,
        0.1322500854730606,
        0.3256296217441559,
        -0.366603285074234,
        0.5081709623336792,
        0.7042394876480103,
        -0.6648805737495422,
        0.6166220307350159,
        -0.23412324488162994,
        0.8578708171844482,
        0.6755988001823425,
        0.7022050619125366,
        0.14581017196178436,
        1.5341169834136963,
        1.0894386768341064,
        -1.624538540840149,
        0.6823126077651978,
        0.045965950936079025,
        0.0659295991063118,
        -0.2858084738254547,
        0.6962608695030212,
        0.9739881753921509,
        -1.0114340782165527,
        0.3657623529434204,
        0.42586657404899597,
        0.39320051670074463,
        0.6875565648078918,
        0.9121617674827576,
        0.34058108925819397,
        -0.09589356184005737,
        0.5411989092826843,
        -1.2881042957305908,
        0.7522770166397095,
        0.27263861894607544,
        -1.6447378396987915,
        0.018600577488541603,
        -0.16507817804813385,
        -0.2524662911891937,
        -2.760617256164551,
        -1.6333783864974976,
        -0.4617394804954529,
        -1.7879860401153564,
        -1.4907772541046143,
        -0.1912916600704193,
        -1.7082173824310303,
        -0.10099680721759796,
        -1.5932327508926392,
        -0.031662389636039734,
        -0.15727165341377258,
        -1.0907527208328247,
        -1.3475600481033325,
        0.9471853971481323,
        0.22564783692359924,
        0.6479726433753967,
        -0.2764241397380829,
        -2.205949544906616,
        0.05649145692586899,
        -0.8678966164588928,
        -1.998930811882019,
        0.4084072709083557,
        -1.1648496389389038,
        -0.11771957576274872,
        -1.2035915851593018,
        0.5567818284034729,
        0.2793302834033966,
        -0.15592922270298004,
        -0.09187500923871994,
        1.615540623664856,
        0.43583738803863525,
        0.4619288444519043,
        0.007449733093380928,
        0.010448013432323933,
        -0.3584881126880646,
        0.11368447542190552,
        0.25342923402786255,
        0.21373669803142548,
        -0.2500170171260834,
        0.5772498846054077,
        0.2438051700592041,
        2.1966702938079834,
        0.386436402797699,
        0.01983770728111267,
        0.17244142293930054,
        -0.1978422999382019,
        0.8042411804199219,
        0.9699045419692993,
        -0.758421778678894,
        0.22080771625041962,
        0.06044289097189903,
        0.27004435658454895,
        0.53355473279953,
        0.6865938901901245,
        -0.02563459612429142,
        0.8615061640739441,
        0.45797935128211975,
        -1.324645757675171,
        0.4246789216995239,
        0.019124826416373253,
        -0.24402469396591187,
        -2.502305269241333,
        0.6413195729255676,
        0.4112459421157837,
        -0.8347763419151306,
        0.03808676078915596,
        -0.18340104818344116,
        0.18933936953544617,
        0.09462203085422516,
        0.4974316954612732,
        -0.09933962672948837,
        -2.3561272621154785,
        0.14416196942329407,
        -1.0261719226837158,
        0.3160684406757355,
        -0.4799286127090454,
        -0.6220411062240601,
        0.24850226938724518,
        0.2788792550563812,
        -0.02514425478875637,
        0.20383624732494354,
        -2.0810701847076416,
        -0.21907833218574524,
        -1.4813729524612427,
        -3.6937901973724365,
        0.0478619746863842,
        -0.3367493450641632,
        -0.001403664704412222,
        -1.2268491983413696,
        0.4301297068595886,
        0.17981261014938354,
        -0.16429293155670166
      ]
    },
    {
      "shape": [
        16
      ],
      "data": [
        0.3825065791606903,
        0.1575922667980194,
        0.5097582936286926,
        0.5128615498542786,
        1.1046351194381714,
        0.32154929637908936,
        0.6000975966453552,
        0.36243975162506104,
        0.4715557098388672,
        0.4941288232803345,
        0.34513649344444275,
        0.4384540915489197,
        0.3501516580581665,
        0.23922200500965118,
        0.5077989101409912,
        0.40801864862442017
      ]
    },
    {
      "shape": [
        16,
        2
      ],
      "data": [
        0.25716111063957214,
        -1.3300449848175049,
        2.301539421081543,
        -1.342666506767273,
        0.33440861105918884,
        0.9392402172088623,
        0.2891049087047577,
        0.9506443738937378,
        1.020399808883667,
        2.6096808910369873,
        0.744610607624054,
        -1.4173362255096436,
        0.6990460157394409,
        2.1982998847961426,
        1.1804335117340088,
        -1.2668745517730713,
        0.6489335298538208,
        -0.9141401052474976,
        0.29031693935394287,
        0.955610990524292,
        0.09650617837905884,
        -1.3662294149398804,
        1.6619020700454712,
        -1.2210346460342407,
        1.3644272089004517,
        -1.0867435932159424,
        1.4532790184020996,
        -0.8328243494033813,
        0.3214038610458374,
        0.9894570708274841,
        0.34291940927505493,
        -2.2287065982818604
      ]
    },
    {
      "shape": [
        2
      ],
      "data": [
        5.391002178192139,
        2.185396194458008
      ]
    }
  ]
}