{
  "type": "exit_agent",
  "timestamp": "2026-02-02T10:33:32.659Z",
  "episode": 20,
  "config": {
    "dataFile": "data/BTCUSDT_1h.json",
    "recentMonths": 6,
    "entry": {
      "fastEMA": 9,
      "slowEMA": 21,
      "rsiPeriod": 14,
      "rsiLongThreshold": 60,
      "rsiShortThreshold": 40,
      "minBarsBetweenTrades": 2
    },
    "agent": {
      "actions": 2,
      "hiddenLayers": [
        32,
        16
      ],
      "learningRate": 0.001,
      "gamma": 0.95,
      "epsilonStart": 1,
      "epsilonEnd": 0.05,
      "epsilonDecay": 0.995,
      "batchSize": 32,
      "memorySize": 10000,
      "targetUpdateFreq": 100,
      "dropout": 0.1,
      "l2Regularization": 0.001
    },
    "training": {
      "episodes": 150,
      "maxStepsPerEpisode": 500,
      "validationFreq": 20,
      "earlyStoppingPatience": 40
    },
    "position": {
      "maxHoldBars": 48,
      "stopLossPct": 0.02,
      "takeProfitPct": 0.04
    },
    "featureReduction": "moderate"
  },
  "agentConfig": {
    "inputSize": 7,
    "hiddenLayers": [
      32,
      16
    ],
    "learningRate": 0.001,
    "gamma": 0.95,
    "epsilonStart": 1,
    "epsilonEnd": 0.05,
    "epsilonDecay": 0.995,
    "batchSize": 32,
    "memorySize": 10000,
    "targetUpdateFreq": 100,
    "dropout": 0.1,
    "l2Regularization": 0.001
  },
  "featureReducerModel": {
    "config": {
      "method": "pca",
      "targetDimensions": 50,
      "varianceThreshold": 0.95,
      "topKFeatures": 50,
      "correlationThreshold": 0.9,
      "warmupSamples": 1000
    },
    "pcaModel": {
      "mean": [
        -0.02,
        0.10416666666666663,
        0.014162817820612517,
        0,
        0,
        -0.027983462784200084,
        0.0425960365427483,
        0.09669924633997397,
        0.6954163047934568,
        0.2198310284522556,
        0.011280853983746807,
        0.02009969484423444,
        0.382362323758757,
        -0.03667927575589454,
        0.9706327585203458,
        0.9916560382048271,
        0,
        0.10416666666666663,
        0.06461258082948176
      ],
      "components": [
        [
          0.04985489534348745,
          -1.07754759052427e-33,
          0.009004665006377295,
          0,
          0,
          0.16802702747393036,
          0.2930519528998527,
          0.3965085938112407,
          0.014998996898393933,
          0.8286343747627363,
          0.1023703309757381,
          0.16760272125405276,
          0.0009704624474146394,
          -0.008937785198402508,
          0.011621321397239221,
          -0.004713050091755907,
          0,
          -1.07754759052427e-33,
          0.020819794813311764
        ],
        [
          0.9760681897399269,
          1.7651267825890885e-33,
          0.02297639006897163,
          0,
          0,
          -0.00014391886649001194,
          -0.0804473266807756,
          0.00833851181636572,
          -0.0049367958502233855,
          -0.030290885829141075,
          -0.04725906470030412,
          -0.011904554061621109,
          0.018123068883457303,
          -0.001293718462769458,
          -0.009774223434755803,
          -0.008328706525300643,
          0,
          1.7651267825890885e-33,
          0.19081294810494004
        ],
        [
          -0.18868889466470515,
          -1.2258944943105582e-34,
          0.09873417484195737,
          0,
          0,
          0.03539869831836396,
          0.04996203927126053,
          -0.027543866687327848,
          0.031949989492794165,
          0.009838303364433636,
          -0.054116583907706815,
          -0.14811133800780327,
          0.050894287391053616,
          0.013741413896505078,
          0.05631649109091239,
          -0.012111637249302112,
          0,
          -1.2258944943105582e-34,
          0.9581543012130516
        ],
        [
          0.05557775574733442,
          1.2210179790745245e-33,
          0.00397585162809428,
          0,
          0,
          0.4592491980494186,
          0.6554622381685271,
          -0.023241015913035477,
          -0.046280724602210374,
          -0.18376889165165772,
          -0.22657759582069545,
          -0.4956889009923762,
          -0.037767943486306965,
          0.06674839806660188,
          -0.03975850466169043,
          -0.013852845666476854,
          0,
          1.2210179790745245e-33,
          -0.12329792596060232
        ],
        [
          0.031007025818576773,
          1.1366415596685941e-33,
          0.0027899491171928556,
          0,
          0,
          0.3722947270409836,
          0.31693040785163074,
          -0.2129851744893723,
          0.017456269458958472,
          -0.27696647206758385,
          0.44487486647149027,
          0.648171880895943,
          -0.08737671606898194,
          -0.03371892064590626,
          0.02120935507636684,
          0.0116506161643955,
          0,
          1.1366415596685941e-33,
          0.10102988202770155
        ],
        [
          0.017075892951905272,
          -2.9677564331004375e-32,
          0.03435343504688067,
          0,
          0,
          -0.1818657925812483,
          0.11764782123077719,
          -0.04108887135830727,
          0.07093009575091576,
          0.0009361016836682592,
          0.031321310014016536,
          0.07476286196410899,
          0.14119135940779431,
          0.936676425418221,
          0.20127804189240156,
          -0.0005388593380863131,
          0,
          -2.9677564331004375e-32,
          -0.022593195802345072
        ],
        [
          -0.012891111947685087,
          4.1197012933591756e-32,
          -0.016856882941462745,
          0,
          0,
          0.41263518066974414,
          -0.2452859574290037,
          -0.27714203586069264,
          0.296812372215006,
          0.14193823539074418,
          0.02729191627455047,
          -0.06048881302459069,
          0.753870549844546,
          -0.0156426220791008,
          -0.08196406579775932,
          0.01095673202120569,
          0,
          4.1197012933591756e-32,
          -0.06524964124893545
        ]
      ],
      "explainedVariance": [
        0.5449619812873191,
        0.18836169711410702,
        0.0955167607095032,
        0.058809574596687446,
        0.03864387819152665,
        0.0185197830552888,
        0.016354145130215346
      ],
      "nComponents": 7
    },
    "selectedFeatureIndices": null
  },
  "validation": {
    "trades": 39,
    "winRate": 0.28205128205128205,
    "avgPnL": -7.933350220802746e-10,
    "totalPnL": -3.094006586113071e-8,
    "sharpe": -0.15108255579361016,
    "agentExits": 39,
    "stopLosses": 0,
    "takeProfits": 0,
    "maxHolds": 0,
    "avgBarsHeld": 1
  },
  "weights": [
    {
      "shape": [
        7,
        32
      ],
      "data": [
        0.27799659967422485,
        -0.23225633800029755,
        0.13810068368911743,
        0.13169176876544952,
        -0.14217114448547363,
        0.039719581604003906,
        -0.00600152462720871,
        -0.09757811576128006,
        -0.0522172711789608,
        0.04880461469292641,
        -0.239650160074234,
        -0.03751668334007263,
        0.15999366343021393,
        0.1679440140724182,
        -0.1859549731016159,
        0.08499538898468018,
        -0.03743356466293335,
        0.0013261641142889857,
        0.28525644540786743,
        -0.10901796817779541,
        -0.13706670701503754,
        -0.11088672280311584,
        -0.27783825993537903,
        -0.2483227401971817,
        -0.12453846633434296,
        -0.36538803577423096,
        0.0436331070959568,
        -0.0011844943510368466,
        -0.14421014487743378,
        -0.2531306743621826,
        -0.30974602699279785,
        0.12573982775211334,
        0.31669238209724426,
        0.0948621928691864,
        -0.29889586567878723,
        0.2953164875507355,
        -0.256870299577713,
        -0.12915584444999695,
        0.17875762283802032,
        0.09773463755846024,
        0.33946365118026733,
        0.017339948564767838,
        -0.14256566762924194,
        -0.13477493822574615,
        -0.37604230642318726,
        0.39107826352119446,
        0.04820292443037033,
        0.22101114690303802,
        0.13279244303703308,
        -0.07052798569202423,
        0.40305665135383606,
        -0.24250341951847076,
        -0.298603355884552,
        0.3822994828224182,
        0.0738246813416481,
        0.09349944442510605,
        -0.007861177437007427,
        -0.3940361738204956,
        -0.24067214131355286,
        0.3374883532524109,
        0.18722286820411682,
        -0.1370581090450287,
        -0.4579465687274933,
        0.344312459230423,
        -0.19281722605228424,
        0.1791144162416458,
        -0.16265550255775452,
        -0.2771661579608917,
        0.09195775538682938,
        0.12977135181427002,
        0.2782161831855774,
        -0.15318167209625244,
        -0.09216129779815674,
        0.0619218610227108,
        -0.11757037043571472,
        0.164219930768013,
        0.12393108755350113,
        0.07117109000682831,
        -0.22003582119941711,
        0.19737723469734192,
        0.10828547924757004,
        0.22177079319953918,
        -0.04857582598924637,
        -0.12155519425868988,
        -0.27403524518013,
        0.09651686251163483,
        -0.07434365153312683,
        -0.17033986747264862,
        0.13329796493053436,
        -0.25728535652160645,
        0.1993875950574875,
        0.17653368413448334,
        -0.21475696563720703,
        0.1363402158021927,
        0.25782954692840576,
        -0.14566968381404877,
        0.05605747550725937,
        -0.17370423674583435,
        -0.27130061388015747,
        -0.15729321539402008,
        0.07986219227313995,
        -0.22824783623218536,
        -0.20013946294784546,
        0.01698765531182289,
        -0.07855390757322311,
        -0.31209927797317505,
        -0.29895004630088806,
        0.4700388014316559,
        -0.15732711553573608,
        -0.2636275887489319,
        -0.28333356976509094,
        0.01255030557513237,
        0.01130968052893877,
        0.007232841569930315,
        0.21179494261741638,
        0.3030487596988678,
        -0.2703438401222229,
        0.27838245034217834,
        -0.1437041461467743,
        -0.1995965987443924,
        -0.23848767578601837,
        0.28196707367897034,
        -0.04433109611272812,
        0.31747835874557495,
        0.19714966416358948,
        0.10980118811130524,
        -0.10641349852085114,
        0.1941656619310379,
        0.3409419059753418,
        -0.0007911624852567911,
        0.05332942306995392,
        0.4396774172782898,
        -0.30094289779663086,
        0.006380156613886356,
        0.16838349401950836,
        0.2445007711648941,
        0.18276356160640717,
        -0.2047605961561203,
        -0.14545030891895294,
        0.1363966166973114,
        0.32264307141304016,
        -0.13568554818630219,
        0.20109106600284576,
        -0.33889830112457275,
        -0.01467821467667818,
        0.3815820813179016,
        -0.26374685764312744,
        -0.220767542719841,
        0.1901722103357315,
        -0.20507889986038208,
        0.33505576848983765,
        0.35328590869903564,
        0.16237328946590424,
        -0.11891112476587296,
        0.055091459304094315,
        0.04979591816663742,
        0.12127109616994858,
        0.04360376298427582,
        0.29995089769363403,
        -0.026662476360797882,
        -0.28171756863594055,
        -0.25050485134124756,
        -0.07283543795347214,
        -0.25710827112197876,
        -0.3519388735294342,
        0.17620106041431427,
        -0.4920487701892853,
        -0.09939896315336227,
        -0.13076120615005493,
        0.22847877442836761,
        -0.274074912071228,
        -0.02954244241118431,
        -0.19224819540977478,
        0.33596113324165344,
        -0.32654958963394165,
        0.29035234451293945,
        -0.3597874641418457,
        -0.22392959892749786,
        -0.06359441578388214,
        -0.14243607223033905,
        -0.03261565417051315,
        0.28640106320381165,
        0.06861072033643723,
        -0.17496633529663086,
        0.402072548866272,
        0.07426003366708755,
        0.2380862683057785,
        -0.15392306447029114,
        0.36396539211273193,
        -0.062133487313985825,
        0.14499874413013458,
        -0.149545818567276,
        0.3704860210418701,
        0.13993196189403534,
        0.3073325753211975,
        -0.08938393741846085,
        -0.2735879123210907,
        -0.11820034682750702,
        0.13681134581565857,
        -0.3980867266654968,
        0.20250093936920166,
        0.23462040722370148,
        0.03465196117758751,
        0.281588613986969,
        0.12082453817129135,
        -0.020794961601495743,
        -0.2736641466617584,
        -0.03513791784644127,
        0.1840069591999054,
        -0.2677016854286194,
        0.30191078782081604,
        0.192262664437294,
        -0.2895348072052002,
        -0.36436694860458374,
        0.05149903893470764,
        -0.05179856717586517,
        -0.3097444474697113,
        -0.5081195831298828,
        0.3554856777191162,
        -0.0812947005033493,
        -0.1915021687746048,
        0.18553291261196136,
        -0.366822212934494,
        -0.1910257786512375
      ]
    },
    {
      "shape": [
        32
      ],
      "data": [
        0.05446602404117584,
        0.19011874496936798,
        0.15028145909309387,
        0.07762499153614044,
        0.20606987178325653,
        0.09723514318466187,
        -0.02005288377404213,
        0.041373711079359055,
        0.007482479326426983,
        0.114644356071949,
        0.13778313994407654,
        0.2228851467370987,
        0.10477421432733536,
        -0.015920298174023628,
        -0.06687585264444351,
        0.09976829588413239,
        0.1856096386909485,
        0.20245112478733063,
        0.00963260792195797,
        0.065006785094738,
        0.1699725091457367,
        0.07118285447359085,
        0.173899844288826,
        0.24091826379299164,
        0.09537910670042038,
        0.10043702274560928,
        0.04623190313577652,
        0.041527144610881805,
        0.07494993507862091,
        0.1319572478532791,
        0.08765765279531479,
        0.010149983689188957
      ]
    },
    {
      "shape": [
        32,
        16
      ],
      "data": [
        0.14427515864372253,
        -0.4801657497882843,
        0.11110410839319229,
        0.014744993299245834,
        0.07046113163232803,
        0.22982840240001678,
        -0.15208086371421814,
        -0.05873388424515724,
        0.16475890576839447,
        0.14557498693466187,
        0.1256064772605896,
        0.016724510118365288,
        0.14817136526107788,
        -0.2646885812282562,
        0.1366012990474701,
        0.24656572937965393,
        -0.3685527443885803,
        -0.15932488441467285,
        -0.00898823607712984,
        0.2522953152656555,
        -0.06832310557365417,
        0.05208173394203186,
        0.2621931731700897,
        0.09147699922323227,
        0.21157976984977722,
        -0.054071903228759766,
        -0.1634049117565155,
        -0.1428038328886032,
        0.2253594696521759,
        0.14487920701503754,
        0.4216994643211365,
        -0.11536884307861328,
        0.13895612955093384,
        0.06472551822662354,
        0.163528174161911,
        0.09009183198213577,
        -0.15680952370166779,
        -0.14801166951656342,
        -0.066576287150383,
        0.30600705742836,
        0.2542189359664917,
        0.35054686665534973,
        -0.23262792825698853,
        0.20897580683231354,
        0.20273549854755402,
        0.08450790494680405,
        -0.05027325078845024,
        -0.031239671632647514,
        -0.04090540483593941,
        0.13373275101184845,
        -0.11103162169456482,
        0.03906475752592087,
        -0.26470863819122314,
        0.08400648832321167,
        0.1382303237915039,
        0.08821265399456024,
        0.09105885028839111,
        0.19099195301532745,
        -0.2362280935049057,
        0.0370829701423645,
        -0.39702481031417847,
        -0.32853764295578003,
        0.1390640288591385,
        0.19330549240112305,
        -0.20660822093486786,
        -0.20278573036193848,
        -0.15316087007522583,
        -0.25284263491630554,
        0.11922533065080643,
        0.310898095369339,
        -0.13905803859233856,
        0.09076488018035889,
        0.22340315580368042,
        0.2717548906803131,
        -0.025859244167804718,
        0.1560361534357071,
        -0.3685404062271118,
        -0.05745888873934746,
        -0.16888172924518585,
        0.18842987716197968,
        0.19323156774044037,
        0.19854705035686493,
        -0.20343534648418427,
        0.2308855503797531,
        0.10450108349323273,
        0.16148775815963745,
        -0.3077724277973175,
        -0.21709154546260834,
        0.11689799278974533,
        0.21777456998825073,
        0.24000084400177002,
        0.24468263983726501,
        0.19113482534885406,
        -0.1867092251777649,
        0.25766026973724365,
        -0.06307295709848404,
        -0.23668617010116577,
        0.26040107011795044,
        0.4016067087650299,
        -0.14711911976337433,
        -0.059925030916929245,
        -0.062229085713624954,
        0.20122338831424713,
        -0.05402115359902382,
        0.0702560693025589,
        0.14598937332630157,
        0.3160356283187866,
        -0.15672437846660614,
        -0.23913303017616272,
        -0.19731810688972473,
        -0.29180848598480225,
        -0.24038495123386383,
        -0.21707291901111603,
        -0.14879746735095978,
        -0.023098887875676155,
        -0.19584296643733978,
        -0.03430474177002907,
        -0.13903681933879852,
        -0.015874475240707397,
        0.3018212616443634,
        0.27009978890419006,
        -0.10151161998510361,
        0.261381596326828,
        0.09160171449184418,
        0.11112524569034576,
        0.11495404690504074,
        0.12252464145421982,
        0.3633793294429779,
        0.27959758043289185,
        -0.13478496670722961,
        0.16668033599853516,
        0.1091650202870369,
        0.3270823061466217,
        -0.1805284470319748,
        -0.17796684801578522,
        0.033532798290252686,
        0.28340235352516174,
        0.3037736415863037,
        0.22776944935321808,
        -0.09922459721565247,
        0.2166503369808197,
        0.02816278301179409,
        0.24841484427452087,
        -0.09629976749420166,
        -0.2635139226913452,
        0.26945918798446655,
        -0.04132651910185814,
        -0.05624954774975777,
        -0.11588427424430847,
        -0.0562383309006691,
        0.35360807180404663,
        -0.1765003651380539,
        -0.028628896921873093,
        0.3045828938484192,
        0.10208369046449661,
        -0.15267904102802277,
        -0.24508070945739746,
        -0.3084057867527008,
        0.12116191536188126,
        0.33342230319976807,
        -0.2800567150115967,
        0.04109903424978256,
        -0.21641905605793,
        -0.06976756453514099,
        0.24560871720314026,
        -0.012342405505478382,
        0.19692441821098328,
        -0.016949301585555077,
        0.27097392082214355,
        -0.03564987704157829,
        0.1193796694278717,
        -0.12174500524997711,
        -0.08462237566709518,
        -0.10814560204744339,
        0.19834347069263458,
        0.10947590321302414,
        -0.3162628412246704,
        -0.018037952482700348,
        -0.20644554495811462,
        0.14768511056900024,
        0.3073299527168274,
        -0.05345451831817627,
        0.2706936001777649,
        -0.12678112089633942,
        0.10460644215345383,
        0.05228321999311447,
        0.21691812574863434,
        -0.08657041192054749,
        -0.28537389636039734,
        -0.3855527639389038,
        0.3150714337825775,
        0.17182102799415588,
        0.06529345363378525,
        0.24349656701087952,
        0.37809303402900696,
        0.05411358177661896,
        0.2851966321468353,
        -0.051860179752111435,
        0.2797389328479767,
        -0.05029577389359474,
        -0.2568539083003998,
        0.2416079342365265,
        -0.017278240993618965,
        -0.15869960188865662,
        0.007142315618693829,
        -0.18396902084350586,
        -0.1293080747127533,
        -0.16793887317180634,
        -0.3578554093837738,
        -0.13053849339485168,
        0.2620706260204315,
        -0.24345290660858154,
        0.06554149091243744,
        -0.2710644602775574,
        0.09874825924634933,
        0.27651292085647583,
        0.017092052847146988,
        0.10911229252815247,
        0.28776881098747253,
        0.15618593990802765,
        -0.026919405907392502,
        -0.12725412845611572,
        0.25482502579689026,
        -0.1530063897371292,
        -0.3742949664592743,
        0.021023528650403023,
        0.1831168234348297,
        -0.13695986568927765,
        -0.10962413251399994,
        0.18289506435394287,
        -0.06341894716024399,
        -0.1361113339662552,
        0.02021428756415844,
        0.10943909734487534,
        -0.1135353296995163,
        0.23838017880916595,
        -0.05858410894870758,
        -0.03243834152817726,
        -0.2678576111793518,
        -0.0237845741212368,
        0.2347295880317688,
        0.3843189477920532,
        0.363909512758255,
        -0.12348898500204086,
        0.2046266347169876,
        -0.08420730382204056,
        -0.12876807153224945,
        -0.21497943997383118,
        -0.21668995916843414,
        -0.03048676811158657,
        -0.0025885954964905977,
        0.3026989698410034,
        -0.1874084621667862,
        -0.18282672762870789,
        0.07022486627101898,
        0.2634211480617523,
        0.10566268116235733,
        -0.11362634599208832,
        0.19945479929447174,
        0.21647633612155914,
        -0.15465667843818665,
        -0.2275511473417282,
        0.04650997370481491,
        0.3120627701282501,
        0.04345360025763512,
        0.05070241168141365,
        0.1249476820230484,
        0.08179693669080734,
        -0.2926959693431854,
        -0.1802804172039032,
        -0.1022147610783577,
        0.08423669636249542,
        -0.4211443364620209,
        0.13418127596378326,
        0.13813647627830505,
        0.1165786162018776,
        0.21472494304180145,
        0.22403526306152344,
        -0.1156805232167244,
        -0.1376238316297531,
        0.006690979469567537,
        -0.22718971967697144,
        0.09832721948623657,
        -0.2851148247718811,
        -0.24550335109233856,
        0.04528679698705673,
        0.18659564852714539,
        0.27773550152778625,
        -0.003894090186804533,
        0.23746855556964874,
        0.23802019655704498,
        0.32629966735839844,
        0.27184543013572693,
        -0.3901400566101074,
        0.07145492732524872,
        -0.023013973608613014,
        0.18438474833965302,
        -0.08345232903957367,
        0.16953107714653015,
        -0.14770598709583282,
        -0.181648388504982,
        -0.011027746833860874,
        0.19518806040287018,
        0.17424896359443665,
        -0.25624147057533264,
        0.43925240635871887,
        -0.26644229888916016,
        0.25470298528671265,
        0.12994536757469177,
        0.07663363963365555,
        -0.08403287827968597,
        0.03486603498458862,
        0.13971948623657227,
        -0.043067947030067444,
        0.11550670117139816,
        0.37624016404151917,
        0.0832812562584877,
        -0.3902704417705536,
        -0.17827770113945007,
        -0.1903148740530014,
        -0.018400125205516815,
        0.023829380050301552,
        -0.2377299964427948,
        0.26966336369514465,
        -0.06088466942310333,
        -0.09603752940893173,
        0.021475551649928093,
        0.036719128489494324,
        0.06620568782091141,
        0.026081811636686325,
        0.21888524293899536,
        0.2314576804637909,
        -0.36336860060691833,
        0.2516847550868988,
        0.3540513813495636,
        -0.083437480032444,
        -0.1926266849040985,
        -0.33329328894615173,
        -0.22030054032802582,
        0.03556970879435539,
        0.3636905550956726,
        0.15083074569702148,
        0.27570897340774536,
        -0.06956436485052109,
        0.1387781947851181,
        0.40440183877944946,
        0.1529563069343567,
        0.11780214309692383,
        -0.10606598109006882,
        -0.3158179223537445,
        -0.0031203851103782654,
        -0.2600816786289215,
        -0.23269277811050415,
        0.13032567501068115,
        0.3161940574645996,
        0.19797086715698242,
        -0.07694574445486069,
        -0.049591172486543655,
        -0.0665072575211525,
        0.3220953345298767,
        0.06400761008262634,
        -0.23356688022613525,
        0.05242360755801201,
        -0.07224421948194504,
        0.031571052968502045,
        -0.36325663328170776,
        -0.062115978449583054,
        0.19811417162418365,
        0.1612417846918106,
        0.11111804097890854,
        -0.080283522605896,
        0.2194458395242691,
        -0.11837539821863174,
        0.02147308737039566,
        0.0759119763970375,
        -0.09606359153985977,
        0.0018368471646681428,
        -0.14190275967121124,
        -0.021541740745306015,
        0.2557654082775116,
        0.2034490704536438,
        -0.23637542128562927,
        0.09807941317558289,
        0.3875293731689453,
        0.1094261109828949,
        0.120146743953228,
        0.43932926654815674,
        -0.017567697912454605,
        -0.09609933942556381,
        -0.17038224637508392,
        0.1493377536535263,
        -0.12595953047275543,
        0.1881874054670334,
        0.11121664941310883,
        -0.203698068857193,
        0.2564362585544586,
        -0.3341137766838074,
        -0.1605491042137146,
        0.44280916452407837,
        -0.21657931804656982,
        -0.1008540615439415,
        -0.1110452264547348,
        -0.09947735071182251,
        0.08951215445995331,
        0.1808692216873169,
        0.35950613021850586,
        0.4301507771015167,
        -0.08023332804441452,
        -0.21356262266635895,
        0.28329285979270935,
        0.30910083651542664,
        -0.21159625053405762,
        0.25361278653144836,
        -0.08674808591604233,
        0.042638130486011505,
        0.10096148401498795,
        -0.3759802281856537,
        0.3226190507411957,
        -0.27065977454185486,
        0.1721353679895401,
        -0.09682399779558182,
        -0.23622643947601318,
        -0.09716954082250595,
        0.28989559412002563,
        -0.08107241988182068,
        -0.22618387639522552,
        0.2570101022720337,
        0.26223358511924744,
        -0.07047837972640991,
        0.14005711674690247,
        0.056570250540971756,
        0.2789352238178253,
        -0.3340173661708832,
        0.5018768310546875,
        -0.22513923048973083,
        0.36703652143478394,
        0.17138050496578217,
        -0.2144283652305603,
        -0.06560642272233963,
        -0.0909065380692482,
        0.09325386583805084,
        0.21423889696598053,
        -0.009686818346381187,
        0.10366704314947128,
        0.20190660655498505,
        -0.06967385858297348,
        -0.2536216676235199,
        0.18352346122264862,
        0.12596431374549866,
        -0.1499575674533844,
        0.04209389537572861,
        -0.29466578364372253,
        -0.09944894164800644,
        0.3141804039478302,
        0.3451298475265503,
        0.17076672613620758,
        -0.007250357884913683,
        0.2685108482837677,
        -0.1979920119047165,
        -0.06579248607158661,
        -0.36628928780555725,
        -0.3598593771457672,
        0.17844298481941223,
        0.3319675922393799,
        -0.23792797327041626,
        -0.22081954777240753,
        0.20554320514202118,
        0.06036989390850067,
        0.148165762424469,
        0.09777217358350754,
        0.11338112503290176,
        -0.21494296193122864,
        -0.12975531816482544,
        0.3460047245025635,
        -0.2436017096042633,
        0.22411853075027466,
        -0.2600627541542053,
        0.24936716258525848,
        0.20724789798259735,
        -0.11330351233482361,
        0.137724831700325,
        -0.24173787236213684,
        -0.006976515520364046,
        0.13171009719371796,
        0.10342004150152206,
        -0.2376439869403839,
        -0.027308223769068718,
        0.11226344853639603,
        0.28724968433380127,
        0.24627123773097992,
        0.1589973270893097,
        -0.048439014703035355,
        -0.2752986550331116,
        -0.047299765050411224,
        -0.06185752898454666,
        0.21103420853614807,
        0.21531090140342712,
        0.04165846109390259,
        -0.3263947069644928,
        0.29391545057296753,
        -0.19704020023345947,
        0.16054169833660126,
        0.24217885732650757,
        0.2480296492576599,
        0.037489280104637146,
        0.1941685974597931,
        -0.014090298675000668,
        0.08313477784395218,
        0.21882008016109467,
        -0.3765900731086731,
        0.261369526386261,
        -0.26385176181793213
      ]
    },
    {
      "shape": [
        16
      ],
      "data": [
        -0.13940148055553436,
        0.6923999786376953,
        0.5639662146568298,
        0.262251615524292,
        0.3388007581233978,
        0.4521681070327759,
        0.42214128375053406,
        0.42179009318351746,
        0.20805758237838745,
        0.43275323510169983,
        0.4868856966495514,
        0.40654173493385315,
        -0.08721022307872772,
        -0.07334799319505692,
        0.33283674716949463,
        0.2908329665660858
      ]
    },
    {
      "shape": [
        16,
        2
      ],
      "data": [
        -0.48708632588386536,
        -0.16367217898368835,
        0.2927008271217346,
        0.37662819027900696,
        0.4160282015800476,
        0.46105247735977173,
        0.3168478310108185,
        0.4143722951412201,
        0.1745762676000595,
        0.4962906241416931,
        0.6931276917457581,
        0.5914232730865479,
        0.24181824922561646,
        0.34726274013519287,
        0.3921113610267639,
        0.591202437877655,
        0.3320033550262451,
        0.20285913348197937,
        0.22388608753681183,
        0.3395256996154785,
        0.3281071186065674,
        0.3716702163219452,
        0.3249126970767975,
        0.5933554172515869,
        0.2390890121459961,
        -0.4527883529663086,
        -0.3208930492401123,
        -0.04754330590367317,
        0.20130696892738342,
        0.37440067529678345,
        0.24970394372940063,
        0.4108283817768097
      ]
    },
    {
      "shape": [
        2
      ],
      "data": [
        0.8892678022384644,
        0.5996177196502686
      ]
    }
  ]
}