{
  "timestamp": "2026-02-03T03:07:55.469Z",
  "episode": 40,
  "numAgents": 3,
  "valSharpe": 25.461711087306355,
  "valPnL": 32.00709479848129,
  "valWinRate": 55.55555555555556,
  "valTrades": 9,
  "avgRiskReward": 1.7096967379892556,
  "strategyUsage": [
    "0",
    "14",
    "83",
    "1",
    "2"
  ],
  "config": {
    "numAgents": 3,
    "votingMethod": "majority",
    "trainSplit": 0.8,
    "monthsOfData": 6,
    "episodes": 150,
    "episodeLength": 1000,
    "trainFrequency": 4,
    "batchSize": 64,
    "bufferSize": 30000,
    "dqn": {
      "inputSize": 42,
      "hiddenLayers": [
        128,
        64,
        32
      ],
      "outputSize": 5,
      "learningRate": 0.0008,
      "gamma": 0.95,
      "tau": 0.01,
      "epsilonStart": 1,
      "epsilonEnd": 0.25,
      "epsilonDecay": 0.996,
      "dropout": 0.15,
      "l2Regularization": 0.005,
      "useBatchNorm": true,
      "gradientClipNorm": 0.5,
      "useHuberLoss": true,
      "huberDelta": 1,
      "actionBias": true,
      "actionBiasDecay": 0.998
    },
    "env": {
      "initialCapital": 10000,
      "positionSizePercent": 0.1,
      "commission": 0.001,
      "slippage": 0.0005,
      "lookbackPeriod": 100,
      "maxBarsPerEpisode": null,
      "maxDrawdownLimit": 0.15,
      "maxBarsInPosition": 100,
      "kbConfig": {
        "enabled": true,
        "addKBFeatures": true,
        "useKBRewardShaping": true
      }
    },
    "walkForward": {
      "enabled": true,
      "trainWindow": 2500,
      "testWindow": 500,
      "stepSize": 700
    },
    "earlyStoppingPatience": 25,
    "minImprovement": 0.02,
    "logInterval": 10,
    "evalInterval": 20,
    "diagnosticsInterval": 50
  },
  "weights": [
    {
      "weights": [
        {
          "shape": [
            42,
            128
          ],
          "data": [
            -0.007520998828113079,
            0.00461641326546669,
            0.12996427714824677,
            0.33986279368400574,
            -0.021932190284132957,
            0.0009022983722388744,
            0.2409716099500656,
            0.016995878890156746,
            -0.1411682665348053,
            0.07792312651872635,
            -0.11991899460554123,
            -0.09320754557847977,
            -0.0440143346786499,
            0.045573022216558456,
            -0.013826003298163414,
            0.020377129316329956,
            0.15457800030708313,
            -0.14858770370483398,
            0.21901924908161163,
            -0.02197541669011116,
            0.19209599494934082,
            0.04868299514055252,
            0.02144654467701912,
            0.16857600212097168,
            0.011297953315079212,
            -0.12881474196910858,
            0.13976335525512695,
            -0.12402953207492828,
            -0.15556910634040833,
            -0.0901428759098053,
            -0.019890207797288895,
            -0.15915900468826294,
            -0.04759969562292099,
            0.09378614276647568,
            -0.035921335220336914,
            0.2016768455505371,
            -0.13431009650230408,
            0.003630286082625389,
            -0.4736647605895996,
            0.002424282021820545,
            -0.06621118634939194,
            -0.06376209110021591,
            -0.033269625157117844,
            0.09876575320959091,
            0.10943770408630371,
            -0.003356241388246417,
            0.15266673266887665,
            0.04468189552426338,
            -0.046504486352205276,
            0.09705974161624908,
            0.02149437926709652,
            -0.007055353373289108,
            -0.19086286425590515,
            0.1393192708492279,
            0.007314253598451614,
            -0.1271175742149353,
            -0.03680146485567093,
            0.0604880228638649,
            0.18144108355045319,
            0.13236989080905914,
            -0.029899029061198235,
            -0.028432317078113556,
            -0.016802722588181496,
            -0.023450259119272232,
            -0.2997010052204132,
            -0.07692238688468933,
            -0.08349283039569855,
            -0.039423368871212006,
            -0.11057642847299576,
            -0.1070186123251915,
            0.15835189819335938,
            -0.06796680390834808,
            -0.33664581179618835,
            0.23352815210819244,
            0.037780117243528366,
            -0.15063895285129547,
            -0.12131286412477493,
            0.055815234780311584,
            0.016400281339883804,
            0.30748093128204346,
            -0.07282891124486923,
            -0.09842349588871002,
            -0.12336207181215286,
            0.29702720046043396,
            -0.03242555633187294,
            0.08942063897848129,
            0.13016727566719055,
            -0.15375877916812897,
            0.15226539969444275,
            -0.04441410303115845,
            -0.020109940320253372,
            -0.1299392133951187,
            0.09690474718809128,
            0.07736171036958694,
            -0.12779894471168518,
            -0.10001610964536667,
            0.022852111607789993,
            -0.029968980699777603,
            -0.14217068254947662,
            0.24010737240314484,
            -0.027081184089183807,
            0.07839509099721909,
            -0.045132335275411606,
            -0.1314842402935028,
            0.16961722075939178,
            -0.01050521619617939,
            0.020486654713749886,
            -0.11661337316036224,
            -0.02039187029004097,
            0.1923641562461853,
            0.008539265021681786,
            -0.34833449125289917,
            -0.009882624261081219,
            0.07611437141895294,
            0.21724681556224823,
            0.03619275987148285,
            0.03801361471414566,
            0.05777888000011444,
            0.047329921275377274,
            0.12924319505691528,
            0.0695498138666153,
            0.18620532751083374,
            -0.05298929661512375,
            0.03182019665837288,
            0.03433600440621376,
            0.022777928039431572,
            0.05374451354146004,
            -0.1204756647348404,
            -0.029597831889986992,
            -0.06035013124346733,
            0.0013673220528289676,
            0.17794300615787506,
            -0.009807015769183636,
            0.169383242726326,
            -0.14858371019363403,
            0.009749731048941612,
            0.03178892284631729,
            0.04663340002298355,
            0.02762048877775669,
            0.10558754950761795,
            0.028126133605837822,
            -0.06512028723955154,
            0.012648350559175014,
            -0.22094054520130157,
            -0.29515838623046875,
            -0.04658278450369835,
            0.19058294594287872,
            0.0933656096458435,
            -0.04603804647922516,
            -0.08584939688444138,
            -0.028560981154441833,
            -0.039055559784173965,
            0.016646329313516617,
            0.1007625088095665,
            -0.30918094515800476,
            -0.06543442606925964,
            -0.019846638664603233,
            0.09776456654071808,
            -0.14432530105113983,
            0.0757557675242424,
            -0.037213172763586044,
            -0.03421293944120407,
            -0.20105674862861633,
            0.05781557783484459,
            -0.02282083034515381,
            -0.2806454598903656,
            -0.192033588886261,
            0.014794494956731796,
            -0.18569284677505493,
            -0.023963596671819687,
            0.1305486261844635,
            0.22903206944465637,
            -0.1645573228597641,
            -0.026249555870890617,
            -0.05554310232400894,
            -0.11515843123197556,
            -0.11229836940765381,
            -0.10928613692522049,
            -0.04815319925546646,
            0.0821579247713089,
            -0.35198771953582764,
            -0.297548770904541,
            -0.01763341575860977,
            0.08015916496515274,
            -0.13479916751384735,
            -0.009022376500070095,
            0.14426232874393463,
            -0.04227748513221741,
            -0.03765163943171501,
            -0.20963771641254425,
            0.029151789844036102,
            -0.1119210422039032,
            0.03726234287023544,
            -0.02247646450996399,
            -0.04155145585536957,
            -0.05572092905640602,
            -0.058691803365945816,
            0.15342654287815094,
            0.05811156705021858,
            0.10123658925294876,
            -0.2659148871898651,
            0.07174979895353317,
            -0.06907988339662552,
            0.180916428565979,
            0.16061703860759735,
            0.03116360679268837,
            -0.09076524525880814,
            0.21794608235359192,
            0.19817589223384857,
            -0.0010339064756408334,
            0.01190245058387518,
            0.07768187671899796,
            -0.11063828319311142,
            0.09572743624448776,
            0.06447170674800873,
            0.09603185951709747,
            0.12026551365852356,
            0.1400681585073471,
            -0.13400398194789886,
            0.2129582017660141,
            -0.04195472225546837,
            0.05086455121636391,
            0.26949167251586914,
            -0.03416142612695694,
            0.12231653928756714,
            0.10482582449913025,
            0.024834904819726944,
            -0.04532262682914734,
            -0.28027117252349854,
            -0.21841344237327576,
            -0.11971278488636017,
            0.03756619617342949,
            -0.09769134968519211,
            -0.07223235070705414,
            -0.18397507071495056,
            -0.07608616352081299,
            0.013971514068543911,
            -0.006323237903416157,
            0.04735628515481949,
            -0.08340603858232498,
            0.20061911642551422,
            -0.00780997471883893,
            0.19269002974033356,
            -0.12686018645763397,
            0.015446520410478115,
            0.03775278478860855,
            -0.18344108760356903,
            0.011205821298062801,
            0.030272264033555984,
            -0.03534514084458351,
            0.001084058196283877,
            0.008821596391499043,
            -0.01171797700226307,
            -0.3061441481113434,
            0.029328541830182076,
            0.09336244314908981,
            0.19745074212551117,
            -0.35015803575515747,
            0.05809812992811203,
            0.10533688217401505,
            0.025330929085612297,
            -0.1647043526172638,
            -0.04514674097299576,
            0.1326039582490921,
            -0.02103547379374504,
            -0.08367202430963516,
            -0.08165451884269714,
            -0.17695355415344238,
            -0.04235943406820297,
            -0.03212777525186539,
            -0.09120681136846542,
            0.007544681429862976,
            -0.07192009687423706,
            -0.16138955950737,
            0.372906357049942,
            0.027096036821603775,
            -0.03579049929976463,
            -0.11159849911928177,
            -0.2500346004962921,
            -0.16312822699546814,
            -0.1579006463289261,
            -0.037282802164554596,
            -0.44776254892349243,
            -0.3068227767944336,
            -0.2579215168952942,
            0.11139898747205734,
            -0.0943068191409111,
            -0.1004582941532135,
            0.008224754594266415,
            0.05096329376101494,
            0.022917279973626137,
            -0.25883564352989197,
            -0.04085996747016907,
            -0.2522948980331421,
            0.3161100149154663,
            0.126260444521904,
            0.022900188341736794,
            0.01382224541157484,
            0.04352743178606033,
            0.14826379716396332,
            -0.3469928205013275,
            0.06466881930828094,
            0.1253671795129776,
            -0.16650736331939697,
            -0.16066639125347137,
            -0.05957341939210892,
            -0.007748859468847513,
            -0.10610053688287735,
            -0.15195804834365845,
            -0.08057715743780136,
            0.037413615733385086,
            0.03521072864532471,
            -0.10572640597820282,
            -0.04398665577173233,
            -0.18512877821922302,
            0.05958228558301926,
            -0.134109228849411,
            -0.1411914825439453,
            0.03286287933588028,
            0.07945425063371658,
            -0.03599350526928902,
            -0.13155606389045715,
            -0.105203777551651,
            0.10375827550888062,
            -0.039891377091407776,
            -0.017852794378995895,
            -0.01734430529177189,
            -0.0560026690363884,
            -0.3358795940876007,
            -0.13618247210979462,
            0.11777446419000626,
            0.19555404782295227,
            0.24882912635803223,
            -0.054912667721509933,
            -0.23308490216732025,
            0.40605539083480835,
            -0.1981164813041687,
            -0.04361690953373909,
            -0.09931059181690216,
            0.055437419563531876,
            0.00796600803732872,
            0.016471950337290764,
            -0.19941258430480957,
            0.07749848812818527,
            -0.03446507081389427,
            -0.030405860394239426,
            0.1074957624077797,
            0.1337103247642517,
            -0.34398505091667175,
            -0.11598939448595047,
            0.38803207874298096,
            -0.04808644577860832,
            -0.06517263501882553,
            -0.007775627076625824,
            0.0045753056183457375,
            -0.15203216671943665,
            -0.19508972764015198,
            -0.0647289976477623,
            -0.07903164625167847,
            -0.07186821848154068,
            0.01673157513141632,
            0.03754858672618866,
            -0.04002982750535011,
            -0.01727394014596939,
            0.1281532645225525,
            -0.16271866858005524,
            0.03648597374558449,
            -0.0609777458012104,
            0.3212999403476715,
            0.16874483227729797,
            0.2587985098361969,
            0.10781912505626678,
            0.21928055584430695,
            0.08186324685811996,
            -0.3147963583469391,
            -0.02137446403503418,
            -0.16639845073223114,
            -0.05690035596489906,
            0.012725661508738995,
            -0.19744794070720673,
            -0.08999527245759964,
            0.13886848092079163,
            0.06354641169309616,
            -0.07859482616186142,
            0.14517179131507874,
            0.14892955124378204,
            -0.2364269196987152,
            0.19407884776592255,
            -0.1213800385594368,
            -0.08017303794622421,
            0.05127698928117752,
            0.08709987252950668,
            0.11737383902072906,
            0.28937864303588867,
            0.16247907280921936,
            -0.07695604860782623,
            -0.12966288626194,
            0.015234287828207016,
            0.10139080137014389,
            -0.18469876050949097,
            0.07758470624685287,
            0.08971785008907318,
            -0.21150077879428864,
            -0.0029882004018872976,
            0.020672157406806946,
            0.020307641476392746,
            -0.08201663196086884,
            -0.09885521978139877,
            -0.23433265089988708,
            0.05863311141729355,
            0.1595056802034378,
            0.07710899412631989,
            -0.32855552434921265,
            -0.2547054886817932,
            -0.2809935212135315,
            -0.25883638858795166,
            -0.010419017635285854,
            0.023997534066438675,
            0.2519192099571228,
            0.03781217336654663,
            0.024214647710323334,
            0.14859621226787567,
            -0.05835660547018051,
            0.0683123841881752,
            -0.03720549866557121,
            -0.1097821369767189,
            0.049962110817432404,
            -0.03577786684036255,
            -0.030363919213414192,
            -0.09179060161113739,
            0.11001890152692795,
            -0.16669879853725433,
            -0.009930725209414959,
            0.07092705368995667,
            -0.04429149627685547,
            0.14785797894001007,
            0.2656223475933075,
            0.008806339465081692,
            -0.06138838082551956,
            -0.05089569836854935,
            -0.06458880752325058,
            0.06987324357032776,
            0.03167995065450668,
            0.22692884504795074,
            -0.24187596142292023,
            -0.17122341692447662,
            -0.06882651895284653,
            0.14422015845775604,
            -0.08983317762613297,
            0.17916423082351685,
            0.2073928266763687,
            0.07453587651252747,
            0.01825137250125408,
            -0.17579060792922974,
            -0.04384486377239227,
            0.07467187941074371,
            0.21119849383831024,
            0.09232605993747711,
            0.12071890383958817,
            -0.23614419996738434,
            0.0024534002877771854,
            0.0812266394495964,
            -0.23446720838546753,
            -0.17689476907253265,
            -0.013794762082397938,
            -0.13270880281925201,
            -0.0028251924086362123,
            -0.35409876704216003,
            -0.2092723548412323,
            -0.1416279673576355,
            0.06290275603532791,
            -0.02938077040016651,
            -0.09225934743881226,
            -0.05567942187190056,
            -0.005388705525547266,
            -0.22108323872089386,
            -0.09926458448171616,
            0.010654150508344173,
            -0.20296531915664673,
            -0.23390386998653412,
            -0.043359171599149704,
            -0.09168720990419388,
            -0.14976933598518372,
            -0.214583158493042,
            0.11308038234710693,
            -0.11579596251249313,
            -0.24903488159179688,
            0.07510515302419662,
            -0.14608873426914215,
            -0.26874038577079773,
            0.1427106112241745,
            0.02318437770009041,
            0.009047350846230984,
            -0.07334792613983154,
            -0.023404117673635483,
            -0.10283210873603821,
            -0.20024101436138153,
            0.17377346754074097,
            -0.2266301065683365,
            0.23194067180156708,
            0.16831164062023163,
            -0.03794936463236809,
            0.2441672682762146,
            -0.1744360774755478,
            0.07702929526567459,
            -0.05620470270514488,
            -0.1749006062746048,
            0.16099679470062256,
            0.06041587516665459,
            -0.006095187272876501,
            0.11503775417804718,
            -0.05183323845267296,
            -0.07221768796443939,
            -0.09733948856592178,
            -0.0810985192656517,
            0.01192817185074091,
            -0.060202356427907944,
            0.1270669549703598,
            -0.10558105260133743,
            -0.16136354207992554,
            0.16311953961849213,
            -0.02997015230357647,
            0.2935003936290741,
            -0.052967995405197144,
            -0.014531333930790424,
            0.0640917420387268,
            0.11919257789850235,
            -0.1689392626285553,
            -0.03896653652191162,
            -0.09670194238424301,
            0.24158960580825806,
            -0.041980624198913574,
            0.0778578445315361,
            -0.1180715337395668,
            -0.14722825586795807,
            -0.16394264996051788,
            -0.033614080399274826,
            -0.17815139889717102,
            -0.25189563632011414,
            0.17247751355171204,
            0.04560193046927452,
            0.11133550852537155,
            -0.2371380627155304,
            -0.14348971843719482,
            0.1980077177286148,
            0.041300542652606964,
            0.07789099961519241,
            0.12790510058403015,
            0.0505543015897274,
            0.044039320200681686,
            0.08496905118227005,
            0.04239090159535408,
            0.11840087920427322,
            -0.02446206472814083,
            -0.10576845705509186,
            -0.0746782198548317,
            0.11819809675216675,
            -0.13131515681743622,
            0.0031783943995833397,
            -0.12611116468906403,
            -0.09859594702720642,
            -0.38597989082336426,
            0.0445597805082798,
            -0.07905876636505127,
            0.05939486250281334,
            0.07207348942756653,
            -0.11757829785346985,
            -0.14106039702892303,
            0.017129292711615562,
            0.04850640892982483,
            0.1267872452735901,
            0.11231633275747299,
            -0.29862016439437866,
            0.08847696334123611,
            -0.3132568895816803,
            0.04581503942608833,
            0.038282860070466995,
            0.14821618795394897,
            0.12796679139137268,
            -0.03287379816174507,
            0.16299672424793243,
            -0.21582508087158203,
            -0.04901183024048805,
            0.09000260382890701,
            0.01734977960586548,
            0.16723613440990448,
            -0.024238992482423782,
            0.04432561248540878,
            0.0443471260368824,
            -0.2055843472480774,
            -0.37722012400627136,
            0.33276471495628357,
            0.12314300984144211,
            0.17072218656539917,
            -0.08970358222723007,
            0.023486152291297913,
            -0.2945021688938141,
            -0.021116793155670166,
            0.050013139843940735,
            0.14512576162815094,
            -0.14448197185993195,
            -0.008409201167523861,
            -0.10522399097681046,
            -0.0752154290676117,
            -0.12460365146398544,
            -0.041093744337558746,
            -0.0008899507229216397,
            -0.17054414749145508,
            0.012288656085729599,
            -0.12837684154510498,
            -0.2687658369541168,
            -0.20821964740753174,
            -0.003991507459431887,
            0.0024515935219824314,
            -0.15284889936447144,
            -0.07984661310911179,
            -0.03608342260122299,
            -0.26402655243873596,
            0.012199275195598602,
            0.08209637552499771,
            0.10097553580999374,
            -0.03169773519039154,
            -0.13309355080127716,
            0.18120719492435455,
            0.1388629823923111,
            -0.0773404985666275,
            0.11563180387020111,
            -0.1395834982395172,
            -0.0556025356054306,
            0.11026433855295181,
            -0.13834911584854126,
            -0.07023464888334274,
            0.03869127109646797,
            -0.018689850345253944,
            -0.0917721763253212,
            0.11287866532802582,
            0.1460106372833252,
            -0.2507762908935547,
            -0.022601069882512093,
            -0.23013663291931152,
            -0.06942202150821686,
            -0.0050134239718317986,
            0.022110944613814354,
            0.14084026217460632,
            0.08274942636489868,
            0.05424688756465912,
            -0.12994273006916046,
            0.01656799018383026,
            0.07521821558475494,
            -0.021141832694411278,
            0.1187070682644844,
            -0.2110457718372345,
            0.04883117601275444,
            0.0727374479174614,
            -0.1001984179019928,
            -0.05225197225809097,
            0.03941015899181366,
            -0.12545393407344818,
            -0.14089074730873108,
            -0.0761779174208641,
            -0.018411342054605484,
            -0.029468687251210213,
            -0.024853944778442383,
            -0.08084327727556229,
            0.02625328302383423,
            -0.01664232462644577,
            0.11259353160858154,
            0.1437607705593109,
            -0.08508617430925369,
            -0.021578768268227577,
            -0.17082497477531433,
            -0.050888918340206146,
            -0.23261576890945435,
            -0.12302764505147934,
            0.06364172697067261,
            0.09703680127859116,
            -0.083832748234272,
            0.029585549607872963,
            0.05538035184144974,
            -0.06977678835391998,
            -0.03322597220540047,
            0.10915548354387283,
            0.06919285655021667,
            0.03982801362872124,
            0.12217868119478226,
            -0.05635304003953934,
            0.08747702836990356,
            -0.014581244438886642,
            0.08803362399339676,
            0.20994524657726288,
            -0.11649201065301895,
            -0.00285324570722878,
            0.0733967050909996,
            -0.19177912175655365,
            0.09675417095422745,
            -0.0533100962638855,
            -0.041847359389066696,
            -0.09787356108427048,
            0.21333275735378265,
            0.0713442862033844,
            -0.057288892567157745,
            0.012031088583171368,
            -0.2016022652387619,
            -0.07342550158500671,
            0.00830957479774952,
            0.12627682089805603,
            -0.06018587201833725,
            0.05079323798418045,
            -0.04239398613572121,
            0.027652086690068245,
            0.048898935317993164,
            0.07123998552560806,
            -0.04341274872422218,
            0.03088489919900894,
            -0.12100362777709961,
            0.12190621346235275,
            0.07205324620008469,
            -0.09003634005784988,
            -0.12552852928638458,
            -0.11980364471673965,
            -0.16443665325641632,
            -0.04817429184913635,
            -0.008184167556464672,
            0.09116197377443314,
            -0.24282602965831757,
            -0.01018222514539957,
            0.12168745696544647,
            0.03587422892451286,
            -0.017086852341890335,
            0.18719656765460968,
            -0.1182234138250351,
            -0.16516175866127014,
            0.008042323403060436,
            -0.12577950954437256,
            0.07211944460868835,
            -0.2515515685081482,
            0.059877339750528336,
            -0.16685029864311218,
            -0.17694209516048431,
            0.013833354227244854,
            0.03931533172726631,
            0.009175916202366352,
            -0.2806567847728729,
            0.0824054628610611,
            -0.20526640117168427,
            -0.01570521481335163,
            -0.049379799515008926,
            -0.022960742935538292,
            0.01712792180478573,
            -0.06559722125530243,
            -0.012333528138697147,
            0.025761039927601814,
            -0.13276566565036774,
            0.09282375127077103,
            0.18997980654239655,
            0.14318068325519562,
            -0.09509024024009705,
            0.03874604031443596,
            -0.1686241179704666,
            0.015924006700515747,
            0.1575600504875183,
            -0.01754465512931347,
            0.012178021483123302,
            -0.029408488422632217,
            -0.011920342221856117,
            0.03392285853624344,
            -0.12784743309020996,
            0.09989630430936813,
            0.1367652267217636,
            0.00862922240048647,
            -0.04415439814329147,
            0.21638834476470947,
            -0.14269982278347015,
            0.08482073247432709,
            -0.03036775067448616,
            0.06683419644832611,
            0.20987381041049957,
            0.07679437100887299,
            0.11555525660514832,
            -0.07275786250829697,
            0.2757466733455658,
            0.017517168074846268,
            -0.060146525502204895,
            -0.21832171082496643,
            0.21495495736598969,
            -0.20031236112117767,
            0.13640843331813812,
            0.16947807371616364,
            0.08541914820671082,
            -0.05089997127652168,
            -0.15973494946956635,
            0.03887471556663513,
            -0.04059244692325592,
            -0.053860485553741455,
            -0.08339714258909225,
            -0.32956597208976746,
            -0.011600959114730358,
            0.006040231790393591,
            0.04321751743555069,
            -0.08668091148138046,
            0.0207611583173275,
            -0.056410763412714005,
            0.2323652058839798,
            -0.2428332418203354,
            0.011044010519981384,
            0.09521520882844925,
            0.04236868768930435,
            0.0392996110022068,
            -0.03729128837585449,
            0.026834756135940552,
            0.07887830585241318,
            -0.0777432918548584,
            0.20656928420066833,
            -0.07280994951725006,
            -0.11837588250637054,
            0.10344626009464264,
            -0.11424000561237335,
            0.08768138289451599,
            0.03555527701973915,
            0.11263477057218552,
            0.022341834381222725,
            -0.1419595330953598,
            0.18808384239673615,
            -0.09238845854997635,
            0.16969789564609528,
            -0.046503156423568726,
            -0.07645600289106369,
            0.02605218067765236,
            0.1533174365758896,
            -0.014509458094835281,
            0.07382232695817947,
            0.23016470670700073,
            0.16522672772407532,
            0.15169930458068848,
            -0.19555070996284485,
            0.25024354457855225,
            0.05093159154057503,
            0.2178146243095398,
            0.020775290206074715,
            0.0996076688170433,
            0.24564127624034882,
            -0.14483913779258728,
            0.1683300882577896,
            -0.21024763584136963,
            -0.1903383731842041,
            0.07433120161294937,
            0.1524524688720703,
            0.15204262733459473,
            0.047288376837968826,
            0.15465499460697174,
            0.08157184720039368,
            -0.3357217013835907,
            -0.25257623195648193,
            0.06803572177886963,
            -0.28528866171836853,
            0.07928701490163803,
            -0.029186759144067764,
            0.12690111994743347,
            -0.04567927494645119,
            -0.17197467386722565,
            -0.08613545447587967,
            -0.01132003590464592,
            -0.29721224308013916,
            0.00010020271292887628,
            -0.19194349646568298,
            -0.13637998700141907,
            -0.03672874718904495,
            -0.01890121027827263,
            0.039210814982652664,
            0.09994123131036758,
            0.07150434702634811,
            -0.08955749124288559,
            -0.13256749510765076,
            -0.031739234924316406,
            0.060833368450403214,
            0.21563714742660522,
            0.22988568246364594,
            -0.116745226085186,
            0.03963075950741768,
            0.19683466851711273,
            0.2288094460964203,
            -0.00022563514357898384,
            0.03553766757249832,
            0.016257109120488167,
            -0.05727149546146393,
            -0.01855742372572422,
            0.13381005823612213,
            0.14801143109798431,
            0.08969540894031525,
            0.09636878967285156,
            0.11321261525154114,
            -0.13246524333953857,
            -0.2317722588777542,
            0.09780432283878326,
            0.09646612405776978,
            0.06972311437129974,
            -0.01030196063220501,
            0.2060825079679489,
            -0.19330058991909027,
            -0.02199169434607029,
            0.1651904582977295,
            -0.04790693521499634,
            -0.2259378433227539,
            -0.01187619473785162,
            -0.2597624957561493,
            0.11185786128044128,
            -0.030801506713032722,
            -0.014919174835085869,
            -0.17262421548366547,
            -0.13639581203460693,
            -0.004850504454225302,
            0.2954269051551819,
            -0.060632213950157166,
            -0.04635060206055641,
            -0.01807571016252041,
            0.1419358104467392,
            0.012562409974634647,
            0.10984212160110474,
            0.07584568858146667,
            -0.02246447280049324,
            0.021862398833036423,
            0.1589702069759369,
            -0.02511804737150669,
            0.08410803973674774,
            0.0788511335849762,
            0.20417386293411255,
            -0.10580221563577652,
            -0.19862602651119232,
            0.040837571024894714,
            0.21619293093681335,
            0.06004340946674347,
            -0.04079458862543106,
            -0.14599592983722687,
            0.0005123568698763847,
            -0.11533742398023605,
            0.20098666846752167,
            -0.07458508014678955,
            -0.10532539337873459,
            0.03435971215367317,
            0.056370705366134644,
            0.07961542904376984,
            0.24174799025058746,
            -0.12535661458969116,
            0.13458339869976044,
            0.13149628043174744,
            0.1259123831987381,
            -0.04111618176102638,
            -0.011248547583818436,
            -0.0694831982254982,
            -0.17901800572872162,
            -0.13455812633037567,
            -0.016147997230291367,
            -0.20324406027793884,
            -0.11296676844358444,
            0.010137252509593964,
            0.06206571310758591,
            0.05719683691859245,
            -0.018882492557168007,
            -0.10385411977767944,
            0.11312957108020782,
            -0.045786697417497635,
            -0.13369473814964294,
            -0.042957186698913574,
            -0.09826058149337769,
            0.056215833872556686,
            0.04838922619819641,
            -0.003620745614171028,
            -0.05843335762619972,
            0.023901907727122307,
            -0.16671252250671387,
            0.05046537518501282,
            0.1320762187242508,
            0.03772768750786781,
            0.155254065990448,
            -0.060816265642642975,
            -0.030136384069919586,
            0.07164127379655838,
            0.08462652564048767,
            -0.13961608707904816,
            0.10916240513324738,
            -0.07029394060373306,
            0.04076678678393364,
            0.05617188289761543,
            0.04347274824976921,
            -0.06452358514070511,
            -0.03302065655589104,
            -0.023911481723189354,
            0.25830796360969543,
            -0.20985889434814453,
            0.0903816893696785,
            -0.08141806721687317,
            -0.006027147173881531,
            0.07927478849887848,
            -0.06244068592786789,
            0.0413578636944294,
            -0.2250000536441803,
            -0.08796440064907074,
            0.17747436463832855,
            -0.056490927934646606,
            0.24839654564857483,
            0.061705633997917175,
            -0.08128929883241653,
            0.005393254105001688,
            -0.2729320526123047,
            0.03581931069493294,
            -0.0895533636212349,
            0.060450322926044464,
            0.09244587272405624,
            -0.13872680068016052,
            -0.005074659362435341,
            0.18222670257091522,
            -0.17167779803276062,
            0.2014639526605606,
            0.16751688718795776,
            -0.13246646523475647,
            -0.15309926867485046,
            -0.0342056043446064,
            -0.04512497037649155,
            -0.047278281301259995,
            -0.1065443903207779,
            0.06441481411457062,
            -0.1036207377910614,
            -0.22098833322525024,
            -0.013991039246320724,
            0.048958856612443924,
            -0.08136552572250366,
            0.02914545312523842,
            0.030151883140206337,
            -0.10140880197286606,
            -0.14452846348285675,
            -0.3482154309749603,
            0.07043846696615219,
            -0.01290170382708311,
            -0.16934145987033844,
            -0.02325405552983284,
            0.015518399886786938,
            -0.12681911885738373,
            0.13873858749866486,
            0.0637955367565155,
            0.11298038810491562,
            -0.11666110157966614,
            -0.18049871921539307,
            -0.19037757813930511,
            0.06754797697067261,
            -0.029028285294771194,
            0.0955052524805069,
            0.30719229578971863,
            -0.01577356830239296,
            0.058515436947345734,
            0.1524917334318161,
            0.488393634557724,
            -0.3711421489715576,
            -0.19876986742019653,
            -0.07113836705684662,
            0.049235228449106216,
            -0.12786133587360382,
            0.1002642884850502,
            -0.09567464888095856,
            -0.10096986591815948,
            -0.04799613356590271,
            -0.07510478049516678,
            0.13134294748306274,
            -0.23196057975292206,
            0.23921750485897064,
            -0.016056647524237633,
            0.0729525163769722,
            -0.15868812799453735,
            0.11948109418153763,
            -0.0009547211811877787,
            -0.24625475704669952,
            -0.05979429930448532,
            -0.24248577654361725,
            -0.12848767638206482,
            0.05499699339270592,
            -0.18945260345935822,
            -0.08070426434278488,
            -0.08502667397260666,
            -0.5422834753990173,
            -0.1437297761440277,
            0.14902079105377197,
            0.007815291173756123,
            -0.30788618326187134,
            0.19585397839546204,
            -0.11908604949712753,
            -0.026417922228574753,
            -0.23902633786201477,
            -0.26929500699043274,
            -0.1741599440574646,
            0.0145094133913517,
            -0.16656918823719025,
            0.020501527935266495,
            -0.11423475295305252,
            0.09053279459476471,
            0.03257333114743233,
            -0.04255755618214607,
            0.04952644556760788,
            0.15425126254558563,
            -0.2213887721300125,
            -0.03358567878603935,
            0.00242225150577724,
            0.059051208198070526,
            0.05887936055660248,
            0.21783261001110077,
            -0.09225817769765854,
            -0.16166138648986816,
            0.08238232880830765,
            -0.09295062720775604,
            0.2057422399520874,
            0.33275413513183594,
            -0.10518374294042587,
            -0.30943939089775085,
            -0.08649671077728271,
            -0.07009708881378174,
            -0.13659711182117462,
            0.014685655944049358,
            0.015062198974192142,
            -0.0028465858194977045,
            0.10493314266204834,
            -0.22535759210586548,
            -0.1175583228468895,
            0.08098608255386353,
            -0.07774346321821213,
            0.12003520876169205,
            0.032921165227890015,
            -0.24997968971729279,
            0.13062870502471924,
            -0.09224719554185867,
            0.19710668921470642,
            -0.06693236529827118,
            -0.16000738739967346,
            0.20902270078659058,
            0.4591774642467499,
            -0.21683108806610107,
            0.14708682894706726,
            -0.1408582478761673,
            0.10774088650941849,
            -0.22058041393756866,
            -0.046433888375759125,
            -0.09606828540563583,
            -0.10877465456724167,
            -0.03190932422876358,
            0.08230985701084137,
            0.36100777983665466,
            0.06002680957317352,
            -0.007013395894318819,
            -0.1349908411502838,
            -0.06443558633327484,
            -0.17749787867069244,
            0.09973857551813126,
            0.33109110593795776,
            0.3418302834033966,
            0.013687413185834885,
            -0.1307447850704193,
            0.2720126509666443,
            -0.11735572665929794,
            0.20022256672382355,
            -0.1002463698387146,
            -0.271252304315567,
            -0.45412755012512207,
            -0.061885565519332886,
            0.19957201182842255,
            0.10078021883964539,
            -0.07436782121658325,
            -0.07305886596441269,
            -0.0744110643863678,
            -0.007976952008903027,
            0.3341485261917114,
            0.16787005960941315,
            -0.08974822610616684,
            -0.30628523230552673,
            0.05868164822459221,
            -0.1880197525024414,
            -0.015859337523579597,
            -0.25741517543792725,
            0.08805128931999207,
            0.04176363721489906,
            -0.3112560510635376,
            -0.12619300186634064,
            -0.07512325048446655,
            0.19683606922626495,
            -0.015680888667702675,
            -0.13673295080661774,
            -0.4165603816509247,
            0.13451841473579407,
            -0.0160145815461874,
            0.04834534600377083,
            0.1819111406803131,
            -0.01747371070086956,
            -0.2209601104259491,
            -0.21170856058597565,
            0.030324893072247505,
            0.06328240036964417,
            -0.10991793125867844,
            -0.13773277401924133,
            0.18755969405174255,
            -0.05091480538249016,
            -0.026801377534866333,
            0.09745167940855026,
            -0.006632575299590826,
            0.04863864555954933,
            -0.3546138405799866,
            0.09403505176305771,
            -0.3331618905067444,
            0.08639393746852875,
            -0.13551773130893707,
            0.019803078845143318,
            0.10236703604459763,
            0.009240525774657726,
            -0.1456235647201538,
            -0.2699567973613739,
            0.026891056448221207,
            -0.03517857566475868,
            -0.36477065086364746,
            -0.06505429744720459,
            -0.25178471207618713,
            -0.2838791608810425,
            -0.3957059681415558,
            -0.14986024796962738,
            -0.2516697347164154,
            -0.2770651578903198,
            0.04178663715720177,
            -0.320181667804718,
            -0.05961298197507858,
            -0.07046327739953995,
            0.12724456191062927,
            0.0329245962202549,
            -0.22817474603652954,
            -0.0864420086145401,
            -0.006945681292563677,
            -0.2677234411239624,
            0.18815934658050537,
            -0.19659331440925598,
            0.12576621770858765,
            -0.4981983006000519,
            -0.1500619500875473,
            0.09324800223112106,
            -0.007227982394397259,
            0.08482044190168381,
            0.09643509238958359,
            -0.09799452871084213,
            -0.41716521978378296,
            0.1372808814048767,
            -0.03163938596844673,
            -0.1784667670726776,
            -0.08827031403779984,
            0.14834152162075043,
            0.10754024982452393,
            -0.14324776828289032,
            -0.3175293505191803,
            -0.04196111857891083,
            -0.1719384491443634,
            0.09325655549764633,
            0.1888427734375,
            0.2031729519367218,
            -0.44223517179489136,
            -0.06621859222650528,
            -0.21008576452732086,
            -0.1753029227256775,
            0.29898130893707275,
            -0.014262903481721878,
            0.03322674706578255,
            0.0716162621974945,
            -0.11110463738441467,
            0.11881425231695175,
            0.06447391211986542,
            -0.11684607714414597,
            0.15698282420635223,
            0.337644100189209,
            -0.3068801760673523,
            0.05810953304171562,
            0.038539398461580276,
            -0.03984231501817703,
            -0.2792466878890991,
            -0.03740322217345238,
            -0.31165120005607605,
            -0.302483469247818,
            -0.06195594370365143,
            0.040777020156383514,
            0.17182210087776184,
            0.21158425509929657,
            0.03129914775490761,
            -0.07781576365232468,
            -0.2091577649116516,
            0.07263101637363434,
            0.1288018822669983,
            0.19702862203121185,
            0.4194115996360779,
            -0.03610891476273537,
            -0.07190079987049103,
            -0.05217345058917999,
            0.2062300592660904,
            0.048971351236104965,
            -0.17754200100898743,
            -0.056063272058963776,
            -0.28707945346832275,
            -0.009087766520678997,
            -0.07909694314002991,
            0.22633638978004456,
            -0.0531279481947422,
            0.0968509092926979,
            0.016966160386800766,
            0.10411738604307175,
            -0.054539330303668976,
            -0.04485113546252251,
            0.19738838076591492,
            0.2703164219856262,
            0.14452289044857025,
            -0.052782732993364334,
            0.14684204757213593,
            0.048832423985004425,
            0.339381605386734,
            -0.046245284378528595,
            -0.029818659648299217,
            -0.05368167161941528,
            0.09488224983215332,
            -0.02844519540667534,
            -0.0032183483708649874,
            0.16144052147865295,
            -0.04542297124862671,
            -0.06574993580579758,
            0.08004801720380783,
            -0.00277270027436316,
            -0.011611267924308777,
            0.045888107270002365,
            0.10178840160369873,
            0.05006173253059387,
            -0.08332862704992294,
            -0.07248429954051971,
            0.049843765795230865,
            -0.06940482556819916,
            0.2393912374973297,
            -0.06996778398752213,
            0.2510688602924347,
            -0.11519996076822281,
            0.07962118834257126,
            0.13357384502887726,
            0.01943325623869896,
            0.2761499583721161,
            -0.20828452706336975,
            -0.1741410791873932,
            0.4281557500362396,
            0.12832999229431152,
            0.02690054476261139,
            0.06851277500391006,
            0.25487279891967773,
            0.05151137709617615,
            -0.04935663193464279,
            0.026783540844917297,
            0.039731673896312714,
            0.09989435970783234,
            0.09807682782411575,
            0.018434517085552216,
            -0.017476733773946762,
            -0.12908652424812317,
            -0.049268580973148346,
            0.004484589211642742,
            -0.10599012672901154,
            0.23749807476997375,
            -0.10740672796964645,
            0.025604253634810448,
            -0.10511825233697891,
            0.24950891733169556,
            0.3985476493835449,
            -0.06305515766143799,
            -0.24035578966140747,
            0.02301170490682125,
            0.09526987373828888,
            -0.10418542474508286,
            0.14853021502494812,
            0.04104887321591377,
            0.11779816448688507,
            0.3443754017353058,
            -0.12185903638601303,
            -0.09049626439809799,
            0.0022996668703854084,
            0.09486069530248642,
            -0.0732458233833313,
            0.02957809343934059,
            -0.006782561540603638,
            -0.10388301312923431,
            -0.18743115663528442,
            0.07807983458042145,
            0.40857601165771484,
            -0.10462761670351028,
            0.07120323181152344,
            0.3689267933368683,
            0.006780226249247789,
            0.16388463973999023,
            0.06698738038539886,
            0.032775264233350754,
            0.18175898492336273,
            -0.07631690055131912,
            0.07590849697589874,
            -0.04122763127088547,
            0.04040240868926048,
            0.03386919945478439,
            -0.005185806192457676,
            -0.1436707228422165,
            0.1347399353981018,
            -0.04997868090867996,
            0.2131998986005783,
            -0.2154788374900818,
            0.21596285700798035,
            -0.09262404590845108,
            -0.1957079917192459,
            -0.03527966886758804,
            -0.04124705120921135,
            0.061492256820201874,
            0.19134920835494995,
            -0.08851196616888046,
            0.05146513134241104,
            -0.006808093283325434,
            0.17585508525371552,
            -0.034040942788124084,
            0.25556814670562744,
            -0.07102745771408081,
            0.22989502549171448,
            0.21405327320098877,
            0.2224520742893219,
            -0.09861660748720169,
            -0.19223754107952118,
            0.04141223058104515,
            -0.08701866120100021,
            0.12204525619745255,
            0.19490645825862885,
            0.11859580874443054,
            -0.0006867424235679209,
            0.02413995936512947,
            -0.12510910630226135,
            0.05878171697258949,
            0.14791065454483032,
            0.09873569011688232,
            -0.015892619267106056,
            -0.251636266708374,
            0.1373814195394516,
            -0.24070106446743011,
            -0.18328405916690826,
            0.041076671332120895,
            0.11521261185407639,
            0.08123311400413513,
            -0.09606586396694183,
            0.019951462745666504,
            0.1959419548511505,
            -0.06628299504518509,
            -0.2334095537662506,
            0.01453586295247078,
            -0.02889666147530079,
            0.187055304646492,
            0.26582732796669006,
            0.1092757135629654,
            0.05668899416923523,
            0.056202273815870285,
            -0.11535085737705231,
            0.08179666101932526,
            0.0464145727455616,
            -0.2040850818157196,
            0.10733269155025482,
            -0.4040665626525879,
            0.06092905253171921,
            0.15276993811130524,
            -0.09992789477109909,
            0.009493234567344189,
            -0.1262776404619217,
            0.07243583351373672,
            -0.10790614783763885,
            -0.31855493783950806,
            -0.03076041303575039,
            0.14254485070705414,
            0.3038896322250366,
            0.13849060237407684,
            -0.09378339350223541,
            -0.13300590217113495,
            0.0671408623456955,
            0.16060568392276764,
            0.048742372542619705,
            0.11749586462974548,
            -0.06531153619289398,
            -0.07566805183887482,
            -0.042301077395677567,
            0.09150192886590958,
            0.09342463314533234,
            0.002183461096137762,
            0.016153300181031227,
            0.2880406081676483,
            0.13047268986701965,
            -0.09249210357666016,
            -0.4817393720149994,
            0.3181380033493042,
            -0.08425749838352203,
            0.040725547820329666,
            0.11964257806539536,
            -0.2266024500131607,
            0.20203524827957153,
            -0.1078190878033638,
            -0.17043891549110413,
            -0.058773089200258255,
            0.021514499559998512,
            -0.010546306148171425,
            0.024570738896727562,
            0.17975406348705292,
            -0.06914601475000381,
            0.027062872424721718,
            -0.20871992409229279,
            -0.05119318515062332,
            -0.010938555002212524,
            -0.028837596997618675,
            -0.012554575689136982,
            -0.492914080619812,
            -0.06302598863840103,
            0.14436839520931244,
            -0.04895579069852829,
            -0.34286317229270935,
            -0.1676076054573059,
            -0.0036500641144812107,
            0.07771642506122589,
            0.14782890677452087,
            0.021498585119843483,
            -0.20674200356006622,
            -0.18419983983039856,
            0.26121363043785095,
            -0.18019303679466248,
            0.06534229964017868,
            0.23039376735687256,
            0.12075985968112946,
            -0.1874358057975769,
            -0.06407800316810608,
            0.21564234793186188,
            -0.1776483803987503,
            0.022257821634411812,
            -0.2027842402458191,
            0.10357309877872467,
            -0.18713024258613586,
            -0.37732601165771484,
            -0.0998678207397461,
            -0.10491029918193817,
            0.06350389868021011,
            0.06874603033065796,
            -0.1365273892879486,
            0.037729132920503616,
            0.16296951472759247,
            -0.13658665120601654,
            0.14720113575458527,
            0.02104661613702774,
            0.0855633020401001,
            -0.1273469179868698,
            0.11771292239427567,
            -0.1703716516494751,
            -0.18367061018943787,
            0.04670322313904762,
            -0.14335161447525024,
            0.026319077238440514,
            -0.030058419331908226,
            -0.014706309884786606,
            -0.0836656242609024,
            0.013812309131026268,
            0.042679958045482635,
            -0.21484452486038208,
            0.0220215804874897,
            0.0004837416054215282,
            0.015566271729767323,
            0.07640188187360764,
            -0.12062836438417435,
            0.08566886186599731,
            0.02947092056274414,
            -0.04116469994187355,
            0.0457262247800827,
            -0.02274039387702942,
            -0.012941206805408001,
            0.00989640410989523,
            -0.07636552304029465,
            0.027257749810814857,
            -0.06396570801734924,
            -0.08240550011396408,
            -0.11832088232040405,
            0.1797202229499817,
            0.0039031701162457466,
            0.03813955560326576,
            -0.18917110562324524,
            0.11591537296772003,
            0.15459080040454865,
            -0.013625610619783401,
            0.09591080993413925,
            0.04225166141986847,
            0.12840478122234344,
            0.09544971585273743,
            0.05094452574849129,
            0.13988953828811646,
            0.03178969770669937,
            0.10282277315855026,
            0.01471557468175888,
            -0.16612322628498077,
            0.050334084779024124,
            0.07139967381954193,
            0.06526705622673035,
            -0.014606790617108345,
            -0.009362167678773403,
            0.0549619197845459,
            -0.0016479728510603309,
            -0.10518254339694977,
            0.050514113157987595,
            -0.03275531157851219,
            -0.07929515838623047,
            0.095363549888134,
            0.07511342316865921,
            -0.13519616425037384,
            0.08738934248685837,
            0.1960282027721405,
            -0.03962336853146553,
            0.05414966493844986,
            0.10666465014219284,
            0.06797850131988525,
            -0.11384770274162292,
            0.03608069568872452,
            0.17389874160289764,
            0.05159780755639076,
            -0.11273171752691269,
            -0.08950544148683548,
            0.10695089399814606,
            0.03272964432835579,
            -0.07718772441148758,
            -0.07265334576368332,
            0.0806499645113945,
            0.05070763826370239,
            0.09846016019582748,
            0.15369781851768494,
            -0.05002254247665405,
            0.06256787478923798,
            0.06139499321579933,
            -0.15967614948749542,
            0.07850079238414764,
            -0.02080654166638851,
            -0.11554746329784393,
            0.07086969166994095,
            -0.04709061235189438,
            0.1111367717385292,
            -0.07594906538724899,
            -0.08744824677705765,
            0.07505782693624496,
            0.010527974925935268,
            -0.04550228640437126,
            0.12947700917720795,
            0.009555358439683914,
            0.06663665175437927,
            0.11709724366664886,
            0.164867103099823,
            -0.012821884825825691,
            -0.04979696124792099,
            -0.04934591427445412,
            0.01468642707914114,
            0.05807703733444214,
            0.01812736503779888,
            -0.049402087926864624,
            0.18410639464855194,
            0.02692410536110401,
            -0.04739760234951973,
            -0.08309373259544373,
            0.08271672576665878,
            -0.20409029722213745,
            0.027548806741833687,
            0.0011560420971363783,
            -0.12421061098575592,
            -0.09337671846151352,
            0.1245238333940506,
            -0.09466667473316193,
            -0.06691137701272964,
            0.1172611340880394,
            0.013635803945362568,
            -0.17511890828609467,
            -0.10146739333868027,
            -0.15353108942508698,
            0.05743936821818352,
            0.047331638634204865,
            0.05339780077338219,
            0.05533910170197487,
            0.05818391218781471,
            0.21096594631671906,
            0.14341133832931519,
            0.00517212925478816,
            -0.0509762242436409,
            -0.04402627795934677,
            -0.16609524190425873,
            -0.1672075092792511,
            -0.07391497492790222,
            -0.03956207260489464,
            0.026724152266979218,
            -0.11669223755598068,
            -0.04489712789654732,
            0.0028064940124750137,
            0.05123148486018181,
            0.026160961017012596,
            0.06501392275094986,
            0.08029872179031372,
            0.19936032593250275,
            0.040605731308460236,
            0.01787393167614937,
            -0.0028715934604406357,
            0.022176917642354965,
            0.0345812663435936,
            0.03333612531423569,
            0.11437284201383591,
            -0.0075210207141935825,
            -0.0340559184551239,
            0.09484735131263733,
            -0.10237795859575272,
            0.03920144960284233,
            0.07945568859577179,
            0.009189320728182793,
            0.019226348027586937,
            0.07330571115016937,
            0.06403842568397522,
            -0.00022946365061216056,
            -0.16522495448589325,
            -0.007441808003932238,
            0.0962507501244545,
            0.03107738494873047,
            0.019292542710900307,
            -0.16382019221782684,
            -0.063048355281353,
            0.10010654479265213,
            0.1565486043691635,
            0.034501273185014725,
            0.11988302320241928,
            0.012561437673866749,
            0.10289078950881958,
            -0.1308213472366333,
            0.09727220982313156,
            -0.08485516905784607,
            0.07895682752132416,
            0.02238975279033184,
            -0.13134467601776123,
            -0.16707073152065277,
            0.10448683798313141,
            0.004599789157509804,
            0.17644208669662476,
            0.01941564865410328,
            -0.09380442649126053,
            0.05678757652640343,
            -0.1249060183763504,
            -0.0325423926115036,
            -0.1558256447315216,
            0.14906726777553558,
            -0.1352071315050125,
            -0.0998852550983429,
            0.014561500400304794,
            0.08865813165903091,
            -0.1082737073302269,
            -0.05940571799874306,
            0.1520068496465683,
            0.002280351473018527,
            0.031250182539224625,
            -0.06388217210769653,
            -0.14265215396881104,
            0.10337851196527481,
            0.07489673048257828,
            0.05542543902993202,
            -0.10445205867290497,
            -0.007170012686401606,
            -0.11682293564081192,
            0.12770353257656097,
            0.059629231691360474,
            -0.06172090023756027,
            -0.12713409960269928,
            0.06242271512746811,
            -0.15219376981258392,
            -0.038839831948280334,
            -0.06214510276913643,
            0.02255992405116558,
            -0.08727284520864487,
            0.023927409201860428,
            -0.016223426908254623,
            -0.0164166446775198,
            -0.04071630537509918,
            -0.09106816351413727,
            -0.00897925067692995,
            -0.126607283949852,
            0.12397618591785431,
            0.059774868190288544,
            0.2154126614332199,
            -0.059593018144369125,
            0.07726160436868668,
            0.08393345028162003,
            0.17589615285396576,
            0.0988403931260109,
            -0.1344497948884964,
            -0.1344819962978363,
            -0.12327374517917633,
            0.030297016724944115,
            -0.11359576880931854,
            -0.06850913166999817,
            -0.041000884026288986,
            0.02084924839437008,
            0.016073359176516533,
            0.009034776128828526,
            -0.0417366661131382,
            -0.009415235370397568,
            -0.003534121671691537,
            -0.047805577516555786,
            0.0051611484959721565,
            0.006481486838310957,
            0.02765984646975994,
            -0.07314213365316391,
            -0.09890303015708923,
            0.028645111247897148,
            0.05654731020331383,
            -0.011057959869503975,
            -0.07217305898666382,
            0.11692553758621216,
            -0.05260933190584183,
            0.11675313115119934,
            -0.06600278615951538,
            0.1352320909500122,
            -0.1822604387998581,
            0.11152730882167816,
            0.10266450047492981,
            -0.04470079764723778,
            0.11738483607769012,
            0.012853981927037239,
            -0.0010530281579121947,
            0.147796168923378,
            0.11674723774194717,
            -0.017791753634810448,
            -0.022895947098731995,
            0.10014089941978455,
            -0.00015679300122428685,
            0.05663972347974777,
            0.06899930536746979,
            -0.11284014582633972,
            0.09569107741117477,
            0.0834970772266388,
            -0.09780364483594894,
            -0.06368465721607208,
            0.15556395053863525,
            0.17622873187065125,
            0.03932958468794823,
            -0.15110348165035248,
            -0.07282767444849014,
            -0.08198732137680054,
            0.13053645193576813,
            -0.1233062595129013,
            0.05308638885617256,
            -0.10490227490663528,
            0.12266205251216888,
            -0.038190826773643494,
            0.1255548745393753,
            0.10621506720781326,
            -0.0742691159248352,
            -0.026967154815793037,
            -0.018816733732819557,
            0.15018871426582336,
            -0.14036248624324799,
            -0.019394153729081154,
            0.07111089676618576,
            -0.06339393556118011,
            -0.2123161256313324,
            -0.15330290794372559,
            -0.11574564129114151,
            0.14007911086082458,
            0.11398052424192429,
            0.06316039711236954,
            -0.16042698919773102,
            -0.07030542194843292,
            0.0018813551869243383,
            0.05852406099438667,
            0.05904686823487282,
            0.06291335076093674,
            0.21199177205562592,
            0.014957478269934654,
            -0.0490385964512825,
            0.019500797614455223,
            -0.02643423154950142,
            -0.04967787116765976,
            0.07764628529548645,
            -0.016936926171183586,
            0.059341348707675934,
            -0.04068150743842125,
            0.07289732247591019,
            0.08156231790781021,
            -0.04133150354027748,
            0.03480634465813637,
            -0.19904883205890656,
            -0.05028310790657997,
            0.029885301366448402,
            0.07487808912992477,
            0.017132854089140892,
            -0.19151772558689117,
            -0.1293632835149765,
            0.0006885629263706505,
            0.05781431496143341,
            0.053745146840810776,
            -0.07319672405719757,
            -0.044797610491514206,
            0.09234253317117691,
            -0.07976752519607544,
            -0.009370431303977966,
            -0.033832844346761703,
            -0.053846053779125214,
            -0.09806156903505325,
            0.013829166069626808,
            0.06347391754388809,
            -0.03286456689238548,
            0.049570392817258835,
            -0.08227929472923279,
            0.12415776401758194,
            -0.03246738389134407,
            0.00006331445183604956,
            -0.09125740081071854,
            -0.11077751219272614,
            0.07814118266105652,
            -0.08065839111804962,
            0.14266009628772736,
            -0.05371108651161194,
            0.027757812291383743,
            0.00822958443313837,
            -0.09300518780946732,
            0.09888921678066254,
            0.13984844088554382,
            0.0262454766780138,
            0.10892276465892792,
            0.04353195056319237,
            -0.13107085227966309,
            0.058841995894908905,
            0.05650244653224945,
            -0.046317651867866516,
            0.03659219294786453,
            -0.03134138882160187,
            -0.029764825478196144,
            0.03463291749358177,
            -0.029333006590604782,
            0.1053735539317131,
            -0.04845140129327774,
            0.09073815494775772,
            -0.1310763955116272,
            0.11284797638654709,
            -0.04576130583882332,
            0.07123004645109177,
            -0.09823949635028839,
            0.1841619908809662,
            -0.0933523178100586,
            -0.03523269295692444,
            -0.016139060258865356,
            -0.030688926577568054,
            0.19280758500099182,
            -0.12227100133895874,
            0.03106614015996456,
            0.00356089323759079,
            -0.16317492723464966,
            0.03318918123841286,
            0.10137689858675003,
            -0.11725509166717529,
            0.10372230410575867,
            -0.014974763616919518,
            0.20297695696353912,
            -0.13358478248119354,
            -0.01845374144613743,
            -0.030628344044089317,
            -0.1007436066865921,
            -0.015535229817032814,
            0.031453121453523636,
            0.13887926936149597,
            -0.0551353320479393,
            -0.0835084393620491,
            -0.02266833372414112,
            -0.16669996082782745,
            0.03345388174057007,
            -0.015940489247441292,
            -0.02998325042426586,
            0.09026061743497849,
            0.1833876520395279,
            0.05263044685125351,
            -0.1349487602710724,
            -0.06367038935422897,
            0.026694094762206078,
            0.042531367391347885,
            -0.06118515506386757,
            -0.15538290143013,
            -0.026653354987502098,
            0.0007428181124851108,
            -0.20946581661701202,
            -0.04005375877022743,
            -0.21097293496131897,
            -0.15762244164943695,
            -0.003764224937185645,
            0.09043530374765396,
            -0.00791157502681017,
            -0.0365045927464962,
            0.07036560028791428,
            0.012334619648754597,
            -0.0551031269133091,
            -0.076447494328022,
            -0.014431744813919067,
            0.1554247885942459,
            0.14732302725315094,
            0.03883012756705284,
            0.18592846393585205,
            -0.07101600617170334,
            0.09072007238864899,
            -0.019127193838357925,
            0.13388533890247345,
            0.003940778784453869,
            0.015580135397613049,
            0.08080847561359406,
            0.03207350894808769,
            -0.002584130736067891,
            0.08877032995223999,
            0.1462244689464569,
            0.10865335166454315,
            0.07850722968578339,
            -0.10707692056894302,
            0.12246539443731308,
            0.05428850278258324,
            -0.05767548084259033,
            0.20781713724136353,
            -0.2008838951587677,
            -0.21487900614738464,
            -0.06444982439279556,
            0.1842879056930542,
            -0.118929922580719,
            -0.047188226133584976,
            -0.0032060733065009117,
            0.027466004714369774,
            -0.019938014447689056,
            0.042658355087041855,
            -0.06973692029714584,
            -0.05952957645058632,
            -0.08362802118062973,
            -0.13853107392787933,
            -0.017057932913303375,
            0.015443089418113232,
            -0.05407506600022316,
            -0.11827301979064941,
            0.1600690484046936,
            0.0973128005862236,
            0.13456103205680847,
            -0.10910360515117645,
            -0.05335887521505356,
            -0.025441467761993408,
            0.05534840375185013,
            -0.08941777050495148,
            -0.03901204839348793,
            -0.11877606809139252,
            -0.061119046062231064,
            -0.07916494458913803,
            -0.10814612358808517,
            0.03218405693769455,
            0.08756332099437714,
            0.1647540181875229,
            -0.1277657449245453,
            0.0502932108938694,
            0.020848743617534637,
            0.0438573844730854,
            0.048631951212882996,
            0.025756899267435074,
            0.1348486691713333,
            -0.13464489579200745,
            0.02803035080432892,
            0.010523585602641106,
            0.02035786770284176,
            0.0560200996696949,
            0.1009715348482132,
            0.009835240431129932,
            -0.10152451694011688,
            0.12840145826339722,
            0.060964811593294144,
            0.045019518584012985,
            -0.02143849991261959,
            0.01898050494492054,
            -0.12466829270124435,
            0.06955157220363617,
            -0.183830127120018,
            0.07439380884170532,
            0.1268189549446106,
            0.190865620970726,
            0.07650987058877945,
            0.13472619652748108,
            -0.11124220490455627,
            0.09402897953987122,
            -0.043212175369262695,
            0.08979600667953491,
            -0.0078599713742733,
            0.038289230316877365,
            -0.21356996893882751,
            0.0682288184762001,
            -0.0676162838935852,
            0.13233450055122375,
            0.014853197149932384,
            0.17068436741828918,
            0.0728907659649849,
            0.16949838399887085,
            0.09968190640211105,
            0.0720464363694191,
            0.012957096099853516,
            0.008320138789713383,
            -0.12128131836652756,
            -0.0702189952135086,
            0.14175984263420105,
            0.01099960133433342,
            0.13576403260231018,
            -0.012799271382391453,
            -0.00548549834638834,
            -0.04681659862399101,
            -0.05034303665161133,
            0.12199164927005768,
            -0.08319026231765747,
            -0.06199008226394653,
            -0.04142330214381218,
            0.04526625573635101,
            0.061462339013814926,
            -0.11843978613615036,
            -0.007709199097007513,
            0.013931994326412678,
            0.0340898297727108,
            -0.06931984424591064,
            0.032444607466459274,
            -0.033885810524225235,
            -0.1443549394607544,
            0.005779228173196316,
            -0.14752094447612762,
            -0.055818721652030945,
            -0.1356835961341858,
            -0.08810048550367355,
            0.04875117912888527,
            -0.14374850690364838,
            0.04684160649776459,
            0.07107596844434738,
            0.07106002420186996,
            0.10355308651924133,
            -0.1858900934457779,
            -0.16646018624305725,
            -0.054020367562770844,
            0.13914377987384796,
            -0.15424370765686035,
            0.03450778126716614,
            -0.05890394374728203,
            0.04208420589566231,
            0.05084503814578056,
            0.06014883145689964,
            -0.035239387303590775,
            -0.05791774019598961,
            0.07729873806238174,
            0.007426790427416563,
            0.10139769315719604,
            0.010928913950920105,
            0.02807079628109932,
            0.1827934980392456,
            -0.033673517405986786,
            -0.032478317618370056,
            -0.12456787377595901,
            -0.11606065928936005,
            0.12707240879535675,
            0.017849627882242203,
            -0.058706022799015045,
            -0.04277708753943443,
            0.1776638627052307,
            0.02766016311943531,
            0.12942726910114288,
            -0.029779905453324318,
            0.1010877713561058,
            -0.20102263987064362,
            -0.01287735253572464,
            0.01551066990941763,
            -0.041739434003829956,
            0.010903775691986084,
            0.1192520335316658,
            0.1303090900182724,
            -0.14996063709259033,
            -0.013835984282195568,
            0.04841437563300133,
            0.005761988926678896,
            -0.07330045849084854,
            -0.08632535487413406,
            -0.025120291858911514,
            0.025349799543619156,
            0.08699975162744522,
            0.03522436320781708,
            0.11241462081670761,
            -0.025378329679369926,
            -0.00019011787662748247,
            0.08315859735012054,
            0.10086657106876373,
            -0.16191698610782623,
            -0.07967142015695572,
            0.04931420832872391,
            -0.042768970131874084,
            -0.07643090188503265,
            -0.13199074566364288,
            -0.03138644993305206,
            -0.07124742865562439,
            0.02924627996981144,
            -0.06146249920129776,
            -0.04928138107061386,
            -0.00048713956493884325,
            0.11949928104877472,
            0.011648339219391346,
            -0.01563149318099022,
            0.1311168521642685,
            -0.09566622972488403,
            0.15482600033283234,
            0.024917513132095337,
            0.02785753645002842,
            -0.16533534228801727,
            -0.11488844454288483,
            0.08371762186288834,
            -0.10267278552055359,
            -0.07133057713508606,
            0.13299775123596191,
            -0.02010454423725605,
            -0.1376958191394806,
            -0.08237544447183609,
            -0.143781378865242,
            0.028408043086528778,
            -0.15747955441474915,
            -0.017053166404366493,
            0.047271907329559326,
            0.11631777882575989,
            0.02146688662469387,
            -0.1512378454208374,
            -0.04342086240649223,
            0.055035945028066635,
            0.10838840156793594,
            -0.0951780453324318,
            -0.0174398235976696,
            0.20671334862709045,
            0.09985274076461792,
            0.06972597539424896,
            -0.0727953091263771,
            -0.03827659785747528,
            -0.07850675284862518,
            -0.058909542858600616,
            -0.053962916135787964,
            0.10773872584104538,
            0.14828185737133026,
            0.022240567952394485,
            -0.017612731084227562,
            -0.00266794441267848,
            -0.08633435517549515,
            -0.10178336501121521,
            0.004117808770388365,
            -0.011805719695985317,
            0.024249589070677757,
            -0.07282208651304245,
            0.13217216730117798,
            -0.01038814801722765,
            0.04398340731859207,
            0.16459544003009796,
            0.010896516963839531,
            0.056388527154922485,
            -0.05357769876718521,
            0.11843280494213104,
            0.03253449872136116,
            -0.009930984117090702,
            -0.10452830046415329,
            -0.08843842148780823,
            0.03175169602036476,
            -0.022405320778489113,
            0.03316112980246544,
            0.11460080742835999,
            0.058727603405714035,
            -0.0015812452184036374,
            -0.07814300805330276,
            0.14213578402996063,
            0.030205324292182922,
            -0.18129685521125793,
            -0.03873497620224953,
            0.07123351097106934,
            0.18437211215496063,
            0.13646268844604492,
            0.059050992131233215,
            -0.1581643968820572,
            0.10546234250068665,
            0.09567300975322723,
            -0.02578818053007126,
            0.05658550560474396,
            -0.07598169893026352,
            -0.019840441644191742,
            -0.1440151482820511,
            0.20933812856674194,
            -0.06266552209854126,
            0.04798786714673042,
            0.010940290987491608,
            -0.2153959572315216,
            0.2060026228427887,
            -0.06416904181241989,
            -0.09568454325199127,
            -0.004379727877676487,
            -0.15410937368869781,
            -0.07312598824501038,
            -0.034909866750240326,
            -0.10612655431032181,
            -0.09675046056509018,
            0.005196317099034786,
            -0.00514187989756465,
            -0.030713457614183426,
            -0.18786028027534485,
            -0.12731489539146423,
            0.010635516606271267,
            -0.17159311473369598,
            0.0666528195142746,
            -0.04212501272559166,
            -0.06579029560089111,
            0.06101740524172783,
            -0.1295488476753235,
            -0.03255052492022514,
            0.18040262162685394,
            0.035988617688417435,
            -0.11366572976112366,
            -0.15039333701133728,
            0.036972735077142715,
            0.007113166619092226,
            -0.07205107063055038,
            -0.06487229466438293,
            0.14625151455402374,
            -0.0999358594417572,
            0.06926116347312927,
            -0.20854182541370392,
            -0.1105489432811737,
            0.10155964642763138,
            -0.013338778167963028,
            -0.03605184704065323,
            0.027376579120755196,
            0.005863331723958254,
            0.034473806619644165,
            -0.05575673282146454,
            -0.11490917950868607,
            -0.01473888847976923,
            0.0005384120158851147,
            -0.07021272927522659,
            -0.044166337698698044,
            -0.1859171986579895,
            0.05667411535978317,
            0.01871293969452381,
            -0.04897785186767578,
            0.03406400978565216,
            0.05117448419332504,
            0.030430911108851433,
            -0.061111871153116226,
            -0.17992201447486877,
            0.17314985394477844,
            -0.08790656924247742,
            -0.005056828260421753,
            0.1966320276260376,
            -0.10026797652244568,
            -0.10014358907938004,
            -0.0636679008603096,
            -0.0839102566242218,
            -0.07842133939266205,
            -0.09675098955631256,
            0.13771815598011017,
            -0.15600541234016418,
            -0.030349891632795334,
            -0.1595754623413086,
            0.0011235133279114962,
            0.12263725697994232,
            -0.07838329672813416,
            0.11017461121082306,
            -0.01532450970262289,
            -0.13861477375030518,
            0.060818977653980255,
            -0.02492007426917553,
            -0.10498426854610443,
            0.0853370875120163,
            0.03779684379696846,
            0.04447287693619728,
            -0.014388076029717922,
            -0.018160169944167137,
            -0.17693130671977997,
            0.1197681576013565,
            -0.08952078223228455,
            0.12443726509809494,
            0.07472348213195801,
            0.08218170702457428,
            0.048606257885694504,
            -0.04358682408928871,
            -0.03572840243577957,
            0.19370879232883453,
            -0.023159094154834747,
            -0.12533210217952728,
            0.13604296743869781,
            -0.007471301127225161,
            -0.11230743676424026,
            -0.04434403032064438,
            0.1524208039045334,
            0.055725011974573135,
            0.051724113523960114,
            0.009472924284636974,
            -0.07535649091005325,
            -0.03678356111049652,
            0.0714508667588234,
            0.05068636313080788,
            0.08530298620462418,
            -0.1915764957666397,
            -0.09714581072330475,
            0.03654709458351135,
            0.012740361504256725,
            0.01428973488509655,
            -0.11148089170455933,
            -0.11979988217353821,
            -0.037313174456357956,
            -0.03878005966544151,
            -0.0007103700190782547,
            -0.15585601329803467,
            -0.1021394208073616,
            -0.06398919224739075,
            0.0373498760163784,
            0.19603881239891052,
            0.08132200688123703,
            0.16819511353969574,
            0.07924360781908035,
            -0.03143855929374695,
            0.07489398866891861,
            0.008499798364937305,
            -0.09520959109067917,
            0.09216860681772232,
            -0.08619164675474167,
            0.15196046233177185,
            -0.0040369112975895405,
            0.03782243654131889,
            -0.003849675878882408,
            0.027466828003525734,
            -0.015933653339743614,
            -0.06251558661460876,
            0.08408056199550629,
            -0.09912820905447006,
            -0.08192460238933563,
            -0.02017994597554207,
            -0.08859898149967194,
            -0.07133179903030396,
            -0.05562274530529976,
            0.054934754967689514,
            0.04536931589245796,
            0.024212606251239777,
            -0.01196765061467886,
            0.14766883850097656,
            -0.20786596834659576,
            0.18676356971263885,
            0.06626274436712265,
            -0.06331701576709747,
            0.05095917731523514,
            -0.11677563190460205,
            0.06803134083747864,
            -0.11900968104600906,
            0.03792442008852959,
            -0.09849900007247925,
            -0.014051556587219238,
            -0.11978506296873093,
            0.12091176956892014,
            -0.07821648567914963,
            0.01939205266535282,
            0.1703026443719864,
            -0.019419727846980095,
            -0.014835274778306484,
            0.14672064781188965,
            0.0771261602640152,
            -0.1690748780965805,
            0.028710929676890373,
            0.006974757183343172,
            0.06615687161684036,
            0.09344940632581711,
            0.08054844290018082,
            0.037906017154455185,
            0.06408599764108658,
            0.018238866701722145,
            -0.07016666978597641,
            0.09863732010126114,
            -0.1398693472146988,
            0.0202329158782959,
            0.12023302912712097,
            -0.020217718556523323,
            0.1967463344335556,
            0.060550253838300705,
            0.04534725844860077,
            0.03311328589916229,
            0.11877213418483734,
            -0.031830932945013046,
            0.001275107730180025,
            0.06597860157489777,
            -0.04456930235028267,
            -0.056978192180395126,
            -0.021999318152666092,
            0.048544347286224365,
            -0.15121963620185852,
            -0.01821635290980339,
            -0.11121565848588943,
            -0.11406479775905609,
            0.055069681257009506,
            -0.04960383474826813,
            -0.17396806180477142,
            0.0637381374835968,
            0.07171781361103058,
            -0.14189359545707703,
            -0.06413116306066513,
            -0.1150374636054039,
            0.03446255996823311,
            0.029787877574563026,
            0.06951538473367691,
            0.09140362590551376,
            -0.15525153279304504,
            0.0434531569480896,
            -0.010618182830512524,
            0.020572105422616005,
            -0.0877658799290657,
            -0.05837063118815422,
            -0.11880407482385635,
            0.04501529037952423,
            0.09063731133937836,
            0.044949520379304886,
            -0.011486540548503399,
            0.035173822194337845,
            -0.1192532554268837,
            -0.09515717625617981,
            0.0967739000916481,
            0.040280718356370926,
            0.19288590550422668,
            -0.08537515252828598,
            -0.005921213421970606,
            -0.002969690365716815,
            0.05747496336698532,
            -0.16787922382354736,
            -0.0635925754904747,
            -0.18278031051158905,
            0.04972729831933975,
            -0.011311767622828484,
            -0.13111001253128052,
            -0.11665783822536469,
            0.0054038893431425095,
            -0.006154267583042383,
            0.00500511797145009,
            -0.021186280995607376,
            0.015377522446215153,
            0.056449733674526215,
            -0.004162795841693878,
            -0.149107426404953,
            0.1358465701341629,
            0.05009816586971283,
            -0.1797996163368225,
            -0.09633468091487885,
            -0.016936270520091057,
            -0.0887678936123848,
            -0.12771980464458466,
            0.04553845897316933,
            0.06315623968839645,
            -0.14097553491592407,
            0.08118873089551926,
            -0.10533953458070755,
            0.029725681990385056,
            -0.02887899987399578,
            -0.0013330148067325354,
            -0.02002583257853985,
            0.011652931571006775,
            -0.067782461643219,
            -0.044320087879896164,
            -0.1209692656993866,
            -0.03731802478432655,
            0.09936058521270752,
            -0.17436344921588898,
            0.1405302733182907,
            -0.17147259414196014,
            -0.05563874542713165,
            -0.006460242904722691,
            0.07784183323383331,
            -0.12943434715270996,
            0.17903514206409454,
            0.0128229521214962,
            -0.019237298518419266,
            -0.06172671169042587,
            -0.0050436826422810555,
            0.14040209352970123,
            -0.03677959367632866,
            0.03923344239592552,
            -0.05330364778637886,
            -0.06705979257822037,
            0.027923371642827988,
            -0.03442467004060745,
            0.14027385413646698,
            0.07457442581653595,
            0.10916294157505035,
            -0.0901251882314682,
            0.15490135550498962,
            -0.04366013780236244,
            -0.19261573255062103,
            -0.06694214046001434,
            -0.03534184396266937,
            0.09822624176740646,
            -0.041338272392749786,
            -0.020056655630469322,
            0.03528512269258499,
            0.10262525081634521,
            -0.046811554580926895,
            -0.04701584577560425,
            0.08350417762994766,
            0.03264489024877548,
            -0.07827052474021912,
            -0.05078178271651268,
            -0.1052698865532875,
            0.05875134840607643,
            0.10224895179271698,
            -0.11657775193452835,
            -0.07234273850917816,
            0.07046976685523987,
            0.035164106637239456,
            -0.10714013874530792,
            0.1299310326576233,
            0.11278839409351349,
            0.04925396293401718,
            -0.013340085744857788,
            0.12130260467529297,
            -0.07117574661970139,
            -0.011801115237176418,
            0.007031956687569618,
            0.10163170844316483,
            -0.128016859292984,
            0.017037706449627876,
            0.1903965175151825,
            0.004173316061496735,
            -0.16178177297115326,
            -0.06618212908506393,
            -0.0538448691368103,
            -0.11874711513519287,
            0.02152414433658123,
            0.12600088119506836,
            -0.16002769768238068,
            0.004959566053003073,
            0.07926653325557709,
            0.1323247253894806,
            -0.06357434391975403,
            0.10199059545993805,
            0.00770009309053421,
            0.01197419036179781,
            -0.0033692773431539536,
            0.16058246791362762,
            -0.10784465819597244,
            -0.17188969254493713,
            0.03830966725945473,
            0.10147104412317276,
            0.029083020985126495,
            0.10840378701686859,
            -0.17407265305519104,
            -0.09990563243627548,
            -0.0358828566968441,
            0.0906967967748642,
            0.19038763642311096,
            -0.015091784298419952,
            0.07048061490058899,
            0.02685847505927086,
            0.02158040553331375,
            -0.12587745487689972,
            0.05649692937731743,
            0.01514500007033348,
            0.012300243601202965,
            -0.07850567251443863,
            -0.06341138482093811,
            0.07069164514541626,
            0.14643332362174988,
            -0.06938102096319199,
            0.0011330156121402979,
            -0.1545751392841339,
            0.07934439927339554,
            0.018862778320908546,
            -0.001104146707803011,
            0.010067874565720558,
            -0.03145979717373848,
            -0.1478557288646698,
            -0.0010464454535394907,
            0.07164835184812546,
            0.01962950825691223,
            -0.05894168093800545,
            -0.1146361231803894,
            0.01916811615228653,
            -0.1541629582643509,
            -0.03701845556497574,
            0.15051276981830597,
            0.02015458419919014,
            0.0820712298154831,
            0.0047814445570111275,
            -0.01592634990811348,
            0.009975320659577847,
            0.07445185631513596,
            0.028072088956832886,
            -0.06244638189673424,
            -0.022788697853684425,
            -0.1369178593158722,
            0.0928884819149971,
            -0.11176221072673798,
            -0.0642029345035553,
            -0.031933028250932693,
            -0.05466489866375923,
            0.08473008871078491,
            0.14035847783088684,
            0.013275107368826866,
            -0.0577738992869854,
            0.0452192984521389,
            0.07569243013858795,
            -0.015914037823677063,
            0.06934554129838943,
            0.007863843813538551,
            0.07038893550634384,
            -0.21423958241939545,
            -0.09354620426893234,
            -0.044587839394807816,
            0.026241302490234375,
            0.09949938207864761,
            0.013354982249438763,
            -0.04978897422552109,
            -0.004153260961174965,
            -0.14178940653800964,
            0.11541415750980377,
            -0.0049071237444877625,
            0.01850118301808834,
            -0.09841219335794449,
            -0.007869359105825424,
            -0.007862210273742676,
            0.014407706446945667,
            0.0510883703827858,
            -0.1916963905096054,
            0.08174863457679749,
            -0.11736191809177399,
            -0.03033360280096531,
            0.018356245011091232,
            0.015442520380020142,
            -0.08948258310556412,
            -0.18592965602874756,
            0.12675149738788605,
            0.1066865622997284,
            -0.052542705088853836,
            -0.1085960865020752,
            0.12217821925878525,
            0.14383994042873383,
            -0.09406554698944092,
            -0.022400155663490295,
            -0.04664648696780205,
            -0.04439035430550575,
            0.01233907975256443,
            -0.09708257019519806,
            -0.11805795878171921,
            0.08661076426506042,
            -0.0967337116599083,
            0.0004172160115558654,
            -0.16991104185581207,
            -0.009246828965842724,
            0.0308630783110857,
            -0.009302987717092037,
            0.11354115605354309,
            0.09694413840770721,
            0.07655824720859528,
            0.11365804076194763,
            0.05861666798591614,
            0.07844322919845581,
            -0.07907426357269287,
            -0.13435675203800201,
            0.08856712281703949,
            -0.15602843463420868,
            -0.05857942998409271,
            0.09988906234502792,
            0.18955685198307037,
            -0.05700211971998215,
            0.014874267391860485,
            0.021941427141427994,
            -0.05421290919184685,
            -0.05969882011413574,
            0.11608633399009705,
            0.15227116644382477,
            -0.03034125454723835,
            0.16779004037380219,
            0.03688754513859749,
            -0.04552390053868294,
            0.0012991396943107247,
            -0.18305039405822754,
            0.12456565350294113,
            0.008547919802367687,
            0.02115243300795555,
            -0.11578518152236938,
            0.008985907770693302,
            0.0028175159823149443,
            -0.053981054574251175,
            -0.11086912453174591,
            0.04691465198993683,
            -0.0762939304113388,
            -0.152839794754982,
            0.08329042047262192,
            -0.06819277256727219,
            -0.08378227055072784,
            -0.13084250688552856,
            0.05647609010338783,
            -0.012041513808071613,
            -0.057554878294467926,
            0.046083901077508926,
            -0.14867712557315826,
            -0.11114469915628433,
            0.016273673623800278,
            -0.0059689865447580814,
            -0.013425352983176708,
            -0.010576396249234676,
            -0.02122374437749386,
            -0.09396126866340637,
            -0.15126767754554749,
            -0.008096622303128242,
            0.004789173603057861,
            0.08069305121898651,
            -0.03735387325286865,
            -0.002017274498939514,
            0.05374008044600487,
            0.02105497196316719,
            -0.0016926046228036284,
            0.04039691388607025,
            -0.14649131894111633,
            -0.19171616435050964,
            0.05106319114565849,
            -0.04707854241132736,
            -0.009297912940382957,
            0.11547163128852844,
            -0.014493190683424473,
            0.06021041050553322,
            0.023271195590496063,
            -0.07290707528591156,
            -0.1561913937330246,
            -0.06536860764026642,
            -0.09808335453271866,
            -0.030497785657644272,
            0.19342632591724396,
            -0.15352074801921844,
            -0.18448205292224884,
            -0.04508044943213463,
            -0.010716244578361511,
            -0.0664723813533783,
            -0.06411832571029663,
            0.041565168648958206,
            0.06498877704143524,
            -0.0962681993842125,
            -0.07512026280164719,
            0.08759775757789612,
            -0.020677844062447548,
            0.1146831065416336,
            0.09907964617013931,
            0.011859196238219738,
            -0.10279581695795059,
            0.05792153254151344,
            -0.0593576543033123,
            -0.09449481964111328,
            -0.04114023223519325,
            0.02120228111743927,
            0.12800286710262299,
            0.1176343485713005,
            -0.020171839743852615,
            -0.09646251797676086,
            -0.21060822904109955,
            0.124353788793087,
            0.1499575823545456,
            -0.06161727011203766,
            -0.22619305551052094,
            0.09303795546293259,
            -0.04639768972992897,
            0.07631408423185349,
            0.19848060607910156,
            -0.09073684364557266,
            0.12048046290874481,
            0.03929426893591881,
            0.04991885647177696,
            -0.03549472242593765,
            0.19066566228866577,
            -0.07090316712856293,
            -0.3407730460166931,
            0.030680589377880096,
            -0.2108698934316635,
            0.09371890872716904,
            0.09686388075351715,
            -0.031375885009765625,
            -0.1033330112695694,
            0.04866870120167732,
            0.10111087560653687,
            -0.050596244633197784,
            -0.0035064672119915485,
            0.03586902841925621,
            0.1770392805337906,
            0.053092584013938904,
            -0.023314865306019783,
            -0.013441579416394234,
            0.1470756232738495,
            -0.048772405833005905,
            -0.18522797524929047,
            -0.049699053168296814,
            -0.16975855827331543,
            -0.13222739100456238,
            0.14893925189971924,
            -0.10622180998325348,
            -0.10841251164674759,
            -0.19010554254055023,
            0.017571909353137016,
            -0.08058207482099533,
            -0.14753122627735138,
            0.04682540148496628,
            -0.058678094297647476,
            0.03066922351717949,
            -0.1546308994293213,
            -0.22955358028411865,
            0.1287423074245453,
            0.028933273628354073,
            -0.014891891740262508,
            0.11348908394575119,
            -0.042552147060632706,
            -0.03579449653625488,
            -0.09037692099809647,
            -0.09545466303825378,
            -0.19054478406906128,
            -0.06498190760612488,
            0.146952286362648,
            -0.09452827274799347,
            -0.14074870944023132,
            -0.1092313751578331,
            -0.10610967874526978,
            0.1095142811536789,
            -0.018870869651436806,
            -0.026816343888640404,
            0.11045653373003006,
            0.08466595411300659,
            -0.04287799820303917,
            -0.06892426311969757,
            -0.012931029312312603,
            -0.08717654645442963,
            0.06481876969337463,
            -0.052097681909799576,
            -0.06560314446687698,
            -0.030054666101932526,
            -0.018186617642641068,
            0.24644222855567932,
