{
  "timestamp": "2026-02-03T02:30:53.125Z",
  "episode": 20,
  "numAgents": 3,
  "valSharpe": -37.1494216123726,
  "valPnL": -29.537254908709954,
  "valWinRate": 30,
  "valTrades": 10,
  "avgRiskReward": 0.8125696784435569,
  "strategyUsage": [
    "0",
    "34",
    "64",
    "3",
    "0"
  ],
  "config": {
    "numAgents": 3,
    "votingMethod": "majority",
    "trainSplit": 0.8,
    "monthsOfData": 6,
    "episodes": 30,
    "episodeLength": 1000,
    "trainFrequency": 4,
    "batchSize": 64,
    "bufferSize": 30000,
    "dqn": {
      "inputSize": 42,
      "hiddenLayers": [
        128,
        64,
        32
      ],
      "outputSize": 5,
      "learningRate": 0.0008,
      "gamma": 0.95,
      "tau": 0.01,
      "epsilonStart": 1,
      "epsilonEnd": 0.25,
      "epsilonDecay": 0.996,
      "dropout": 0.15,
      "l2Regularization": 0.005,
      "useBatchNorm": true,
      "gradientClipNorm": 0.5,
      "useHuberLoss": true,
      "huberDelta": 1,
      "actionBias": true,
      "actionBiasDecay": 0.998
    },
    "env": {
      "initialCapital": 10000,
      "positionSizePercent": 0.1,
      "commission": 0.001,
      "slippage": 0.0005,
      "lookbackPeriod": 100,
      "maxBarsPerEpisode": null,
      "maxDrawdownLimit": 0.15,
      "maxBarsInPosition": 100,
      "kbConfig": {
        "enabled": true,
        "addKBFeatures": true,
        "useKBRewardShaping": true
      }
    },
    "walkForward": {
      "enabled": true,
      "trainWindow": 2500,
      "testWindow": 500,
      "stepSize": 700
    },
    "earlyStoppingPatience": 25,
    "minImprovement": 0.02,
    "logInterval": 10,
    "evalInterval": 20,
    "diagnosticsInterval": 50
  },
  "weights": [
    {
      "weights": [
        {
          "shape": [
            42,
            128
          ],
          "data": [
            -0.015099226497113705,
            -0.06373082846403122,
            -0.24208389222621918,
            -0.03573857247829437,
            0.09766057878732681,
            -0.033968690782785416,
            0.02214394323527813,
            0.11665577441453934,
            0.06003387272357941,
            -0.11661012470722198,
            0.17743635177612305,
            -0.021969569846987724,
            0.06927365809679031,
            -0.07015024870634079,
            -0.04209066182374954,
            0.018183330073952675,
            0.02566227689385414,
            -0.21542243659496307,
            0.0068559530191123486,
            -0.09988632798194885,
            -0.09064231067895889,
            -0.02299252338707447,
            0.0861378088593483,
            0.07592041045427322,
            -0.09000805020332336,
            -0.0668846070766449,
            -0.018357405439019203,
            0.06302405893802643,
            -0.07584262639284134,
            0.015678348019719124,
            0.03205268457531929,
            -0.2699035108089447,
            0.1844821721315384,
            -0.07416017353534698,
            -0.05005311220884323,
            0.015887796878814697,
            -0.1188630759716034,
            -0.02697356976568699,
            -0.03229539841413498,
            -0.027868827804923058,
            0.1482030302286148,
            -0.12586884200572968,
            0.07320999354124069,
            0.11541815102100372,
            0.0020320406183600426,
            0.059182215481996536,
            -0.10488125681877136,
            0.19940297305583954,
            -0.04292863979935646,
            -0.10065330564975739,
            0.008781894110143185,
            -0.06405141949653625,
            0.17818909883499146,
            -0.10005050152540207,
            0.07468584179878235,
            0.02741851657629013,
            -0.05256370082497597,
            -0.13324357569217682,
            0.07867496460676193,
            0.04343756288290024,
            0.1341235488653183,
            -0.18127155303955078,
            0.07840847223997116,
            -0.06896810233592987,
            0.06929845362901688,
            -0.10184086859226227,
            -0.0022241214755922556,
            0.041205331683158875,
            0.10770110040903091,
            0.020285682752728462,
            -0.10550782084465027,
            -0.34372133016586304,
            0.02421981655061245,
            0.10608168691396713,
            -0.03136545419692993,
            0.10762864351272583,
            -0.08372952789068222,
            0.09921663999557495,
            -0.029189949855208397,
            -0.11461212486028671,
            0.000527281838003546,
            0.2001778781414032,
            0.039256252348423004,
            0.008934756740927696,
            -0.09267643094062805,
            -0.09209189563989639,
            0.09977834671735764,
            -0.13905906677246094,
            -0.2734149396419525,
            -0.07356154918670654,
            0.1505255550146103,
            -0.04329083487391472,
            0.15323351323604584,
            0.03917320445179939,
            0.05390739068388939,
            0.20477697253227234,
            -0.10644505172967911,
            0.0515635646879673,
            0.04991959035396576,
            -0.21321508288383484,
            -0.045051295310258865,
            0.11222004890441895,
            0.09521537274122238,
            0.03891335800290108,
            0.10144392400979996,
            -0.30414238572120667,
            0.1252320557832718,
            -0.03526681289076805,
            0.21059350669384003,
            -0.002352690091356635,
            0.0616663359105587,
            0.04961061850190163,
            0.16620217263698578,
            0.05163852125406265,
            0.0422661229968071,
            -0.16163480281829834,
            -0.019229944795370102,
            -0.04067465290427208,
            0.007420002482831478,
            0.039498090744018555,
            -0.1455383002758026,
            -0.16799893975257874,
            -0.14552851021289825,
            -0.057237472385168076,
            -0.06094905361533165,
            -0.020823685452342033,
            -0.14717213809490204,
            -0.2931593060493469,
            0.037611402571201324,
            -0.016881825402379036,
            0.05726727843284607,
            0.09845726191997528,
            0.011899573728442192,
            -0.10300686210393906,
            -0.18215660750865936,
            0.012217005714774132,
            -0.05788756161928177,
            -0.22222605347633362,
            -0.10255061835050583,
            0.23729047179222107,
            -0.012926422990858555,
            -0.17467759549617767,
            0.08496025949716568,
            -0.0551396980881691,
            -0.10354132205247879,
            0.07555107772350311,
            -0.07553137093782425,
            0.05079273134469986,
            -0.14438436925411224,
            0.0647449865937233,
            -0.03345675393939018,
            -0.2859025001525879,
            -0.06794875860214233,
            0.09532338380813599,
            0.11544623225927353,
            0.0347624272108078,
            0.0905793085694313,
            0.0008568078046664596,
            -0.009235421195626259,
            0.057843852788209915,
            -0.05305640399456024,
            -0.14264783263206482,
            -0.05908159911632538,
            0.09340745955705643,
            0.018422462046146393,
            -0.08929868787527084,
            0.17067387700080872,
            -0.0037815470714122057,
            0.07639826834201813,
            -0.010858075693249702,
            0.02174103818833828,
            -0.2782707214355469,
            0.19335301220417023,
            0.02619243785738945,
            0.04832187294960022,
            -0.004030938725918531,
            0.021684175357222557,
            0.0008399885264225304,
            -0.0721258819103241,
            -0.252694696187973,
            0.14698202908039093,
            -0.10126522928476334,
            -0.1466660350561142,
            0.3276149034500122,
            -0.16914086043834686,
            -0.2371465116739273,
            0.16594082117080688,
            0.3177247643470764,
            -0.1605372279882431,
            -0.046710897237062454,
            -0.03024851717054844,
            -0.0008248524973168969,
            -0.10454664379358292,
            -0.022018490359187126,
            0.006312820594757795,
            -0.09760115295648575,
            0.1265592724084854,
            0.002105264225974679,
            -0.0766139030456543,
            -0.14830219745635986,
            0.1213129460811615,
            0.03286696597933769,
            -0.08545608818531036,
            0.15202543139457703,
            -0.019809367135167122,
            -0.1389167755842209,
            0.004729664418846369,
            -0.16441313922405243,
            -0.22007112205028534,
            0.012906938791275024,
            -0.026590412482619286,
            0.03421751782298088,
            -0.16575944423675537,
            0.26593583822250366,
            0.15290991961956024,
            -0.2214052826166153,
            0.0028081685304641724,
            -0.0804443284869194,
            -0.08118089288473129,
            0.09654650092124939,
            0.16687041521072388,
            -0.12557868659496307,
            -0.1107691079378128,
            -0.2110951542854309,
            0.06578618288040161,
            -0.08863949030637741,
            0.058844368904829025,
            -0.17752084136009216,
            0.1807110756635666,
            -0.020584074780344963,
            -0.23423126339912415,
            -0.0829704999923706,
            -0.14306659996509552,
            -0.10545524209737778,
            0.04493379965424538,
            -0.03187388554215431,
            -0.06294189393520355,
            0.26690492033958435,
            0.21291159093379974,
            0.04105067253112793,
            0.09715990722179413,
            -0.07226381450891495,
            -0.08955562114715576,
            -0.10029807686805725,
            -0.025666184723377228,
            -0.1755581945180893,
            0.15166419744491577,
            0.11114224046468735,
            -0.07519150525331497,
            -0.1385674625635147,
            0.0005527437897399068,
            0.052341219037771225,
            0.10123740881681442,
            -0.03150391951203346,
            0.0019690373446792364,
            0.06706037372350693,
            -0.08109081536531448,
            0.1909969449043274,
            -0.08648712188005447,
            -0.05789728835225105,
            0.10492731630802155,
            -0.31186753511428833,
            0.05564010143280029,
            0.13885298371315002,
            -0.056642767041921616,
            -0.05163567513227463,
            -0.17583179473876953,
            0.3110264539718628,
            -0.14814922213554382,
            -0.18007856607437134,
            -0.1242183968424797,
            0.015411043539643288,
            -0.07470352202653885,
            0.09376085549592972,
            -0.02280827797949314,
            -0.0660756453871727,
            -0.019976072013378143,
            -0.08715106546878815,
            0.1286633163690567,
            -0.33402371406555176,
            0.1693454533815384,
            0.2568967044353485,
            -0.009961537085473537,
            -0.022344281896948814,
            0.0029830769635736942,
            -0.0273454412817955,
            0.04637831076979637,
            0.16784541308879852,
            -0.13272681832313538,
            -0.2179756760597229,
            0.07481075078248978,
            -0.127559095621109,
            0.07171642035245895,
            0.0663795918226242,
            -0.08597198873758316,
            -0.06955445557832718,
            -0.03369293734431267,
            0.014608235098421574,
            -0.12987273931503296,
            -0.13444949686527252,
            0.006761563941836357,
            -0.08190815150737762,
            -0.02404564805328846,
            0.005007028114050627,
            -0.15295320749282837,
            0.1978653073310852,
            -0.13244996964931488,
            -0.21940506994724274,
            0.15346771478652954,
            -0.09410244226455688,
            -0.07712333649396896,
            0.026001522317528725,
            0.09496012330055237,
            -0.20905832946300507,
            -0.15094998478889465,
            0.15710391104221344,
            0.03529677540063858,
            -0.09770470857620239,
            -0.08235549926757812,
            0.2436273992061615,
            -0.06157337501645088,
            0.021880079060792923,
            0.06778373569250107,
            -0.16434526443481445,
            0.1536104679107666,
            -0.004222368821501732,
            0.04254847392439842,
            -0.24010823667049408,
            -0.10344964265823364,
            0.06976794451475143,
            0.05872657895088196,
            -0.045145563781261444,
            0.10139405727386475,
            0.02840067632496357,
            0.033546604216098785,
            -0.20687353610992432,
            -0.019942346960306168,
            -0.21025268733501434,
            -0.13953463733196259,
            -0.06167012080550194,
            -0.020902246236801147,
            0.30678728222846985,
            -0.08456109464168549,
            0.0693148598074913,
            0.22321325540542603,
            -0.2270897924900055,
            -0.10500989854335785,
            0.19833704829216003,
            -0.1640111804008484,
            0.047629471868276596,
            -0.08120443671941757,
            -0.1590116322040558,
            -0.17230746150016785,
            -0.13792593777179718,
            0.10308729857206345,
            -0.19418272376060486,
            0.07798813283443451,
            -0.10719484090805054,
            -0.14307981729507446,
            -0.09962695837020874,
            0.13617882132530212,
            0.0576477125287056,
            -0.061564721167087555,
            -0.01354740560054779,
            0.1760978400707245,
            0.3636215329170227,
            0.2688060402870178,
            0.02869688719511032,
            0.31600192189216614,
            0.08434204012155533,
            -0.048645976930856705,
            -0.20677605271339417,
            0.15822914242744446,
            -0.24144117534160614,
            -0.019404923543334007,
            0.061243802309036255,
            0.09593450278043747,
            0.11365964263677597,
            -0.10409818589687347,
            -0.2340211570262909,
            -0.026529598981142044,
            0.003682502545416355,
            0.19888289272785187,
            0.14193737506866455,
            -0.020269451662898064,
            -0.06450899690389633,
            -0.08864528685808182,
            -0.20072026550769806,
            0.021312538534402847,
            0.0012421268038451672,
            -0.010514525696635246,
            -0.19386225938796997,
            -0.05162176489830017,
            0.08381790667772293,
            -0.17569810152053833,
            -0.034183602780103683,
            0.028462696820497513,
            0.08360669761896133,
            -0.1258976012468338,
            -0.14695490896701813,
            -0.08661465346813202,
            0.08875148743391037,
            -0.17911387979984283,
            0.12691599130630493,
            -0.24833697080612183,
            0.14425724744796753,
            -0.11224720627069473,
            -0.04373651742935181,
            -0.1599186211824417,
            0.014574648812413216,
            0.1262442171573639,
            0.045550476759672165,
            0.07481157034635544,
            0.03812823444604874,
            -0.03866393119096756,
            0.15022148191928864,
            -0.09988165646791458,
            -0.29735055565834045,
            0.005453475285321474,
            0.19382372498512268,
            -0.21317753195762634,
            -0.0012271212181076407,
            -0.09013727307319641,
            0.045909807085990906,
            -0.13704219460487366,
            -0.2094973772764206,
            -0.08719080686569214,
            -0.10190657526254654,
            0.0008297697640955448,
            -0.09169497340917587,
            -0.14970466494560242,
            0.0419376939535141,
            -0.026861095800995827,
            -0.007283098995685577,
            0.13467468321323395,
            -0.11784544587135315,
            -0.041559793055057526,
            -0.09933896362781525,
            0.05242191255092621,
            0.0872625932097435,
            -0.24936921894550323,
            -0.02913229539990425,
            0.18602903187274933,
            0.09194610267877579,
            -0.08834569156169891,
            0.18752939999103546,
            -0.09471794962882996,
            0.1001976951956749,
            0.03638065606355667,
            -0.07635881751775742,
            -0.16183394193649292,
            -0.11380414664745331,
            0.055270418524742126,
            -0.07316070050001144,
            0.15255336463451385,
            -0.18173885345458984,
            0.1534758061170578,
            0.08430104702711105,
            -0.012319517321884632,
            0.01115314569324255,
            0.021000929176807404,
            0.023508291691541672,
            -0.22026309370994568,
            -0.059155985713005066,
            0.07056956738233566,
            0.06400581449270248,
            -0.08247672021389008,
            -0.02555839903652668,
            0.0958273783326149,
            0.12252713739871979,
            0.20492242276668549,
            -0.15447379648685455,
            0.006337168160825968,
            -0.1516043245792389,
            0.009305523708462715,
            -0.05156467854976654,
            0.048921216279268265,
            -0.15746358036994934,
            0.03342904523015022,
            -0.16790299117565155,
            -0.08587902784347534,
            -0.07051266729831696,
            -0.014394720084965229,
            -0.0882072001695633,
            0.17865362763404846,
            0.08993503451347351,
            0.02156703919172287,
            -0.10923372954130173,
            0.12364757806062698,
            -0.0283656045794487,
            0.11525161564350128,
            -0.2112242877483368,
            0.05186567083001137,
            -0.022423122078180313,
            0.06720039993524551,
            0.10754244774580002,
            0.14170880615711212,
            -0.049690425395965576,
            -0.05359940975904465,
            -0.14365436136722565,
            0.09490341693162918,
            0.147032231092453,
            0.05747956037521362,
            -0.10173412412405014,
            0.058795828372240067,
            -0.06491801142692566,
            -0.0756816565990448,
            0.09648386389017105,
            0.13748608529567719,
            0.013377382420003414,
            0.020136665552854538,
            0.14895974099636078,
            -0.1792217642068863,
            -0.16483117640018463,
            0.09879019856452942,
            0.08478651940822601,
            0.010253752581775188,
            -0.010370821692049503,
            -0.008732755668461323,
            0.10533212125301361,
            -0.1784450262784958,
            0.07411103695631027,
            -0.019134236499667168,
            -0.008015936240553856,
            -0.03743553161621094,
            -0.1675495207309723,
            -0.111265629529953,
            0.12334588170051575,
            -0.034940119832754135,
            -0.14932458102703094,
            0.017702819779515266,
            -0.003733891760930419,
            0.13495194911956787,
            0.19554856419563293,
            -0.19053427875041962,
            -0.16513149440288544,
            0.14364109933376312,
            -0.12169843167066574,
            0.0872340202331543,
            -0.07418353855609894,
            -0.11320946365594864,
            0.14885886013507843,
            0.05621389299631119,
            -0.0006589833647012711,
            -0.08842883259057999,
            0.06838897615671158,
            -0.04159984737634659,
            -0.2045144885778427,
            0.15228363871574402,
            0.033905427902936935,
            -0.027858927845954895,
            -0.1972893476486206,
            -0.023332418873906136,
            -0.10424178093671799,
            -0.04986557364463806,
            -0.2113102674484253,
            0.22157807648181915,
            0.09734314680099487,
            0.17037412524223328,
            -0.04290108010172844,
            -0.020250985398888588,
            -0.0579548105597496,
            -0.11067570000886917,
            -0.11236144602298737,
            -0.027739936485886574,
            0.044190194457769394,
            -0.05147987976670265,
            0.05893361195921898,
            -0.010089605115354061,
            0.018951892852783203,
            0.0942656472325325,
            0.029093461111187935,
            -0.16342255473136902,
            -0.0772862434387207,
            -0.022809818387031555,
            0.08041784912347794,
            -0.25427597761154175,
            -0.03691672533750534,
            0.059483274817466736,
            -0.08982297033071518,
            0.1114833727478981,
            0.05954375118017197,
            -0.08461261540651321,
            -0.08688940107822418,
            0.002471107989549637,
            -0.1810120940208435,
            -0.07069302350282669,
            -0.012345944531261921,
            -0.03344346955418587,
            0.11489513516426086,
            -0.1523878574371338,
            0.0011418357025831938,
            -0.08275581151247025,
            -0.13750386238098145,
            0.030589060857892036,
            -0.15717899799346924,
            0.08171126991510391,
            -0.130099818110466,
            -0.030171439051628113,
            0.06455466896295547,
            -0.07327786087989807,
            0.10987164825201035,
            0.09672480076551437,
            0.18920966982841492,
            -0.017382755875587463,
            0.05630340054631233,
            0.21592967212200165,
            -0.059685975313186646,
            -0.00718707637861371,
            -0.10136242210865021,
            -0.07468131929636002,
            -0.06633907556533813,
            -0.07752791792154312,
            0.15277113020420074,
            0.06045154482126236,
            0.10285169631242752,
            0.19579090178012848,
            0.1635175496339798,
            0.02011943608522415,
            0.1481422334909439,
            0.030678484588861465,
            -0.038463618606328964,
            0.08379651606082916,
            -0.002942070597782731,
            0.031152542680501938,
            -0.0811207965016365,
            -0.08394906669855118,
            -0.11288692057132721,
            -0.19811204075813293,
            -0.0713309645652771,
            0.043493106961250305,
            0.0018652343424037099,
            0.14122623205184937,
            0.06707067042589188,
            -0.19874943792819977,
            -0.08108165115118027,
            -0.09526975452899933,
            0.11817196011543274,
            0.029395107179880142,
            0.14887885749340057,
            0.0049333455972373486,
            0.016490640118718147,
            -0.10102801769971848,
            0.06148303300142288,
            -0.07374327629804611,
            -0.0332380048930645,
            -0.04635327681899071,
            0.1502773016691208,
            -0.11462903767824173,
            0.08238034695386887,
            -0.0923895612359047,
            0.1318054348230362,
            -0.11921355128288269,
            -0.06383635103702545,
            0.015367991290986538,
            0.06933716684579849,
            0.039866432547569275,
            -0.11403759568929672,
            -0.050512149930000305,
            -0.04061257094144821,
            0.12101376801729202,
            0.03484559804201126,
            0.049131542444229126,
            -0.07080940157175064,
            -0.038503486663103104,
            -0.006266159936785698,
            0.11782249808311462,
            -0.054971542209386826,
            -0.27434638142585754,
            -0.09240688383579254,
            -0.2772006392478943,
            -0.08919268101453781,
            0.013142113573849201,
            0.10843537747859955,
            0.019148148596286774,
            0.16186198592185974,
            -0.21745836734771729,
            -0.0700698271393776,
            -0.20405393838882446,
            -0.08546445518732071,
            0.047235745936632156,
            -0.027786415070295334,
            -0.05274977535009384,
            0.060478899627923965,
            -0.1093708798289299,
            -0.009824703447520733,
            -0.02615237422287464,
            -0.06528347730636597,
            -0.11851654946804047,
            -0.09554696083068848,
            0.006453398615121841,
            0.181207537651062,
            -0.06373759359121323,
            -0.0009505915222689509,
            -0.07726290822029114,
            0.07510031759738922,
            0.03143317624926567,
            -0.09906981140375137,
            -0.0783158466219902,
            0.17802923917770386,
            -0.040024030953645706,
            0.08467426151037216,
            0.022688379511237144,
            0.06097026541829109,
            -0.07396963238716125,
            -0.05574900284409523,
            -0.04035560041666031,
            0.040376726537942886,
            -0.15166552364826202,
            -0.007967068813741207,
            -0.012598864734172821,
            0.08166773617267609,
            0.017745591700077057,
            -0.18107406795024872,
            -0.006546552758663893,
            0.09003785252571106,
            0.030509399250149727,
            -0.01429200079292059,
            0.08925781399011612,
            -0.013763549737632275,
            0.11648528277873993,
            -0.1358247697353363,
            0.20985861122608185,
            0.03176095336675644,
            0.08512090146541595,
            -0.10022531449794769,
            -0.025287950411438942,
            -0.006287514232099056,
            -0.09811676293611526,
            -0.08662082254886627,
            -0.04348064586520195,
            -0.06323932111263275,
            -0.094292551279068,
            -0.05525290220975876,
            -0.015516791492700577,
            -0.03775659576058388,
            0.05945555493235588,
            0.04522628337144852,
            -0.1270572990179062,
            -0.06656575202941895,
            0.08959364145994186,
            0.026104824617505074,
            -0.2570030987262726,
            0.06863041967153549,
            0.11899621784687042,
            0.1399620920419693,
            0.051001690328121185,
            -0.06495949625968933,
            0.052483394742012024,
            -0.01771366037428379,
            0.019946588203310966,
            -0.057288456708192825,
            0.1692928969860077,
            0.0973246693611145,
            -0.15853402018547058,
            -0.22789329290390015,
            0.11371106654405594,
            0.12014932930469513,
            0.00011223227193113416,
            -0.09036388993263245,
            -0.021206969395279884,
            0.05063121020793915,
            -0.06532566994428635,
            0.0888632982969284,
            0.13082797825336456,
            0.008311973884701729,
            0.10296787321567535,
            -0.30083131790161133,
            -0.024774981662631035,
            -0.01526699773967266,
            0.2666844427585602,
            -0.03287111967802048,
            -0.006832228507846594,
            0.022728843614459038,
            -0.043805789202451706,
            -0.15284448862075806,
            -0.005634392146021128,
            -0.04284468665719032,
            0.20807845890522003,
            0.048575904220342636,
            -0.17019248008728027,
            -0.10132938623428345,
            0.028111808001995087,
            0.023989858105778694,
            0.08013146370649338,
            0.07613711804151535,
            -0.050998564809560776,
            0.1338706761598587,
            0.19534440338611603,
            -0.11568006128072739,
            -0.08948290348052979,
            -0.1721820831298828,
            -0.10070034861564636,
            0.08758702129125595,
            0.047270867973566055,
            -0.1209760308265686,
            0.13848206400871277,
            -0.22331203520298004,
            -0.19116529822349548,
            0.23055008053779602,
            -0.1022331565618515,
            -0.2146277129650116,
            0.17761367559432983,
            0.07939909398555756,
            0.07253377884626389,
            0.040230780839920044,
            -0.10320357978343964,
            -0.08739933371543884,
            -0.04788220301270485,
            -0.040796782821416855,
            0.017491022124886513,
            -0.0861067995429039,
            0.0290681105107069,
            -0.023126456886529922,
            -0.047395315021276474,
            -0.06970417499542236,
            -0.0518265999853611,
            0.034083541482686996,
            0.1270074099302292,
            0.017295686528086662,
            -0.07879021763801575,
            0.00037790011265315115,
            0.03922319412231445,
            -0.25272923707962036,
            -0.24403630197048187,
            0.0728759914636612,
            0.10867839306592941,
            0.2297966629266739,
            -0.15162703394889832,
            0.182402104139328,
            0.08387711644172668,
            0.2009350061416626,
            -0.12628322839736938,
            0.07756611704826355,
            -0.028241438791155815,
            -0.11637790501117706,
            -0.20295746624469757,
            0.193072110414505,
            -0.035930734127759933,
            -0.007755778729915619,
            0.2909957468509674,
            0.012662502005696297,
            0.06533502787351608,
            0.0791553482413292,
            -0.029468374326825142,
            0.16525843739509583,
            0.1529381275177002,
            0.025581490248441696,
            -0.0823930874466896,
            0.009562250226736069,
            -0.10204139351844788,
            0.06858968734741211,
            0.10841937363147736,
            -0.14316482841968536,
            0.07817592471837997,
            0.057025209069252014,
            -0.13630761206150055,
            -0.16932541131973267,
            -0.08201476186513901,
            -0.1995999962091446,
            -0.004717065487056971,
            -0.020581960678100586,
            0.002286406233906746,
            0.15996912121772766,
            -0.13285551965236664,
            0.019052758812904358,
            -0.07116366177797318,
            0.10460620373487473,
            -0.04901910945773125,
            -0.05786481872200966,
            0.15894676744937897,
            0.12044454365968704,
            0.05302063748240471,
            0.13441947102546692,
            -0.028213530778884888,
            -0.06893973052501678,
            0.20670713484287262,
            0.20352965593338013,
            0.12255517393350601,
            -0.04951583221554756,
            0.13781292736530304,
            0.16808752715587616,
            -0.07790957391262054,
            0.03567570447921753,
            0.0415911041200161,
            0.10432084649801254,
            0.007412352599203587,
            0.0416831374168396,
            0.009694769978523254,
            0.10745766758918762,
            -0.048666611313819885,
            0.05753326416015625,
            -0.025684798136353493,
            0.007113281637430191,
            -0.11338276416063309,
            -0.05445779487490654,
            0.030717642977833748,
            -0.13554315268993378,
            0.003951025195419788,
            -0.14899536967277527,
            0.0591391995549202,
            0.01902899146080017,
            0.13543665409088135,
            -0.2291884422302246,
            -0.20794019103050232,
            -0.015824785456061363,
            -0.10176301747560501,
            0.04261435195803642,
            -0.12039611488580704,
            -0.14436547458171844,
            0.03822781890630722,
            -0.17958150804042816,
            -0.09201404452323914,
            -0.007839716039597988,
            -0.1604517698287964,
            -0.08475878834724426,
            -0.010984821245074272,
            0.07633473724126816,
            0.05859064310789108,
            0.0701795369386673,
            0.0780642181634903,
            -0.09843351691961288,
            0.07110842317342758,
            -0.021238116547465324,
            -0.10302545130252838,
            -0.06937135756015778,
            0.13502657413482666,
            0.05193279683589935,
            0.09736931324005127,
            0.15459893643856049,
            0.2172275334596634,
            0.05186295881867409,
            -0.1446993201971054,
            -0.0073811449110507965,
            -0.17529603838920593,
            -0.14422906935214996,
            -0.1573299616575241,
            -0.25850576162338257,
            0.047815289348363876,
            0.10785079002380371,
            -0.03632055222988129,
            -0.17029878497123718,
            0.16516177356243134,
            -0.06157798692584038,
            0.06902848929166794,
            0.05780941620469093,
            0.05194570869207382,
            0.04737625643610954,
            0.03536270931363106,
            0.15083026885986328,
            0.03237852826714516,
            0.2257625311613083,
            0.12284519523382187,
            -0.0829450711607933,
            -0.26480379700660706,
            -0.014601573348045349,
            0.007482894696295261,
            0.2271440476179123,
            0.08713163435459137,
            -0.07138947397470474,
            -0.09818348288536072,
            0.15934231877326965,
            0.0941280946135521,
            0.10344362258911133,
            -0.03604164719581604,
            0.018591729924082756,
            0.021829968318343163,
            -0.21768718957901,
            -0.115736223757267,
            -0.0031647630967199802,
            -0.12107913196086884,
            -0.1298721730709076,
            -0.1278752237558365,
            -0.0921764075756073,
            0.12848061323165894,
            0.007467128336429596,
            0.04763771966099739,
            0.03184127435088158,
            -0.10348077118396759,
            0.08164789527654648,
            0.09727432578802109,
            -0.13915088772773743,
            0.10894574224948883,
            -0.10858846455812454,
            0.12430290132761002,
            -0.2141258269548416,
            0.06052633374929428,
            -0.013879460282623768,
            0.06523031741380692,
            -0.03636646270751953,
            -0.05122080072760582,
            0.016602251678705215,
            -0.015734266489744186,
            0.1265181601047516,
            -0.019577506929636,
            -0.062214747071266174,
            -0.05532769113779068,
            -0.012586462311446667,
            -0.028797855600714684,
            -0.00922625232487917,
            -0.09114594012498856,
            -0.009591513313353062,
            -0.011344043537974358,
            0.1661386787891388,
            -0.04231465235352516,
            -0.11570579558610916,
            0.20950865745544434,
            0.122747503221035,
            0.09871364384889603,
            -0.021050648763775826,
            -0.045047953724861145,
            0.1112470030784607,
            -0.005513158161193132,
            -0.043414145708084106,
            0.057418227195739746,
            -0.19249308109283447,
            -0.09474435448646545,
            0.062221623957157135,
            0.03779999911785126,
            0.07653028517961502,
            0.06682958453893661,
            0.13144847750663757,
            -0.03193262591958046,
            0.09325531125068665,
            -0.06906389445066452,
            -0.05524297058582306,
            -0.29396378993988037,
            0.09502820670604706,
            0.13711097836494446,
            0.07474227994680405,
            0.10927671194076538,
            -0.14926114678382874,
            0.024950295686721802,
            0.039655741304159164,
            -0.10781247168779373,
            -0.004700383171439171,
            -0.107709601521492,
            0.12894825637340546,
            -0.04566861689090729,
            -0.07322552800178528,
            0.12493337690830231,
            -0.21601030230522156,
            -0.03484329208731651,
            -0.06801147758960724,
            -0.1761101484298706,
            -0.009634817019104958,
            -0.12289722263813019,
            -0.04827353358268738,
            0.035644933581352234,
            -0.015454225242137909,
            0.21482035517692566,
            0.09007461369037628,
            -0.11425085365772247,
            0.152102991938591,
            -0.06157028675079346,
            0.06558495759963989,
            0.012947790324687958,
            -0.0022760024294257164,
            -0.004085587337613106,
            0.028385503217577934,
            -0.10451526939868927,
            0.029195282608270645,
            -0.13085393607616425,
            -0.07627011835575104,
            0.09901517629623413,
            -0.12749487161636353,
            0.18612182140350342,
            -0.21447059512138367,
            -0.12017400562763214,
            -0.021338654682040215,
            -0.14862589538097382,
            0.13525573909282684,
            -0.17161019146442413,
            0.02407759800553322,
            -0.009357252158224583,
            -0.20027916133403778,
            -0.11655563116073608,
            0.13295528292655945,
            0.07867781072854996,
            -0.07962480187416077,
            0.08997929841279984,
            -0.06158066913485527,
            -0.059368398040533066,
            0.2666166424751282,
            -0.00393299525603652,
            0.06479539722204208,
            -0.07511824369430542,
            -0.014936083927750587,
            0.17147718369960785,
            -0.11866506934165955,
            -0.18567126989364624,
            -0.17060786485671997,
            -0.18977218866348267,
            0.015361972153186798,
            0.06000451371073723,
            -0.09890084713697433,
            -0.2242601364850998,
            -0.03376479819417,
            0.07317911088466644,
            0.16594554483890533,
            -0.0974399670958519,
            0.02250541001558304,
            -0.0650225281715393,
            0.008356107398867607,
            -0.10364582389593124,
            -0.2135525494813919,
            0.12422513216733932,
            -0.13841129839420319,
            -0.11798833310604095,
            -0.2115754783153534,
            -0.03417108952999115,
            0.11161663383245468,
            -0.16213440895080566,
            -0.019175099208950996,
            -0.24771524965763092,
            -0.12643712759017944,
            0.09666428714990616,
            -0.11171859502792358,
            0.2575060725212097,
            0.013865292072296143,
            0.05387784540653229,
            -0.0035272371023893356,
            0.10936272144317627,
            0.03535587713122368,
            -0.16086837649345398,
            0.028813563287258148,
            -0.16638295352458954,
            -0.19489072263240814,
            -0.036829691380262375,
            -0.19336649775505066,
            0.12260892242193222,
            0.03699921816587448,
            -0.24439463019371033,
            0.0464455708861351,
            0.13358047604560852,
            -0.006019041407853365,
            0.1699226349592209,
            0.0658828541636467,
            0.04278341308236122,
            0.011720899492502213,
            0.056956756860017776,
            -0.00532808480784297,
            0.0707089826464653,
            -0.11036854982376099,
            0.004592215642333031,
            0.1562102735042572,
            -0.10859910398721695,
            0.08503281325101852,
            0.16814863681793213,
            -0.07325498759746552,
            -0.048960842192173004,
            0.05856539309024811,
            -0.0007396579021587968,
            0.007163780275732279,
            0.09523750096559525,
            0.09183874726295471,
            0.19112654030323029,
            -0.07430225610733032,
            0.07146760076284409,
            0.031273216009140015,
            -0.024623151868581772,
            -0.05950615182518959,
            0.06938758492469788,
            0.03173995763063431,
            -0.14544996619224548,
            -0.0965995192527771,
            0.018801407888531685,
            0.08129908889532089,
            -0.010454297065734863,
            -0.03482615202665329,
            0.06315001100301743,
            0.15795007348060608,
            -0.0912245512008667,
            0.04687826707959175,
            -0.15172548592090607,
            0.03362816199660301,
            -0.1183609813451767,
            0.11218443512916565,
            -0.07097291946411133,
            0.07901953905820847,
            -0.02605193294584751,
            -0.17153775691986084,
            -0.047750748693943024,
            0.017871417105197906,
            0.053212929517030716,
            0.006592408288270235,
            -0.132640078663826,
            0.1058177575469017,
            0.14875197410583496,
            0.014021557755768299,
            -0.08448563516139984,
            -0.018664944916963577,
            -0.10014627873897552,
            0.20793120563030243,
            0.14758585393428802,
            0.064476378262043,
            -0.12524878978729248,
            0.08840679377317429,
            0.15646275877952576,
            0.007652575150132179,
            -0.03208634629845619,
            -0.04223165288567543,
            0.13165466487407684,
            -0.13169783353805542,
            -0.11430779844522476,
            0.049702100455760956,
            -0.12262766808271408,
            -0.03601469472050667,
            0.08490898460149765,
            0.13052299618721008,
            -0.07522785663604736,
            -0.0030685747042298317,
            -0.1733398288488388,
            -0.18547172844409943,
            -0.05262435972690582,
            0.16578377783298492,
            -0.22036363184452057,
            0.20988725125789642,
            0.029801376163959503,
            -0.06407450884580612,
            -0.04552767425775528,
            0.09959357231855392,
            -0.0059387232176959515,
            -0.05377291142940521,
            -0.010949396528303623,
            0.025554073974490166,
            -0.13383816182613373,
            -0.18426354229450226,
            -0.1888127475976944,
            -0.10210658609867096,
            -0.1291491687297821,
            0.054739318788051605,
            -0.14338020980358124,
            0.009843944571912289,
            -0.024614736437797546,
            -0.04761673882603645,
            -0.09744777530431747,
            0.09898526221513748,
            0.13789863884449005,
            0.17410480976104736,
            -0.07681512087583542,
            0.11102238297462463,
            0.1791989505290985,
            0.20103010535240173,
            -0.0779721736907959,
            0.12549206614494324,
            -0.08483969420194626,
            0.12014219164848328,
            0.058313366025686264,
            -0.0435415618121624,
            0.021479200571775436,
            0.19527170062065125,
            -0.0015022711595520377,
            0.0467117615044117,
            -0.12871280312538147,
            -0.01760861650109291,
            -0.0034785172902047634,
            0.030990399420261383,
            -0.009606004692614079,
            0.06726165860891342,
            -0.01731649972498417,
            0.016211697831749916,
            -0.03791679069399834,
            0.014374679885804653,
            0.11833077669143677,
            -0.17515015602111816,
            -0.06677207350730896,
            0.2537262737751007,
            -0.08828987181186676,
            -0.06473451107740402,
            -0.015228630974888802,
            -0.004393095150589943,
            0.11121228337287903,
            -0.13215959072113037,
            -0.0025940316263586283,
            -0.06240614876151085,
            0.06537134945392609,
            -0.17731720209121704,
            0.17566093802452087,
            -0.08079447597265244,
            0.03315628692507744,
            0.009067011065781116,
            -0.07445191591978073,
            0.15483412146568298,
            0.07372727990150452,
            0.13715329766273499,
            -0.03329125791788101,
            -0.18887785077095032,
            0.0055332910269498825,
            0.13066011667251587,
            0.16546694934368134,
            0.0066108908504247665,
            0.025891460478305817,
            0.08501191437244415,
            0.021796679124236107,
            0.030945617705583572,
            -0.05647695064544678,
            0.08863042294979095,
            0.023845894262194633,
            -0.04780500382184982,
            0.017386244609951973,
            -0.09765303134918213,
            -0.077274851500988,
            -0.0016326985787600279,
            -0.03023473173379898,
            -0.11182577162981033,
            0.01740083284676075,
            0.059480275958776474,
            0.08950565755367279,
            0.0354117751121521,
            -0.22569462656974792,
            -0.19819074869155884,
            -0.20209823548793793,
            -0.06600016355514526,
            -0.0490088127553463,
            -0.09647869318723679,
            -0.13495564460754395,
            -0.02701558731496334,
            -0.1490357220172882,
            0.010387438349425793,
            -0.07743068784475327,
            0.07166416198015213,
            -0.07627525925636292,
            -0.036806557327508926,
            0.06016762554645538,
            -0.09372349828481674,
            -0.014222088269889355,
            0.12767209112644196,
            0.16673147678375244,
            0.10072173178195953,
            0.15570186078548431,
            0.10065189003944397,
            -0.10262024402618408,
            -0.042041487991809845,
            -0.038581959903240204,
            -0.013354480266571045,
            0.18845659494400024,
            -0.005161663983017206,
            0.055740099400281906,
            0.20739944279193878,
            -0.10103153437376022,
            0.04281981661915779,
            -0.02701437845826149,
            0.18890872597694397,
            -0.13326621055603027,
            -0.004122104961425066,
            0.03271162509918213,
            0.08215590566396713,
            0.09368879348039627,
            0.0021751082967966795,
            -0.06837844103574753,
            -0.11590980738401413,
            -0.010554392822086811,
            -0.06282393634319305,
            0.19014404714107513,
            0.059721291065216064,
            -0.07046579569578171,
            0.14908133447170258,
            0.051315225660800934,
            -0.06114314869046211,
            0.1466267853975296,
            -0.0013468164252117276,
            0.08190808445215225,
            0.09071625024080276,
            0.138019397854805,
            -0.07337876409292221,
            0.09084733575582504,
            -0.1362409144639969,
            0.17224587500095367,
            0.031448785215616226,
            -0.10257763415575027,
            -0.15816831588745117,
            -0.11461248248815536,
            -0.09574943035840988,
            0.018996462225914,
            0.07761910557746887,
            0.013897835277020931,
            0.3006778657436371,
            0.11835206300020218,
            0.020812978968024254,
            0.0044998107478022575,
            0.00703657791018486,
            -0.10940806567668915,
            0.060247261077165604,
            0.016419462859630585,
            0.09211203455924988,
            -0.09847123920917511,
            -0.04354683682322502,
            -0.013056527823209763,
            -0.06572141498327255,
            0.14650212228298187,
            -0.16074097156524658,
            -0.11813215166330338,
            0.03291827067732811,
            0.15247054398059845,
            0.06918008625507355,
            -0.037319499999284744,
            0.03375357389450073,
            0.09529157727956772,
            0.002903247717767954,
            -0.09242469817399979,
            0.012641646899282932,
            0.0704142153263092,
            0.0015664517413824797,
            -0.028864404186606407,
            0.09945172816514969,
            0.04887598752975464,
            -0.004963393323123455,
            0.05730001628398895,
            0.1302734911441803,
            -0.14180845022201538,
            0.10627572983503342,
            -0.1053570881485939,
            -0.0803300142288208,
            -0.011167998425662518,
            0.15667663514614105,
            -0.04758520796895027,
            0.08317342400550842,
            0.017477596178650856,
            0.13432319462299347,
            0.03636698052287102,
            0.009786450304090977,
            -0.164246067404747,
            -0.04379883408546448,
            -0.016673963516950607,
            0.03772401437163353,
            -0.09139270335435867,
            0.059488601982593536,
            0.003420826280489564,
            0.18042053282260895,
            0.06627503037452698,
            -0.20890185236930847,
            0.10874038934707642,
            0.22984233498573303,
            -0.1557231843471527,
            0.06140277162194252,
            0.08303285390138626,
            0.12766318023204803,
            0.1325952112674713,
            -0.10321289300918579,
            -0.0898079052567482,
            0.10870886594057083,
            -0.23469503223896027,
            0.015539039857685566,
            0.04626040160655975,
            0.008045515045523643,
            -0.11287640035152435,
            -0.00336453877389431,
            -0.08978353440761566,
            0.00933376606553793,
            0.048584822565317154,
            0.02892976440489292,
            -0.0033019413240253925,
            -0.19715219736099243,
            0.05655849352478981,
            0.07425959408283234,
            0.13917143642902374,
            -0.014132239855825901,
            0.06959696114063263,
            -0.010335330851376057,
            0.13933628797531128,
            -0.16286619007587433,
            0.21119144558906555,
            0.05212627351284027,
            -0.17822468280792236,
            0.06541040539741516,
            0.09609436243772507,
            0.2334398627281189,
            0.15966087579727173,
            -0.016769832000136375,
            0.04595107585191727,
            0.043492358177900314,
            0.029256761074066162,
            0.007465599570423365,
            0.05732198804616928,
            0.0027821797411888838,
            -0.09919796139001846,
            -0.012802575714886189,
            0.05105232447385788,
            0.006525279022753239,
            0.029493223875761032,
            -0.14716659486293793,
            0.07639055699110031,
            -0.09056997299194336,
            -0.15604062378406525,
            0.08835847675800323,
            -0.027818206697702408,
            -0.043834179639816284,
            -0.17612400650978088,
            0.08358592540025711,
            -0.15126629173755646,
            -0.10947740823030472,
            -0.004677253775298595,
            0.16076567769050598,
            0.05914983153343201,
            -0.30342841148376465,
            -0.0482199527323246,
            0.02040480449795723,
            0.15758748352527618,
            0.11907432228326797,
            -0.01976076327264309,
            -0.12952837347984314,
            0.19397708773612976,
            -0.08369217813014984,
            -0.011208990588784218,
            -0.27038201689720154,
            0.11265707015991211,
            -0.07905647903680801,
            0.1816016137599945,
            0.049710020422935486,
            -0.10215165466070175,
            0.06316053122282028,
            -0.10403232276439667,
            -0.10945110023021698,
            -0.20080335438251495,
            -0.026675619184970856,
            0.029608329758048058,
            -0.037097930908203125,
            -0.09842102974653244,
            -0.015216623432934284,
            0.1333962380886078,
            0.011906132102012634,
            0.1218855157494545,
            0.10343257337808609,
            0.0034599301870912313,
            -0.07272762805223465,
            0.0320008210837841,
            0.08526106178760529,
            -0.14480867981910706,
            0.08979231864213943,
            0.006748230196535587,
            0.04756569489836693,
            0.005876575596630573,
            -0.013964381068944931,
            0.17198075354099274,
            0.044192276895046234,
            0.07327447831630707,
            0.068392314016819,
            -0.03397539258003235,
            0.005562413018196821,
            0.08476997911930084,
            0.19882522523403168,
            0.08659201860427856,
            0.16255098581314087,
            0.0385802686214447,
            -0.11807507276535034,
            0.03592586889863014,
            -0.07049055397510529,
            -0.028375722467899323,
            0.008780079893767834,
            0.004403095692396164,
            0.03354084864258766,
            0.18261349201202393,
            -0.14324797689914703,
            0.11839700490236282,
            0.14537496864795685,
            -0.20856361091136932,
            0.01781586930155754,
            0.13550898432731628,
            -0.1254604607820511,
            0.07090150564908981,
            -0.006643590517342091,
            -0.018587948754429817,
            -0.058094218373298645,
            -0.06206708401441574,
            0.07705754786729813,
            0.01160837709903717,
            0.12404967844486237,
            -0.06600428372621536,
            -0.09885117411613464,
            -0.13700231909751892,
            0.037241313606500626,
            -0.1273708939552307,
            -0.14565764367580414,
            -0.025100363418459892,
            -0.1589055210351944,
            0.1331184208393097,
            0.03665400668978691,
            -0.1577017605304718,
            -0.13989557325839996,
            0.06441401690244675,
            0.10377216339111328,
            -0.028367221355438232,
            -0.016365153715014458,
            0.1973453164100647,
            0.05151337757706642,
            -0.05966820940375328,
            0.07197864353656769,
            -0.09037857502698898,
            0.0791071429848671,
            -0.029389988631010056,
            0.010894181206822395,
            -0.07846687734127045,
            0.18265333771705627,
            0.21535849571228027,
            0.05872112885117531,
            -0.0005884301499463618,
            0.06013837084174156,
            0.0429767370223999,
            -0.050923410803079605,
            -0.09857519716024399,
            -0.11317728459835052,
            0.061941031366586685,
            0.04106516018509865,
            -0.023788826540112495,
            0.07303783297538757,
            0.08027268946170807,
            0.07339389622211456,
            -0.08877888321876526,
            0.007897354662418365,
            -0.04003026336431503,
            -0.013864900916814804,
            -0.06872022151947021,
            -0.07819673418998718,
            0.14521558582782745,
            -0.09107803553342819,
            -0.09927991032600403,
            0.004620186518877745,
            -0.018262283876538277,
            -0.07041406631469727,
            0.0641791820526123,
            -0.0014837401686236262,
            0.18127499520778656,
            -0.07696327567100525,
            0.11431865394115448,
            -0.09855296462774277,
            -0.08454933017492294,
            -0.11364036798477173,
            -0.10639060288667679,
            0.10983593016862869,
            0.00019064141088165343,
            -0.0018392729107290506,
            0.06678106635808945,
            0.19287052750587463,
            -0.025084294378757477,
            -0.05420028418302536,
            -0.021592475473880768,
            0.09255513548851013,
            0.015864113345742226,
            0.13817483186721802,
            -0.07212194800376892,
            0.11130347102880478,
            -0.15322400629520416,
            -0.09604256600141525,
            -0.12853506207466125,
            0.005282588303089142,
            0.03477178514003754,
            -0.03718294948339462,
            -0.044895537197589874,
            -0.008890694938600063,
            -0.09378740191459656,
            0.07301449775695801,
            -0.1876155436038971,
            -0.004548941273242235,
            -0.1374426782131195,
            -0.1887388378381729,
            -0.08377304673194885,
            -0.008059704676270485,
            0.18586213886737823,
            -0.07378047704696655,
            0.06650766730308533,
            -0.0014065775321796536,
            -0.1400633156299591,
            -0.16675294935703278,
            0.033233676105737686,
            -0.008666698820888996,
            0.1396138221025467,
            -0.1354106068611145,
            -0.12319023162126541,
            -0.15685874223709106,
            -0.08182941377162933,
            0.0351162813603878,
            0.06380702555179596,
            0.12907156348228455,
            0.20017920434474945,
            0.03758469596505165,
            -0.13505013287067413,
            0.10736283659934998,
            0.031303055584430695,
            -0.10331973433494568,
            -0.11714877933263779,
            -0.004082171246409416,
            0.13288459181785583,
            -0.047606680542230606,
            -0.022287707775831223,
            0.2127312570810318,
            -0.11831486225128174,
            -0.08604661375284195,
            0.07090569287538528,
            -0.08096630871295929,
            -0.06682676821947098,
            -0.03353050723671913,
            0.06209368258714676,
            0.08294535428285599,
            0.08482075482606888,
            0.012642663903534412,
            0.018170177936553955,
            -0.1289341300725937,
            0.044103994965553284,
            0.09563281387090683,
            0.1250043511390686,
            0.07567445188760757,
            -0.012324187904596329,
            0.08695505559444427,
            -0.07062901556491852,
            0.15718252956867218,
            -0.1070447638630867,
            -0.025752365589141846,
            -0.10333383083343506,
            0.19597546756267548,
            0.04186983034014702,
            -0.06993209570646286,
            -0.18091164529323578,
            -0.011411290615797043,
            -0.06424897164106369,
            -0.06469954550266266,
            -0.101115383207798,
            0.005715874955058098,
            0.14913634955883026,
            -0.12385217845439911,
            0.05378594249486923,
            -0.12418441474437714,
            -0.012950602918863297,
            0.012955990619957447,
            -0.12160429358482361,
            0.14573189616203308,
            -0.024684444069862366,
            0.012580380775034428,
            -0.16853202879428864,
            0.04976876825094223,
            -0.19394202530384064,
            -0.027701815590262413,
            -0.14039242267608643,
            0.03231996297836304,
            0.09824133664369583,
            0.02605072595179081,
            0.16898106038570404,
            0.0429178923368454,
            0.14463967084884644,
            0.03828420862555504,
            0.005905349273234606,
            -0.01302767638117075,
            0.08866731822490692,
            -0.18401359021663666,
            0.08005847781896591,
            -0.12241121381521225,
            0.004968297202140093,
            -0.17634278535842896,
            -0.0611911341547966,
            -0.04458159580826759,
            -0.08072450757026672,
            0.201175257563591,
            0.03918140381574631,
            -0.05054890364408493,
            0.04223332926630974,
            0.09631522744894028,
            -0.12370960414409637,
            -0.02041715197265148,
            0.024292437359690666,
            -0.15167738497257233,
            0.004900103434920311,
            0.05156164988875389,
            0.16406503319740295,
            -0.01746523007750511,
            0.03330621495842934,
            0.01281944289803505,
            0.18799903988838196,
            0.030557885766029358,
            -0.00676896795630455,
            -0.08400318026542664,
            0.02495889738202095,
            -0.06200107932090759,
            -0.07394362986087799,
            -0.02977047674357891,
            -0.10004428029060364,
            -0.07597616314888,
            -0.11984472721815109,
            -0.05781127139925957,
            -0.12829074263572693,
            -0.08202548325061798,
            0.09963762760162354,
            0.08749889582395554,
            -0.05939706042408943,
            0.08578960597515106,
            0.033366598188877106,
            -0.023989569395780563,
            0.09936649352312088,
            0.05120430514216423,
            0.1673268973827362,
            0.019405966624617577,
            0.14886672794818878,
            0.08902039378881454,
            0.01812671311199665,
            0.05639756843447685,
            -0.09190502017736435,
            0.04634620249271393,
            -0.11202064156532288,
            -0.06902994215488434,
            -0.007510641124099493,
            0.026617731899023056,
            -0.0634637326002121,
            -0.040513526648283005,
            -0.0868736207485199,
            -0.030887313187122345,
            0.14946894347667694,
            -0.0037950314581394196,
            0.031856074929237366,
            -0.1747145652770996,
            0.19002999365329742,
            -0.06614469736814499,
            0.06343311071395874,
            0.04876584932208061,
            0.04459138587117195,
            0.11729121953248978,
            -0.15237441658973694,
            0.054188456386327744,
            0.018687168136239052,
            -0.10924264788627625,
            0.009882131591439247,
            -0.1799769550561905,
            -0.13457126915454865,
            -0.002542169764637947,
            0.14152182638645172,
            -0.016583308577537537,
            0.1727226823568344,
            0.1592906266450882,
            0.044648170471191406,
            0.07444268465042114,
            -0.003600376658141613,
            -0.02220669388771057,
            0.021952565759420395,
            -0.024238616228103638,
            0.06893981993198395,
            0.1323651671409607,
            0.0012897293781861663,
            -0.02654307708144188,
            -0.002857446437701583,
            -0.02863154746592045,
            -0.08828005194664001,
            -0.07521317899227142,
            0.06273756176233292,
            0.1267663538455963,
            0.04308325797319412,
            -0.01897555962204933,
            -0.06227155029773712,
            -0.11328057199716568,
            -0.19781972467899323,
            -0.193613201379776,
            0.0640658438205719,
            -0.18461111187934875,
            -0.15192201733589172,
            -0.011993372812867165,
            0.108535997569561,
            -0.16743198037147522,
            -0.03994723781943321,
            0.1078525260090828,
            0.0021357520017772913,
            0.11873513460159302,
            -0.0812002643942833,
            0.0000456426314485725,
            0.11854152381420135,
            -0.03571773320436478,
            -0.024744149297475815,
            0.03397846221923828,
            0.16628165543079376,
            0.024035168811678886,
            0.11687326431274414,
            0.010519049130380154,
            -0.02903454378247261,
            -0.08311215043067932,
            0.08687565475702286,
            -0.05270003527402878,
            -0.14912675321102142,
            0.1878501921892166,
            -0.050406984984874725,
            -0.18338198959827423,
            -0.10230423510074615,
            0.12842363119125366,
            -0.04611333832144737,
            -0.02784249745309353,
            -0.03484780713915825,
            -0.06809935718774796,
            0.07382825762033463,
            0.142729252576828,
            0.01181002426892519,
            -0.0926724225282669,
            -0.07502314448356628,
            -0.0829525887966156,
            -0.01622600108385086,
            0.05351435765624046,
            -0.05782078579068184,
            0.08521973341703415,
            -0.1105000376701355,
            -0.1527041345834732,
            0.022092875093221664,
            -0.030430993065238,
            0.07673334330320358,
            0.12404532730579376,
            -0.021044805645942688,
            0.06567834317684174,
            -0.11749307066202164,
            0.07127252221107483,
            -0.06377046555280685,
            0.13378581404685974,
            0.04030495509505272,
            0.1582556813955307,
            -0.09357686340808868,
            0.05212395265698433,
            -0.0006127759697847068,
            0.0019388905493542552,
            0.07406621426343918,
            0.13756966590881348,
            -0.0969984382390976,
            -0.041582003235816956,
            0.008724454790353775,
            -0.049664534628391266,
            -0.06753909587860107,
            -0.01415296457707882,
            -0.0928158238530159,
            -0.10571379959583282,
            -0.09715227782726288,
            0.036401018500328064,
            -0.014091143384575844,
            0.07633205503225327,
            0.09768711030483246,
            0.0727047547698021,
            0.05915972962975502,
            -0.12489411234855652,
            0.0018349031452089548,
            0.024355189874768257,
            -0.01767021417617798,
            0.059395041316747665,
            0.09745736420154572,
            0.021900556981563568,
            -0.0030986338388174772,
            0.10030975937843323,
            0.10111226886510849,
            -0.0736515149474144,
            0.0104634128510952,
            0.0457969568669796,
            0.1251019835472107,
            0.09060035645961761,
            0.14420677721500397,
            -0.08005615323781967,
            -0.02335069142282009,
            0.012039713561534882,
            0.028348756954073906,
            0.04246267303824425,
            0.027717184275388718,
            0.04210689663887024,
            -0.010314589366316795,
            -0.024350428953766823,
            0.08090398460626602,
            0.08917432278394699,
            -0.0019630957394838333,
            0.09202830493450165,
            -0.02048942819237709,
            0.017284002155065536,
            0.017412999644875526,
            0.025373412296175957,
            0.02712220326066017,
            0.04474727064371109,
            0.06297711282968521,
            -0.11965453624725342,
            -0.12001712620258331,
            -0.04018496349453926,
            0.13051477074623108,
            -0.0013474689330905676,
            -0.14685185253620148,
            0.1314733922481537,
            0.03944415599107742,
            -0.11052968353033066,
            0.06970561295747757,
            -0.030826447531580925,
            -0.027436338365077972,
            -0.005457374267280102,
            -0.1555924117565155,
            -0.09112067520618439,
            0.06659336388111115,
            0.0566556341946125,
            -0.15992672741413116,
            0.1063806563615799,
            0.07959815114736557,
            0.09674946963787079,
            -0.08730586618185043,
            -0.16975201666355133,
            0.03684530779719353,
            -0.04473232850432396,
            -0.17478275299072266,
            0.10946699976921082,
            -0.014036412350833416,
            0.04549667239189148,
            0.007635650224983692,
            0.05839643254876137,
            -0.18021099269390106,
            0.010996210388839245,
            0.004950730130076408,
            0.03473428636789322,
            -0.025996003299951553,
            -0.03073696978390217,
            -0.09729968756437302,
            -0.026900602504611015,
            -0.024403955787420273,
            -0.05351920425891876,
            -0.02678615041077137,
            0.04116569086909294,
            0.12201879173517227,
            0.07517321407794952,
            0.00005888888335903175,
            0.012044209986925125,
            -0.03908729553222656,
            -0.08664769679307938,
            0.03582955151796341,
            0.12678812444210052,
            0.14267125725746155,
            0.10161981731653214,
            0.20618368685245514,
            -0.08927693217992783,
            -0.03333273530006409,
            0.03305064141750336,
            0.055823974311351776,
            0.0005383541574701667,
            -0.06698305159807205,
            0.16347073018550873,
            0.12386352568864822,
            -0.06706306338310242,
            0.09230411052703857,
            -0.01637771539390087,
            0.09709867089986801,
            -0.05887044221162796,
            0.0019252508645877242,
            -0.03258464112877846,
            0.03502863645553589,
            0.039939530193805695,
            -0.0984509289264679,
            0.13473954796791077,
            -0.08687930554151535,
            0.025753933936357498,
            0.15683262050151825,
            -0.09604401886463165,
            0.13973994553089142,
            0.07815347611904144,
            -0.025276320055127144,
            0.0029999574180692434,
            0.02614511549472809,
            0.15379558503627777,
            0.04380938783288002,
            0.0033534362446516752,
            -0.013811467215418816,
            -0.000652463873848319,
            -0.1302482634782791,
            0.055006273090839386,
            -0.21665388345718384,
            -0.02794155478477478,
            0.18250107765197754,
            0.025587672367691994,
            -0.1024685949087143,
            0.12171965837478638,
            -0.03529183939099312,
            0.11673469096422195,
            0.06895463913679123,
            -0.132736936211586,
            -0.09047604352235794,
            -0.015750791877508163,
            0.007765145041048527,
            -0.045720599591732025,
            -0.006454042159020901,
            0.03389672189950943,
            -0.1450415700674057,
            -0.03012039139866829,
            -0.02961375191807747,
            0.06551249325275421,
            0.013221127912402153,
            0.051791705191135406,
            -0.05968456715345383,
            -0.1242627426981926,
            -0.09784597903490067,
            0.011808108538389206,
            0.11861002445220947,
            0.04667874425649643,
            -0.17665377259254456,
            0.17341797053813934,
            -0.12920521199703217,
            -0.1115126833319664,
            -0.10830607265233994,
            0.006133359391242266,
            0.07869885116815567,
            -0.12491559982299805,
            0.005749068222939968,
            0.09937187284231186,
            0.1449643075466156,
            -0.12297310680150986,
            0.07275612652301788,
            -0.002689858665689826,
            0.04001529887318611,
            0.006797786336392164,
            0.11311888694763184,
            -0.030103251338005066,
            -0.08408614248037338,
            -0.1567765325307846,
            0.040554214268922806,
            -0.04909580573439598,
            -0.013496264815330505,
            0.13782134652137756,
            -0.022987499833106995,
            -0.036384910345077515,
            0.04711170494556427,
            0.017239440232515335,
            0.08085233718156815,
            0.20062598586082458,
            -0.03754628449678421,
            0.003862750483676791,
            0.004089461173862219,
            0.14786238968372345,
            0.19141949713230133,
            -0.028671270236372948,
            -0.16423708200454712,
            0.004818116780370474,
            0.027415798977017403,
            -0.03283357620239258,
            -0.17769737541675568,
            0.1892322599887848,
            0.029995089396834373,
            0.011222433298826218,
            0.08699192851781845,
            0.06548591703176498,
            0.0814400240778923,
            -0.013732219114899635,
            -0.026745319366455078,
            -0.03370540216565132,
            -0.12062586098909378,
            0.12261424213647842,
            -0.0015234219608828425,
            0.03859330341219902,
            0.125326007604599,
            -0.11460918188095093,
            -0.13576845824718475,
            0.050308264791965485,
            -0.1223176047205925,
            -0.08532010763883591,
            0.13691914081573486,
            0.17421579360961914,
            -0.0862647145986557,
            0.21439166367053986,
            0.028385892510414124,
            0.16458824276924133,
            -0.02129029855132103,
            0.12104015052318573,
            -0.07424533367156982,
            -0.017964228987693787,
            0.07268543541431427,
            -0.12288215011358261,
            0.16305820643901825,
            0.037814583629369736,
            0.03385119512677193,
            0.15485338866710663,
            -0.02953660860657692,
            0.12654604017734528,
            -0.2070952206850052,
            -0.07931069284677505,
            0.11310024559497833,
            0.0243177842348814,
            -0.03330649808049202,
            -0.014675567857921124,
            -0.10912619531154633,
            -0.053365543484687805,
            -0.07866183668375015,
            -0.027456488460302353,
            0.1147415041923523,
            -0.03008047305047512,
            -0.05987870320677757,
            -0.18159915506839752,
            0.0883454978466034,
            0.00959187000989914,
            -0.010088696144521236,
            -0.01930299401283264,
            -0.07030341774225235,
            0.07810365408658981,
            -0.010950928553938866,
            -0.1716451346874237,
            -0.12902958691120148,
            -0.07042331993579865,
            -0.025336526334285736,
            -0.14348089694976807,
            -0.06549894064664841,
            0.11772187799215317,
            -0.051093533635139465,
            0.08845427632331848,
            -0.055206213146448135,
            0.07267209142446518,
            -0.10665421932935715,
            -0.05429266393184662,
            -0.020171351730823517,
            -0.15650026500225067,
            0.0984509289264679,
            0.06491773575544357,
            0.06422289460897446,
            -0.1319664865732193,
            -0.07995442301034927,
            0.11379174143075943,
            0.0188152976334095,
            0.05575472116470337,
            0.009418342262506485,
            -0.19322918355464935,
            0.11723046004772186,
            0.06007865443825722,
            0.01787567138671875,
            -0.0965709388256073,
            0.03221612796187401,
            0.03931024298071861,
            -0.18127325177192688,
            -0.002255081431940198,
            0.049828674644231796,
            0.17710623145103455,
            -0.17265060544013977,
            0.1120946928858757,
            -0.04904523864388466,
            -0.2064400613307953,
            0.01806371845304966,
            0.20548158884048462,
            0.13423381745815277,
            0.03341212496161461,
            -0.055038366466760635,
            -0.06424552202224731,
            0.046945881098508835,
            0.10700570046901703,
            0.057982902973890305,
            0.042086485773324966,
            0.0673515722155571,
            -0.03210470825433731,
            -0.06529103964567184,
            -0.06797705590724945,
            0.13231664896011353,
            0.06530729681253433,
            -0.03223373740911484,
            0.020696096122264862,
            -0.034031204879283905,
            -0.166129007935524,
            -0.1716659665107727,
            -0.1481247991323471,
            0.005624894984066486,
            0.12772774696350098,
            -0.12166352570056915,
            0.0019598323851823807,
            0.048463642597198486,
            0.16727948188781738,
            -0.007472696714103222,
            -0.10004140436649323,
            -0.1073698103427887,
            0.026371333748102188,
            0.03770098462700844,
            -0.0896596610546112,
            0.13358749449253082,
            0.02480982057750225,
            -0.09711339324712753,
            0.036371853202581406,
            0.08552106469869614,
            -0.1242661252617836,
            -0.12433082610368729,
            -0.004171347711235285,
            -0.21087022125720978,
            0.12164860218763351,
            -0.13015075027942657,
            -0.13043035566806793,
            -0.001775211188942194,
            -0.09259188175201416,
            0.08474882692098618,
            -0.04646371304988861,
            -0.07707015424966812,
            0.12323431670665741,
            0.08160659670829773,
            0.055214229971170425,
            0.14064039289951324,
            0.04490320011973381,
            -0.06980056315660477,
            0.04713641479611397,
            0.006181840784847736,
            -0.01094980351626873,
            -0.1042199656367302,
            -0.07997705042362213,
            0.03908034786581993,
            -0.16554726660251617,
            0.036085326224565506,
            -0.0045310393907129765,
            -0.015822743996977806,
            -0.14878100156784058,
            0.05316811427474022,
            0.05250716209411621,
            0.029046041890978813,
            -0.05589044466614723,
            0.04110657051205635,
            0.0596214234828949,
            -0.15326720476150513,
            -0.11738207936286926,
            -0.10906019061803818,
            0.045365091413259506,
            -0.11632975190877914,
            0.14720427989959717,
            0.03781946375966072,
            0.10224644839763641,
            -0.1535877138376236,
            0.07247196137905121,
            -0.028348486870527267,
            -0.006991472095251083,
            0.13563625514507294,
            0.0897161141037941,
            -0.03866558149456978,
            -0.11290167272090912,
            -0.17661795020103455,
            -0.08377601951360703,
            -0.20816835761070251,
            -0.12285981327295303,
            -0.057833004742860794,
            0.16616027057170868,
            0.1435135304927826,
            0.01751691848039627,
            0.039642609655857086,
            0.12003235518932343,
            0.12156513333320618,
            0.03743250295519829,
            -0.06893659383058548,
            -0.09949090331792831,
            0.13116295635700226,
            0.2053719311952591,
            0.020099075511097908,
            0.004533651750534773,
            -0.012886656448245049,
            0.029582902789115906,
            0.11594992130994797,
            -0.01562931016087532,
            -0.0749640017747879,
            0.032683875411748886,
            -0.08932887017726898,
            -0.15586236119270325,
            0.10854487121105194,
            -0.09492812305688858,
            -0.031148100271821022,
            -0.03215591982007027,
            -0.057160791009664536,
            0.014890465885400772,
            -0.05051048845052719,
            0.14048518240451813,
            -0.12629789113998413,
            -0.11895124614238739,
            0.10978015512228012,
            -0.12593695521354675,
            -0.08254587650299072,
            -0.07142944633960724,
            -0.16179443895816803,
            0.03176797553896904,
            0.12881776690483093,
            -0.1157415509223938,
            0.002897756639868021,
            0.0452798493206501,
            -0.011609697714447975,
            -0.0052713388577103615,
            0.14420971274375916,
            0.06502392143011093,
            -0.012151732109487057,
            -0.10449467599391937,
            -0.07161227613687515,
            -0.00241317180916667,
            -0.09940244257450104,
            0.06725606322288513,
            -0.07984068989753723,
            -0.07088495045900345,
            -0.04918093979358673,
            0.021166687831282616,
            -0.08580910414457321,
            -0.08184868842363358,
            0.030153876170516014,
            0.024211298674345016,
            -0.11200064420700073,
            -0.03416471555829048,
            0.14397934079170227,
            -0.019006704911589622,
            0.12670864164829254,
            -0.030944010242819786,
            -0.13115961849689484,
            -0.03704144433140755,
            -0.10322517901659012,
            -0.12276215106248856,
            -0.05128662288188934,
            0.057930801063776016,
            0.08347278833389282,
            0.05740439146757126,
            -0.08154971152544022,
            0.1520123928785324,
            -0.011224017478525639,
            -0.020892128348350525,
            -0.07447241991758347,
            -0.12806658446788788,
            0.049206797033548355,
            0.026199547573924065,
            0.08684618771076202,
            0.000853046658448875,
            -0.09758263826370239,
            0.09264273941516876,
            -0.18353596329689026,
            0.057311106473207474,
            0.013741977512836456,
            0.020761210471391678,
            -0.12826691567897797,
            -0.06284058839082718,
            0.03307264670729637,
            0.12866178154945374,
            0.06874853372573853,
            -0.11846258491277695,
            -0.025597140192985535,
            -0.13536368310451508,
            0.0006095932330936193,
            -0.07425928115844727,
            -0.1948855072259903,
            0.05469989404082298,
            0.1628863513469696,
            -0.037555158138275146,
            -0.08052146434783936,
            0.08228255063295364,
            -0.2099883258342743,
            0.00917783286422491,
            -0.009455584920942783,
            -0.18794722855091095,
            0.05302583426237106,
            -0.029354816302657127,
            0.03751618415117264,
            0.010627259500324726,
            -0.1715070605278015,
            0.04050426185131073,
            0.0372161939740181,
            -0.07297492027282715,
            -0.15978170931339264,
            -0.0829150378704071,
            -0.06431053578853607,
            0.028148813173174858,
            -0.05430641025304794,
            0.059124864637851715,
            -0.13079887628555298,
            -0.05981547012925148,
            -0.04648997262120247,
            -0.009881394915282726,
            -0.16268447041511536,
            0.00499004265293479,
            0.09955567866563797,
            0.1932436227798462,
            0.011644382029771805,
            -0.02036413736641407,
            0.018570097163319588,
            0.07394035905599594,
            0.03318416699767113,
            -0.11942095309495926,
            -0.07214844226837158,
            -0.11957398802042007,
            0.16076220571994781,
            0.06773874908685684,
            -0.15516316890716553,
            0.07356307655572891,
            0.0060541098937392235,
            -0.0002814463514368981,
            -0.05447986721992493,
            0.014319134876132011,
            -0.08590095490217209,
            -0.10630805045366287,
            -0.08811050653457642,
            0.004601459018886089,
            -0.18810909986495972,
            -0.15896230936050415,
            0.046055857092142105,
            0.010615388862788677,
            0.009516105055809021,
            0.051362045109272,
            0.20146308839321136,
            -0.04006187617778778,
            -0.04492650181055069,
            0.019738884642720222,
            0.11874182522296906,
            -0.03940330445766449,
            0.13585014641284943,
            0.05746544897556305,
            0.04711694270372391,
            0.18541383743286133,
            0.1595756858587265,
            0.19499653577804565,
            -0.10917044430971146,
            -0.1128428503870964,
            0.03709107264876366,
            -0.06159552186727524,
            -0.08828035742044449,
            0.016687605530023575,
            -0.13460995256900787,
            -0.0828680619597435,
            -0.10644987225532532,
            0.08266651630401611,
            0.01922040432691574,
            -0.0150575777515769,
            -0.006422528065741062,
            -0.17105703055858612,
            -0.05316850543022156,
            -0.022776708006858826,
            0.15125499665737152,
            -0.19974425435066223,
            0.00186233373824507,
            0.12609706819057465,
            -0.05191781744360924,
            0.006678481586277485,
            -0.09053334593772888,
            -0.08815526962280273,
            -0.009546526707708836,
            0.04420233890414238,
            0.08643762767314911,
            -0.05668022483587265,
            -0.15819786489009857,
            -0.01384752057492733,
            -0.039818502962589264,
            -0.06092602759599686,
            -0.02631572261452675,
            -0.18909229338169098,
            0.17502279579639435,
            0.1489754170179367,
            0.06575670093297958,
            0.1013355478644371,
            0.07240172475576401,
            -0.06859208643436432,
            0.023818504065275192,
            0.010184320621192455,
            0.04432423785328865,
            0.11209619045257568,
            0.0027818900998681784,
            0.01891777291893959,
            0.04356055334210396,
            -0.10502348840236664,
            0.07425161451101303,
            0.06559177488088608,
            0.1780077964067459,
            0.030237283557653427,
            -0.11644309014081955,
            0.10226114094257355,
            0.04455607756972313,
            -0.018180085346102715,
            0.02077062614262104,
            0.09742618352174759,
            0.021821528673171997,
            0.0596599280834198,
            -0.0471222884953022,
            -0.05082368105649948,
            0.13157378137111664,
            0.06356824189424515,
            -0.1454603374004364,
            -0.05263820290565491,
            0.11553538590669632,
            0.1371454894542694,
            0.12148284167051315,
            0.0048447963781654835,
            -0.09702008962631226,
            -0.14510861039161682,
            -0.07019229233264923,
            0.1328040063381195,
            -0.12823206186294556,
            -0.04570477083325386,
            0.01771513558924198,
            -0.03856949508190155,
            0.06451636552810669,
            0.07551033049821854,
            0.19553238153457642,
            -0.0494970865547657,
            0.0060075814835727215,
            0.059574712067842484,
            -0.10812615603208542,
            -0.1979733556509018,
            0.06020043045282364,
            -0.06581155955791473,
            0.1202036663889885,
            -0.03896318003535271,
            0.06922701001167297,
            -0.18657474219799042,
            0.06649238616228104,
            -0.05097920075058937,
            -0.06010429933667183,
            -0.004405612591654062,
            -0.028248652815818787,
            -0.18315815925598145,
            -0.0601809062063694,
            0.0798829048871994,
            -0.10864704102277756,
            0.05795840546488762,
            0.012837550602853298,
            -0.03874869644641876,
            0.10281079262495041,
            -0.030001074075698853,
            0.17430442571640015,
            -0.09348251670598984,
            0.0956362634897232,
            -0.15906429290771484,
            0.08811585605144501,
            0.02235404960811138,
            -0.15675318241119385,
            0.0034106934908777475,
            -0.007675322238355875,
            -0.09411593526601791,
            0.018407421186566353,
            -0.026107201352715492,
            -0.03888670727610588,
            -0.1032438725233078,
            0.013732570223510265,
            -0.07582050561904907,
            -0.08592890202999115,
            0.08698117733001709,
            -0.14962448179721832,
            0.11149512231349945,
            0.13827164471149445,
            -0.08537444472312927,
            0.11060818284749985,
            0.06577825546264648,
            0.030005518347024918,
            0.019651759415864944,
            0.09928818792104721,
            0.16919606924057007,
            -0.037182554602622986,
            -0.14340095221996307,
            0.00975069124251604,
            0.08666635304689407,
            -0.10887289047241211,
            -0.05542851239442825,
            0.013244105502963066,
            0.18239924311637878,
            -0.18309451639652252,
            -0.15611901879310608,
            0.037531159818172455,
            0.08356138318777084,
            -0.17809298634529114,
            -0.09263793379068375,
            0.10742036998271942,
            0.10081426054239273,
            0.16038532555103302,
            0.1697227656841278,
            0.06880156695842743,
            -0.07581529021263123,
            -0.13112543523311615,
            0.20016179978847504,
            -0.15136945247650146,
            -0.04518289864063263,
            0.12200526148080826,
            -0.030205804854631424,
            -0.1665496677160263,
            0.06816202402114868,
            0.11402185261249542,
            -0.07397065311670303,
            -0.046697381883859634,
            0.0003971313708461821,
            -0.08549388498067856,
            0.17637436091899872,
            -0.05814921855926514,
            0.21676205098628998,
            -0.08436288684606552,
            0.0634891539812088,
            0.09607905894517899,
            0.13663287460803986,
            -0.12648697197437286,
            -0.010105912573635578,
            0.10181757807731628,
            0.09893633425235748,
            0.06960507482290268,
            0.05764765292406082,
            -0.00354886706918478,
            0.01118449866771698,
            0.19804634153842926,
            0.03562556207180023,
            0.001955380430445075,
            0.10956887155771255,
            -0.09521151334047318,
            -0.1599673181772232,
            0.01338240783661604,
            -0.11592283099889755,
            -0.14315994083881378,
            0.08103999495506287,
            0.10583177208900452,
            0.03866376727819443,
            0.03593306243419647,
            0.052393898367881775,
            -0.03675943985581398,
            -0.17742207646369934,
            0.05029935762286186,
            0.005013900343328714,
            0.05652793124318123,
            -0.13859784603118896,
            0.0654543787240982,
            -0.07354740798473358,
            -0.09771307557821274,
            0.1292325109243393,
            -0.008375530131161213,
            0.10200962424278259,
            0.11331640183925629,
            0.06604594737291336,
            -0.1444091945886612,
            0.21011190116405487,
            0.014967745169997215,
            -0.0979800745844841,
            -0.12504595518112183,
            0.002445274032652378,
            -0.11191757023334503,
            0.10769529640674591,
            -0.11967509984970093,
            -0.06203966215252876,
            -0.11690723896026611,
            0.011474800296127796,
            0.18829281628131866,
            0.13343721628189087,
            0.06293442100286484,
            -0.026293812319636345,
            -0.10694295912981033,
            0.04720813035964966,
            -0.047784022986888885,
            -0.014133044518530369,
            0.0712493434548378,
            0.017626279965043068,
            0.04801907017827034,
            0.10002227127552032,
            0.05394287407398224,
            -0.2068234086036682,
            -0.0727018490433693,
            -0.03125109151005745,
            0.10367385298013687,
            -0.06090474873781204,
            -0.10711745917797089,
            0.03668835386633873,
            -0.07272831350564957,
            0.16548341512680054,
            0.12096338719129562,
            0.20099465548992157,
            0.156478151679039,
            -0.12667885422706604,
            0.03600366786122322,
            -0.06520464271306992,
            0.13286130130290985,
            0.06252223998308182,
            -0.04334476962685585,
            -0.129765585064888,
            -0.0071469820104539394,
            0.08313509076833725,
            0.06995276361703873,
            0.03262568637728691,
            -0.03674968332052231,
            0.018096182495355606,
            -0.0897502452135086,
            0.049191270023584366,
            -0.19783268868923187,
            0.08694058656692505,
            0.022596199065446854,
            -0.05644022673368454,
            -0.05710567533969879,
            0.0360126830637455,
            -0.2000788152217865,
            0.018248241394758224,
            0.02248474396765232,
            -0.1608656644821167,
            -0.11175094544887543,
            -0.14573535323143005,
            -0.05260028690099716,
            0.029355334118008614,
            -0.040285419672727585,
            0.19217973947525024,
            -0.11734853684902191,
            -0.15380112826824188,
            -0.02056337147951126,
            0.09375110268592834,
            0.03203094005584717,
            0.11153249442577362,
            -0.059542153030633926,
            0.17324280738830566,
            0.0393674373626709,
            0.044606320559978485,
            0.09231499582529068,
            -0.09634941816329956,
            0.06175237521529198,
            0.019474731758236885,
            0.08054286241531372,
            0.15624484419822693,
            0.02191069722175598,
            0.027794139459729195,
            0.09230764955282211,
            -0.004580387379974127,
            -0.06475479900836945,
            0.13836391270160675,
            -0.11206787824630737,
            -0.009925594553351402,
            -0.058358725160360336,
            0.051003750413656235,
            -0.0911543145775795,
            0.17194099724292755,
            -0.03865116089582443,
            0.03541001304984093,
            0.12972986698150635,
            0.02710215374827385,
            -0.06930899620056152,
            -0.1011982262134552,
            -0.03272402659058571,
            -0.04766843467950821,
            0.13054998219013214,
            0.1703176647424698,
            -0.11075962334871292,
            -0.12984153628349304,
            0.08910218626260757,
            -0.09296087920665741,
            0.09710858762264252,
            -0.04751445725560188,
            -0.08894239366054535,
            0.13548643887043,
            0.07476677745580673,
            -0.10486207902431488,
            -0.05325566232204437,
            -0.032475925981998444,
            -0.12449483573436737,
            -0.008228152059018612,
            0.08793346583843231,
            0.05433465540409088,
            0.12105939537286758,
            0.06370910257101059,
            -0.07244761288166046,
            0.0281971488147974,
            0.031133055686950684,
            -0.017614787444472313,
            0.03398452326655388,
            0.11389314383268356,
            -0.12904635071754456,
            0.01463294867426157,
            0.19684730470180511,
            0.023903848603367805,
            0.1457059383392334,
            0.09127302467823029,
            -0.16540023684501648,
            0.1750279814004898,
            -0.06083644554018974,
            -0.03182284161448479,
            0.07598454505205154,
            0.09755850583314896,
            -0.1457987278699875,
            0.02378605678677559,
            -0.010378699749708176,
            0.13781894743442535,
            0.12982085347175598,
            -0.04267411679029465,
            -0.05631358176469803,
            0.04843299835920334,
            0.24764898419380188,
            0.0753365159034729,
            -0.007077089976519346,
            -0.03021039254963398,
            0.08294455707073212,
            -0.16185101866722107,
            0.0640002116560936,
            -0.26320013403892517,
            -0.08458840847015381,
            0.051724717020988464,
            -0.10256055742502213,
            -0.14785970747470856,
            0.004711763001978397,
            0.05180581659078598,
            0.04477109760046005,
            0.07516331225633621,
            -0.053719598799943924,
            -0.024034708738327026,
            0.07286952435970306,
            0.12577345967292786,
            0.05418211221694946,
            0.0961449071764946,
            0.03164634108543396,
            0.03294435515999794,
            -0.2784675359725952,
            -0.002087573753669858,
            -0.08903868496417999,
            -0.0517655648291111,
            -0.12047761678695679,
            -0.058139342814683914,
            0.02788544073700905,
            -0.1706310510635376,
            -0.1348637342453003,
            -0.22286786139011383,
            0.04284511134028435,
            -0.14267189800739288,
            0.1802564114332199,
            -0.062245000153779984,
            0.005436028819531202,
            0.003485914785414934,
            0.048261452466249466,
            0.1499987542629242,
            0.06875790655612946,
            0.018029285594820976,
            0.05053306743502617,
            -0.05044715851545334,
            -0.07958680391311646,
            -0.04141787067055702,
            -0.1450093388557434,
            -0.07198656350374222,
            0.05591696500778198,
            -0.08536142110824585,
            0.023388277739286423,
            0.14006589353084564,
            0.0536046028137207,
            -0.06790154427289963,
            0.03027627058327198,
            -0.09529584646224976,
            -0.11865909397602081,
            0.229988232254982,
            0.03120412677526474,
            0.12215597927570343,
            0.10005681961774826,
            -0.216589093208313,
            -0.10482243448495865,
            0.1092577576637268,
            -0.09423119574785233,
            0.025171946734189987,
            0.050673164427280426,
            0.04166215658187866,
            0.09473136067390442,
            0.05325354263186455,
            0.1056947186589241,
            0.014330760575830936,
            -0.003259505843743682,
            0.048814497888088226,
            0.08386725187301636,
