{
  "timestamp": "2026-02-02T16:43:57.245Z",
  "episode": 20,
  "numAgents": 3,
  "valSharpe": -34.632668939121096,
  "valPnL": -50.16404020326149,
  "valWinRate": 33.33333333333333,
  "valTrades": 6,
  "avgRiskReward": 0.6616147042412978,
  "strategyUsage": [
    "0",
    "88",
    "7",
    "5",
    "0"
  ],
  "config": {
    "numAgents": 3,
    "votingMethod": "majority",
    "trainSplit": 0.8,
    "monthsOfData": 6,
    "episodes": 150,
    "episodeLength": 500,
    "trainFrequency": 4,
    "batchSize": 64,
    "bufferSize": 30000,
    "dqn": {
      "inputSize": 42,
      "hiddenLayers": [
        128,
        64,
        32
      ],
      "outputSize": 5,
      "learningRate": 0.0008,
      "gamma": 0.95,
      "tau": 0.01,
      "epsilonStart": 1,
      "epsilonEnd": 0.25,
      "epsilonDecay": 0.996,
      "dropout": 0.15,
      "l2Regularization": 0.005,
      "useBatchNorm": true,
      "gradientClipNorm": 0.5,
      "useHuberLoss": true,
      "huberDelta": 1,
      "actionBias": true,
      "actionBiasDecay": 0.998
    },
    "env": {
      "initialCapital": 10000,
      "positionSizePercent": 0.1,
      "commission": 0.001,
      "slippage": 0.0005,
      "lookbackPeriod": 100,
      "maxBarsPerEpisode": null,
      "maxDrawdownLimit": 0.15,
      "maxBarsInPosition": 100,
      "kbConfig": {
        "enabled": true,
        "addKBFeatures": true,
        "useKBRewardShaping": true
      }
    },
    "walkForward": {
      "enabled": true,
      "trainWindow": 2500,
      "testWindow": 500,
      "stepSize": 700
    },
    "earlyStoppingPatience": 25,
    "minImprovement": 0.02,
    "logInterval": 10,
    "evalInterval": 20,
    "diagnosticsInterval": 50
  },
  "weights": [
    {
      "weights": [
        {
          "shape": [
            42,
            128
          ],
          "data": [
            0.03059464320540428,
            -0.056036725640296936,
            -0.14235229790210724,
            0.11750701069831848,
            0.023716045543551445,
            -0.08881392329931259,
            0.10076645761728287,
            -0.053036052733659744,
            0.10145942866802216,
            -0.03237513452768326,
            -0.013479121960699558,
            0.25222840905189514,
            -0.03283578157424927,
            -0.10955435037612915,
            0.14395777881145477,
            -0.08803708851337433,
            -0.04961014911532402,
            0.09765172749757767,
            0.08493337035179138,
            -0.048416297882795334,
            0.09991583228111267,
            0.0899534597992897,
            0.034151189029216766,
            0.09116305410861969,
            0.037076178938150406,
            -0.040663182735443115,
            0.07979605346918106,
            -0.10812652856111526,
            -0.12240036576986313,
            0.0916769728064537,
            -0.08670106530189514,
            -0.014059530571103096,
            -0.0654950886964798,
            -0.038094885647296906,
            -0.0011799121275544167,
            -0.03638319671154022,
            0.07770898938179016,
            -0.12489596754312515,
            -0.07059486955404282,
            -0.0035094807390123606,
            -0.09845530986785889,
            -0.03212447464466095,
            0.10342192649841309,
            -0.17699791491031647,
            -0.006917381193488836,
            -0.15386661887168884,
            0.16593031585216522,
            -0.07899004220962524,
            -0.03928476572036743,
            -0.026462679728865623,
            -0.03621761500835419,
            0.04963560402393341,
            -0.01885986514389515,
            -0.04264240339398384,
            -0.026091523468494415,
            -0.07198785990476608,
            -0.07095161825418472,
            -0.09500458836555481,
            -0.05471349135041237,
            -0.03217490762472153,
            -0.09942299127578735,
            -0.06873658299446106,
            -0.2227362096309662,
            -0.009775426238775253,
            -0.03728923946619034,
            -0.03518260270357132,
            -0.1171966940164566,
            -0.19058042764663696,
            -0.12888461351394653,
            0.15755993127822876,
            -0.13911172747612,
            -0.040029387921094894,
            -0.023367080837488174,
            0.14356057345867157,
            0.08711232990026474,
            -0.020851410925388336,
            -0.040009260177612305,
            -0.13698334991931915,
            0.03947710245847702,
            -0.052108872681856155,
            -0.16346177458763123,
            0.05383807420730591,
            -0.02462623082101345,
            -0.1342209428548813,
            0.016956903040409088,
            0.062202420085668564,
            -0.18763303756713867,
            0.01695280149579048,
            -0.15070787072181702,
            -0.03648175299167633,
            -0.011842026375234127,
            0.0965370312333107,
            -0.05450356379151344,
            0.09366679191589355,
            0.21732817590236664,
            -0.034024812281131744,
            -0.15989398956298828,
            0.03226740285754204,
            -0.17281487584114075,
            -0.14119744300842285,
            0.030153121799230576,
            0.20718681812286377,
            -0.007094418164342642,
            -0.03440673276782036,
            -0.01705332100391388,
            -0.15306882560253143,
            0.054448243230581284,
            0.015457995235919952,
            -0.19102910161018372,
            0.12317807972431183,
            -0.013970299623906612,
            -0.01782563328742981,
            0.02890682779252529,
            -0.11484013497829437,
            0.12014186382293701,
            0.07055377960205078,
            0.005803212523460388,
            -0.04231830686330795,
            0.008286390453577042,
            0.09961982071399689,
            -0.12622100114822388,
            0.04557764157652855,
            0.014926077798008919,
            0.24203811585903168,
            -0.10221343487501144,
            -0.05911014974117279,
            0.1444261074066162,
            -0.0780307799577713,
            -0.16943779587745667,
            -0.09433408081531525,
            0.014666388742625713,
            0.059343356639146805,
            -0.03575240448117256,
            -0.10022806376218796,
            0.07022767513990402,
            0.08361749351024628,
            -0.004004932940006256,
            -0.012722245417535305,
            -0.10196679830551147,
            0.15936195850372314,
            -0.0010541601805016398,
            -0.11114973574876785,
            -0.12150853872299194,
            0.10467887669801712,
            -0.1965271383523941,
            -0.06778335571289062,
            -0.05564798414707184,
            -0.1367630511522293,
            0.13380703330039978,
            0.0015538070583716035,
            -0.1096954494714737,
            0.042128004133701324,
            0.032879266887903214,
            -0.016473645344376564,
            0.10338122397661209,
            0.17794911563396454,
            -0.09873568266630173,
            0.11846122145652771,
            -0.036892738193273544,
            0.014653243124485016,
            0.1984260231256485,
            0.034121185541152954,
            -0.024371547624468803,
            -0.02230306901037693,
            -0.013263002038002014,
            -0.02434554509818554,
            -0.03458637744188309,
            -0.009418867528438568,
            0.0890064537525177,
            -0.11094950884580612,
            -0.021046431735157967,
            0.04414381831884384,
            -0.09193041920661926,
            -0.055700477212667465,
            0.14969797432422638,
            0.13163936138153076,
            0.17461563646793365,
            0.10396363586187363,
            -0.07963526993989944,
            -0.043602105230093,
            -0.20102378726005554,
            -0.07007098197937012,
            0.016369374468922615,
            0.11459609866142273,
            -0.13936223089694977,
            -0.09505590051412582,
            0.09207025170326233,
            -0.1397639513015747,
            -0.1818682849407196,
            -0.11106247454881668,
            0.017395056784152985,
            -0.030774792656302452,
            -0.030051665380597115,
            -0.09418205171823502,
            0.08100824058055878,
            -0.01093960553407669,
            0.06238168850541115,
            0.14167191088199615,
            -0.060239288955926895,
            0.04650169610977173,
            0.030565055087208748,
            0.13813944160938263,
            -0.0177041906863451,
            0.05954483523964882,
            0.05946853384375572,
            -0.24146215617656708,
            -0.25868239998817444,
            -0.004217978101223707,
            0.054157618433237076,
            -0.09252136200666428,
            0.11725883185863495,
            -0.01282036118209362,
            -0.0929596871137619,
            0.05794285610318184,
            -0.23408541083335876,
            0.12904559075832367,
            -0.06242351979017258,
            0.08903737366199493,
            0.04217708483338356,
            0.17624641954898834,
            0.08310201019048691,
            -0.08033677190542221,
            -0.18376101553440094,
            -0.06499610096216202,
            -0.06452096998691559,
            0.04958370700478554,
            0.008028632029891014,
            -0.07832392305135727,
            0.004949899390339851,
            -0.05361565575003624,
            0.046355001628398895,
            -0.12187932431697845,
            -0.11432929337024689,
            0.16112282872200012,
            0.07928372919559479,
            -0.1587359607219696,
            0.07010344415903091,
            0.05683564767241478,
            0.0850784108042717,
            -0.07755972445011139,
            0.19160741567611694,
            -0.018967758864164352,
            -0.021584246307611465,
            -0.021988622844219208,
            -0.132978618144989,
            0.050081074237823486,
            0.13212384283542633,
            0.0894019827246666,
            -0.058293044567108154,
            -0.13495376706123352,
            0.16986097395420074,
            -0.10139606893062592,
            0.03637943044304848,
            -0.003563288599252701,
            0.016092605888843536,
            -0.12063101679086685,
            -0.24993403255939484,
            -0.1584131121635437,
            0.13518407940864563,
            0.12098019570112228,
            0.17493388056755066,
            -0.16158923506736755,
            -0.16631893813610077,
            -0.03166789188981056,
            0.1003391370177269,
            0.028808865696191788,
            -0.12403717637062073,
            0.012504709884524345,
            0.022307436913251877,
            0.2228725105524063,
            0.0968509092926979,
            -0.08118505030870438,
            -0.16998113691806793,
            0.07937736809253693,
            0.09173882752656937,
            -0.08585835993289948,
            0.031659580767154694,
            0.018089843913912773,
            -0.1588350087404251,
            0.1089245155453682,
            -0.13151109218597412,
            -0.14172767102718353,
            0.17810963094234467,
            -0.04483777657151222,
            -0.010190852917730808,
            -0.09158400446176529,
            0.04184343293309212,
            0.1638541966676712,
            0.027252396568655968,
            0.07459594309329987,
            0.14019407331943512,
            0.1523384153842926,
            0.003597437869757414,
            0.0028187744319438934,
            0.023721568286418915,
            0.13633818924427032,
            -0.0760514959692955,
            0.22507551312446594,
            -0.1207127720117569,
            -0.0895722284913063,
            -0.09971455484628677,
            -0.14880821108818054,
            -0.015183682553470135,
            -0.02865000069141388,
            0.16049084067344666,
            0.04806700721383095,
            -0.0848616436123848,
            -0.10178852826356888,
            -0.03321447595953941,
            0.061312220990657806,
            0.09333276748657227,
            -0.09492799639701843,
            -0.01441490650177002,
            0.11257985234260559,
            0.04481925815343857,
            -0.056096773594617844,
            -0.14769364893436432,
            -0.1475142389535904,
            -0.1074981689453125,
            -0.08163925260305405,
            -0.13089320063591003,
            -0.1438215970993042,
            0.00035730062518268824,
            0.11617981642484665,
            -0.06167549639940262,
            0.14435017108917236,
            0.11388255655765533,
            -0.018419360741972923,
            0.18288500607013702,
            0.02807067334651947,
            -0.07524176687002182,
            0.14258062839508057,
            0.006164781749248505,
            -0.08436419814825058,
            -0.16215114295482635,
            -0.027025828137993813,
            0.09294810146093369,
            0.0034918030723929405,
            0.012287733145058155,
            -0.10938844829797745,
            -0.06518689543008804,
            -0.049772489815950394,
            -0.15310126543045044,
            0.1525423228740692,
            0.021609751507639885,
            0.10836999118328094,
            -0.05726080760359764,
            0.13660480082035065,
            0.09524641185998917,
            0.07380206137895584,
            -0.02311672642827034,
            -0.18259410560131073,
            -0.012276466004550457,
            0.21595574915409088,
            -0.15005555748939514,
            -0.18239912390708923,
            0.023240838199853897,
            0.015888815745711327,
            -0.06343891471624374,
            -0.019355257973074913,
            0.031645990908145905,
            -0.1367112398147583,
            0.005422735586762428,
            0.011760720051825047,
            -0.1876227855682373,
            -0.18506763875484467,
            -0.049217939376831055,
            0.07131652534008026,
            -0.15587952733039856,
            0.006569164805114269,
            0.1439313143491745,
            -0.13401691615581512,
            0.05220086872577667,
            0.06243038550019264,
            -0.12948355078697205,
            -0.05340033769607544,
            0.030721718445420265,
            0.08610337227582932,
            0.08610524982213974,
            -0.10219123959541321,
            0.018787987530231476,
            0.009695101529359818,
            -0.16931971907615662,
            -0.06975260376930237,
            -0.015857815742492676,
            -0.031221870332956314,
            -0.10678558796644211,
            -0.030462166294455528,
            -0.10565930604934692,
            0.016694212332367897,
            0.044727347791194916,
            0.009444835595786572,
            0.16836555302143097,
            -0.2081783264875412,
            0.14439210295677185,
            -0.014537995681166649,
            0.0980876162648201,
            -0.19456754624843597,
            0.06412091851234436,
            0.09384158253669739,
            -0.029164310544729233,
            0.14001649618148804,
            -0.02279859408736229,
            0.10107158124446869,
            -0.006450536195188761,
            0.008478307165205479,
            -0.020085815340280533,
            -0.16468749940395355,
            0.10820482671260834,
            0.0073378984816372395,
            0.005221822764724493,
            -0.034947045147418976,
            -0.16380704939365387,
            0.10487571358680725,
            -0.02592799812555313,
            0.08594077080488205,
            -0.05948759242892265,
            -0.052925411611795425,
            0.046400755643844604,
            0.01946868933737278,
            0.035120733082294464,
            0.02253173105418682,
            -0.03323306888341904,
            0.0347699299454689,
            -0.003831220557913184,
            -0.19605596363544464,
            -0.13480299711227417,
            0.04037032648921013,
            0.0063650282099843025,
            -0.15278799831867218,
            0.04896978288888931,
            -0.05296545848250389,
            -0.04058629646897316,
            0.06278052181005478,
            -0.10516658425331116,
            -0.18862704932689667,
            -0.08539225906133652,
            -0.2042131870985031,
            0.010729354806244373,
            0.12702004611492157,
            0.1548762321472168,
            0.07877524942159653,
            -0.013842145912349224,
            0.016257211565971375,
            0.03862164914608002,
            0.1521909385919571,
            -0.012483001686632633,
            -0.0835285633802414,
            0.06087098270654678,
            0.03151971101760864,
            -0.06878398358821869,
            0.016865117475390434,
            0.04842477664351463,
            0.04625984653830528,
            -0.05003571882843971,
            -0.00461288308724761,
            -0.14297670125961304,
            -0.0002515699598006904,
            -0.007132542785257101,
            -0.15523461997509003,
            0.03582896664738655,
            -0.025797097012400627,
            0.12388104200363159,
            0.03698353096842766,
            0.09971875697374344,
            0.0359761007130146,
            -0.03203218802809715,
            0.0754573792219162,
            0.042564623057842255,
            -0.018981996923685074,
            0.07139546424150467,
            0.010940558277070522,
            0.08111709356307983,
            -0.1011294573545456,
            0.16203753650188446,
            0.058649174869060516,
            -0.09456772357225418,
            0.05736890807747841,
            0.05973059684038162,
            0.05190204456448555,
            0.07319716364145279,
            0.033838242292404175,
            -0.0569877065718174,
            0.08775779604911804,
            0.05465484783053398,
            0.005255488678812981,
            0.16737966239452362,
            -0.050281304866075516,
            0.026974909007549286,
            0.06692402064800262,
            0.08769898116588593,
            0.09077026695013046,
            -0.008043327368795872,
            -0.058107852935791016,
            -0.07035836577415466,
            -0.06942801177501678,
            -0.014728247188031673,
            0.21855364739894867,
            -0.042145371437072754,
            0.1441301703453064,
            0.07086428999900818,
            0.11225835978984833,
            -0.14413420855998993,
            -0.08538077026605606,
            0.18750441074371338,
            -0.008116156794130802,
            0.19777262210845947,
            0.07845788449048996,
            -0.029503773897886276,
            -0.07622741162776947,
            0.02583080157637596,
            0.07577809691429138,
            0.03244268149137497,
            0.11329230666160583,
            -0.16903316974639893,
            0.04384243115782738,
            0.011399771086871624,
            0.08232489228248596,
            0.1383039653301239,
            0.013259606435894966,
            0.12380386888980865,
            0.009171840734779835,
            -0.05960799753665924,
            0.07861822098493576,
            0.17899438738822937,
            0.15579268336296082,
            -0.009451343677937984,
            -0.03236346319317818,
            -0.1820427030324936,
            -0.06064440682530403,
            0.013499044813215733,
            0.007407392840832472,
            0.005019333213567734,
            -0.07969397306442261,
            -0.02921784296631813,
            -0.07327274978160858,
            0.051498450338840485,
            -0.26810845732688904,
            0.14279992878437042,
            0.10185988992452621,
            0.08023422956466675,
            0.08751104027032852,
            0.11178034543991089,
            -0.015643281862139702,
            -0.048058029264211655,
            -0.07038208097219467,
            -0.016460001468658447,
            0.1744544357061386,
            -0.17056645452976227,
            -0.2122059017419815,
            -0.034833330661058426,
            0.1318456381559372,
            -0.05659112706780434,
            0.012458886951208115,
            -0.016732975840568542,
            -0.08491962403059006,
            0.19214849174022675,
            0.024223975837230682,
            0.04206922650337219,
            -0.1317811906337738,
            0.006787861231714487,
            -0.16108140349388123,
            0.006436105817556381,
            0.04809545353055,
            -0.037934210151433945,
            -0.06098972633481026,
            0.033923279494047165,
            -0.08873767405748367,
            0.13061155378818512,
            0.0015896721743047237,
            -0.07563073188066483,
            -0.0469810776412487,
            -0.003087339224293828,
            0.12664707005023956,
            0.07746357470750809,
            0.033365678042173386,
            -0.12812960147857666,
            -0.12726333737373352,
            0.09385856986045837,
            -0.06324596703052521,
            -0.08597511053085327,
            -0.06907927989959717,
            0.14875313639640808,
            -0.004535645712167025,
            0.024251317605376244,
            -0.030993200838565826,
            -0.009124434553086758,
            0.030699381604790688,
            0.1171950250864029,
            0.17349576950073242,
            0.10533691197633743,
            -0.031554222106933594,
            -0.09941887855529785,
            -0.062094707041978836,
            0.09657595306634903,
            0.16012851893901825,
            -0.06589192152023315,
            0.10574323683977127,
            -0.06875291466712952,
            -0.0708155632019043,
            -0.18408000469207764,
            -0.01956477388739586,
            0.019981546327471733,
            -0.17028717696666718,
            -0.012091717682778835,
            -0.11521758884191513,
            0.08140286803245544,
            -0.05895033851265907,
            0.08944644033908844,
            0.07291193306446075,
            0.06306811422109604,
            -0.02071339637041092,
            0.00780175905674696,
            -0.1568620800971985,
            -0.006500087212771177,
            0.0669555589556694,
            -0.1308368444442749,
            -0.20987063646316528,
            0.020174818113446236,
            0.16622298955917358,
            0.1187230795621872,
            -0.1400747150182724,
            0.01902586594223976,
            -0.02735571376979351,
            0.04827063903212547,
            -0.03298822045326233,
            -0.10041621327400208,
            0.0716954842209816,
            0.1326872855424881,
            0.169877827167511,
            0.16972903907299042,
            -0.0045599923469126225,
            0.18535956740379333,
            0.016036000102758408,
            -0.05974406376481056,
            0.05722545459866524,
            -0.021689364686608315,
            -0.1808813512325287,
            -0.06276247650384903,
            -0.09137637913227081,
            -0.0734110176563263,
            0.023178456351161003,
            -0.028532683849334717,
            0.032294854521751404,
            -0.008178791031241417,
            0.015302383340895176,
            0.057347800582647324,
            0.19323696196079254,
            0.014014043845236301,
            -0.014347975142300129,
            0.09231310337781906,
            0.18626806139945984,
            0.18324652314186096,
            -0.16975797712802887,
            0.025035705417394638,
            -0.06523101776838303,
            -0.04474637284874916,
            0.09201865643262863,
            0.04580913856625557,
            -0.06665909290313721,
            0.17445029318332672,
            -0.016938548535108566,
            -0.10094004124403,
            -0.006059311795979738,
            0.05473341792821884,
            -0.07623835653066635,
            -0.18304455280303955,
            0.13675262033939362,
            -0.06725524365901947,
            -0.053497862070798874,
            -0.06854134052991867,
            0.16374708712100983,
            -0.052882399410009384,
            -0.0032686362974345684,
            0.08454380929470062,
            0.026773424819111824,
            -0.1378604918718338,
            -0.09805077314376831,
            -0.07079022377729416,
            -0.11960961669683456,
            -0.1477414071559906,
            -0.13220271468162537,
            -0.04939844459295273,
            -0.011890402063727379,
            -0.09535481035709381,
            -0.003754071658477187,
            0.05941019952297211,
            0.0704708844423294,
            0.04323159530758858,
            -0.1181841492652893,
            -0.11913147568702698,
            0.10056604444980621,
            0.10870566219091415,
            0.024013763293623924,
            -0.16846594214439392,
            -0.018136590719223022,
            0.07202962040901184,
            0.10342703014612198,
            0.06902074813842773,
            0.028852835297584534,
            0.031734876334667206,
            0.0315454937517643,
            0.1041308268904686,
            0.07246395945549011,
            0.02819059230387211,
            -0.1901700645685196,
            -0.22495044767856598,
            0.03991125524044037,
            -0.19679537415504456,
            0.03970479220151901,
            -0.1192050501704216,
            -0.08578025549650192,
            0.07968750596046448,
            -0.00932322721928358,
            0.21787039935588837,
            -0.040565505623817444,
            0.0022490087430924177,
            0.035681433975696564,
            -0.174213245511055,
            0.159285306930542,
            -0.005515431985259056,
            -0.13325166702270508,
            -0.15167008340358734,
            -0.022301090881228447,
            0.010918334126472473,
            -0.0019948668777942657,
            -0.18273720145225525,
            0.045658230781555176,
            -0.17646202445030212,
            -0.11549804359674454,
            0.023787980899214745,
            0.09024398028850555,
            -0.07117605209350586,
            0.09267567843198776,
            -0.09788603335618973,
            -0.11271332204341888,
            -0.09460978209972382,
            -0.13819122314453125,
            -0.08950820565223694,
            0.17272132635116577,
            -0.055345624685287476,
            0.041205763816833496,
            -0.06811229884624481,
            -0.12289584428071976,
            0.08210872113704681,
            0.09959057718515396,
            0.10973178595304489,
            0.01966201141476631,
            -0.03609510511159897,
            -0.06263089179992676,
            -0.12981827557086945,
            0.0032052325550466776,
            0.14375625550746918,
            0.1408819556236267,
            -0.00013595784548670053,
            -0.1513734757900238,
            -0.0161533635109663,
            0.06266534328460693,
            0.00028574757743626833,
            -0.015079490840435028,
            -0.11087094992399216,
            -0.1713872104883194,
            -0.0689440369606018,
            0.05535826459527016,
            0.12068434804677963,
            -0.0917854830622673,
            0.04605132341384888,
            0.12061171233654022,
            0.16984842717647552,
            -0.07062774896621704,
            -0.021473364904522896,
            -0.1115904450416565,
            -0.12548960745334625,
            -0.0848027691245079,
            0.04461544007062912,
            -0.030388714745640755,
            0.10716380178928375,
            -0.08637605607509613,
            0.12063957005739212,
            -0.033566754311323166,
            -0.21698111295700073,
            -0.09279569983482361,
            -0.11199304461479187,
            0.07071250677108765,
            -0.002912248019129038,
            0.13844402134418488,
            -0.004282158799469471,
            0.058393362909555435,
            -0.01703498512506485,
            -0.049242712557315826,
            -0.09040559828281403,
            -0.025708697736263275,
            -0.09986894577741623,
            0.0044485037215054035,
            0.036014456301927567,
            0.18721163272857666,
            -0.05162733048200607,
            0.027278095483779907,
            0.2089185118675232,
            -0.03819529339671135,
            -0.16342701017856598,
            -0.03175345063209534,
            -0.12312842160463333,
            -0.009177345782518387,
            -0.13535980880260468,
            -0.013629731722176075,
            -0.06325853615999222,
            0.0378141850233078,
            -0.06320248544216156,
            0.23789341747760773,
            -0.03143574297428131,
            -0.026677748188376427,
            0.016830800101161003,
            -0.12275513261556625,
            -0.07877523452043533,
            -0.025844329968094826,
            0.05080276355147362,
            -0.08128158748149872,
            -0.027424076572060585,
            -0.03791424259543419,
            0.015626858919858932,
            -0.1023111492395401,
            0.021387536078691483,
            0.056425757706165314,
            0.027924995869398117,
            0.01976434886455536,
            -0.11349548399448395,
            0.0723620057106018,
            -0.03334294259548187,
            -0.037188779562711716,
            0.0011718191672116518,
            0.0010087297996506095,
            0.136470764875412,
            -0.12507401406764984,
            0.11271931231021881,
            0.11657043546438217,
            0.07847075909376144,
            -0.039209578186273575,
            -0.06029624864459038,
            -0.11062799394130707,
            0.1354142129421234,
            -0.04165739193558693,
            0.018521852791309357,
            0.02403978258371353,
            -0.016631826758384705,
            -0.20326776802539825,
            0.20308099687099457,
            0.19333961606025696,
            0.026883019134402275,
            -0.007841521874070168,
            0.019213959574699402,
            0.011649253778159618,
            0.046570733189582825,
            0.3056274652481079,
            0.07627192884683609,
            -0.1784847229719162,
            -0.07828788459300995,
            0.1249418556690216,
            0.013735325075685978,
            -0.15463727712631226,
            0.23364287614822388,
            -0.07896868139505386,
            -0.1286904215812683,
            -0.1121385395526886,
            0.2186785191297531,
            -0.15957500040531158,
            -0.08513528108596802,
            -0.052614301443099976,
            -0.01802736520767212,
            0.014691636897623539,
            -0.010727699846029282,
            0.07098108530044556,
            -0.15332651138305664,
            -0.015074576251208782,
            -0.0694705918431282,
            0.0014204045291990042,
            -0.10700169950723648,
            0.17667068541049957,
            0.11991899460554123,
            -0.05073583498597145,
            -0.042683981359004974,
            -0.03980202227830887,
            0.14777405560016632,
            -0.09330356121063232,
            -0.043159641325473785,
            0.1253410428762436,
            -0.12895740568637848,
            -0.12941810488700867,
            0.06084372103214264,
            -0.10625216364860535,
            -0.0874335989356041,
            -0.18097980320453644,
            0.16536468267440796,
            0.08137835562229156,
            -0.040356382727622986,
            -0.10639247298240662,
            0.065084308385849,
            -0.09110794961452484,
            0.07477161288261414,
            -0.03138905391097069,
            -0.127140074968338,
            0.09141133725643158,
            -0.015322867780923843,
            -0.15673312544822693,
            0.022324245423078537,
            0.04106300696730614,
            -0.13494190573692322,
            -0.005699388217180967,
            0.026352785527706146,
            -0.05728811398148537,
            0.030154522508382797,
            -0.14170391857624054,
            -0.21031254529953003,
            -0.05746731534600258,
            0.05775288864970207,
            0.09849096089601517,
            0.09503594040870667,
            -0.12293112277984619,
            -0.02415088191628456,
            -0.03076661005616188,
            -0.018834451213479042,
            0.2452642023563385,
            0.11984201520681381,
            -0.12652215361595154,
            -0.024011850357055664,
            -0.12209795415401459,
            0.21897679567337036,
            -0.005626563914120197,
            -0.03487445414066315,
            -0.14633990824222565,
            0.1858380287885666,
            0.0625452995300293,
            0.0379812978208065,
            0.14315418899059296,
            -0.19657666981220245,
            0.10987819731235504,
            -0.030908364802598953,
            -0.0824488177895546,
            0.043696533888578415,
            0.056139543652534485,
            -0.20032188296318054,
            -0.2067200392484665,
            0.07503225654363632,
            0.030870283022522926,
            0.19035519659519196,
            0.059972312301397324,
            0.06763503700494766,
            0.13370168209075928,
            0.015206065028905869,
            -0.09501267224550247,
            -0.1267276555299759,
            0.04250841960310936,
            -0.17117130756378174,
            0.02565661631524563,
            0.0020344119984656572,
            0.005965324118733406,
            -0.22270923852920532,
            -0.027327967807650566,
            0.11595112085342407,
            -0.011824507266283035,
            0.045815736055374146,
            -0.177336186170578,
            -0.16243129968643188,
            0.13036803901195526,
            -0.17444902658462524,
            0.05323800444602966,
            0.002873828401789069,
            0.006470725405961275,
            0.057582348585128784,
            -0.013465270400047302,
            0.02744065225124359,
            -0.1501236855983734,
            0.00517658656463027,
            -0.11307334154844284,
            0.006687610875815153,
            -0.1634857952594757,
            -0.06752608716487885,
            0.03380536660552025,
            0.025913763791322708,
            0.10116052627563477,
            0.3330612778663635,
            -0.000587228627409786,
            -0.00013189914170652628,
            0.11807466298341751,
            0.08496323227882385,
            -0.05144315958023071,
            -0.08189615607261658,
            0.023345153778791428,
            -0.04947766661643982,
            0.12651965022087097,
            -0.03458452224731445,
            -0.1807239055633545,
            -0.08301915228366852,
            -0.13462583720684052,
            -0.01653347536921501,
            -0.1449624001979828,
            -0.166442409157753,
            0.060399334877729416,
            -0.09503912180662155,
            0.21204730868339539,
            -0.010976886376738548,
            -0.05102512612938881,
            0.0754552111029625,
            0.0228654146194458,
            -0.14710627496242523,
            -0.13168542087078094,
            -0.036582086235284805,
            0.027517186477780342,
            0.28103160858154297,
            -0.12747207283973694,
            -0.10831262171268463,
            0.08097538352012634,
            -0.0056578610092401505,
            -0.30074578523635864,
            0.09725676476955414,
            -0.14303350448608398,
            0.1389331966638565,
            -0.1028921902179718,
            -0.0376434251666069,
            -0.14033032953739166,
            -0.18754585087299347,
            -0.1326369196176529,
            -0.2159803956747055,
            -0.01784784346818924,
            0.1151265949010849,
            -0.11332828551530838,
            0.14586620032787323,
            0.046859871596097946,
            -0.0660509318113327,
            0.18806293606758118,
            0.09075218439102173,
            0.00766226090490818,
            -0.05303803086280823,
            0.07137111574411392,
            -0.02593235671520233,
            0.007541904225945473,
            -0.056331440806388855,
            -0.24696999788284302,
            -0.14733894169330597,
            0.05928685888648033,
            -0.019693411886692047,
            0.017030218616127968,
            -0.12679025530815125,
            -0.07584862411022186,
            -0.20520412921905518,
            -0.007703582290560007,
            -0.0018165066139772534,
            -0.0874447450041771,
            -0.02431858517229557,
            -0.12720750272274017,
            0.2231806516647339,
            -0.0030288216657936573,
            -0.10004084557294846,
            0.07477124780416489,
            -0.0012753757182508707,
            0.04812939092516899,
            -0.007781247142702341,
            -0.06506451219320297,
            -0.07365592569112778,
            -0.1803378164768219,
            -0.11355163156986237,
            -0.08644445240497589,
            0.03059583716094494,
            0.07609584927558899,
            -0.08365553617477417,
            -0.161556676030159,
            -0.014298385009169579,
            -0.12947800755500793,
            0.08365663886070251,
            0.07793745398521423,
            -0.09620918333530426,
            0.1535004824399948,
            -0.03761445730924606,
            -0.023366810753941536,
            0.024690579622983932,
            0.00286153145134449,
            -0.02678805962204933,
            -0.1789810061454773,
            -0.1254020482301712,
            0.028287222608923912,
            0.09030928462743759,
            0.03900425136089325,
            0.14782384037971497,
            -0.2963760793209076,
            -0.0870346799492836,
            0.10097802430391312,
            0.12262315303087234,
            -0.0620155893266201,
            0.03297341614961624,
            0.20560792088508606,
            0.11095127463340759,
            0.18333077430725098,
            0.10900676250457764,
            -0.04278277978301048,
            -0.08523014932870865,
            -0.05005040019750595,
            0.01680855266749859,
            -0.055523745715618134,
            -0.12583893537521362,
            0.06601308286190033,
            -0.18779638409614563,
            -0.022646766155958176,
            -0.10356615483760834,
            0.005050383973866701,
            0.09684421122074127,
            -0.028377030044794083,
            0.23991917073726654,
            0.009603380225598812,
            0.05911698564887047,
            0.014750977046787739,
            -0.13025124371051788,
            -0.016557076945900917,
            0.09336403012275696,
            0.029636958613991737,
            -0.11375569552183151,
            -0.1566043645143509,
            -0.053132347762584686,
            0.042436204850673676,
            -0.01325892936438322,
            0.011721314862370491,
            -0.10172075033187866,
            -0.0047733960673213005,
            0.18386192619800568,
            0.08385538309812546,
            0.03484955430030823,
            -0.1832742989063263,
            0.03237421438097954,
            -0.056856900453567505,
            -0.04814978316426277,
            0.1808272898197174,
            -0.010969400405883789,
            0.09061767905950546,
            -0.12971068918704987,
            -0.07238226383924484,
            0.183186337351799,
            0.04035556688904762,
            -0.14545755088329315,
            0.11820480972528458,
            0.009271441958844662,
            0.09188669919967651,
            0.0029940896201878786,
            -0.23558780550956726,
            -0.11202673614025116,
            -0.1374148279428482,
            0.055102258920669556,
            0.001034933840855956,
            0.06930546462535858,
            0.12525862455368042,
            -0.006142282858490944,
            0.029555656015872955,
            0.1282886117696762,
            -0.09360425919294357,
            0.003864698112010956,
            -0.003860142547637224,
            0.1034281924366951,
            -0.03951679915189743,
            -0.0017527638701722026,
            -0.12387701123952866,
            0.08700829744338989,
            0.13926565647125244,
            0.15141016244888306,
            -0.024812452495098114,
            -0.11035098880529404,
            0.040880631655454636,
            -0.004685259889811277,
            -0.10268042236566544,
            -0.12455938011407852,
            -0.21168389916419983,
            -0.11435247957706451,
            0.04108896479010582,
            -0.0074537391774356365,
            -0.08274256438016891,
            0.1411820501089096,
            -0.0593743734061718,
            0.09846051037311554,
            -0.13162650167942047,
            -0.052470095455646515,
            0.023659005761146545,
            -0.15656991302967072,
            -0.09551112353801727,
            0.1365191787481308,
            0.08238933235406876,
            0.13261543214321136,
            0.0010744851315394044,
            0.006817095912992954,
            0.03732050955295563,
            0.005478272680193186,
            0.008040498942136765,
            -0.052638422697782516,
            0.11001097410917282,
            -0.058299388736486435,
            0.017338354140520096,
            -0.04048885405063629,
            0.022955358028411865,
            -0.06602279096841812,
            -0.0005149695789441466,
            0.12323671579360962,
            0.028542477637529373,
            -0.024717241525650024,
            0.10730159282684326,
            -0.001968665048480034,
            0.09066566079854965,
            -0.13969245553016663,
            0.20624274015426636,
            -0.1922266036272049,
            0.21142086386680603,
            0.1301964819431305,
            -0.020051006227731705,
            -0.004107458051294088,
            -0.11199548095464706,
            0.07877032458782196,
            -0.0801035687327385,
            -0.011518881656229496,
            -0.007623874582350254,
            0.13806791603565216,
            -0.12340962141752243,
            -0.060606662184000015,
            -0.01780969649553299,
            0.03745296597480774,
            0.08769241720438004,
            0.01650039665400982,
            -0.0657714381814003,
            -0.18952001631259918,
            0.030321674421429634,
            -0.03376511111855507,
            -0.17489999532699585,
            -0.08689673990011215,
            -0.0029905447736382484,
            0.06314881891012192,
            -0.16749469935894012,
            0.007322636898607016,
            -0.08636388182640076,
            0.09663595259189606,
            -0.14495143294334412,
            -0.030670467764139175,
            -0.07939966022968292,
            -0.005454069934785366,
            0.12547045946121216,
            -0.14154335856437683,
            0.1244644969701767,
            -0.10505996644496918,
            0.09857593476772308,
            -0.03448657691478729,
            -0.05938117951154709,
            0.08838904649019241,
            -0.05782105773687363,
            -0.03699292242527008,
            -0.02570325881242752,
            0.04717642813920975,
            -0.017422830685973167,
            -0.08792806416749954,
            0.00006881193985464051,
            -0.236894428730011,
            0.05139761418104172,
            -0.025911573320627213,
            -0.01076528336852789,
            -0.15786810219287872,
            0.019816409796476364,
            -0.010231130756437778,
            0.04829930514097214,
            0.05293967202305794,
            -0.07091895490884781,
            0.14249509572982788,
            -0.2058969885110855,
            -0.09788823127746582,
            0.0657232329249382,
            -0.04341384395956993,
            -0.0063132490031421185,
            -0.03336039185523987,
            -0.04264875873923302,
            -0.04044694826006889,
            0.054147377610206604,
            0.009155972860753536,
            0.12579286098480225,
            0.10391134023666382,
            0.06870421022176743,
            0.02414228394627571,
            -0.19587795436382294,
            -0.029511071741580963,
            0.0030062803998589516,
            -0.06220250949263573,
            0.02792878821492195,
            0.08975934237241745,
            -0.058311402797698975,
            -0.12167375534772873,
            -0.04216554015874863,
            -0.0618106871843338,
            -0.12566623091697693,
            -0.12952083349227905,
            -0.14836350083351135,
            -0.02042868547141552,
            -0.1645890176296234,
            -0.05160684138536453,
            0.097487673163414,
            0.023098548874258995,
            0.12080035358667374,
            -0.18861030042171478,
            0.15713262557983398,
            0.08470524102449417,
            0.1597052812576294,
            0.08186369389295578,
            -0.018548114225268364,
            -0.08338121324777603,
            0.05457202345132828,
            -0.179439976811409,
            -0.08781386911869049,
            0.024724632501602173,
            0.18265856802463531,
            0.18655692040920258,
            0.028282873332500458,
            -0.10060805827379227,
            -0.13561439514160156,
            -0.04817450791597366,
            -0.09613732993602753,
            -0.16380803287029266,
            -0.13760316371917725,
            0.11175885051488876,
            -0.1852692812681198,
            0.026104342192411423,
            0.07035248726606369,
            -0.03396981209516525,
            -0.16347472369670868,
            -0.1434604823589325,
            0.02664421685039997,
            -0.18204811215400696,
            0.15863235294818878,
            0.02074423059821129,
            -0.10790783166885376,
            -0.08594955503940582,
            0.10166408866643906,
            -0.14116781949996948,
            -0.020452801138162613,
            0.10644268244504929,
            -0.14866593480110168,
            0.0506606362760067,
            -0.13491341471672058,
            -0.06924761086702347,
            0.098002128303051,
            0.21501357853412628,
            0.07846923917531967,
            -0.118650883436203,
            0.10183945298194885,
            -0.17821189761161804,
            -0.10181757062673569,
            -0.051556043326854706,
            0.04019087925553322,
            0.024717144668102264,
            -0.09993363171815872,
            0.12098924815654755,
            0.0041360207833349705,
            0.0010104012908414006,
            0.07738233357667923,
            -0.05157731473445892,
            -0.10864809155464172,
            -0.15947282314300537,
            -0.15043485164642334,
            0.07463393360376358,
            -0.0824907049536705,
            -0.09031356126070023,
            -0.09404399991035461,
            0.07972855865955353,
            -0.12945283949375153,
            -0.040610890835523605,
            -0.035304371267557144,
            0.13229267299175262,
            0.14616058766841888,
            -0.024516534060239792,
            -0.06920088827610016,
            0.017528759315609932,
            -0.038185928016901016,
            -0.06854259222745895,
            -0.00871194712817669,
            -0.030478253960609436,
            0.12841257452964783,
            -0.10878033936023712,
            -0.1706959754228592,
            0.08238717913627625,
            0.04119854420423508,
            0.20366713404655457,
            -0.043150678277015686,
            -0.1556454598903656,
            -0.15285205841064453,
            0.012051492929458618,
            0.07448768615722656,
            -0.001671309000812471,
            -0.10551927983760834,
            -0.13364320993423462,
            0.08249218016862869,
            0.05519479140639305,
            -0.11458137631416321,
            -0.05902206525206566,
            0.14108428359031677,
            -0.037518344819545746,
            -0.21822260320186615,
            -0.039453715085983276,
            0.004686261992901564,
            0.04493553936481476,
            -0.05460929870605469,
            0.03485837206244469,
            0.06467519700527191,
            -0.05089090019464493,
            -0.015974117442965508,
            0.0030982578173279762,
            0.10049610584974289,
            0.016810759902000427,
            -0.025119498372077942,
            0.1740574687719345,
            0.1347578912973404,
            -0.04364264756441116,
            0.046791065484285355,
            -0.04091159626841545,
            0.017864469438791275,
            -0.0721103623509407,
            -0.09604960680007935,
            0.10545685887336731,
            -0.13874146342277527,
            -0.052676040679216385,
            0.02674892358481884,
            0.03691503778100014,
            -0.09317505359649658,
            -0.0629672110080719,
            0.09354089945554733,
            0.024620577692985535,
            -0.19429217278957367,
            0.16103629767894745,
            -0.02779148332774639,
            -0.01931176334619522,
            0.18348249793052673,
            0.038558658212423325,
            -0.21785475313663483,
            0.04088098183274269,
            -0.025838568806648254,
            0.1717783659696579,
            0.037487875670194626,
            -0.020036455243825912,
            -0.12202777713537216,
            0.09286578744649887,
            0.22947724163532257,
            -0.105303093791008,
            0.19137772917747498,
            0.04471241310238838,
            0.16427043080329895,
            -0.06529171019792557,
            0.058138638734817505,
            0.01655450463294983,
            -0.033402130007743835,
            -0.193980872631073,
            -0.03732171654701233,
            -0.0071229892782866955,
            0.13415484130382538,
            0.08358962833881378,
            0.15364240109920502,
            0.011162702925503254,
            -0.07115326821804047,
            -0.136911541223526,
            -0.09710076451301575,
            0.11252394318580627,
            0.05386066809296608,
            0.38624560832977295,
            0.13233476877212524,
            -0.14755897223949432,
            -0.009393098764121532,
            0.03484116494655609,
            0.12758439779281616,
            0.022787977010011673,
            -0.13555137813091278,
            0.09031030535697937,
            -0.20611262321472168,
            -0.09070084989070892,
            0.04984431341290474,
            -0.19050125777721405,
            0.031565092504024506,
            0.13205654919147491,
            -0.07327321171760559,
            -0.05696486309170723,
            -0.1018168106675148,
            0.10906414687633514,
            0.0527825802564621,
            -0.1312537044286728,
            -0.1061209961771965,
            0.1961504966020584,
            -0.000877529033459723,
            0.09647905826568604,
            0.039782799780368805,
            0.03659168258309364,
            -0.1444188505411148,
            -0.1261443793773651,
            0.004143359139561653,
            0.013714272528886795,
            0.16834816336631775,
            0.0724397748708725,
            -0.008213022723793983,
            0.3026006519794464,
            0.3266240358352661,
            -0.08532898128032684,
            0.048395752906799316,
            0.04300694912672043,
            0.02693747915327549,
            -0.16377460956573486,
            0.09073128551244736,
            -0.1346854567527771,
            -0.08333700895309448,
            -0.035397693514823914,
            0.05608707666397095,
            -0.06695559620857239,
            0.10692397505044937,
            -0.07354947179555893,
            -0.0127854123711586,
            0.006441762205213308,
            0.08813411742448807,
            -0.02880745381116867,
            0.1749769151210785,
            -0.026249907910823822,
            0.00022748242190573364,
            0.11011937260627747,
            -0.034021612256765366,
            0.055706024169921875,
            -0.26361697912216187,
            -0.12132640928030014,
            -0.06263413280248642,
            -0.06115342304110527,
            -0.0632515698671341,
            0.016478093340992928,
            -0.07507843524217606,
            -0.1374654471874237,
            -0.0894312784075737,
            0.02910258062183857,
            -0.07107018679380417,
            -0.1508466750383377,
            -0.09012162685394287,
            0.17604364454746246,
            -0.015163127332925797,
            0.006902341265231371,
            -0.04452807456254959,
            0.19917932152748108,
            0.0655546560883522,
            -0.023756464943289757,
            0.12704220414161682,
            0.05998162925243378,
            0.04285720735788345,
            0.047167304903268814,
            0.010442528873682022,
            0.15123151242733002,
            0.10762577503919601,
            -0.1869891732931137,
            -0.03132791817188263,
            -0.1587272733449936,
            0.09612960368394852,
            0.0017948324093595147,
            0.13274700939655304,
            -0.12061354517936707,
            0.02971595898270607,
            -0.021706189960241318,
            -0.16261787712574005,
            -0.09355641156435013,
            0.06494271755218506,
            -0.17391951382160187,
            0.043872177600860596,
            -0.05084976926445961,
            0.11287154257297516,
            0.08976858109235764,
            0.2110707014799118,
            -0.007916346192359924,
            0.08909251540899277,
            0.08762568980455399,
            0.012513091787695885,
            0.038726091384887695,
            0.1116306483745575,
            0.030747387558221817,
            0.0264908317476511,
            0.09864793717861176,
            0.11349205672740936,
            -0.16348321735858917,
            -0.04934275150299072,
            0.08446438610553741,
            -0.21185678243637085,
            0.16809934377670288,
            -0.09104350954294205,
            0.15013118088245392,
            -0.004047468304634094,
            -0.13185539841651917,
            0.1119876578450203,
            0.05851864814758301,
            -0.1589360386133194,
            0.15762196481227875,
            0.05739476531744003,
            -0.14866778254508972,
            0.01006010640412569,
            0.1383165717124939,
            0.044430073350667953,
            0.07599920779466629,
            0.010105784982442856,
            -0.025401722639799118,
            -0.2001596838235855,
            -0.017180459573864937,
            0.09512992203235626,
            -0.0032215500250458717,
            -0.0056954179890453815,
            0.008716871030628681,
            -0.18537890911102295,
            0.14509077370166779,
            -0.0330270417034626,
            -0.047656022012233734,
            0.13370972871780396,
            -0.007391111459583044,
            -0.10455898940563202,
            0.05393305793404579,
            -0.01838701032102108,
            0.10760899633169174,
            -0.0005682881455868483,
            -0.1425407975912094,
            0.004472972825169563,
            0.030358174815773964,
            -0.15003235638141632,
            0.10100751370191574,
            0.03866063058376312,
            0.19252361357212067,
            -0.05443315580487251,
            0.17595812678337097,
            -0.019659295678138733,
            0.10517573356628418,
            -0.02203766629099846,
            0.16307133436203003,
            -0.0003797289391513914,
            0.0832488015294075,
            -0.1853153556585312,
            -0.05751752108335495,
            -0.10568748414516449,
            -0.16058118641376495,
            -0.008562533184885979,
            -0.11238344013690948,
            -0.010485047474503517,
            0.015951139852404594,
            0.17537860572338104,
            0.04019203037023544,
            0.09679808467626572,
            -0.07379692047834396,
            -0.05744929239153862,
            0.1620783656835556,
            0.10408197343349457,
            0.08287366479635239,
            -0.07370727509260178,
            0.08600780367851257,
            -0.004782268777489662,
            0.16440504789352417,
            -0.08417782932519913,
            -0.03790806606411934,
            -0.05499916523694992,
            0.01372468750923872,
            0.08794072270393372,
            -0.08274634927511215,
            -0.03254805505275726,
            0.042171262204647064,
            -0.06544482707977295,
            -0.12510329484939575,
            -0.0147167993709445,
            -0.08084969222545624,
            0.10927578061819077,
            0.049069758504629135,
            -0.08416946977376938,
            0.05329056456685066,
            0.035505056381225586,
            0.09243398904800415,
            -0.11468278616666794,
            0.054766103625297546,
            -0.028452115133404732,
            0.009283782914280891,
            -0.05193893238902092,
            -0.05983857437968254,
            -0.087501160800457,
            -0.12248051166534424,
            0.03989358991384506,
            -0.020925285294651985,
            0.07716411352157593,
            -0.14029142260551453,
            0.052678849548101425,
            -0.0017654459225013852,
            -0.09726747125387192,
            -0.04088122397661209,
            -0.02312362939119339,
            0.036429133266210556,
            0.013725632801651955,
            -0.022605381906032562,
            -0.1014448031783104,
            0.12171768397092819,
            0.19266358017921448,
            0.03293585777282715,
            0.026377076283097267,
            -0.10457774251699448,
            0.004291501361876726,
            -0.07459129393100739,
            0.02777661196887493,
            -0.014553929679095745,
            0.10801269859075546,
            -0.034782107919454575,
            0.14929161965847015,
            -0.1521119326353073,
            0.015418995171785355,
            -0.011103353463113308,
            -0.19433200359344482,
            0.011561907827854156,
            -0.0660540834069252,
            0.12926927208900452,
            -0.1310562789440155,
            -0.1017504408955574,
            -0.005252329632639885,
            -0.13980337977409363,
            0.05882488936185837,
            0.17751292884349823,
            -0.02935967966914177,
            -0.01736569032073021,
            0.07699020951986313,
            -0.06048983708024025,
            0.09421558678150177,
            -0.13593296706676483,
            -0.02951783314347267,
            -0.05256553366780281,
            0.2037886083126068,
            -0.09233442693948746,
            -0.05045369639992714,
            0.06871206313371658,
            -0.08640700578689575,
            -0.040899306535720825,
            -0.00894446112215519,
            -0.06008566543459892,
            -0.013290224596858025,
            0.21389631927013397,
            0.07713212072849274,
            0.047288015484809875,
            0.009690787643194199,
            -0.04385177046060562,
            0.10375283658504486,
            0.010731044225394726,
            -0.04880126193165779,
            0.008820758201181889,
            0.07780424505472183,
            0.04908810928463936,
            0.06769976764917374,
            0.009358747862279415,
            -0.032621607184410095,
            -0.010119513608515263,
            -0.08737372606992722,
            -0.023445026949048042,
            0.0762920156121254,
            -0.04843037575483322,
            0.04531809687614441,
            -0.044023625552654266,
            -0.062453869730234146,
            -0.04952983558177948,
            -0.009871480986475945,
            0.015702711418271065,
            0.1781412661075592,
            0.06259670853614807,
            -0.06251342594623566,
            -0.03303878381848335,
            0.08592550456523895,
            0.14411014318466187,
            -0.05036845803260803,
            0.11209066957235336,
            0.00426526740193367,
            0.07763198763132095,
            -0.08785741031169891,
            -0.16066250205039978,
            0.13489805161952972,
            0.04074038937687874,
            0.07921166718006134,
            -0.09656268358230591,
            0.15893293917179108,
            0.086184561252594,
            0.17605821788311005,
            -0.0543026328086853,
            0.07449369132518768,
            -0.06300457566976547,
            -0.10879455506801605,
            -0.0721747949719429,
            -0.058523815125226974,
            -0.020276254042983055,
            -0.11668461561203003,
            0.006876423954963684,
            0.013183120638132095,
            0.10304225236177444,
            -0.06652852147817612,
            -0.1405782401561737,
            -0.15751993656158447,
            -0.02580353431403637,
            -0.17822638154029846,
            -0.011711005121469498,
            -0.07205434143543243,
            -0.08634505420923233,
            -0.008956784382462502,
            -0.09965140372514725,
            0.21008159220218658,
            0.004223254509270191,
            0.056571509689092636,
            0.1275642365217209,
            -0.216620534658432,
            0.14332695305347443,
            -0.11758169531822205,
            0.11674874275922775,
            -0.0925663486123085,
            0.02323896437883377,
            0.06062833592295647,
            -0.009779052808880806,
            0.028828797861933708,
            -0.014004767872393131,
            0.02551671303808689,
            0.21171508729457855,
            0.1896679550409317,
            0.048833101987838745,
            -0.012910362333059311,
            -0.10814026743173599,
            0.04963663965463638,
            -0.134682297706604,
            0.09364308416843414,
            0.06734142452478409,
            -0.03107857145369053,
            0.1116151213645935,
            0.08862033486366272,
            0.1863582283258438,
            -0.04078132286667824,
            0.06927844882011414,
            -0.011810416355729103,
            -0.05909750983119011,
            -0.010087773203849792,
            -0.09568380564451218,
            0.10126426070928574,
            -0.1147921085357666,
            0.04570276290178299,
            -0.006549718789756298,
            -0.12493503838777542,
            0.007064179517328739,
            0.05710455775260925,
            -0.05313577130436897,
            -0.1525423675775528,
            0.0023231233935803175,
            0.2029341161251068,
            -0.1377280205488205,
            -0.06079589203000069,
            0.04566961154341698,
            0.1231137290596962,
            0.18130086362361908,
            0.060371462255716324,
            0.17984740436077118,
            -0.038507502526044846,
            0.2074781358242035,
            -0.14894036948680878,
            -0.05111734941601753,
            -0.06651899963617325,
            -0.04703489691019058,
            -0.11166518926620483,
            -0.0724777951836586,
            -0.15708060562610626,
            -0.174057275056839,
            0.002734632231295109,
            -0.06066418066620827,
            0.06633201241493225,
            0.03532030060887337,
            0.18267974257469177,
            -0.045922569930553436,
            -0.023818250745534897,
            0.0754009336233139,
            0.20431466400623322,
            -0.04452211409807205,
            0.05628741905093193,
            0.07298921793699265,
            -0.022427039220929146,
            -0.07996824383735657,
            -0.08314672112464905,
            0.216366708278656,
            -0.1013970896601677,
            -0.08140048384666443,
            0.055365800857543945,
            -0.08497151732444763,
            0.08567386120557785,
            0.01807374507188797,
            0.021841831505298615,
            0.06590483337640762,
            0.03976477310061455,
            0.13875049352645874,
            -0.054270241409540176,
            0.14561189711093903,
            0.023659102618694305,
            0.09746477752923965,
            0.140935018658638,
            -0.07179642468690872,
            -0.0033061050344258547,
            0.04759811982512474,
            0.09062476456165314,
            -0.06163148581981659,
            -0.07306525111198425,
            0.12162791937589645,
            0.15406861901283264,
            0.07935058325529099,
            0.022798212245106697,
            -0.14267469942569733,
            -0.0058340332470834255,
            -0.07386961579322815,
            0.02319483272731304,
            0.01199793815612793,
            0.09815679490566254,
            0.08019131422042847,
            -0.08537115901708603,
            0.014709334820508957,
            0.2082154005765915,
            0.15607134997844696,
            -0.04921161010861397,
            -0.055316828191280365,
            0.01139025017619133,
            0.17778922617435455,
            -0.0960129126906395,
            0.09847604483366013,
            -0.020194634795188904,
            0.11687470227479935,
            -0.20286622643470764,
            -0.03327687084674835,
            -0.18222863972187042,
            -0.14249515533447266,
            -0.037409596145153046,
            0.17616912722587585,
            0.1080605611205101,
            0.029205702245235443,
            0.08815192431211472,
            -0.08075597137212753,
            0.06038643419742584,
            0.030836883932352066,
            -0.1652417778968811,
            0.026161788031458855,
            -0.08757564425468445,
            -0.008186793886125088,
            -0.10386615991592407,
            -0.009369511157274246,
            0.025668742135167122,
            0.07208451628684998,
            0.03464462235569954,
            0.08318610489368439,
            -0.056870236992836,
            0.031411197036504745,
            -0.1397518366575241,
            -0.06827306747436523,
            0.04700644686818123,
            0.08525224030017853,
            0.04940307140350342,
            0.11626545339822769,
            -0.11896836757659912,
            -0.1551983654499054,
            -0.02269948273897171,
            0.08092940598726273,
            0.052410878241062164,
            -0.17547526955604553,
            -0.08594157546758652,
            0.018174855038523674,
            0.1340787708759308,
            0.11241879314184189,
            -0.07202158868312836,
            -0.04335644468665123,
            0.16278985142707825,
            -0.03986864537000656,
            0.13954445719718933,
            0.03217519447207451,
            -0.05083771049976349,
            0.005505091976374388,
            0.2069958597421646,
            -0.11920079588890076,
            -0.03281016647815704,
            -0.08127207309007645,
            0.07468999177217484,
            -0.06628353893756866,
            0.010931569151580334,
            -0.08902830630540848,
            0.17316079139709473,
            -0.20331333577632904,
            0.09110230952501297,
            0.009905168786644936,
            0.20454593002796173,
            -0.034026362001895905,
            0.10457614809274673,
            -0.06687010824680328,
            0.014731300994753838,
            -0.03331968933343887,
            0.030206190422177315,
            -0.15037745237350464,
            0.15011650323867798,
            -0.04972832649946213,
            0.021287553012371063,
            -0.051351651549339294,
            0.07383841276168823,
            0.01089590135961771,
            -0.0942152589559555,
            0.08869574218988419,
            -0.11471157521009445,
            0.03992738947272301,
            -0.032734114676713943,
            -0.16082991659641266,
            -0.12660762667655945,
            0.03589446097612381,
            -0.12367994338274002,
            0.0985439345240593,
            0.05257365480065346,
            0.0819898247718811,
            -0.0895572230219841,
            0.08296384662389755,
            -0.039946049451828,
            0.01238835509866476,
            0.08332539349794388,
            0.028355130925774574,
            0.03262890502810478,
            0.05362383648753166,
            0.03844538703560829,
            -0.1407291740179062,
            -0.1405743807554245,
            0.13677214086055756,
            0.14042377471923828,
            0.007162667810916901,
            0.09519657492637634,
            -0.031401850283145905,
            0.10352955013513565,
            -0.06659043580293655,
            0.20213539898395538,
            -0.06602481752634048,
            -0.11348152160644531,
            -0.12118232995271683,
            -0.01895703747868538,
            0.022756295278668404,
            0.10065179318189621,
            -0.16029606759548187,
            0.2032214254140854,
            -0.012267178855836391,
            -0.08703198283910751,
            -0.11334019154310226,
            -0.028960280120372772,
            -0.15756644308567047,
            -0.013223939575254917,
            -0.030689438804984093,
            -0.05258942022919655,
            -0.16946430504322052,
            -0.06944123655557632,
            -0.025377443060278893,
            -0.14347442984580994,
            0.019695675000548363,
            -0.142766073346138,
            -0.1609586477279663,
            -0.06534835696220398,
            -0.09808333218097687,
            -0.038873881101608276,
            0.040812890976667404,
            -0.05802623927593231,
            0.15072570741176605,
            0.03330570086836815,
            -0.1609906405210495,
            -0.01769605092704296,
            0.08059386163949966,
            0.06510553508996964,
            -0.07784461975097656,
            -0.023596592247486115,
            -0.0561668686568737,
            -0.08961014449596405,
            0.040567997843027115,
            0.04055717587471008,
            -0.007760882843285799,
            -0.050472840666770935,
            -0.21382205188274384,
            0.057260092347860336,
            0.010551674291491508,
            0.0386529378592968,
            0.14097709953784943,
            0.04129081591963768,
            -0.09514050930738449,
            0.0213481355458498,
            -0.05295058712363243,
            0.08127465844154358,
            -0.01771288365125656,
            -0.07926583290100098,
            -0.07208423316478729,
            -0.06025965139269829,
            0.10253576189279556,
            -0.07139692455530167,
            -0.05819741263985634,
            0.004228956997394562,
            -0.06228293105959892,
            -0.015677908435463905,
            0.04820439964532852,
            -0.1539330780506134,
            0.01359044760465622,
            -0.03296632692217827,
            -0.04978916049003601,
            0.18221144378185272,
            0.0755530372262001,
            -0.08065775036811829,
            0.06393512338399887,
            0.07065063714981079,
            0.021509237587451935,
            -0.0983775183558464,
            0.014180589467287064,
            0.11065300554037094,
            0.05262136831879616,
            0.1781652867794037,
            0.03958548605442047,
            0.08887921273708344,
            -0.09494315832853317,
            0.10259410738945007,
            0.11787327378988266,
            -0.19087034463882446,
            0.11816207319498062,
            0.09371033310890198,
            0.20015159249305725,
            -0.09225648641586304,
            -0.0774657279253006,
            0.015612225048244,
            -0.06883550435304642,
            -0.15598155558109283,
            -0.11925285309553146,
            0.05556404963135719,
            -0.09602239727973938,
            -0.06234576180577278,
            -0.13235320150852203,
            0.1695234179496765,
            0.031830303370952606,
            0.08073176443576813,
            -0.09341590851545334,
            -0.15854543447494507,
            -0.027457695454359055,
            -0.04226774349808693,
            -0.0769106075167656,
            0.028804151341319084,
            -0.017475808039307594,
            -0.04872104525566101,
            -0.020103605464100838,
            -0.08136928826570511,
            0.06458908319473267,
            0.03152860328555107,
            -0.09596618264913559,
            0.01375428494066,
            0.031268615275621414,
            0.08230435848236084,
            0.04216134920716286,
            -0.11933111399412155,
            0.1236596629023552,
            -0.11474912613630295,
            -0.015232481062412262,
            -0.14347177743911743,
            -0.0304490327835083,
            -0.058494582772254944,
            -0.09318294376134872,
            -0.10562428832054138,
            -0.0075266738422214985,
            0.0926518365740776,
            -0.07105778902769089,
            -0.015103123150765896,
            -0.08909623324871063,
            -0.04913495108485222,
            0.15244360268115997,
            -0.006264687515795231,
            -0.004322722554206848,
            0.20565059781074524,
            0.013773281127214432,
            0.055547963827848434,
            0.06237678974866867,
            -0.06023862957954407,
            0.1843232363462448,
            0.0764155164361,
            0.2122308313846588,
            -0.13162386417388916,
            -0.13195249438285828,
            -0.19339221715927124,
            0.11137346923351288,
            0.046475835144519806,
            0.019484270364046097,
            0.033631570637226105,
            -0.12309570610523224,
            0.10520657151937485,
            0.03523522987961769,
            -0.008491435088217258,
            0.02416270785033703,
            0.022678274661302567,
            0.09246207773685455,
            0.014154819771647453,
            0.061839621514081955,
            -0.19155654311180115,
            0.023641083389520645,
            -0.07115379720926285,
            -0.14336802065372467,
            -0.06742730736732483,
            -0.058199625462293625,
            0.033201027661561966,
            -0.06040540710091591,
            0.06703812628984451,
            -0.045001909136772156,
            0.06223764643073082,
            -0.050665609538555145,
            0.17261415719985962,
            0.038171228021383286,
            -0.10166729986667633,
            -0.04815533384680748,
            -0.0019538698252290487,
            -0.16104678809642792,
            0.13702236115932465,
            0.009379993192851543,
            0.1830451488494873,
            -0.07415813207626343,
            0.049003392457962036,
            -0.031836748123168945,
            0.163433238863945,
            0.06808512657880783,
            -0.06595386564731598,
            0.0033151814714074135,
            0.05971142277121544,
            -0.045864809304475784,
            0.11764798313379288,
            -0.05776720494031906,
            0.07658368349075317,
            0.03354264795780182,
            -0.04059818759560585,
            -0.008968887850642204,
            0.07177232950925827,
            0.06259992718696594,
            -0.14985819160938263,
            0.018387876451015472,
            0.04761958494782448,
            -0.10621163249015808,
            -0.10332877933979034,
            -0.016367731615900993,
            0.09868377447128296,
            0.07450117915868759,
            -0.00010280535207130015,
            -0.1748923808336258,
            0.09211964160203934,
            0.12313567847013474,
            -0.10085250437259674,
            0.13774488866329193,
            -0.02933695539832115,
            0.007820474915206432,
            0.14595788717269897,
            -0.13251453638076782,
            -0.20187631249427795,
            -0.10988477617502213,
            0.10292480140924454,
            -0.02970595844089985,
            0.05588030815124512,
            0.021563826128840446,
            -0.09616611152887344,
            -0.039225492626428604,
            0.14750777184963226,
            0.028712306171655655,
            -0.020771874114871025,
            0.16689400374889374,
            0.07120633125305176,
            0.14686833322048187,
            0.05570560321211815,
            -0.11542245000600815,
            -0.06711898744106293,
            -0.04748210310935974,
            0.08169038593769073,
            0.14231660962104797,
            -0.12602463364601135,
            -0.027152104303240776,
            0.07201375812292099,
            0.12179970741271973,
            -0.0944904312491417,
            0.10452862828969955,
            -0.02539701759815216,
            0.1671379655599594,
            -0.07026743143796921,
            -0.04236208274960518,
            0.12171843647956848,
            -0.021896788850426674,
            -0.13152915239334106,
            -0.07968108355998993,
            -0.10780749469995499,
            0.11024093627929688,
            -0.009281681850552559,
            -0.102342389523983,
            -0.03932160884141922,
            0.09405478835105896,
            0.13214638829231262,
            -0.12168905138969421,
            0.05187751725316048,
            0.03623326122760773,
            0.16646327078342438,
            0.048449285328388214,
            0.08497544378042221,
            -0.07676718384027481,
            0.14023195207118988,
            -0.01270140428096056,
            0.04933329299092293,
            -0.014393160119652748,
            -0.03911995515227318,
            -0.02092020772397518,
            -0.08670301735401154,
            -0.09874406456947327,
            -0.08163216710090637,
            -0.06066298112273216,
            -0.11219844222068787,
            -0.05442377179861069,
            -0.11985769122838974,
            0.03788473457098007,
            -0.013297226279973984,
            -0.15682844817638397,
            0.11261237412691116,
            -0.05347565934062004,
            0.030911875888705254,
            0.10902860760688782,
            0.1437033861875534,
            0.08078105002641678,
            -0.01823280192911625,
            -0.09364388883113861,
            -0.19459737837314606,
            -0.05377965047955513,
            -0.0836656391620636,
            -0.08067525923252106,
            -0.06471225619316101,
            0.030110491439700127,
            -0.06878243386745453,
            0.12341469526290894,
            0.012869262136518955,
            -0.21608173847198486,
            0.044106703251600266,
            -0.05749369040131569,
            -0.021524138748645782,
            0.032916441559791565,
            0.005479061044752598,
            0.025798063725233078,
            0.015949031338095665,
            0.012725355103611946,
            -0.13260994851589203,
            -0.09107667207717896,
            0.054400358349084854,
            0.062037672847509384,
            -0.09979703277349472,
            0.05958936735987663,
            -0.07270635664463043,
            -0.052453987300395966,
            0.12792640924453735,
            -0.002729357685893774,
            0.19976581633090973,
            -0.16039131581783295,
            0.12694767117500305,
            0.04093875735998154,
            0.1625542789697647,
            0.006826546508818865,
            0.1316385716199875,
            0.08614815026521683,
            0.0955396518111229,
            0.03290186822414398,
            0.19935372471809387,
            0.16040359437465668,
            0.044489748775959015,
            -0.00483551574870944,
            -0.015428070910274982,
            0.004027081653475761,
            0.04382915794849396,
            0.12904322147369385,
            0.05618785694241524,
            -0.02265441045165062,
            0.05105705186724663,
            0.09878140687942505,
            -0.07506415992975235,
            -0.0858784168958664,
            -0.012078882195055485,
            0.16354666650295258,
            0.03767771273851395,
            0.035504117608070374,
            0.08825945854187012,
            0.028913181275129318,
            -0.012880575843155384,
            0.16585788130760193,
            -0.012547953985631466,
            -0.04328474774956703,
            -0.056786470115184784,
            -0.15699462592601776,
            0.03819900378584862,
            -0.06789737194776535,
            0.09032417088747025,
            0.05371396616101265,
            0.07190190255641937,
            0.01322319358587265,
            0.06786064058542252,
            -0.03237761929631233,
            0.001050816965289414,
            -0.14237196743488312,
            -0.013057472184300423,
            0.14006318151950836,
            -0.10106918215751648,
            0.08133916556835175,
            0.16727504134178162,
            -0.005999403540045023,
            -0.16450314223766327,
            -0.13551907241344452,
            0.15225937962532043,
            0.0647035539150238,
            -0.012385819107294083,
            -0.17434464395046234,
            0.009866132400929928,
            0.12235711514949799,
            0.07377900183200836,
            0.11965625733137131,
            -0.07589218765497208,
            0.060195114463567734,
            0.06705895811319351,
            -0.049495879560709,
            0.048717934638261795,
            0.07697681337594986,
            0.12476703524589539,
            0.11340977251529694,
            -0.01819210685789585,
            -0.04092177748680115,
            -0.17912167310714722,
            0.0651845633983612,
            0.011608723551034927,
            -0.06323418021202087,
            -0.14299041032791138,
            0.15795420110225677,
            0.14754685759544373,
            0.00661523686721921,
            -0.09593089669942856,
            -0.03130263090133667,
            0.009053735062479973,
            -0.1376757174730301,
            0.08906682580709457,
            -0.11253578960895538,
            -0.20189929008483887,
            0.12699703872203827,
            -0.14380575716495514,
            -0.07909323275089264,
            0.03501869738101959,
            0.06791200488805771,
            -0.0833229050040245,
            0.0287241879850626,
            0.08229625970125198,
            -0.06398651748895645,
            0.012990383431315422,
            -0.029241865500807762,
            0.09903880953788757,
            0.03674011677503586,
            -0.09540040045976639,
            0.09853573888540268,
            0.09304072707891464,
            -0.10677351802587509,
            -0.06784790754318237,
            -0.009266405366361141,
            0.04343900829553604,
            0.05111557990312576,
            -0.04775407165288925,
            -0.16054698824882507,
            -0.01461254246532917,
            -0.10763313621282578,
            -0.0021779234521090984,
            0.1411125212907791,
            0.17790715396404266,
            -0.08576760441064835,
            -0.04525529593229294,
            0.20837126672267914,
            -0.1319415420293808,
            0.02229335531592369,
            -0.165910542011261,
            0.06339096277952194,
            -0.14560534060001373,
            0.04718441143631935,
            0.12821932137012482,
            -0.0903448835015297,
            -0.08799304813146591,
            0.17860287427902222,
            0.04484220966696739,
            0.0630255937576294,
            0.01229256670922041,
            -0.01798207499086857,
            -0.0435335598886013,
            -0.11125542223453522,
            -0.022081516683101654,
            -0.11029312014579773,
            0.012789377942681313,
            -0.02699572592973709,
            0.09861809760332108,
            0.09975329041481018,
            -0.07460398226976395,
            0.11930568516254425,
            -0.04847527667880058,
            -0.024058755487203598,
            0.12495807558298111,
            -0.0809861496090889,
            0.15967440605163574,
            0.1095910593867302,
            -0.013786166906356812,
            -0.21333898603916168,
            0.022357512265443802,
            -0.1471797227859497,
            -0.0716913491487503,
            0.025773944333195686,
            0.0703577771782875,
            0.07919995486736298,
            0.15264122188091278,
            0.01999235525727272,
            0.12235736846923828,
            0.052203379571437836,
            0.02683832310140133,
            0.09277607500553131,
            0.015454473905265331,
            0.028436562046408653,
            0.10940752178430557,
            -0.08595640957355499,
            0.04649106040596962,
            -0.07894378155469894,
            -0.08926630020141602,
            -0.022093046456575394,
            0.17622296512126923,
            0.12176767736673355,
            -0.028610050678253174,
            0.0013056625612080097,
            0.09755894541740417,
            -0.036551591008901596,
            0.15689200162887573,
            -0.19241786003112793,
            0.024097608402371407,
            0.153156116604805,
            -0.1140216737985611,
            -0.15518443286418915,
            -0.025492195039987564,
            0.1402023732662201,
            0.06923949718475342,
            -0.050581689924001694,
            -0.0011364034144207835,
            -0.1094844788312912,
            0.11482623964548111,
            0.007302185986191034,
            0.09125295281410217,
            -0.11780709773302078,
            -0.08974229544401169,
            0.08983901888132095,
            -0.016300015151500702,
            0.05567348375916481,
            -0.033351246267557144,
            0.13850636780261993,
            -0.13873353600502014,
            -0.06008957326412201,
            -0.06110011413693428,
            0.004531496670097113,
            -0.15518392622470856,
            0.11492747068405151,
            0.1558670699596405,
            0.0022584451362490654,
            0.03708939999341965,
            0.06777685135602951,
            -0.03676091507077217,
            0.11069817841053009,
            -0.002679460449144244,
            -0.06329759210348129,
            -0.08138065040111542,
            0.12529097497463226,
            -0.15281766653060913,
            0.0654442310333252,
            0.08000506460666656,
            0.08671124279499054,
            0.03204699978232384,
            0.046786218881607056,
            0.08726827800273895,
            0.01405539084225893,
            -0.024905523285269737,
            0.040278173983097076,
            -0.1011832132935524,
            0.05531644448637962,
            0.04877845570445061,
            0.0779602900147438,
            -0.07922059297561646,
            0.042303286492824554,
            -0.09926909953355789,
            -0.027808571234345436,
            0.05193416029214859,
            0.03340426832437515,
            0.03466348350048065,
            -0.09524812549352646,
            0.15272361040115356,
            0.1861669421195984,
            -0.07779528945684433,
            -0.11222738772630692,
            -0.00042525382013991475,
            0.005460935644805431,
            0.08574365079402924,
            0.04738182947039604,
            0.16161301732063293,
            -0.04391087591648102,
            -0.14705391228199005,
            -0.05137047544121742,
            -0.177071213722229,
            -0.08532942831516266,
            -0.042384590953588486,
            -0.061689592897892,
            -0.10249604284763336,
            0.005199721548706293,
            0.18405121564865112,
            -0.11248809844255447,
            0.12139511853456497,
            -0.01028115302324295,
            0.0267648845911026,
            0.13786698877811432,
            -0.1334858536720276,
            0.17236874997615814,
            0.06141044571995735,
            0.10106853395700455,
            0.06616628915071487,
            -0.16749976575374603,
            -0.06654367595911026,
            0.09194304794073105,
            0.07545046508312225,
            0.03320300206542015,
            0.0253654345870018,
            0.022763585671782494,
            -0.14662931859493256,
            -0.12371785938739777,
            -0.18079732358455658,
            0.051913514733314514,
            -0.09091053158044815,
            0.16285967826843262,
            0.11176634579896927,
            0.024033790454268456,
            0.05006486549973488,
            0.11375565826892853,
            -0.06329969316720963,
            -0.09230917692184448,
            -0.13420149683952332,
            -0.09051850438117981,
            0.12352568656206131,
            -0.07927806675434113,
            -0.03629549965262413,
            -0.12636856734752655,
            0.14056411385536194,
            0.005860363598912954,
            0.1338312327861786,
            -0.0436435304582119,
            -0.002858312102034688,
            0.00041609094478189945,
            -0.10570033639669418,
            0.06104046106338501,
            0.09279816597700119,
            0.07028740644454956,
            0.11359354108572006,
            0.09582051634788513,
            0.09022226184606552,
            0.060860514640808105,
            -0.019472317770123482,
            0.14329645037651062,
            -0.13113225996494293,
            -0.05876678228378296,
            0.06822933256626129,
            0.05714308097958565,
            0.02718382515013218,
            0.11526863276958466,
            -0.036906640976667404,
            0.0676068663597107,
            0.05236228555440903,
            -0.005471252836287022,
            0.14051589369773865,
            -0.008211920037865639,
            -0.02617138810455799,
            -0.1300026774406433,
            -0.18024572730064392,
            -0.06049754098057747,
            0.017409123480319977,
            -0.16724422574043274,
            -0.16902552545070648,
            0.011849095113575459,
            0.06884203106164932,
            0.02599579282104969,
            0.15066009759902954,
            -0.21337774395942688,
            -0.03553587570786476,
            -0.08127264678478241,
            0.14542432129383087,
            -0.017804840579628944,
            0.012876588851213455,
            0.06348361074924469,
            0.06699028611183167,
            0.07068037986755371,
            -0.17125166952610016,
            -0.024207687005400658,
            -0.15538142621517181,
            -0.15488798916339874,
            0.1441762000322342,
            0.03758307173848152,
            0.02365647256374359,
            -0.09864483028650284,
            -0.13667315244674683,
            -0.10767956078052521,
            -0.004132128786295652,
            0.04640677571296692,
            -0.0017089495668187737,
            0.11625706404447556,
            -0.14621864259243011,
            0.022393567487597466,
            0.043919824063777924,
            0.09431245923042297,
            0.01110814418643713,
            0.06101948767900467,
            0.1511552333831787,
            -0.010383207350969315,
            0.07261469215154648,
            0.10227034986019135,
            -0.10741715878248215,
            -0.16592739522457123,
            -0.07547768205404282,
            0.0640239417552948,
            -0.12262142449617386,
            0.021574832499027252,
            0.10045954585075378,
            0.17994004487991333,
            -0.14370577037334442,
            -0.047164320945739746,
            0.18921321630477905,
            0.03328022360801697,
            -0.03915496915578842,
            0.05240747705101967,
            0.03513764217495918,
            0.039090774953365326,
            0.05666067823767662,
            -0.05414807051420212,
            0.08504781126976013,
            -0.10637438297271729,
            -0.0775253102183342,
            -0.08042243868112564,
            0.012855226173996925,
            -0.20849649608135223,
            0.08913250267505646,
            -0.03079238533973694,
            -0.023998860269784927,
            -0.07653311640024185,
            -0.10749896615743637,
            0.026449982076883316,
            -0.012758134864270687,
            0.042962655425071716,
            0.11220008879899979,
            -0.040299516171216965,
            0.07919054478406906,
            -0.04564852640032768,
            -0.0761970728635788,
            0.19337734580039978,
            0.039546553045511246,
            0.16811296343803406,
            0.1745527684688568,
            0.12752602994441986,
            -0.09030180424451828,
            -0.01402064599096775,
            0.058983612805604935,
            0.03712780401110649,
            -0.10603386163711548,
            -0.216451033949852,
            -0.030261803418397903,
            -0.14670822024345398,
            0.09294534474611282,
            0.12149584293365479,
            0.034335825592279434,
            -0.09220866858959198,
            0.12081436812877655,
            0.06177724152803421,
            0.14881131052970886,
            -0.20842355489730835,
            0.01818694919347763,
            -0.022998545318841934,
            -0.032683439552783966,
            0.023698728531599045,
            -0.07076159864664078,
            -0.008310806937515736,
            -0.0008645184570923448,
            -0.09875769168138504,
            0.11154366284608841,
            -0.035810381174087524,
            0.1442413330078125,
            0.0161711685359478,
            -0.10286030918359756,
            0.016304414719343185,
            0.0031450563110411167,
            -0.10021375119686127,
            -0.03168186545372009,
            0.09141914546489716,
            -0.056239742785692215,
            0.06577268242835999,
            0.0922786220908165,
            -0.06092419475317001,
            0.18282996118068695,
            0.06299519538879395,
            -0.04442821070551872,
            0.16283366084098816,
            0.06185835599899292,
            -0.0540434867143631,
            -0.04989604279398918,
            -0.015355389565229416,
            -0.08956561982631683,
            -0.11704495549201965,
            -0.09005701541900635,
            0.06221025437116623,
            0.03536636754870415,
            0.09628183394670486,
            0.04817024618387222,
            0.060197435319423676,
            0.0499151274561882,
            -0.16663086414337158,
            0.004698233213275671,
            -0.016884205862879753,
            -0.008743704296648502,
            0.016989894211292267,
            -0.07507022470235825,
            -0.06894193589687347,
            -0.09215933829545975,
            0.11621811985969543,
            0.076333187520504,
            0.1273166984319687,
            -0.018292011693120003,
            0.02613055519759655,
            -0.21616105735301971,
            -0.04638202115893364,
            -0.16811533272266388,
            0.07472478598356247,
            -0.18815478682518005,
            -0.05838240683078766,
            0.10657435655593872,
            0.15313087403774261,
            -0.027407772839069366,
            0.18605224788188934,
            -0.08760329335927963,
            -0.028630973771214485,
            0.1519375443458557,
            -0.05900819972157478,
            -0.12431047856807709,
            0.07077266275882721,
            0.054909855127334595,
            -0.07927248626947403,
            -0.0076945167966187,
            0.010686817578971386,
            -0.11174160987138748,
            0.095923513174057,
            -0.11372540146112442,
            -0.06477057188749313,
            -0.17299675941467285,
            -0.017627382650971413,
            0.017426971346139908,
            -0.1525144726037979,
            -0.17287404835224152,
            0.020142855122685432,
            -0.13440631330013275,
            0.188740536570549,
            -0.1243063285946846,
            0.03959903120994568,
            0.02859792858362198,
            0.06105717644095421,
            0.11923220753669739,
            -0.014349005185067654,
            -0.01409123931080103,
            -0.06140436604619026,
            -0.02152794599533081,
            0.013646098785102367,
            0.05780114233493805,
            0.1239929348230362,
            -0.05829884111881256,
            -0.12799741327762604,
            0.11659643054008484,
            -0.058107394725084305,
            -0.13497419655323029,
            -0.14485013484954834,
            -0.15005847811698914,
            -0.04951951280236244,
            -0.1808825135231018,
            -0.08069974929094315,
            0.13156883418560028,
            -0.034344449639320374,
            -0.0011946839513257146,
            -0.007212054915726185,
            -0.042868491262197495,
            0.04158332198858261,
            0.05272037535905838,
            0.04365895688533783,
            0.14207203686237335,
            -0.02903425507247448,
            -0.13944102823734283,
            0.0931704044342041,
            -0.11542242020368576,
            -0.061921391636133194,
            -0.06605029851198196,
            0.05877500772476196,
            0.02686459943652153,
            -0.0448806993663311,
            0.08706457912921906,
            -0.02042890153825283,
            0.02786671556532383,
            0.009060090407729149,
            0.09530855715274811,
            0.006033147685229778,
            -0.19115039706230164,
            -0.027767250314354897,
            -0.058428987860679626,
            -0.17421285808086395,
            0.089715875685215,
            -0.018531348556280136,
            -0.03723542392253876,
            0.1869218498468399,
            -0.07892938703298569,
            -0.12416020035743713,
            -0.13785703480243683,
            -0.24707569181919098,
            0.005418106447905302,
            -0.13781197369098663,
            0.144533172249794,
            0.12512706220149994,
            0.06150089576840401,
            -0.03016895242035389,
            -0.05112582445144653,
            -0.16784921288490295,
            0.04808126389980316,
            0.06884939968585968,
            0.1758151650428772,
            0.09371837228536606,
            -0.014130502007901669,
            0.16736339032649994,
            0.04862656444311142,
            -0.10307382047176361,
            -0.28298142552375793,
            -0.16814349591732025,
            0.02463928423821926,
            0.06137780472636223,
            0.03040497936308384,
