{
  "timestamp": "2026-02-03T10:49:49.263Z",
  "episode": 50,
  "type": "multi_symbol",
  "symbols": [
    "BTCUSDT",
    "ETHUSDT",
    "SOLUSDT"
  ],
  "numAgents": 3,
  "aggregateSharpe": -0.3514180117510146,
  "perSymbolResults": [
    {
      "symbol": "BTCUSDT",
      "trades": 10,
      "winRate": 30,
      "pnl": 9.089581869465587,
      "sharpe": 12.25761191963937,
      "maxDrawdown": 0.0029099250190375353,
      "avgRiskReward": 3.5118228845961927,
      "strategyPct": [
        "0",
        "97",
        "2",
        "1",
        "0"
      ]
    },
    {
      "symbol": "ETHUSDT",
      "trades": 10,
      "winRate": 30,
      "pnl": -19.853333267606974,
      "sharpe": -19.365596399708167,
      "maxDrawdown": 0.003571517370813847,
      "avgRiskReward": 1.312692123316322,
      "strategyPct": [
        "0",
        "97",
        "1",
        "0",
        "1"
      ]
    },
    {
      "symbol": "SOLUSDT",
      "trades": 13,
      "winRate": 38.46153846153847,
      "pnl": 9.318609356398738,
      "sharpe": 6.053730444815754,
      "maxDrawdown": 0.0038577234220778336,
      "avgRiskReward": 1.9147747578533072,
      "strategyPct": [
        "0",
        "97",
        "2",
        "1",
        "1"
      ]
    }
  ],
  "avgWinRate": 32.820512820512825,
  "avgPnL": -0.48171401391421637,
  "avgRiskReward": 2.2464299219219406,
  "totalTrades": 33,
  "config": {
    "numAgents": 3,
    "votingMethod": "majority",
    "symbols": [
      "BTCUSDT",
      "ETHUSDT",
      "SOLUSDT"
    ],
    "trainSplit": 0.8,
    "monthsOfData": 6,
    "episodes": 100,
    "episodeLength": 1000,
    "trainFrequency": 4,
    "batchSize": 64,
    "bufferSize": 50000,
    "dqn": {
      "inputSize": 42,
      "hiddenLayers": [
        128,
        64,
        32
      ],
      "outputSize": 5,
      "learningRate": 0.0006,
      "gamma": 0.95,
      "tau": 0.01,
      "epsilonStart": 1,
      "epsilonEnd": 0.2,
      "epsilonDecay": 0.995,
      "dropout": 0.18,
      "l2Regularization": 0.008,
      "useBatchNorm": true,
      "gradientClipNorm": 0.5,
      "useHuberLoss": true,
      "huberDelta": 1,
      "actionBias": true,
      "actionBiasDecay": 0.997
    },
    "env": {
      "initialCapital": 10000,
      "positionSizePercent": 0.1,
      "commission": 0.001,
      "slippage": 0.0005,
      "lookbackPeriod": 100,
      "maxBarsPerEpisode": null,
      "maxDrawdownLimit": 0.15,
      "maxBarsInPosition": 100,
      "kbConfig": {
        "enabled": true,
        "addKBFeatures": true,
        "useKBRewardShaping": true
      }
    },
    "walkForward": {
      "enabled": false
    },
    "earlyStoppingPatience": 30,
    "minImprovement": 0.01,
    "logInterval": 10,
    "evalInterval": 25,
    "diagnosticsInterval": 50
  },
  "weights": [
    {
      "weights": [
        {
          "shape": [
            42,
            128
          ],
          "data": [
            0.10126200318336487,
            -0.2908347547054291,
            0.16204582154750824,
            0.07959655672311783,
            -0.1380995661020279,
            -0.028510326519608498,
            -0.03884809464216232,
            0.2795856297016144,
            -0.021533533930778503,
            0.010508835315704346,
            0.00897773914039135,
            -0.011443550698459148,
            -0.00877101719379425,
            0.02364439330995083,
            0.11856930702924728,
            -0.03710642829537392,
            0.050356216728687286,
            0.05501691624522209,
            -0.05391058325767517,
            0.05396491289138794,
            0.2015114426612854,
            -0.183821901679039,
            0.03217984363436699,
            -0.21248936653137207,
            0.2526586055755615,
            -0.10951358079910278,
            -0.20972895622253418,
            -0.005344653036445379,
            0.045098502188920975,
            -0.05545845255255699,
            0.20403815805912018,
            -0.07359704375267029,
            0.09256468713283539,
            -0.04456544294953346,
            0.10260351747274399,
            0.06722985208034515,
            -0.13358424603939056,
            -0.09952738136053085,
            -0.1677970588207245,
            -0.05946189910173416,
            -0.02882675640285015,
            0.12169202417135239,
            0.04546589404344559,
            0.12750975787639618,
            -0.05855318903923035,
            -0.07551483064889908,
            0.09500636905431747,
            -0.07346296310424805,
            -0.13372410833835602,
            -0.022579805925488472,
            0.06952859461307526,
            -0.15750688314437866,
            -0.005899649579077959,
            0.05108027160167694,
            0.15710803866386414,
            0.002558657433837652,
            -0.16202087700366974,
            -0.1018042266368866,
            -0.05426611006259918,
            0.04407016932964325,
            0.20033735036849976,
            -0.09158914536237717,
            0.06457087397575378,
            0.11747488379478455,
            0.03385471552610397,
            -0.21020904183387756,
            0.08748143166303635,
            -0.06436751037836075,
            0.018718907609581947,
            0.10224674642086029,
            -0.286702036857605,
            -0.03469736501574516,
            0.12283613532781601,
            -0.1061730906367302,
            -0.02996390126645565,
            0.29080548882484436,
            -0.06342946738004684,
            0.034184712916612625,
            0.015879638493061066,
            -0.1502208411693573,
            -0.18622058629989624,
            0.016160110011696815,
            -0.011603908613324165,
            0.00348003045655787,
            -0.00029198447009548545,
            0.31601810455322266,
            -0.18200966715812683,
            0.043464552611112595,
            0.1759961098432541,
            -0.21084104478359222,
            -0.01508557889610529,
            -0.017569996416568756,
            -0.19668008387088776,
            -0.0717158317565918,
            0.06082416698336601,
            -0.048351749777793884,
            0.08870931714773178,
            -0.1154811903834343,
            0.04764938727021217,
            -0.03923316299915314,
            0.02710879221558571,
            0.0006699106888845563,
            -0.00877832155674696,
            -0.10953598469495773,
            -0.046795640140771866,
            -0.11966385692358017,
            0.06130099296569824,
            0.005572861060500145,
            -0.08095289021730423,
            -0.05111105367541313,
            -0.20465020835399628,
            0.3275874853134155,
            0.019359750673174858,
            -0.04237459972500801,
            -0.046225760132074356,
            -0.13607217371463776,
            0.1381346881389618,
            -0.0038828894030302763,
            0.004035640973597765,
            0.026201019063591957,
            -0.04351550340652466,
            0.08133503794670105,
            0.05068087577819824,
            -0.05651189759373665,
            0.05108725279569626,
            -0.08412690460681915,
            -0.034788232296705246,
            -0.04653804004192352,
            0.04718286916613579,
            0.0003685114497784525,
            -0.11897138506174088,
            0.028649039566516876,
            0.14348825812339783,
            -0.09671163558959961,
            0.1292722076177597,
            0.07114197313785553,
            -0.0640379935503006,
            0.08377362787723541,
            -0.0259216520935297,
            -0.21753334999084473,
            0.022203247994184494,
            -0.025243310257792473,
            0.03361203894019127,
            0.020095819607377052,
            0.035917989909648895,
            0.020284976810216904,
            -0.09318819642066956,
            -0.13840346038341522,
            0.0887666866183281,
            -0.0038161964621394873,
            0.008314558304846287,
            0.18628564476966858,
            -0.17070648074150085,
            -0.12556061148643494,
            -0.19189536571502686,
            -0.05024093762040138,
            0.0975835770368576,
            0.03136828541755676,
            -0.016685061156749725,
            0.005135551560670137,
            0.12101253122091293,
            -0.08132082968950272,
            -0.23177124559879303,
            0.016361767426133156,
            0.09304434806108475,
            -0.002718644682317972,
            -0.1775132268667221,
            -0.1391291618347168,
            -0.07315735518932343,
            0.03681836277246475,
            0.013710631988942623,
            -0.08312594890594482,
            -0.2064998745918274,
            0.03998797759413719,
            -0.007352698594331741,
            0.02496105059981346,
            -0.12878334522247314,
            -0.09196317195892334,
            -0.08935806155204773,
            -0.10660490393638611,
            -0.10554181039333344,
            0.1023828387260437,
            -0.024322375655174255,
            -0.01912248320877552,
            -0.0680827796459198,
            0.09377434849739075,
            -0.08838575333356857,
            0.02630758099257946,
            -0.20481787621974945,
            0.03634483739733696,
            -0.0932498574256897,
            -0.062272265553474426,
            -0.09561599045991898,
            -0.18457460403442383,
            -0.21012495458126068,
            0.01419678796082735,
            -0.0712917223572731,
            -0.01612343266606331,
            0.19719469547271729,
            0.04522969573736191,
            -0.012898556888103485,
            -0.04952537640929222,
            0.006617396138608456,
            0.010302774608135223,
            -0.011214682832360268,
            -0.058166347444057465,
            0.08872675150632858,
            -0.15327994525432587,
            -0.013829733245074749,
            -0.009710630401968956,
            -0.14018525183200836,
            0.1263899952173233,
            0.012293324805796146,
            0.17238013446331024,
            -0.03528285026550293,
            -0.057445429265499115,
            0.12179024517536163,
            -0.04024369642138481,
            0.002294969977810979,
            0.030689988285303116,
            0.12660425901412964,
            0.03740563616156578,
            -0.09175319224596024,
            -0.07043614238500595,
            -0.13340510427951813,
            0.1340431272983551,
            0.09143424034118652,
            -0.35242071747779846,
            -0.0189360324293375,
            0.06237512826919556,
            0.20296016335487366,
            0.047130316495895386,
            -0.034979891031980515,
            -0.011916340328752995,
            -0.06758088618516922,
            0.024385739117860794,
            0.1609935164451599,
            -0.04764645919203758,
            0.08532591164112091,
            -0.07547851651906967,
            -0.008517177775502205,
            -0.038089245557785034,
            0.018286366015672684,
            0.0017047494184225798,
            -0.26307767629623413,
            -0.11146432161331177,
            0.004058235324919224,
            -0.13054266571998596,
            -0.0935923159122467,
            -0.04581665247678757,
            -0.0009526257053948939,
            0.1893412172794342,
            -0.043520133942365646,
            -0.11871325969696045,
            -0.0004796219291165471,
            -0.08200545608997345,
            -0.016049152240157127,
            0.02170317806303501,
            -0.09571810066699982,
            0.005704264622181654,
            -0.12787117063999176,
            0.045014284551143646,
            -0.07263989746570587,
            0.08509369194507599,
            -0.021814268082380295,
            -0.202057346701622,
            -0.05087071657180786,
            0.189822718501091,
            -0.08114006370306015,
            -0.004458155017346144,
            -0.10745850205421448,
            0.13262036442756653,
            0.17469291388988495,
            0.08307766914367676,
            -0.10848154127597809,
            0.014863178133964539,
            0.05835721269249916,
            -0.10582306981086731,
            0.057499416172504425,
            0.07511335611343384,
            0.06008465588092804,
            0.22689254581928253,
            -0.011103706434369087,
            -0.012953617610037327,
            -0.10194864124059677,
            0.11484568566083908,
            0.1942388266324997,
            -0.12998318672180176,
            -0.1562173217535019,
            -0.09722407162189484,
            -0.1272224485874176,
            -0.03282114118337631,
            0.03112911619246006,
            -0.2139575183391571,
            0.11890816688537598,
            -0.04381008818745613,
            -0.04386703297495842,
            -0.002982478588819504,
            -0.10708170384168625,
            0.07233956456184387,
            -0.013144184835255146,
            0.05847407504916191,
            -0.07856486737728119,
            0.03914817050099373,
            0.11634910106658936,
            -0.020140331238508224,
            -0.15261775255203247,
            0.14759211242198944,
            0.11755300313234329,
            0.0957009419798851,
            0.12758521735668182,
            0.049404021352529526,
            0.12823542952537537,
            0.11376236379146576,
            0.041097600013017654,
            -0.0017331878188997507,
            0.0014800833305343986,
            0.027420299127697945,
            0.10295567661523819,
            0.16013096272945404,
            -0.100410096347332,
            -0.030452528968453407,
            -0.27701547741889954,
            0.09301714599132538,
            -0.015503174625337124,
            -0.08312398195266724,
            -0.10060515999794006,
            -0.05038744956254959,
            -0.03309410437941551,
            -0.009447315707802773,
            0.13557200133800507,
            0.18087035417556763,
            -0.06985006481409073,
            -0.004575324710458517,
            -0.1860624998807907,
            -0.24431602656841278,
            0.18271109461784363,
            -0.02198878303170204,
            0.02197211980819702,
            0.10366612672805786,
            -0.05005376413464546,
            0.24363356828689575,
            0.020696507766842842,
            0.04886872321367264,
            0.18690651655197144,
            -0.17058315873146057,
            0.039331406354904175,
            -0.006752176210284233,
            0.011384575627744198,
            0.06397736817598343,
            -0.05321922525763512,
            -0.03129191696643829,
            -0.08601665496826172,
            -0.11613873392343521,
            0.15302248299121857,
            -0.2290271371603012,
            -0.005073755979537964,
            0.08093574643135071,
            0.1620197594165802,
            0.018621155992150307,
            0.19563983380794525,
            0.09835892170667648,
            0.17112872004508972,
            0.1813230663537979,
            -0.28674814105033875,
            -0.039542779326438904,
            -0.17497144639492035,
            0.04257781058549881,
            0.03320944681763649,
            0.029980545863509178,
            -0.09303601831197739,
            0.025038903579115868,
            -0.3095558285713196,
            -0.1207355409860611,
            -0.1126602441072464,
            -0.08378451317548752,
            -0.12637344002723694,
            0.07191307097673416,
            -0.0269614364951849,
            -0.1252392679452896,
            0.07076426595449448,
            -0.006055457517504692,
            0.054609350860118866,
            0.0930413082242012,
            -0.060813721269369125,
            -0.2268761843442917,
            0.1105775386095047,
            -0.04948734864592552,
            -0.11454378813505173,
            0.08807286620140076,
            -0.07560233026742935,
            0.09912566840648651,
            -0.16909101605415344,
            -0.00023865426192060113,
            -0.19527210295200348,
            -0.2775817811489105,
            -0.07820301502943039,
            -0.0767744854092598,
            0.06149681657552719,
            -0.15155360102653503,
            -0.21032947301864624,
            0.03524398058652878,
            -0.08670695871114731,
            -0.005446485243737698,
            -0.05506274849176407,
            0.18478143215179443,
            0.031573209911584854,
            0.09919188916683197,
            0.052517328411340714,
            -0.0426974855363369,
            -0.19404803216457367,
            0.06529021263122559,
            0.18533921241760254,
            -0.13861210644245148,
            0.03518560901284218,
            0.0074675241485238075,
            -0.04888053983449936,
            0.08163406699895859,
            -0.10641150176525116,
            -0.330890029668808,
            0.073451466858387,
            -0.06181919947266579,
            -0.16418062150478363,
            -0.018015505746006966,
            -0.035995300859212875,
            0.009736709296703339,
            0.0656915232539177,
            -0.024360667914152145,
            0.007534864358603954,
            -0.08503982424736023,
            -0.09329753369092941,
            0.1584777981042862,
            -0.0215162206441164,
            0.14553172886371613,
            -0.03949759900569916,
            -0.02844989113509655,
            0.13899829983711243,
            0.04179001227021217,
            -0.15525059401988983,
            0.16470004618167877,
            0.017005285248160362,
            0.1297786980867386,
            -0.04943179339170456,
            -0.040404774248600006,
            -0.19029714167118073,
            0.043044596910476685,
            -0.03234586492180824,
            0.15698698163032532,
            -0.17948301136493683,
            -0.15981115400791168,
            0.13391384482383728,
            -0.0930948406457901,
            0.1144331768155098,
            -0.09792684763669968,
            0.01445428840816021,
            -0.13298960030078888,
            -0.01361682079732418,
            0.04162362217903137,
            0.04754131659865379,
            -0.06417407840490341,
            -0.228434756398201,
            0.05180707201361656,
            0.08136021345853806,
            0.19675414264202118,
            -0.049372363835573196,
            -0.1327684223651886,
            0.008737895637750626,
            -0.006075223442167044,
            0.011303248815238476,
            -0.11958984285593033,
            0.041654638946056366,
            -0.0918213278055191,
            -0.011686275713145733,
            -0.044972050935029984,
            -0.061045195907354355,
            0.2378503382205963,
            0.00021326397836674005,
            -0.29950377345085144,
            0.017682082951068878,
            -0.023723134770989418,
            0.02329528145492077,
            -0.2611583471298218,
            0.11523602157831192,
            0.1263030469417572,
            0.10996215045452118,
            -0.15612834692001343,
            -0.03851695731282234,
            -0.002302322769537568,
            0.068126380443573,
            0.02110355533659458,
            -0.24269530177116394,
            0.059864792972803116,
            -0.11395972222089767,
            -0.1375318169593811,
            0.0658237412571907,
            0.11359800398349762,
            -0.04636600241065025,
            0.12677361071109772,
            -0.0863843783736229,
            -0.06883789598941803,
            0.24498111009597778,
            -0.07919630408287048,
            -0.12352757900953293,
            -0.07863624393939972,
            0.10486620664596558,
            -0.14021357893943787,
            -0.06494263559579849,
            -0.006393777206540108,
            -0.19912579655647278,
            -0.004493469372391701,
            0.03089315816760063,
            0.18878543376922607,
            0.1978132128715515,
            -0.2471906989812851,
            0.05085399001836777,
            -0.19631090760231018,
            -0.32159531116485596,
            0.07063952088356018,
            0.2742423117160797,
            0.006860754452645779,
            0.15462349355220795,
            0.11906791478395462,
            -0.17877840995788574,
            -0.19568605720996857,
            0.08561160415410995,
            -0.039148781448602676,
            -0.00774798821657896,
            0.13639989495277405,
            0.019761038944125175,
            -0.014156031422317028,
            -0.01971880905330181,
            0.21872572600841522,
            -0.08634932339191437,
            -0.10769136250019073,
            0.14951632916927338,
            -0.2669324576854706,
            -0.04453924670815468,
            -0.17176727950572968,
            0.18028420209884644,
            0.022662293165922165,
            -0.007839045487344265,
            0.052828945219516754,
            0.16809669137001038,
            0.15175731480121613,
            0.03234237805008888,
            -0.033591970801353455,
            0.12762124836444855,
            0.05312752351164818,
            -0.052145980298519135,
            -0.15541215240955353,
            0.15360724925994873,
            -0.2622595727443695,
            -0.2317744344472885,
            0.09734392911195755,
            0.07145500183105469,
            -0.0848521813750267,
            -0.10774894803762436,
            -0.012055284343659878,
            0.015017020516097546,
            -0.1881427764892578,
            0.060905080288648605,
            -0.17783315479755402,
            0.07609333842992783,
            0.01172596961259842,
            0.10617928951978683,
            0.07924769818782806,
            -0.06378550827503204,
            -0.09542452543973923,
            -0.14166177809238434,
            -0.004245474934577942,
            0.13003167510032654,
            0.041514620184898376,
            0.0016492028953507543,
            -0.04616716876626015,
            -0.15093323588371277,
            -0.0006415341631509364,
            -0.20470203459262848,
            -0.13341212272644043,
            -0.2571619749069214,
            0.11155765503644943,
            -0.13160717487335205,
            0.08621756732463837,
            -0.054459601640701294,
            -0.14559796452522278,
            0.19292746484279633,
            -0.030814021825790405,
            0.024060294032096863,
            -0.01642058603465557,
            0.028209295123815536,
            -0.0331140011548996,
            0.06197507679462433,
            -0.12145311385393143,
            -0.0803702175617218,
            0.15466243028640747,
            -0.15105241537094116,
            -0.07171325385570526,
            -0.02873445302248001,
            0.039939381182193756,
            0.07407022267580032,
            -0.1318473517894745,
            0.12260936945676804,
            0.11769645661115646,
            -0.0009719680529087782,
            -0.054766491055488586,
            -0.0634978711605072,
            -0.19505944848060608,
            0.057755280286073685,
            -0.1345270723104477,
            0.24436520040035248,
            -0.0011572514194995165,
            -0.030584683641791344,
            -0.2711876332759857,
            0.09409749507904053,
            -0.04580596834421158,
            0.0028206754941493273,
            0.1502951830625534,
            0.11387092620134354,
            0.10634846240282059,
            -0.30327025055885315,
            0.025382712483406067,
            0.1552814543247223,
            -0.17575284838676453,
            0.048260461539030075,
            -0.01586826704442501,
            -0.03511302173137665,
            -0.28003135323524475,
            0.002082958584651351,
            0.03731737658381462,
            -0.11197207868099213,
            -0.08054187893867493,
            -0.06998774409294128,
            0.052984751760959625,
            -0.45682069659233093,
            0.03304794058203697,
            0.11931800842285156,
            -0.036688126623630524,
            -0.21221736073493958,
            -0.06858892738819122,
            0.02129923738539219,
            0.02507966198027134,
            0.029410531744360924,
            0.0871126651763916,
            -0.1392047107219696,
            -0.07645940035581589,
            -0.1063888669013977,
            0.10031411051750183,
            0.11265690624713898,
            -0.01658140867948532,
            -0.13931551575660706,
            0.017881562933325768,
            0.06596112996339798,
            0.07303893566131592,
            0.08801483362913132,
            -0.08108062297105789,
            0.049511659890413284,
            -0.18302910029888153,
            0.005027466453611851,
            0.17757855355739594,
            -0.1634833961725235,
            0.19225673377513885,
            -0.02808300405740738,
            0.024210462346673012,
            -0.16958431899547577,
            0.02778353914618492,
            -0.07576248794794083,
            0.0897778645157814,
            0.0785946324467659,
            0.08355171233415604,
            -0.06273485720157623,
            0.014901438727974892,
            0.07302508503198624,
            -0.14813083410263062,
            -0.25150078535079956,
            0.10331648588180542,
            0.07913722842931747,
            0.04244526848196983,
            0.05455271899700165,
            -0.014292169362306595,
            -0.03420725464820862,
            -0.028055358678102493,
            -0.13763591647148132,
            -0.01630561053752899,
            0.046664267778396606,
            -0.025861481204628944,
            0.09965158998966217,
            0.05219726264476776,
            0.027257636189460754,
            -0.042487818747758865,
            0.015364971943199635,
            -0.03987153619527817,
            -0.05900648608803749,
            0.15111592411994934,
            -0.010890773497521877,
            -0.10223806649446487,
            0.15133032202720642,
            0.026468904688954353,
            -0.11447186022996902,
            -0.02868369221687317,
            -0.040948763489723206,
            -0.13498622179031372,
            0.1715543270111084,
            -0.07993046194314957,
            0.16316595673561096,
            -0.12758982181549072,
            0.07323244214057922,
            0.08024883270263672,
            -0.011615828610956669,
            -0.06610261648893356,
            -0.2202398180961609,
            0.07915113866329193,
            -0.0022834178525954485,
            -0.010287540033459663,
            0.05925508961081505,
            0.06104683876037598,
            0.0776166096329689,
            0.10548201203346252,
            0.04698433354496956,
            0.08298265933990479,
            0.06865222007036209,
            -0.14433635771274567,
            -0.08702069520950317,
            0.14067453145980835,
            0.11571801453828812,
            -0.043862923979759216,
            -0.03141474723815918,
            -0.059748824685811996,
            -0.11960010975599289,
            -0.03503038361668587,
            -0.06788427382707596,
            0.06375274062156677,
            0.15382809937000275,
            -0.1010080948472023,
            0.2740428149700165,
            -0.09099118411540985,
            -0.13321784138679504,
            -0.0020450111478567123,
            0.09716970473527908,
            0.00802454724907875,
            -0.11327335238456726,
            -0.09851079434156418,
            -0.024373598396778107,
            -0.10743124037981033,
            -0.02914806827902794,
            0.1191633865237236,
            -0.06936459988355637,
            0.18226847052574158,
            -0.02627519704401493,
            -0.07796301692724228,
            -0.031017281115055084,
            0.028128808364272118,
            0.17827637493610382,
            -0.12317279726266861,
            0.011664737947285175,
            -0.07990811765193939,
            -0.012931682169437408,
            -0.16476181149482727,
            0.07573489844799042,
            -0.023631852120161057,
            -0.1787608414888382,
            -0.007799147162586451,
            -0.035062581300735474,
            -0.13238124549388885,
            0.02529790997505188,
            0.01746724732220173,
            -0.016126608476042747,
            -0.10458312928676605,
            -0.01469513401389122,
            -0.1353776454925537,
            -0.10113579034805298,
            -0.1370837539434433,
            -0.024860072880983353,
            0.20129512250423431,
            -0.09782814979553223,
            0.08964329212903976,
            -0.17996227741241455,
            0.13321973383426666,
            -0.32947152853012085,
            -0.059475336223840714,
            -0.06315893679857254,
            -0.008796291425824165,
            0.012680990621447563,
            0.320855051279068,
            -0.03612580895423889,
            -0.13462699949741364,
            -0.08737149834632874,
            0.030141064897179604,
            0.17193827033042908,
            -0.4019538164138794,
            -0.027795366942882538,
            -0.049861542880535126,
            0.1376318633556366,
            -0.0038116807118058205,
            0.23800604045391083,
            -0.012194743379950523,
            0.03708168491721153,
            0.024345185607671738,
            0.20773789286613464,
            0.09538253396749496,
            0.07909005135297775,
            -0.17975889146327972,
            0.19862903654575348,
            -0.14623232185840607,
            0.09261230379343033,
            -0.14781616628170013,
            -0.12321341782808304,
            -0.07176446169614792,
            0.18420091271400452,
            0.08574394881725311,
            -0.10460682213306427,
            0.10049223899841309,
            0.0585707426071167,
            0.12592008709907532,
            0.005501466803252697,
            -0.0342433899641037,
            -0.09367562085390091,
            0.03243468701839447,
            -0.3514584004878998,
            -0.14496885240077972,
            -0.24811045825481415,
            0.23700721561908722,
            -0.04883595183491707,
            0.19211310148239136,
            0.2337283492088318,
            0.003762288484722376,
            0.03716801479458809,
            0.00831791665405035,
            -0.028668606653809547,
            -0.12886087596416473,
            -0.02133314497768879,
            -0.02232925221323967,
            -0.039931826293468475,
            0.03749866038560867,
            -0.13423846662044525,
            0.1767573356628418,
            -0.07633784413337708,
            -0.016552584245800972,
            0.08849168568849564,
            -0.1234213262796402,
            0.06747467815876007,
            0.05332453176379204,
            -0.019065234810113907,
            0.06692713499069214,
            -0.24488842487335205,
            -0.09071008861064911,
            -0.10181646794080734,
            -0.14008067548274994,
            0.0000887505229911767,
            0.13218241930007935,
            -0.042987581342458725,
            -0.09328486025333405,
            0.0806422308087349,
            0.12752926349639893,
            0.1564120352268219,
            0.118243508040905,
            -0.04250210151076317,
            -0.014998423866927624,
            0.11617837846279144,
            0.04247327148914337,
            -0.05238964408636093,
            -0.1070801243185997,
            -0.060657206922769547,
            -0.061882514506578445,
            -0.012750671245157719,
            0.005098756868392229,
            0.20889654755592346,
            0.21177612245082855,
            0.08918213844299316,
            -0.054558079689741135,
            0.1499485820531845,
            0.0008225755300372839,
            -0.0651097372174263,
            -0.07263991981744766,
            -0.00897095538675785,
            0.015276961959898472,
            -0.0861620306968689,
            -0.21170756220817566,
            -0.15928100049495697,
            -0.10822336375713348,
            0.027673987671732903,
            -0.13975071907043457,
            -0.002270104829221964,
            0.3202325999736786,
            -0.18241681158542633,
            0.013844659551978111,
            0.10462281107902527,
            0.0465356782078743,
            0.14883489906787872,
            0.03406748175621033,
            -0.05018178001046181,
            -0.007965320721268654,
            -0.011484520509839058,
            -0.0728890597820282,
            -0.16128948330879211,
            0.02190074510872364,
            -0.023425837978720665,
            -0.12294454127550125,
            -0.0942748561501503,
            0.07956521213054657,
            0.08402644097805023,
            -0.0067909457720816135,
            -0.14890684187412262,
            -0.13370771706104279,
            0.18147486448287964,
            0.060281168669462204,
            -0.0617290735244751,
            -0.16121749579906464,
            0.21330057084560394,
            -0.09160004556179047,
            0.15538929402828217,
            0.0675419420003891,
            0.06526298075914383,
            0.023125121369957924,
            -0.02614247053861618,
            -0.07570502161979675,
            -0.008035467937588692,
            -0.055713966488838196,
            0.09268483519554138,
            0.20412591099739075,
            -0.034995514899492264,
            -0.022969162091612816,
            -0.029474247246980667,
            -0.07200725376605988,
            0.072273850440979,
            -0.15484270453453064,
            -0.046862635761499405,
            -0.013382451608777046,
            -0.12954194843769073,
            -0.024361830204725266,
            0.037898264825344086,
            0.032600365579128265,
            -0.03897268697619438,
            -0.1101933941245079,
            0.08555582165718079,
            -0.11270995438098907,
            0.18858702480793,
            0.0898432731628418,
            0.06138640269637108,
            0.19621556997299194,
            0.008235450834035873,
            -0.020382070913910866,
            0.23365351557731628,
            -0.030737951397895813,
            -0.1134573221206665,
            -0.03332517296075821,
            0.05622393637895584,
            0.197738379240036,
            -0.04057843238115311,
            0.2297675609588623,
            -0.10858199745416641,
            0.08760250359773636,
            0.14112022519111633,
            -0.13341215252876282,
            -0.018503688275814056,
            -0.07777632772922516,
            0.08295293897390366,
            -0.1080726757645607,
            0.02984985150396824,
            0.0959477499127388,
            -0.02456057257950306,
            -0.2385634034872055,
            0.18691860139369965,
            -0.09128409624099731,
            0.15444734692573547,
            -0.01431686244904995,
            -0.06626085937023163,
            0.15722717344760895,
            0.0015657641924917698,
            0.03366188332438469,
            -0.07443756610155106,
            -0.10221456736326218,
            -0.11182647943496704,
            0.03526579588651657,
            0.05605076625943184,
            -0.08316826820373535,
            0.05775025114417076,
            -0.1338474154472351,
            -0.11024971306324005,
            0.010292909108102322,
            0.0682378038764,
            0.0064189922995865345,
            -0.015105867758393288,
            0.025842055678367615,
            -0.2651056945323944,
            -0.13129524886608124,
            0.02929779328405857,
            0.06253186613321304,
            0.13091695308685303,
            -0.06650570034980774,
            -0.05539168789982796,
            0.050020262598991394,
            -0.10253791511058807,
            -0.1927662342786789,
            -0.09259693324565887,
            0.1966398060321808,
            0.29052627086639404,
            0.09121312201023102,
            0.1620250642299652,
            0.17556172609329224,
            -0.10606944561004639,
            0.053887009620666504,
            0.12931053340435028,
            0.1641390472650528,
            -0.034350525587797165,
            -0.10348914563655853,
            -0.14875821769237518,
            -0.03257327154278755,
            -0.00881682988256216,
            0.03150131553411484,
            -0.016750996932387352,
            -0.0880356952548027,
            0.24453727900981903,
            -0.054303426295518875,
            -0.10300234705209732,
            -0.06604068726301193,
            0.15681013464927673,
            0.041391581296920776,
            -0.015877192839980125,
            -0.07343652844429016,
            0.10414891690015793,
            -0.06733650714159012,
            0.05255966633558273,
            -0.15765081346035004,
            0.1383008509874344,
            0.03822147846221924,
            0.006801890209317207,
            -0.1103195920586586,
            0.1602645367383957,
            0.13104373216629028,
            -0.028671152889728546,
            0.08547338843345642,
            0.022641686722636223,
            0.20902998745441437,
            0.17381618916988373,
            -0.06001830846071243,
            0.017628345638513565,
            0.042996156960725784,
            -0.08951438218355179,
            0.12571443617343903,
            0.04861413314938545,
            -0.14350587129592896,
            -0.029655015096068382,
            -0.16202141344547272,
            -0.026310347020626068,
            0.044507309794425964,
            0.0037231503520160913,
            0.012302051298320293,
            0.13063378632068634,
            0.00973785761743784,
            -0.18321861326694489,
            -0.050056666135787964,
            -0.018729431554675102,
            0.14193424582481384,
            0.11295376718044281,
            0.18856693804264069,
            -0.08159174025058746,
            0.05115794762969017,
            -0.13004817068576813,
            0.089296855032444,
            -0.021257484331727028,
            0.15402209758758545,
            0.0879628136754036,
            0.14865845441818237,
            0.03085615485906601,
            -0.0999075174331665,
            0.004131598863750696,
            0.1260041445493698,
            0.017708860337734222,
            0.04130791872739792,
            0.13718490302562714,
            0.147642582654953,
            0.061174534261226654,
            -0.23821133375167847,
            -0.2154477834701538,
            0.004923257976770401,
            -0.18012681603431702,
            -0.11523811519145966,
            -0.19918175041675568,
            -0.31905484199523926,
            -0.2571117579936981,
            -0.09329807013273239,
            -0.026916952803730965,
            0.0012309106532484293,
            -0.1636904776096344,
            0.18306079506874084,
            0.16607724130153656,
            -0.1564461886882782,
            -0.2610878348350525,
            -0.0375688411295414,
            -0.03223400190472603,
            0.0768570527434349,
            -0.2529833912849426,
            0.014738031663000584,
            -0.11077740788459778,
            0.06291304528713226,
            0.08247870951890945,
            0.04319387674331665,
            0.30493518710136414,
            -0.012064347974956036,
            -0.09776686131954193,
            0.3559950590133667,
            0.1666603833436966,
            -0.00837862677872181,
            0.06990710645914078,
            -0.109103724360466,
            0.07540664076805115,
            0.036013733595609665,
            0.08300642669200897,
            -0.07438971847295761,
            0.032286446541547775,
            -0.13595227897167206,
            0.21846166253089905,
            -0.13499140739440918,
            0.04658442363142967,
            0.021015457808971405,
            0.1578744500875473,
            0.019699256867170334,
            -0.1322905570268631,
            0.1545417159795761,
            -0.03881881758570671,
            0.08375880867242813,
            -0.17834581434726715,
            0.03295426443219185,
            0.19873479008674622,
            -0.02831592969596386,
            -0.18532103300094604,
            0.1870672106742859,
            0.17722690105438232,
            0.28860995173454285,
            0.08001643419265747,
            0.050785597413778305,
            0.10042992234230042,
            -0.15846441686153412,
            -0.21908745169639587,
            -0.04030239209532738,
            -0.001378293032757938,
            -0.11518996953964233,
            0.04386657476425171,
            0.056785304099321365,
            0.11186877638101578,
            -0.13500705361366272,
            -0.07247363030910492,
            0.268261194229126,
            -0.056224703788757324,
            0.16648554801940918,
            -0.20152871310710907,
            0.0962790995836258,
            -0.2378830462694168,
            -0.17200346291065216,
            0.1554861068725586,
            0.004689060151576996,
            -0.16394858062267303,
            -0.006289485841989517,
            0.033841174095869064,
            0.11795201897621155,
            0.04052798077464104,
            0.1771364063024521,
            0.0899515151977539,
            -0.14855507016181946,
            -0.06359969079494476,
            -0.08903142064809799,
            -0.0863511711359024,
            0.00943626556545496,
            0.1628701239824295,
            0.20280709862709045,
            0.2143452763557434,
            0.1370522826910019,
            0.1724562644958496,
            0.10535009205341339,
            -0.04357626289129257,
            0.0734189972281456,
            -0.1505969911813736,
            0.03080594725906849,
            0.056703899055719376,
            -0.24911051988601685,
            0.15902303159236908,
            -0.26997318863868713,
            -0.025757187977433205,
            -0.19778670370578766,
            -0.21283592283725739,
            -0.09079353511333466,
            -0.10219520330429077,
            0.06631943583488464,
            0.12315838783979416,
            -0.008491497486829758,
            0.10342755913734436,
            0.014333427883684635,
            0.006335642654448748,
            0.012801610864698887,
            -0.09358064085245132,
            -0.10785878449678421,
            -0.09866182506084442,
            0.05791643634438515,
            -0.013197100721299648,
            -0.05049934238195419,
            0.08888036012649536,
            0.09676206111907959,
            -0.04307204857468605,
            0.1079649105668068,
            -0.030628880485892296,
            -0.07067596912384033,
            0.07838920503854752,
            0.01229118462651968,
            -0.09918326139450073,
            0.14090725779533386,
            0.053795356303453445,
            -0.04209759831428528,
            0.27410688996315,
            0.036045100539922714,
            -0.020514322444796562,
            -0.09111141413450241,
            0.024196185171604156,
            -0.07511313259601593,
            0.02954159677028656,
            -0.04458396136760712,
            0.030706021934747696,
            0.14003580808639526,
            0.09230700135231018,
            -0.14497597515583038,
            0.12323147058486938,
            0.09784405678510666,
            0.11036959290504456,
            0.04343812167644501,
            -0.05824187025427818,
            0.12365949898958206,
            0.0030198402237147093,
            0.035897865891456604,
            -0.005721780005842447,
            -0.07212143391370773,
            -0.04109669849276543,
            0.0894637480378151,
            -0.2263919860124588,
            -0.06081225723028183,
            0.24717217683792114,
            -0.13873131573200226,
            0.036617107689380646,
            0.11211691796779633,
            -0.05404249578714371,
            0.08626844733953476,
            -0.15293778479099274,
            0.07690068334341049,
            -0.27418890595436096,
            -0.10987715423107147,
            -0.05148584023118019,
            0.13123638927936554,
            -0.2124370038509369,
            -0.1683933287858963,
            -0.08306731283664703,
            0.07573822885751724,
            0.17755988240242004,
            -0.05173077806830406,
            0.0008554894011467695,
            0.10551238805055618,
            -0.14933155477046967,
            -0.02311871200799942,
            -0.05308852344751358,
            -0.05455693230032921,
            -0.007317156530916691,
            -0.028067629784345627,
            -0.1245717778801918,
            0.06822519749403,
            0.07221246510744095,
            -0.09367397427558899,
            0.19734174013137817,
            0.27293041348457336,
            -0.06917371600866318,
            0.17414513230323792,
            -0.009340462274849415,
            0.07834703475236893,
            0.01429742481559515,
            -0.02717493660748005,
            -0.06989555060863495,
            -0.21848943829536438,
            0.1457163691520691,
            0.014595504850149155,
            -0.09567984193563461,
            -0.04589241370558739,
            0.00041972921462729573,
            -0.0006611308781430125,
            -0.20139437913894653,
            -0.026771999895572662,
            0.12297270447015762,
            0.04650726914405823,
            -0.020813876762986183,
            -0.08547288924455643,
            -0.06161138415336609,
            -0.036199718713760376,
            0.13073886930942535,
            -0.18363942205905914,
            -0.2246396690607071,
            0.17900508642196655,
            0.163762629032135,
            0.13003946840763092,
            -0.03798481822013855,
            0.04100445285439491,
            0.06854739785194397,
            0.07835879176855087,
            0.037964604794979095,
            0.08033176511526108,
            -0.17987769842147827,
            -0.01855192333459854,
            0.29688701033592224,
            0.2090558409690857,
            0.09602656215429306,
            0.003363615134730935,
            0.012860584072768688,
            -0.06201142445206642,
            -0.11619383841753006,
            -0.06343836337327957,
            -0.025973699986934662,
            0.07218504697084427,
            -0.25678130984306335,
            0.09139678627252579,
            -0.02382803149521351,
            -0.0890856459736824,
            -0.16229164600372314,
            0.018454579636454582,
            0.07163237780332565,
            0.037740085273981094,
            0.015504484064877033,
            0.023660022765398026,
            0.07786742597818375,
            0.07849856466054916,
            0.11778794229030609,
            0.09147827327251434,
            0.03940236568450928,
            -0.1397838592529297,
            -0.019856197759509087,
            -0.08167187869548798,
            -0.2133609801530838,
            -0.11062595993280411,
            -0.03833691030740738,
            0.09267967194318771,
            0.10475476831197739,
            0.08437377214431763,
            0.14145804941654205,
            0.15242642164230347,
            0.1346602439880371,
            0.23291000723838806,
            -0.014452526345849037,
            -0.028551194816827774,
            -0.2372175008058548,
            0.07148364186286926,
            0.11917699128389359,
            0.09154746681451797,
            0.10743667185306549,
            0.09354141354560852,
            -0.04869025945663452,
            -0.0636930838227272,
            0.056861620396375656,
            -0.013327511958777905,
            -0.04967102035880089,
            0.1371118128299713,
            -0.08297667652368546,
            0.09479875862598419,
            0.11032362282276154,
            -0.1176663488149643,
            -0.061646267771720886,
            0.07455401122570038,
            0.3147469162940979,
            0.03563512861728668,
            0.04460015520453453,
            0.10837442427873611,
            -0.030880901962518692,
            0.18842606246471405,
            0.08518952131271362,
            0.31202617287635803,
            -0.10749363154172897,
            -0.07469525933265686,
            -0.021188845857977867,
            -0.05948007479310036,
            0.3777662515640259,
            0.2062780261039734,
            -0.08855637162923813,
            0.044664718210697174,
            -0.10280884802341461,
            0.1200646236538887,
            -0.170714870095253,
            -0.16813166439533234,
            0.022849639877676964,
            0.18753309547901154,
            -0.026250924915075302,
            -0.1313735991716385,
            0.013734395615756512,
            0.030833052471280098,
            -0.03637472912669182,
            0.06371469050645828,
            -0.09567111730575562,
            -0.02585027739405632,
            0.09113573282957077,
            -0.1496870219707489,
            -0.13688084483146667,
            0.2661329209804535,
            0.1403086930513382,
            -0.11324644088745117,
            -0.07844477891921997,
            -0.11662077903747559,
            0.0612485371530056,
            0.07216667383909225,
            -0.02156125381588936,
            0.14834889769554138,
            0.1326015144586563,
            0.012868714518845081,
            -0.09715685248374939,
            0.08449608832597733,
            -0.21048513054847717,
            -0.06581239402294159,
            -0.08977105468511581,
            -0.10952379554510117,
            0.153963103890419,
            -0.10940446704626083,
            0.14275792241096497,
            0.15491388738155365,
            0.04484422132372856,
            0.12022054195404053,
            0.08674304932355881,
            0.10153109580278397,
            -0.18406942486763,
            0.12562331557273865,
            -0.03951394185423851,
            -0.029047153890132904,
            -0.039146341383457184,
            0.037156637758016586,
            -0.0336885005235672,
            -0.17252515256404877,
            0.08855195343494415,
            0.016651054844260216,
            -0.18332041800022125,
            -0.22506114840507507,
            -0.14252834022045135,
            -0.09408905357122421,
            -0.0802169144153595,
            -0.011905550956726074,
            0.02683182805776596,
            0.223078653216362,
            0.19670097529888153,
            -0.13258753716945648,
            0.07423025369644165,
            0.24748964607715607,
            -0.023646077141165733,
            -0.1082567647099495,
            -0.14828360080718994,
            -0.1222272515296936,
            0.021158454939723015,
            -0.0712185800075531,
            0.14239780604839325,
            -0.2980400323867798,
            0.04607055336236954,
            -0.028915751725435257,
            0.09177768975496292,
            -0.3481680750846863,
            0.1291130930185318,
            -0.10489555448293686,
            -0.24915355443954468,
            0.05038464441895485,
            -0.010265096090734005,
            -0.11270129680633545,
            0.0005444753915071487,
            -0.019709264859557152,
            -0.03348010778427124,
            0.10880519449710846,
            0.08686791360378265,
            -0.4700230062007904,
            -0.07439330965280533,
            -0.1384410709142685,
            0.01217086985707283,
            -0.007049561943858862,
            -0.06353667378425598,
            0.004192875232547522,
            0.09122473746538162,
            0.06323503702878952,
            -0.10943786054849625,
            0.04348987713456154,
            -0.16158901154994965,
            0.09025759994983673,
            -0.01746489852666855,
            0.16607260704040527,
            -0.04701348394155502,
            0.013268178328871727,
            0.13716928660869598,
            -0.061468303203582764,
            -0.1562109738588333,
            -0.03783692419528961,
            -0.32541826367378235,
            0.1898016333580017,
            -0.23868559300899506,
            -0.024039462208747864,
            -0.08929052203893661,
            0.27385520935058594,
            0.12248068302869797,
            -0.21304303407669067,
            0.16996793448925018,
            -0.0576004758477211,
            0.10015853494405746,
            -0.30979493260383606,
            -0.05767601728439331,
            -0.21584993600845337,
            -0.07177379727363586,
            0.01953854411840439,
            -0.060625236481428146,
            -0.13200512528419495,
            0.001230753492563963,
            0.13124601542949677,
            0.1964838057756424,
            0.04595207795500755,
            -0.07201790809631348,
            0.0310390442609787,
            0.05659237504005432,
            0.006004492286592722,
            -0.19271214306354523,
            0.061632487922906876,
            -0.26067498326301575,
            -0.019118765369057655,
            0.03839970752596855,
            -0.23023006319999695,
            0.19660687446594238,
            -0.12398955971002579,
            -0.07210808247327805,
            -0.18795335292816162,
            0.14097940921783447,
            -0.21825581789016724,
            -0.006741353310644627,
            0.22287000715732574,
            -0.2658616900444031,
            -0.08440513908863068,
            -0.017813529819250107,
            -0.06292811036109924,
            0.0523417703807354,
            0.19925060868263245,
            0.07157900184392929,
            0.03132367879152298,
            0.1057724878191948,
            -0.11244381219148636,
            -0.03398614004254341,
            0.015598628669977188,
            -0.02927549183368683,
            -0.16122335195541382,
            0.09708458930253983,
            -0.17652061581611633,
            -0.05425063893198967,
            0.0011686603538691998,
            -0.0624871663749218,
            -0.029555175453424454,
            0.019195545464754105,
            -0.058781519532203674,
            0.07745134830474854,
            0.09879040718078613,
            -0.11857916414737701,
            0.005199471488595009,
            0.05519340559840202,
            -0.06673743575811386,
            -0.013559810817241669,
            0.0093750711530447,
            0.033300504088401794,
            0.10781726986169815,
            -0.03243604674935341,
            0.05761473998427391,
            -0.18129175901412964,
            -0.020509744063019753,
            0.06246381253004074,
            -0.0727146789431572,
            -0.08538714796304703,
            -0.13378605246543884,
            -0.12360487878322601,
            -0.01242710743099451,
            0.083692766726017,
            0.10019265115261078,
            0.15815311670303345,
            0.000002831143319781404,
            0.1538931131362915,
            0.08274102210998535,
            0.11438573896884918,
            0.054262351244688034,
            0.1387537717819214,
            -0.062237560749053955,
            -0.1211366355419159,
            0.130365788936615,
            0.02427438460290432,
            0.027752388268709183,
            0.2012825310230255,
            -0.006849909201264381,
            0.20137931406497955,
            0.13307949900627136,
            -0.1324574202299118,
            0.05714389309287071,
            -0.015858754515647888,
            -0.028287993744015694,
            0.12719504535198212,
            0.19777342677116394,
            0.12302997708320618,
            -0.0809800922870636,
            0.12878412008285522,
            0.16362746059894562,
            0.07481537759304047,
            0.008814032189548016,
            -0.029261652380228043,
            -0.12584033608436584,
            0.025231167674064636,
            -0.11696285009384155,
            0.08137181401252747,
            -0.02053552307188511,
            0.04350055009126663,
            -0.017772238701581955,
            0.08232510089874268,
            0.039790745824575424,
            -0.07538893818855286,
            -0.13056537508964539,
            0.05187242105603218,
            0.0491657517850399,
            -0.031842127442359924,
            0.09244590997695923,
            -0.018253318965435028,
            0.19055546820163727,
            -0.03978773579001427,
            0.05515884980559349,
            -0.14256824553012848,
            -0.01563894748687744,
            -0.11303246021270752,
            -0.154905304312706,
            -0.03308815881609917,
            0.004841422662138939,
            -0.03532478213310242,
            -0.17435555160045624,
            -0.11279170215129852,
            -0.1357227861881256,
            -0.04559677094221115,
            -0.07194167375564575,
            0.013807867653667927,
            0.10168039053678513,
            0.04663068801164627,
            -0.017948873341083527,
            0.052396129816770554,
            0.03756667301058769,
            0.11673133075237274,
            0.19435666501522064,
            -0.052944328635931015,
            -0.1582316756248474,
            -0.06910800188779831,
            0.04418196901679039,
            -0.08452843874692917,
            0.03149969130754471,
            0.16734445095062256,
            -0.048894673585891724,
            -0.13471737504005432,
            0.008509560488164425,
            0.15702033042907715,
            0.07426580786705017,
            0.17229484021663666,
            -0.10916434973478317,
            0.05057006701827049,
            -0.048818882554769516,
            0.009395346976816654,
            0.12847651541233063,
            0.022711846977472305,
            0.04184429347515106,
            -0.1630525290966034,
            0.11336270719766617,
            0.02383701503276825,
            0.18288421630859375,
            -0.08658707141876221,
            -0.019300850108265877,
            -0.13999101519584656,
            -0.10171420127153397,
            0.135030597448349,
            0.01630236767232418,
            -0.05805769935250282,
            -0.020420564338564873,
            -0.08433882147073746,
            0.14448370039463043,
            -0.03179249167442322,
            0.06009328365325928,
            -0.029493680223822594,
            -0.029532115906476974,
            0.13264666497707367,
            -0.06373926252126694,
            0.0322536826133728,
            -0.05595751106739044,
            -0.02337990328669548,
            -0.012640577740967274,
            0.05644069239497185,
            0.07628224045038223,
            -0.060932233929634094,
            -0.027913348749279976,
            -0.014344688504934311,
            -0.050336647778749466,
            0.1342889964580536,
            0.048102568835020065,
            0.04576270654797554,
            0.04546350613236427,
            0.07377006113529205,
            -0.054059166461229324,
            -0.008507832884788513,
            -0.05959099903702736,
            0.1971815973520279,
            0.055538780987262726,
            0.21640169620513916,
            0.019075755029916763,
            -0.05284467339515686,
            0.0672476664185524,
            0.1325908601284027,
            0.0633825808763504,
            0.03726339340209961,
            0.07328888773918152,
            -0.13882575929164886,
            -0.015400578267872334,
            0.08717166632413864,
            -0.15550214052200317,
            -0.05784568190574646,
            -0.02095757983624935,
            0.09463760256767273,
            0.1697750836610794,
            0.002188309794291854,
            0.09332157671451569,
            -0.08453100919723511,
            -0.04040633887052536,
            0.06093534082174301,
            -0.06106948480010033,
            -0.01238926686346531,
            -0.06452988088130951,
            0.038459211587905884,
            0.0846170112490654,
            -0.19914889335632324,
            -0.049012042582035065,
            -0.12564606964588165,
            0.024441497400403023,
            0.07254590839147568,
            0.05346309021115303,
            -0.06416948139667511,
            0.16475337743759155,
            -0.05372669920325279,
            0.04066523537039757,
            -0.04475412890315056,
            -0.16645976901054382,
            -0.0033779828809201717,
            -0.09673132002353668,
            0.0076934220269322395,
            0.04576388746500015,
            0.05325738340616226,
            0.11551070958375931,
            0.1549529880285263,
            -0.022518524900078773,
            0.013286074623465538,
            -0.07845276594161987,
            0.048897504806518555,
            0.04345358535647392,
            -0.03872665762901306,
            0.011956941336393356,
            -0.10326243191957474,
            -0.06374403089284897,
            -0.10475753992795944,
            -0.07235696166753769,
            -0.01389746181666851,
            0.06409385055303574,
            -0.18242481350898743,
            -0.055855996906757355,
            -0.04103502631187439,
            -0.08085469901561737,
            0.026510417461395264,
            0.007041771896183491,
            -0.20500122010707855,
            0.02904069796204567,
            0.11524319648742676,
            -0.028726233169436455,
            -0.028519144281744957,
            -0.20337973535060883,
            -0.06908591836690903,
            -0.01051922608166933,
            -0.06994832307100296,
            0.13938498497009277,
            -0.022361185401678085,
            -0.12628400325775146,
            -0.15131230652332306,
            0.07120613753795624,
            -0.13793273270130157,
            -0.14743253588676453,
            -0.11880990117788315,
            0.02060575596988201,
            0.004273015074431896,
            -0.012785921804606915,
            -0.1526108831167221,
            -0.15333521366119385,
            -0.06401560455560684,
            0.1363498866558075,
            -0.02262742631137371,
            0.028610600158572197,
            0.14152057468891144,
            0.015302987769246101,
            0.0018062019953504205,
            -0.07869194447994232,
            -0.19743125140666962,
            -0.03731857240200043,
            0.1087741106748581,
            0.03158535435795784,
            -0.15024736523628235,
            0.012016359716653824,
            0.12472129613161087,
            0.025278499349951744,
            0.05824054405093193,
            0.05382610112428665,
            -0.09608525037765503,
            0.08548293262720108,
            -0.11856961995363235,
            0.07839818298816681,
            -0.07869159430265427,
            0.07731788605451584,
            0.036984533071517944,
            -0.09933266043663025,
            -0.08734922111034393,
            -0.08768733590841293,
            0.060548849403858185,
            0.0288362018764019,
            -0.0699562206864357,
            -0.0019407585496082902,
            0.09246297180652618,
            0.002881424268707633,
            0.12450361996889114,
            0.1117200031876564,
            0.08508948236703873,
            0.19780221581459045,
            -0.13578538596630096,
            0.1349686235189438,
            -0.059090498834848404,
            0.051645711064338684,
            0.03629804030060768,
            -0.055395644158124924,
            0.050903793424367905,
            -0.1829560101032257,
            -0.16586057841777802,
            0.07864882797002792,
            0.15634416043758392,
            -0.09481838345527649,
            0.007510544266551733,
            0.2068648338317871,
            0.0283812265843153,
            0.08780670911073685,
            -0.048128798604011536,
            -0.05646815523505211,
            -0.12602341175079346,
            0.14527948200702667,
            -0.0459633432328701,
            -0.08033852279186249,
            -0.11044212430715561,
            0.09028564393520355,
            -0.20053164660930634,
            0.036567047238349915,
            0.005940611474215984,
            -0.09450691938400269,
            -0.2151210606098175,
            -0.08712730556726456,
            0.04851144179701805,
            0.047065943479537964,
            0.20514525473117828,
            0.10898581147193909,
            -0.06380794197320938,
            -0.09442805498838425,
            0.009620914235711098,
            -0.03605040907859802,
            0.08532312512397766,
            0.061614684760570526,
            0.09951973706483841,
            -0.02100784331560135,
            0.04839044436812401,
            -0.02436542883515358,
            0.12774232029914856,
            0.1558712273836136,
            -0.03542797267436981,
            -0.017637569457292557,
            0.05370542034506798,
            -0.207128643989563,
            0.019637519493699074,
            -0.008958134800195694,
            -0.19013381004333496,
            -0.03191795572638512,
            0.03729873150587082,
            -0.011832449585199356,
            -0.1930171102285385,
            -0.08180196583271027,
            0.02532035857439041,
            0.11217880994081497,
            0.06383153051137924,
            0.0977780818939209,
            0.043724846094846725,
            0.06163204461336136,
            0.07148806005716324,
            -0.04109307378530502,
            -0.0515548512339592,
            0.12376047670841217,
            -0.042419422417879105,
            -0.05953197553753853,
            -0.03769873082637787,
            0.004571754019707441,
            0.11801903694868088,
            0.10818126797676086,
            0.10192231833934784,
            0.19151782989501953,
            0.04999874159693718,
            -0.04805748537182808,
            0.14957979321479797,
            0.03827378898859024,
            -0.1333584487438202,
            -0.02812720648944378,
            0.10289504379034042,
            0.021157346665859222,
            -0.12052600830793381,
            0.05157468467950821,
            0.023368749767541885,
            -0.02497818134725094,
            -0.022460326552391052,
            0.13068222999572754,
            -0.11469585448503494,
            -0.05323774740099907,
            0.06406839936971664,
            0.06336826086044312,
            0.02647692710161209,
            -0.004381219856441021,
            -0.2042136937379837,
            0.01784672401845455,
            0.004479704424738884,
            0.17780393362045288,
            -0.03675151616334915,
            -0.16755899786949158,
            -0.10481354594230652,
            0.14383649826049805,
            0.03170730546116829,
            0.0011663628974929452,
            0.006270439829677343,
            0.1328895092010498,
            0.16382886469364166,
            -0.1896776407957077,
            -0.09336480498313904,
            -0.013726342469453812,
            0.06236732006072998,
            0.0016672555357217789,
            -0.13424043357372284,
            -0.06636185944080353,
            0.1619628369808197,
            -0.2055041790008545,
            -0.08262038230895996,
            -0.037863101810216904,
            0.0707523375749588,
            0.02262425422668457,
            -0.18062938749790192,
            0.039266228675842285,
            -0.059110432863235474,
            -0.1570390909910202,
            0.08636600524187088,
            0.018014835193753242,
            0.04200271517038345,
            -0.006150308530777693,
            -0.0347941629588604,
            0.03313540667295456,
            -0.039646368473768234,
            0.06822303682565689,
            0.0247375275939703,
            0.06532461941242218,
            0.07665154337882996,
            0.20430445671081543,
            0.12236738950014114,
            -0.013876347802579403,
            0.14811797440052032,
            -0.21028411388397217,
            0.129657581448555,
            -0.1118234395980835,
            0.06265490502119064,
            0.03738944232463837,
            -0.0516032911837101,
            -0.06575760245323181,
            -0.13479278981685638,
            -0.053279343992471695,
            -0.02215108834207058,
            0.016381293535232544,
            -0.06612692773342133,
            0.06873209029436111,
            0.06185528263449669,
            -0.08753447234630585,
            -0.10162418335676193,
            -0.07999643683433533,
            0.18164542317390442,
            -0.0036848781164735556,
            0.01525439228862524,
            0.10412376374006271,
            -0.04238682985305786,
            -0.007935118861496449,
            -0.20736157894134521,
            0.14562535285949707,
            -0.06333530694246292,
            -0.06286803632974625,
            -0.13821911811828613,
            0.1490379422903061,
            0.07023170590400696,
            0.002584295580163598,
            -0.028957661241292953,
            -0.09169596433639526,
            -0.07729940861463547,
            0.0732424333691597,
            0.16362927854061127,
            0.0031051954720169306,
            0.15040183067321777,
            0.044991567730903625,
            0.002982106525450945,
            0.09164228290319443,
            0.20596426725387573,
            0.10490769147872925,
            -0.046078164130449295,
            -0.007372013293206692,
            -0.0038140497636049986,
            0.1912606805562973,
            0.036150190979242325,
            -0.005015597678720951,
            -0.05791813135147095,
            0.00705399364233017,
            -0.05786864832043648,
            0.16341355443000793,
            -0.18866106867790222,
            0.025080975145101547,
            0.16992148756980896,
            0.009745616465806961,
            -0.033724095672369,
            0.001797300181351602,
            0.03437083587050438,
            -0.10926971584558487,
            0.08771535754203796,
            -0.005337266717106104,
            0.014224361628293991,
            -0.13002179563045502,
            -0.021903134882450104,
            -0.04494515806436539,
            -0.02282857336103916,
            0.05118468031287193,
            0.05801009759306908,
            -0.025439318269491196,
            0.1204075887799263,
            0.0936831459403038,
            0.060904715210199356,
            -0.05161700397729874,
            -0.07778765261173248,
            -0.05110292136669159,
            -0.054602768272161484,
            0.044015564024448395,
            0.02177491784095764,
            0.01895642653107643,
            -0.015925144776701927,
            -0.05856269970536232,
            0.12428747862577438,
            0.14794938266277313,
            -0.02902684360742569,
            0.14865964651107788,
            -0.050993870943784714,
            -0.04029393568634987,
            0.05354080721735954,
            0.12992140650749207,
            -0.15989841520786285,
            -0.1090320572257042,
            0.029134539887309074,
            -0.03254441171884537,
            -0.1812460869550705,
            0.0966164618730545,
            -0.12746155261993408,
            -0.1736215204000473,
            0.05513598769903183,
            0.09857436269521713,
            0.0265403613448143,
            0.1273232251405716,
            -0.05929158627986908,
            -0.15124383568763733,
            0.16557537019252777,
            -0.012705338187515736,
            -0.030669786036014557,
            -0.133622944355011,
            0.19697602093219757,
            0.20007798075675964,
            -0.07932377606630325,
            0.19025306403636932,
            0.07265125215053558,
            0.07863229513168335,
            -0.004250214900821447,
            -0.20322416722774506,
            -0.09604379534721375,
            -0.10867621749639511,
            -0.12905330955982208,
            -0.09309767186641693,
            0.019850047305226326,
            0.003023483557626605,
            0.018394097685813904,
            -0.09523554146289825,
            -0.12229304015636444,
            0.051089443266391754,
            -0.05579487606883049,
            0.14766770601272583,
            0.11899609863758087,
            0.1941051185131073,
            -0.16550251841545105,
            -0.14713820815086365,
            -0.08515508472919464,
            -0.12543165683746338,
            -0.16395582258701324,
            0.1758480668067932,
            -0.0023811832070350647,
            0.14595989882946014,
            -0.092942014336586,
            -0.01941528171300888,
            0.07761301845312119,
            -0.09350600838661194,
            0.021492373198270798,
            -0.10219702869653702,
            -0.08963791280984879,
            -0.20015622675418854,
            -0.16004180908203125,
            0.0005008295411244035,
            -0.13801522552967072,
            -0.05222039669752121,
            -0.030878383666276932,
            0.04819650948047638,
            -0.0862933024764061,
            0.19811363518238068,
            -0.05306679755449295,
            0.04136107116937637,
            0.023315172642469406,
            0.10784133523702621,
            0.05291372537612915,
            0.07992293685674667,
            -0.021163349971175194,
            -0.00782525073736906,
            -0.026734450832009315,
            -0.09941812604665756,
            -0.08106672018766403,
            -0.011595302261412144,
            0.19842097163200378,
            0.0752781555056572,
            0.060933079570531845,
            0.014937288127839565,
            -0.19341395795345306,
            0.04960930347442627,
            0.03922475874423981,
            0.014595136977732182,
            0.12976878881454468,
            0.02676316164433956,
            -0.09235870093107224,
            -0.042011428624391556,
            -0.06653421372175217,
            -0.1454835832118988,
            0.021717755123972893,
            0.1080600917339325,
            -0.04462899640202522,
            0.04772206395864487,
            0.008232317864894867,
            -0.05105613172054291,
            -0.039447806775569916,
            0.04091215878725052,
            -0.15314650535583496,
            0.09919694066047668,
            0.1399632692337036,
            0.14033062756061554,
            0.16541145741939545,
            -0.04298638552427292,
            -0.11726240068674088,
            0.10551166534423828,
            -0.0417395643889904,
            -0.02724391035735607,
            -0.040275830775499344,
            -0.06590331345796585,
            -0.15459194779396057,
            -0.1515880972146988,
            -0.01973160170018673,
            -0.05401386320590973,
            -0.11519262939691544,
            0.001869269646704197,
            -0.14779028296470642,
            0.006741966120898724,
            -0.10438238084316254,
            -0.05405297130346298,
            0.09943805634975433,
            -0.008838212117552757,
            0.08758827298879623,
            -0.15070076286792755,
            -0.11847351491451263,
            -0.08321477472782135,
            -0.04133696109056473,
            0.08677514642477036,
            -0.049158673733472824,
            -0.0036379355005919933,
            0.13545969128608704,
            0.13101544976234436,
            -0.015911875292658806,
            0.007821537554264069,
            0.10021835565567017,
            0.1599484384059906,
            -0.08777789771556854,
            0.032608818262815475,
            -0.01058084424585104,
            -0.10566354542970657,
            0.02130437083542347,
            -0.008387193083763123,
            0.07860127836465836,
            0.11609569191932678,
            -0.1687607318162918,
            -0.05316722393035889,
            0.06831886619329453,
            -0.10746164619922638,
            -0.049130018800497055,
            -0.0495338961482048,
            0.10002981126308441,
            -0.16930042207241058,
            0.022503377869725227,
            0.10368247330188751,
            0.01156470738351345,
            0.0017080039251595736,
            -0.11470253765583038,
            0.04401107877492905,
            -0.16823838651180267,
            0.21541747450828552,
            -0.03980707749724388,
            0.12930983304977417,
            0.10396736115217209,
            -0.15646325051784515,
            0.2031540423631668,
            -0.03445635735988617,
            0.02247665636241436,
            -0.08499273657798767,
            0.16774548590183258,
            0.020159853622317314,
            -0.06437592208385468,
            -0.1897464245557785,
            -0.02327236533164978,
            -0.08500742167234421,
            -0.1598222702741623,
            0.11545146256685257,
            -0.05510418489575386,
            0.18628855049610138,
            -0.05324285477399826,
            0.13264046609401703,
            0.09419962763786316,
            -0.0797271803021431,
            -0.06051434203982353,
            -0.12121804058551788,
            0.13553960621356964,
            -0.05484142154455185,
            -0.08437681943178177,
            0.022853843867778778,
            0.056129392236471176,
            -0.028214480727910995,
            -0.18268784880638123,
            0.015782447531819344,
            -0.09782180935144424,
            -0.07151957601308823,
            0.00008996132964966819,
            -0.003495622193440795,
            -0.12127488106489182,
            -0.10518772900104523,
            0.09809110313653946,
            -0.08357866108417511,
            0.0041816988959908485,
            0.13381244242191315,
            -0.12575136125087738,
            -0.053869932889938354,
            -0.06545373052358627,
            -0.0036441332194954157,
            -0.05510566011071205,
            0.175224170088768,
            0.09873516857624054,
            -0.07794027030467987,
            0.04701756685972214,
            -0.026343384757637978,
            -0.13538667559623718,
            -0.052233628928661346,
            0.11670154333114624,
            0.04253825545310974,
            -0.05933385714888573,
            -0.07022987306118011,
            0.02418413758277893,
            -0.005352454725652933,
            -0.12030614912509918,
            -0.1818530261516571,
            0.07403301447629929,
            0.08002176880836487,
            -0.04490547254681587,
            -0.10254877060651779,
            -0.02043881081044674,
            0.022906731814146042,
            -0.057613492012023926,
            -0.016212094575166702,
            -0.1504153311252594,
            -0.2011849731206894,
            0.02574862539768219,
            -0.05160726606845856,
            -0.12170529365539551,
            0.061444882303476334,
            -0.008863767609000206,
            -0.04076159745454788,
            0.14305739104747772,
            -0.05863465368747711,
            -0.17511574923992157,
            -0.09266602993011475,
            -0.034351903945207596,
            -0.06719303131103516,
            -0.021148739382624626,
            -0.085283063352108,
            -0.1278245896100998,
            -0.12892581522464752,
            -0.078292615711689,
            0.07527775317430496,
            -0.09305622428655624,
            -0.11914333701133728,
            0.034322720021009445,
            0.03000219725072384,
            -0.10225044935941696,
            0.06608257442712784,
            -0.09864882379770279,
            -0.03278171271085739,
            0.12977133691310883,
            0.059039436280727386,
            0.18660660088062286,
            -0.05194903537631035,
            -0.19270622730255127,
            0.10265734046697617,
            0.08585163950920105,
            -0.037719693034887314,
            0.02003197744488716,
            -0.05059351772069931,
            -0.061508193612098694,
            0.06287778168916702,
            0.07612456381320953,
            0.1881752461194992,
            0.014993482269346714,
            0.03361621871590614,
            0.1041845753788948,
            0.14877155423164368,
            0.1472577005624771,
            0.001531781628727913,
            0.029848258942365646,
            -0.03683089837431908,
            -0.029605433344841003,
            -0.09246423095464706,
            0.12417643517255783,
            0.0016597799258306623,
            -0.019948724657297134,
            -0.0563560426235199,
            -0.06307186931371689,
            -0.03163608908653259,
            0.17398126423358917,
            0.05896427109837532,
            -0.037108175456523895,
            0.13866502046585083,
            -0.01648060604929924,
            -0.11679500341415405,
            0.03072456270456314,
            -0.09184207022190094,
            0.0966181829571724,
            0.03953348100185394,
            -0.06136887148022652,
            0.18561194837093353,
            -0.14593510329723358,
            -0.0852728933095932,
            0.19480840861797333,
            0.05547759309411049,
            0.016104120761156082,
            -0.005008968524634838,
            0.05088723078370094,
            0.14200854301452637,
            -0.17017585039138794,
            0.0027328249998390675,
            -0.04499109461903572,
            0.06507634371519089,
            0.014759340323507786,
            0.18252705037593842,
            -0.04340091720223427,
            -0.14889764785766602,
            0.12817871570587158,
            0.09430201351642609,
            -0.09129112213850021,
            0.10598572343587875,
            0.0896403044462204,
            0.09197288751602173,
            -0.03534671664237976,
            0.08137886226177216,
            -0.16511379182338715,
            -0.026205845177173615,
            -0.056579653173685074,
            -0.006975261494517326,
            -0.12176529318094254,
            0.09898658841848373,
            0.051367659121751785,
            -0.08624640107154846,
            -0.017611132934689522,
            -0.07760736346244812,
            -0.06644304096698761,
            0.19363529980182648,
            -0.05977414920926094,
            -0.11535106599330902,
            -0.010084870271384716,
            0.03515469282865524,
            -0.022265629842877388,
            -0.11844820529222488,
            -0.13743653893470764,
            0.009145103394985199,
            -0.00677559245377779,
            -0.0314498208463192,
            0.0687268078327179,
            0.09191669523715973,
            0.055629804730415344,
            -0.01877952739596367,
            -0.013722428120672703,
            -0.13016952574253082,
            0.08303231000900269,
            0.059278346598148346,
            0.20026208460330963,
            0.06230789050459862,
            0.2161286473274231,
            -0.04570454731583595,
            -0.04752860963344574,
            -0.07654987275600433,
            -0.025351615622639656,
            0.14641202986240387,
            0.12068642675876617,
            0.04086419567465782,
            0.11749988794326782,
            -0.12587988376617432,
            0.1253671795129776,
            -0.0690651684999466,
            -0.10125848650932312,
            -0.10670652985572815,
            -0.060605861246585846,
            0.19953978061676025,
            0.12391553074121475,
            0.10733076930046082,
            0.09081071615219116,
            -0.002772627165541053,
            -0.04352191835641861,
            -0.1751600205898285,
            -0.05566369369626045,
            0.05138394236564636,
            -0.043484508991241455,
            -0.0015892174560576677,
            -0.033325061202049255,
            0.0333116240799427,
            -0.10849062353372574,
            -0.07906169444322586,
            0.09862453490495682,
            -0.053265221416950226,
            -0.03211803734302521,
            0.0497562512755394,
            -0.18631897866725922,
            0.04448224604129791,
            0.008715893141925335,
            -0.17895202338695526,
            0.06435590237379074,
            0.09508111327886581,
            -0.06776031106710434,
            -0.1593124270439148,
            0.05094010755419731,
            0.1527501791715622,
            0.15655659139156342,
            -0.00864877924323082,
            0.12079877406358719,
            0.04787192493677139,
            -0.08846397697925568,
            0.17373396456241608,
            -0.0939207449555397,
            -0.11181437224149704,
            -0.014627117663621902,
            -0.09541815519332886,
            -0.03207269310951233,
            -0.14698271453380585,
            0.0626678541302681,
            0.12915737926959991,
            -0.12003714591264725,
            0.1703808754682541,
            0.014772155322134495,
            0.16982124745845795,
            -0.006349463015794754,
            -0.11054901033639908,
            0.06059076637029648,
            -0.05060860887169838,
            0.0934133231639862,
            0.0038071698509156704,
            -0.11066753417253494,
            0.1266966313123703,
            -0.002215645043179393,
            -0.023888306692242622,
            0.033251579850912094,
            0.0761827901005745,
            0.1625848263502121,
            -0.01477995328605175,
            -0.030697746202349663,
            0.07963994145393372,
            0.09451203793287277,
            -0.02845020964741707,
            -0.032742518931627274,
            0.04451517015695572,
            -0.04690735787153244,
            0.01163319032639265,
            -0.15895622968673706,
            -0.033682480454444885,
            0.11788306385278702,
            0.1195359155535698,
            0.05345950648188591,
            -0.13949579000473022,
            0.007894305512309074,
            -0.011709324084222317,
            0.00433157104998827,
            -0.025287099182605743,
            0.02246539294719696,
            0.01835774816572666,
            -0.09564066678285599,
            -0.022600384429097176,
            0.10494562983512878,
            0.19164374470710754,
            0.1258801370859146,
            -0.04964889958500862,
            0.11471384018659592,
            0.05873626098036766,
            0.028927575796842575,
            -0.04620722308754921,
            -0.18668442964553833,
            -0.09149017184972763,
            0.16373486816883087,
            -0.015173695050179958,
            -0.04858876019716263,
            0.1059173196554184,
            0.02361442893743515,
            0.19962738454341888,
            0.009761875495314598,
            0.03689529746770859,
            0.13323518633842468,
            0.02045748010277748,
            -0.03209828957915306,
            -0.04481078311800957,
            0.058489151298999786,
            0.07884734123945236,
            -0.022549232468008995,
            0.09235962480306625,
            0.10389729589223862,
            -0.04832767695188522,
            0.061309609562158585,
            -0.19677506387233734,
            0.16717062890529633,
            -0.06097500026226044,
            0.02935401350259781,
            0.09780628234148026,
            0.17711354792118073,
            0.10794810950756073,
            -0.022081097587943077,
            0.00819486565887928,
            0.008381227031350136,
            0.1082022413611412,
            0.015218033455312252,
            -0.19658087193965912,
            -0.055766597390174866,
            0.07857256382703781,
            -0.1268473118543625,
            0.010832046158611774,
            0.12996535003185272,
            0.10514718294143677,
            0.019401829689741135,
            -0.1596725881099701,
            -0.10833070427179337,
            0.074616938829422,
            -0.05615987628698349,
            0.16616487503051758,
            0.014560659416019917,
            0.04289321228861809,
            -0.036985043436288834,
            -0.06902001798152924,
            -0.1531933844089508,
            -0.06090257316827774,
            0.017810791730880737,
            0.1979675590991974,
            -0.010736415162682533,
            -0.021175116300582886,
            0.14681284129619598,
            -0.17480333149433136,
            0.0005331230931915343,
            -0.08826445788145065,
            0.059558309614658356,
            -0.17593249678611755,
            0.09725231677293777,
            0.07248345762491226,
            -0.12964840233325958,
            -0.009059485979378223,
            0.004215384367853403,
            -0.07906705886125565,
            -0.019392715767025948,
            0.06383426487445831,
            0.11403774470090866,
            -0.0033518257550895214,
            -0.06496131420135498,
            -0.033144496381282806,
            0.10405588150024414,
            -0.15820448100566864,
            0.02848699875175953,
            -0.12420595437288284,
            0.04818074777722359,
            -0.1348813772201538,
            -0.03945060446858406,
            -0.06339944154024124,
            0.07404430210590363,
            -0.05788426473736763,
            -0.08004967868328094,
            -0.031037477776408195,
            0.11243360489606857,
            -0.09458687901496887,
            -0.07019869238138199,
            0.06022251397371292,
            -0.18486148118972778,
            -0.010515464469790459,
            0.19093717634677887,
            0.09634849429130554,
            -0.036377500742673874,
            0.015514803119003773,
            0.05401596799492836,
            -0.20345214009284973,
            -0.018056746572256088,
            -0.0009010489447973669,
            -0.034360289573669434,
            -0.13452808558940887,
            0.01615213230252266,
            0.1440304070711136,
            -0.17446200549602509,
            0.1407579928636551,
            -0.13675212860107422,
            -0.07872134447097778,
            -0.032120231539011,
            0.006799052469432354,
            0.06729067116975784,
            -0.1974508911371231,
            -0.06651351600885391,
            -0.051586516201496124,
            -0.13765649497509003,
            0.06755661964416504,
            0.040287960320711136,
            -0.020656796172261238,
            0.09091023355722427,
            0.08100908249616623,
            -0.19436664879322052,
            -0.08794265985488892,
            0.06836844235658646,
            -0.0573495589196682,
            0.02059604600071907,
            0.09354950487613678,
            0.13359074294567108,
            -0.06060214713215828,
            0.02059066668152809,
            -0.015719018876552582,
            -0.1442914456129074,
            0.061830297112464905,
            -0.07094457745552063,
            -0.1708395630121231,
            0.06233697012066841,
            0.02172190696001053,
            0.0033539747819304466,
            0.005185267422348261,
            0.006000589579343796,
            -0.11765429377555847,
            0.15173304080963135,
            -0.07683870941400528,
            0.0023656769189983606,
            0.0579707957804203,
            0.027647165581583977,
            -0.06878320127725601,
            0.12167748063802719,
            -0.04064849391579628,
            -0.15374556183815002,
            -0.1027490496635437,
            -0.14262986183166504,
            0.028472494333982468,
            -0.08975687623023987,
            0.031031399965286255,
            -0.14199474453926086,
            0.06684724986553192,
            -0.15786398947238922,
            -0.03221716731786728,
            -0.08156915754079819,
            0.032154276967048645,
            -0.07054251432418823,
            0.1511249989271164,
            -0.2117113322019577,
            -0.000656407792121172,
            -0.07146915048360825,
            0.11718057841062546,
            0.03754250332713127,
            -0.023665711283683777,
            0.05727506801486015,
            -0.013303125277161598,
            0.02868720144033432,
            0.16568470001220703,
            0.0409611351788044,
            -0.021349230781197548,
            -0.02381344884634018,
            -0.024171339347958565,
            0.1062600240111351,
            0.13436977565288544,
            0.005911376792937517,
            -0.08601273596286774,
            0.003085697302594781,
            -0.024439819157123566,
            -0.015972070395946503,
            -0.04589362069964409,
            0.024831414222717285,
            -0.043915290385484695,
            0.17192217707633972,
            0.08057285845279694,
            -0.1007617637515068,
            0.050295617431402206,
            0.08959274739027023,
            0.108782097697258,
            0.15014143288135529,
            0.08969060331583023,
            0.009853681549429893,
            -0.024731414392590523,
            -0.08212421089410782,
            0.08108928054571152,
            -0.06455761939287186,
            -0.040702905505895615,
            -0.0469408854842186,
            0.15867161750793457,
            0.1840164065361023,
            -0.06832107901573181,
            -0.1051931157708168,
            0.04497421532869339,
            0.06328591704368591,
            -0.033035069704055786,
            0.020220432430505753,
            0.024478135630488396,
            0.14422596991062164,
            -0.060934171080589294,
            0.04941016808152199,
            -0.12440412491559982,
            0.08587462455034256,
            -0.07279761880636215,
            -0.13675183057785034,
            -0.08940798044204712,
            0.08117116242647171,
            0.05057070776820183,
            -0.025526292622089386,
            -0.12090222537517548,
            -0.12479015439748764,
            -0.12971271574497223,
            0.029716433957219124,
            -0.12346275895833969,
            -0.10828808695077896,
            -0.044526487588882446,
            -0.18852835893630981,
            0.021246911957859993,
            -0.1711035668849945,
            -0.05674222484230995,
            0.07857975363731384,
            0.065257228910923,
            0.09627997130155563,
            -0.11397147178649902,
            -0.0720265656709671,
            -0.02206137217581272,
            0.1300535500049591,
            -0.05438867583870888,
            0.15899844467639923,
            -0.10893529653549194,
            -0.005652033258229494,
            -0.09091290831565857,
            0.1683429777622223,
            -0.003977872431278229,
            -0.1619195193052292,
            -0.01518287230283022,
            0.11941222101449966,
            0.056496817618608475,
            0.004258685279637575,
            -0.09302864968776703,
            0.04005398228764534,
            0.08746767789125443,
            0.03780592605471611,
            -0.07584480941295624,
            0.01013685017824173,
            -0.07990000396966934,
            -0.10004245489835739,
            -0.12993615865707397,
            -0.02049368992447853,
            -0.10911913961172104,
            0.08931523561477661,
            -0.00095303327543661,
            -0.1929824948310852,
            0.005428717937320471,
            0.02445422112941742,
            0.19424624741077423,
            0.0949769914150238,
            0.09444815665483475,
            -0.010705163702368736,
            -0.20662616193294525,
            -0.00019213858467992395,
            -0.1076250970363617,
            -0.20950709283351898,
            0.04893011227250099,
            -0.004268035292625427,
            0.06046294793486595,
            -0.03882662579417229,
            -0.1269429475069046,
            0.051152460277080536,
            0.13277460634708405,
            -0.058507271111011505,
            -0.029070070013403893,
            0.0979759618639946,
            0.07012499123811722,
            -0.05884388089179993,
            0.13591115176677704,
            0.21663226187229156,
            0.01564730703830719,
            -0.030063573271036148,
            0.0823143720626831,
            -0.028541164472699165,
            0.14274084568023682,
            -0.11548216640949249,
            0.06491919606924057,
            0.17993813753128052,
            0.07510241121053696,
            -0.09853734076023102,
            0.01977160945534706,
            -0.11409714818000793,
            0.09865837544202805,
            0.01665397174656391,
            -0.04803158715367317,
            -0.0031022371258586645,
            -0.07022827118635178,
            0.07298929989337921,
            0.018090257421135902,
            -0.03720039501786232,
            0.00558661762624979,
            0.018131757155060768,
            -0.0854201540350914,
            0.02781469002366066,
            0.014532798901200294,
            0.12865599989891052,
            -0.22298568487167358,
            0.11783916503190994,
            0.03829100728034973,
            -0.11126600205898285,
            -0.10105126351118088,
            0.18358950316905975,
            -0.009858650155365467,
            -0.12842527031898499,
            0.08476047217845917,
            0.022582586854696274,
            -0.02961144782602787,
            0.18062826991081238,
            0.0107636209577322,
            0.02459891512989998,
            -0.07091309875249863,
            -0.0201652143150568,
            0.14877711236476898,
            -0.06407074630260468,
            0.048576224595308304,
            0.029665274545550346,
            0.0008257896988652647,
            0.009616597555577755,
            0.026436006650328636,
            0.06337066739797592,
            0.028394149616360664,
            -0.1495935469865799,
            0.1236700564622879,
            0.07699348032474518,
            -0.13854607939720154,
            -0.16943039000034332,
            0.0849439725279808,
            -0.05049830675125122,
            -0.11194741725921631,
            0.11299126595258713,
            0.09122254699468613,
            0.09427668899297714,
            0.16774801909923553,
            0.04145854339003563,
            -0.3369804918766022,
            -0.2952442467212677,
            -0.10615876317024231,
            0.1727374643087387,
            -0.24398528039455414,
            -0.02392703853547573,
            0.0965552106499672,
            0.0577043853700161,
            -0.03125900775194168,
            -0.08792059123516083,
            0.14832153916358948,
            -0.06586042046546936,
            0.043139055371284485,
            0.022462422028183937,
            0.02170637995004654,
            -0.007241971790790558,
            -0.1719590723514557,
            -0.0690157487988472,
            0.021240077912807465,
            0.05272853747010231,
            0.015127993188798428,
            -0.18024618923664093,
