{
  "timestamp": "2026-02-05T06:44:33.494Z",
  "episode": 60,
  "hypothesis": "EXP-017: N-step returns n=3 for better credit assignment",
  "config": {
    "symbols": [
      "BTCUSDT",
      "ETHUSDT",
      "SOLUSDT"
    ],
    "numAgents": 3,
    "trainSplit": 0.8,
    "monthsOfData": 6,
    "episodes": 120,
    "episodeLength": 1000,
    "trainFrequency": 4,
    "batchSize": 64,
    "bufferSize": 50000,
    "dqn": {
      "inputSize": 42,
      "hiddenLayers": [
        128,
        64,
        32
      ],
      "outputSize": 5,
      "learningRate": 0.00028,
      "gamma": 0.95,
      "tau": 0.01,
      "epsilonStart": 1,
      "epsilonEnd": 0.16,
      "epsilonDecay": 0.995,
      "dropout": 0.38,
      "l2Regularization": 0.028,
      "useBatchNorm": true,
      "gradientClipNorm": 0.5,
      "useHuberLoss": true,
      "huberDelta": 1,
      "actionBias": true,
      "actionBiasDecay": 0.997,
      "useDoubleDQN": true,
      "useLinearEpsilonDecay": true,
      "totalExpectedEpisodes": 120,
      "rewardBasedEpsilonAdjustment": true,
      "lowWinRateThreshold": 0.4,
      "epsilonBoostAmount": 0.1,
      "useDueling": false,
      "useNoisyNetworks": false,
      "noisySigmaInit": 0.5,
      "symbolEpsilonScaling": {
        "BTCUSDT": 1.15,
        "ETHUSDT": 1,
        "SOLUSDT": 0.95
      }
    },
    "nstep": {
      "enabled": true,
      "nSteps": 3,
      "gamma": 0.95
    },
    "per": {
      "enabled": false,
      "alpha": 0.6,
      "beta": 0.4,
      "betaIncrement": 0.001
    },
    "env": {
      "initialCapital": 10000,
      "positionSizePercent": 0.1,
      "commission": 0.001,
      "slippage": 0.0005,
      "lookbackPeriod": 100,
      "maxBarsPerEpisode": null,
      "maxDrawdownLimit": 0.15,
      "maxBarsInPosition": 100,
      "kbConfig": {
        "enabled": true,
        "addKBFeatures": true,
        "useKBRewardShaping": true
      }
    },
    "earlyStoppingPatience": 25,
    "minImprovement": 0.01,
    "logInterval": 10,
    "evalInterval": 20
  },
  "valSharpe": -7.22837850349774,
  "perSymbolResults": [
    {
      "symbol": "BTCUSDT",
      "trades": 8,
      "winRate": 25,
      "pnl": 5.6493985161831475,
      "sharpe": 8.741499551051476
    },
    {
      "symbol": "ETHUSDT",
      "trades": 10,
      "winRate": 30,
      "pnl": -32.55775264208424,
      "sharpe": -30.4410993120438
    },
    {
      "symbol": "SOLUSDT",
      "trades": 11,
      "winRate": 45.45454545454545,
      "pnl": -0.039990168154652395,
      "sharpe": 0.014464250499107798
    }
  ],
  "numAgents": 3,
  "weights": [
    {
      "weights": [
        {
          "shape": [
            42,
            128
          ],
          "data": [
            0.024568753316998482,
            0.06881153583526611,
            0.16213499009609222,
            0.07881143689155579,
            -0.12204811722040176,
            -0.11782136559486389,
            -0.14982999861240387,
            0.12031719088554382,
            -0.07796420902013779,
            0.07764840126037598,
            0.12294911593198776,
            0.07772928476333618,
            0.08664655685424805,
            0.040268704295158386,
            -0.042592063546180725,
            -0.009259535931050777,
            0.031254131346940994,
            0.15019693970680237,
            0.027448317036032677,
            -0.024817174300551414,
            0.026114825159311295,
            0.042667124420404434,
            0.26697656512260437,
            0.010675833560526371,
            -0.039937812834978104,
            0.1486053466796875,
            -0.05156673491001129,
            -0.05164968967437744,
            0.2199845165014267,
            -0.10511786490678787,
            0.05283172428607941,
            -0.12149855494499207,
            -0.020869838073849678,
            0.07963604480028152,
            -0.11201038956642151,
            0.06148291006684303,
            -0.07470674067735672,
            0.025551216676831245,
            -0.05586981028318405,
            -0.019304044544696808,
            -0.12023738771677017,
            0.07567645609378815,
            -0.16794031858444214,
            -0.057908106595277786,
            -0.05031905323266983,
            0.16256940364837646,
            -0.12573359906673431,
            0.11732504516839981,
            0.044130489230155945,
            -0.18990394473075867,
            -0.10268165171146393,
            -0.06655019521713257,
            -0.004080180078744888,
            0.0248824805021286,
            -0.048343196511268616,
            -0.03216258063912392,
            0.08819900453090668,
            -0.13128359615802765,
            0.02822122536599636,
            0.08206143975257874,
            -0.0017925346037372947,
            0.06925184279680252,
            -0.08030195534229279,
            0.058788660913705826,
            -0.10075271129608154,
            0.11647947877645493,
            -0.04393971711397171,
            -0.12541881203651428,
            -0.03029869683086872,
            -0.07594054192304611,
            -0.044241759926080704,
            0.07578406482934952,
            -0.04430169612169266,
            0.03330780193209648,
            -0.06603652983903885,
            0.1915450394153595,
            -0.016761822625994682,
            0.04682711884379387,
            -0.1092972606420517,
            -0.0021337000653147697,
            0.060048528015613556,
            -0.0021998127922415733,
            0.09171483665704727,
            0.07407873123884201,
            -0.11995384842157364,
            -0.09125503897666931,
            -0.17463922500610352,
            0.017380109056830406,
            0.016322260722517967,
            -0.15292051434516907,
            0.030669938772916794,
            0.3325839042663574,
            0.10849138349294662,
            -0.04616664722561836,
            0.10342204570770264,
            -0.1733303964138031,
            0.031914982944726944,
            -0.10962029546499252,
            -0.053972579538822174,
            -0.06283877044916153,
            0.07917667180299759,
            -0.0654510110616684,
            0.055377811193466187,
            0.2137613743543625,
            -0.07179151475429535,
            -0.12561465799808502,
            0.004161504562944174,
            0.04949537292122841,
            0.2030515968799591,
            -0.025657445192337036,
            -0.011182217858731747,
            0.04475399851799011,
            0.17960099875926971,
            -0.0024399729445576668,
            0.17865100502967834,
            0.08325459063053131,
            -0.051129527390003204,
            -0.012252666987478733,
            0.04111871495842934,
            0.027973448857665062,
            -0.0667787417769432,
            -0.03815493732690811,
            -0.07684694230556488,
            0.2568845748901367,
            0.06647537648677826,
            -0.026573460549116135,
            0.02675025910139084,
            0.1224823072552681,
            -0.03846113383769989,
            -0.025322919711470604,
            -0.03124304860830307,
            -0.07837646454572678,
            0.07576103508472443,
            -0.02578692138195038,
            -0.10238029062747955,
            0.05059930309653282,
            0.14117531478405,
            0.21194051206111908,
            0.08136606961488724,
            -0.13537701964378357,
            -0.09775859862565994,
            0.05589483305811882,
            0.02948700450360775,
            -0.013137970119714737,
            0.08710026741027832,
            0.11807505041360855,
            0.03598611056804657,
            -0.11965527385473251,
            -0.1009468138217926,
            0.05543499439954758,
            0.17677932977676392,
            -0.16039901971817017,
            0.047341205179691315,
            -0.02577984891831875,
            0.09354400634765625,
            0.07667258381843567,
            0.10350394248962402,
            -0.09525171667337418,
            0.019182614982128143,
            0.04935811087489128,
            0.029041264206171036,
            0.1180700734257698,
            -0.11061381548643112,
            -0.14099474251270294,
            0.08276140689849854,
            0.033054452389478683,
            -0.11708170920610428,
            -0.012706249952316284,
            0.0073221465572714806,
            0.07612836360931396,
            -0.15049780905246735,
            -0.14263290166854858,
            0.05209910124540329,
            0.14887909591197968,
            -0.11277376115322113,
            -0.02287699095904827,
            -0.1269625574350357,
            -0.017807206138968468,
            0.10477139055728912,
            -0.05688793584704399,
            0.05123661458492279,
            0.0560883954167366,
            0.06722240149974823,
            -0.005667468998581171,
            0.07774923741817474,
            -0.011465617455542088,
            0.009540842846035957,
            -0.022146601229906082,
            0.09372915327548981,
            0.13189202547073364,
            -0.025701139122247696,
            0.15570533275604248,
            0.10049077123403549,
            0.16196078062057495,
            0.16354139149188995,
            0.17495644092559814,
            0.1717926561832428,
            -0.016291294246912003,
            0.09644030779600143,
            0.07836207747459412,
            0.1125294417142868,
            -0.07174596190452576,
            0.08132109045982361,
            -0.10171713680028915,
            0.13424281775951385,
            -0.06818004697561264,
            0.004039591643959284,
            0.08348001539707184,
            0.003297230461612344,
            0.04025041684508324,
            0.10909947007894516,
            -0.14338238537311554,
            0.12893560528755188,
            0.144919291138649,
            0.001700263237580657,
            0.009699052199721336,
            -0.0070066326297819614,
            0.02822883613407612,
            0.21380266547203064,
            0.08521498739719391,
            -0.18845437467098236,
            -0.13234911859035492,
            -0.04445408657193184,
            0.12834587693214417,
            -0.11656945943832397,
            0.19382618367671967,
            0.12843023240566254,
            0.02966923452913761,
            -0.017900196835398674,
            0.0019655076321214437,
            -0.10099127143621445,
            -0.022155195474624634,
            0.041639234870672226,
            -0.17833681404590607,
            0.010315955616533756,
            0.13435277342796326,
            0.017618319019675255,
            0.030165430158376694,
            0.2222054898738861,
            0.0059190732426941395,
            -0.10905560106039047,
            0.0905933529138565,
            0.15007679164409637,
            0.059170182794332504,
            -0.028878483921289444,
            0.11354891955852509,
            -0.1327236145734787,
            0.056362319737672806,
            -0.0058871484361588955,
            -0.032114606350660324,
            0.06762292236089706,
            0.17598067224025726,
            0.09517969936132431,
            -0.05806334316730499,
            0.030181029811501503,
            -0.15024329721927643,
            -0.13323350250720978,
            0.07197625935077667,
            -0.07062599062919617,
            -0.09549252688884735,
            -0.07354669272899628,
            0.07723551988601685,
            0.2021729201078415,
            0.14602695405483246,
            -0.07435934990644455,
            -0.20725227892398834,
            0.009169530123472214,
            0.0316087044775486,
            -0.021342072635889053,
            -0.08418293297290802,
            -0.053149815648794174,
            -0.05177179351449013,
            0.042907364666461945,
            -0.018766168504953384,
            0.00885858479887247,
            0.024715758860111237,
            0.08877985924482346,
            0.03396053612232208,
            -0.0433591865003109,
            -0.07954714447259903,
            -0.18271109461784363,
            0.02104976214468479,
            -0.14323358237743378,
            0.08892988413572311,
            0.049229733645915985,
            -0.009640013799071312,
            -0.1807936131954193,
            -0.021571926772594452,
            -0.14127252995967865,
            0.06270059198141098,
            -0.16576915979385376,
            -0.023389745503664017,
            0.0023266132920980453,
            -0.15270370244979858,
            -0.1087011843919754,
            -0.03485488146543503,
            -0.0014324112562462687,
            -0.18090948462486267,
            0.09082549810409546,
            0.02918916381895542,
            -0.050381843000650406,
            0.06972574442625046,
            0.09136752039194107,
            0.16463033854961395,
            -0.004605540540069342,
            -0.09388678520917892,
            0.10976996272802353,
            0.13783298432826996,
            -0.03264431655406952,
            -0.1443553864955902,
            0.020905686542391777,
            0.08577901124954224,
            0.09038444608449936,
            0.07879295945167542,
            -0.05378428101539612,
            0.03619193658232689,
            -0.027680998668074608,
            -0.025347037240862846,
            -0.030625658109784126,
            -0.19079354405403137,
            -0.0646047368645668,
            -0.07600492984056473,
            0.13433042168617249,
            -0.09388097375631332,
            -0.1759241670370102,
            0.014102361164987087,
            0.11999852955341339,
            0.07156628370285034,
            -0.21900157630443573,
            -0.10843735188245773,
            0.08887853473424911,
            0.16138948500156403,
            0.027327006682753563,
            0.0954088643193245,
            -0.027987012639641762,
            -0.023396577686071396,
            -0.1430511176586151,
            0.020743902772665024,
            -0.03721602261066437,
            0.042651500552892685,
            0.12111645191907883,
            -0.09443102777004242,
            -0.0002499147376511246,
            -0.0786832720041275,
            0.04026899114251137,
            0.1455613076686859,
            0.0023568784818053246,
            -0.009968592785298824,
            0.17320801317691803,
            0.032438308000564575,
            0.0028548988047987223,
            -0.014585189521312714,
            -0.1980632245540619,
            -0.10278153419494629,
            -0.15797005593776703,
            0.0942750871181488,
            0.009510896168649197,
            -0.029773762449622154,
            0.028281642124056816,
            0.14489199221134186,
            -0.08814847469329834,
            -0.250471293926239,
            0.05466277897357941,
            0.021377883851528168,
            -0.19887202978134155,
            -0.1901942938566208,
            -0.07795542478561401,
            -0.05921260267496109,
            -0.15399864315986633,
            0.03280017524957657,
            0.11122380197048187,
            0.17064528167247772,
            0.029751112684607506,
            -0.18552137911319733,
            -0.1586008071899414,
            0.03376561775803566,
            0.034082621335983276,
            -0.05823714658617973,
            0.013491771183907986,
            0.09843301773071289,
            -0.09694278240203857,
            0.10308847576379776,
            -0.014826339669525623,
            -0.09253530949354172,
            0.12422507256269455,
            0.1391577422618866,
            0.08125929534435272,
            -0.039643749594688416,
            -0.020531758666038513,
            0.1407211720943451,
            -0.005108763463795185,
            -0.11778085678815842,
            0.14149978756904602,
            0.20553286373615265,
            0.17330344021320343,
            0.06437265872955322,
            -0.0027499329298734665,
            -0.03626040369272232,
            -0.11871376633644104,
            -0.07299236953258514,
            -0.0666399821639061,
            -0.044920701533555984,
            -0.062398623675107956,
            0.025385810062289238,
            0.059792906045913696,
            -0.026651840656995773,
            0.1035139337182045,
            0.09235085546970367,
            0.1709820032119751,
            0.227177232503891,
            0.11756431311368942,
            -0.021253032609820366,
            -0.03169950097799301,
            0.10056573152542114,
            -0.02263645827770233,
            0.06658486276865005,
            0.00990594644099474,
            0.008430154994130135,
            0.07881287485361099,
            0.21036994457244873,
            0.05518113821744919,
            0.09342830628156662,
            -0.04416919872164726,
            -0.014713922515511513,
            0.019936714321374893,
            0.11887219548225403,
            -0.12151550501585007,
            0.002564766677096486,
            -0.1948346644639969,
            -0.06278246641159058,
            0.18312260508537292,
            0.2131597250699997,
            0.07073970139026642,
            -0.024973303079605103,
            0.05175706371665001,
            0.06576330214738846,
            -0.07190249115228653,
            -0.0912286564707756,
            -0.09137570112943649,
            -0.03209434822201729,
            0.13966935873031616,
            -0.08713988214731216,
            -0.20942114293575287,
            0.016673505306243896,
            0.16098284721374512,
            0.10764345526695251,
            0.053928956389427185,
            -0.05551479384303093,
            -0.12102381139993668,
            0.0550498329102993,
            -0.08067824691534042,
            0.07420037686824799,
            0.19628790020942688,
            -0.01637987606227398,
            0.006912927608937025,
            -0.014408060349524021,
            -0.15354566276073456,
            -0.06958676874637604,
            -0.03692402318120003,
            -0.08092062175273895,
            0.11580110341310501,
            0.15069900453090668,
            0.0031409934163093567,
            -0.14477942883968353,
            -0.14826138317584991,
            -0.2659204304218292,
            0.09000691026449203,
            0.06452516466379166,
            0.06529887020587921,
            0.11766456067562103,
            -0.08017190545797348,
            -0.014074428007006645,
            -0.09307422488927841,
            0.05784899741411209,
            -0.01975030079483986,
            -0.050265997648239136,
            0.18544872105121613,
            -0.04076589271426201,
            -0.05443467199802399,
            -0.07313811779022217,
            0.10653063654899597,
            -0.003557696007192135,
            0.04521849751472473,
            0.08132856339216232,
            0.14183422923088074,
            -0.22807565331459045,
            -0.08062165975570679,
            -0.02468392625451088,
            0.08077717572450638,
            -0.008426913991570473,
            -0.06649987399578094,
            0.11298944801092148,
            -0.12346941977739334,
            -0.04758349061012268,
            0.02880455181002617,
            0.14218951761722565,
            0.05469828471541405,
            -0.04252837225794792,
            -0.08403418213129044,
            -0.15404199063777924,
            0.1363844871520996,
            -0.1498998999595642,
            -0.13601256906986237,
            0.15001922845840454,
            0.06615940481424332,
            -0.0728357657790184,
            0.11524349451065063,
            0.005453113466501236,
            -0.030926890671253204,
            -0.00322416122071445,
            -0.17746762931346893,
            0.03301721438765526,
            0.048249877989292145,
            0.11805711686611176,
            -0.013690723106265068,
            0.045813657343387604,
            -0.06495215743780136,
            -0.013214830309152603,
            -0.04294658824801445,
            0.1918860673904419,
            -0.05984131619334221,
            -0.016084812581539154,
            -0.07839161157608032,
            0.07722851634025574,
            0.01692529395222664,
            -0.1793535053730011,
            -0.12607261538505554,
            0.2215196192264557,
            -0.0469304583966732,
            0.000898616504855454,
            0.04280778020620346,
            0.08940800279378891,
            -0.12107037752866745,
            0.04716172069311142,
            -0.04828554764389992,
            -0.015130162239074707,
            -0.12204819172620773,
            0.01326990220695734,
            0.1363932192325592,
            -0.04607771337032318,
            -0.060170721262693405,
            0.033900994807481766,
            -0.026552114635705948,
            0.08113313466310501,
            0.05008763074874878,
            0.04707528278231621,
            0.03625931218266487,
            0.04149634391069412,
            0.18412122130393982,
            -0.08196971565485,
            0.059809986501932144,
            -0.16565003991127014,
            0.03484339639544487,
            -0.17875804007053375,
            -0.015082805417478085,
            0.0013018958270549774,
            -0.14065289497375488,
            -0.1430787891149521,
            0.0847964882850647,
            0.022896992042660713,
            -0.1415630280971527,
            -0.0560896061360836,
            0.12115437537431717,
            -0.07532647252082825,
            -0.10247133672237396,
            -0.2253655344247818,
            -0.08167558163404465,
            0.1695442646741867,
            -0.03765037655830383,
            0.11062992364168167,
            -0.11054372042417526,
            -0.04869098961353302,
            -0.07177432626485825,
            0.09520705044269562,
            -0.1884472519159317,
            -0.12259744852781296,
            0.10566960275173187,
            -0.05347957834601402,
            0.029816381633281708,
            0.06891538202762604,
            0.12214662879705429,
            -0.043994877487421036,
            -0.17582102119922638,
            0.1228887066245079,
            0.13308338820934296,
            -0.1520228534936905,
            -0.10411576926708221,
            -0.004090160597115755,
            0.051093414425849915,
            -0.0405811183154583,
            -0.080155149102211,
            0.1599719524383545,
            -0.27414441108703613,
            -0.07288987189531326,
            0.16600501537322998,
            0.06938043236732483,
            0.07433135062456131,
            0.011313130147755146,
            -0.04312603548169136,
            0.15342408418655396,
            0.032398052513599396,
            -0.14700666069984436,
            0.17098891735076904,
            -0.011058350093662739,
            -0.198429137468338,
            0.04561324417591095,
            0.020764777436852455,
            0.00032487636781297624,
            0.09342950582504272,
            -0.020052487030625343,
            -0.06948281079530716,
            0.04471994936466217,
            0.15953411161899567,
            0.15638591349124908,
            0.041444435715675354,
            -0.06309273838996887,
            -0.012995652854442596,
            -0.02841798961162567,
            -0.07026363909244537,
            0.08036109805107117,
            -0.04640805348753929,
            0.012760955840349197,
            -0.013805472292006016,
            -0.07413483411073685,
            0.19320330023765564,
            0.03107236698269844,
            0.19862395524978638,
            0.07328376919031143,
            -0.006378211081027985,
            -0.2951323390007019,
            -0.02810557186603546,
            -0.09188391268253326,
            0.1702299267053604,
            -0.08663982897996902,
            0.039828021079301834,
            0.06964294612407684,
            -0.0453261099755764,
            0.16687171161174774,
            -0.0007249262416735291,
            -0.09152334928512573,
            0.045082174241542816,
            0.1291905641555786,
            0.03753058612346649,
            0.13706976175308228,
            -0.16639403998851776,
            0.0028677056543529034,
            -0.008309559896588326,
            -0.011311273090541363,
            -0.11457282304763794,
            0.1416049599647522,
            0.08238018304109573,
            0.061814211308956146,
            0.05882760137319565,
            -0.050614066421985626,
            0.09221459180116653,
            0.006356386933475733,
            0.14514438807964325,
            0.04298366606235504,
            -0.10788202285766602,
            -0.03784111887216568,
            0.09899639338254929,
            -0.017271900549530983,
            -0.055611997842788696,
            0.10496515035629272,
            -0.18748126924037933,
            -0.09391938894987106,
            0.18438437581062317,
            -0.0547998882830143,
            0.19065192341804504,
            0.04849550127983093,
            0.12137773633003235,
            0.12892977893352509,
            0.10122692584991455,
            0.14433491230010986,
            -0.03281338885426521,
            0.10467801243066788,
            -0.03078111819922924,
            0.12220024317502975,
            -0.08833882957696915,
            0.021522091701626778,
            0.0052991206757724285,
            -0.027568291872739792,
            -0.0964047983288765,
            0.12361276149749756,
            -0.1040426716208458,
            0.03504189848899841,
            -0.014208165928721428,
            0.05379464849829674,
            -0.039166878908872604,
            0.0025749860797077417,
            0.12132017314434052,
            -0.06941502541303635,
            0.045462943613529205,
            -0.008285346440970898,
            0.12609632313251495,
            -0.009474825114011765,
            -0.03033563308417797,
            0.13271816074848175,
            0.12171689420938492,
            -0.09425812214612961,
            0.01125542726367712,
            0.07153185456991196,
            -0.13967184722423553,
            -0.09468714147806168,
            0.014366870746016502,
            -0.14575932919979095,
            0.01155014242976904,
            -0.14511287212371826,
            0.033147525042295456,
            -0.1339205801486969,
            -0.07310263812541962,
            0.07923189550638199,
            0.010403853841125965,
            -0.1617613434791565,
            -0.19130884110927582,
            0.15364192426204681,
            -0.03537973016500473,
            -0.02434772625565529,
            0.01765332743525505,
            -0.10121633857488632,
            0.03425358608365059,
            0.13889770209789276,
            0.01647033542394638,
            -0.0798482671380043,
            0.0171454306691885,
            -0.109664686024189,
            0.1348968893289566,
            0.11634982377290726,
            -0.026855425909161568,
            -0.016448521986603737,
            -0.14071740210056305,
            -0.08859647065401077,
            0.054976899176836014,
            0.10843201726675034,
            0.035362761467695236,
            0.14754843711853027,
            -0.04115462303161621,
            0.0515357181429863,
            -0.017366450279951096,
            0.11104841530323029,
            -0.045911334455013275,
            0.11577080190181732,
            0.013975540176033974,
            0.07124028354883194,
            0.05294039100408554,
            0.012298300862312317,
            0.009048297069966793,
            0.062185801565647125,
            -0.11235753446817398,
            0.16048505902290344,
            0.09379135817289352,
            0.0572233721613884,
            -0.000774122541770339,
            -0.020086942240595818,
            -0.08536176383495331,
            -0.039279304444789886,
            -0.059683941304683685,
            0.17597807943820953,
            0.10296986997127533,
            0.08793357014656067,
            -0.05983816087245941,
            0.009317765943706036,
            -0.03590350225567818,
            -0.028920810669660568,
            0.19989685714244843,
            -0.10763692855834961,
            0.001331579638645053,
            0.06498757749795914,
            0.06693962961435318,
            -0.00630578538402915,
            0.051858168095350266,
            -0.03790048137307167,
            -0.043376196175813675,
            0.0700077936053276,
            0.06050185486674309,
            -0.28824588656425476,
            -0.06373794376850128,
            0.09479566663503647,
            0.023390820249915123,
            -0.15971215069293976,
            -0.03346603363752365,
            0.1348990947008133,
            0.05639740452170372,
            0.06202059984207153,
            -0.18595482409000397,
            0.19367988407611847,
            -0.1947353184223175,
            0.04697461053729057,
            0.006060225423425436,
            -0.07598629593849182,
            0.07608293741941452,
            -0.15279819071292877,
            0.007528514601290226,
            -0.09523088485002518,
            -0.03475378453731537,
            -0.079072967171669,
            0.1523061841726303,
            0.09798718243837357,
            0.09464538097381592,
            -0.06693611294031143,
            0.1081252470612526,
            0.16319963335990906,
            -0.10001052916049957,
            -0.03228380158543587,
            -0.06141434982419014,
            -0.23352612555027008,
            0.23790112137794495,
            0.061835117638111115,
            -0.020827554166316986,
            -0.12853355705738068,
            -0.03621206432580948,
            -0.08353414386510849,
            0.023077672347426414,
            0.17979715764522552,
            0.19255682826042175,
            -0.06621487438678741,
            -0.04861537367105484,
            -0.16217295825481415,
            -0.06302895396947861,
            -0.299770325422287,
            -0.011175592429935932,
            -0.09603144228458405,
            -0.021732047200202942,
            0.01303531602025032,
            0.09517379105091095,
            -0.04515647888183594,
            0.016268769279122353,
            -0.04968690499663353,
            0.03191067650914192,
            0.17032290995121002,
            0.023825829848647118,
            0.14330333471298218,
            0.11118459701538086,
            0.050145506858825684,
            0.07627800852060318,
            -0.18730685114860535,
            -0.0547916516661644,
            -0.18081356585025787,
            0.11495564132928848,
            -0.207896426320076,
            -0.01407053042203188,
            0.049434155225753784,
            -0.04645589739084244,
            -0.06307978928089142,
            0.07331127673387527,
            0.10048522055149078,
            0.032467346638441086,
            -0.10241944342851639,
            0.1589580923318863,
            0.039624713361263275,
            0.019554177299141884,
            0.09309053421020508,
            0.03317645192146301,
            0.15756453573703766,
            -0.061833690851926804,
            -0.013353054411709309,
            -0.0585472546517849,
            0.00271066022105515,
            -0.0729079395532608,
            -0.029056549072265625,
            0.016514111310243607,
            -0.0846388041973114,
            0.01591096818447113,
            -0.0623055100440979,
            0.03348950669169426,
            0.04627580568194389,
            -0.1380298137664795,
            0.15817750990390778,
            0.10999714583158493,
            0.06017301231622696,
            0.09566157311201096,
            -0.02757405675947666,
            -0.16912080347537994,
            0.010501145385205746,
            -0.10417325049638748,
            0.016687167808413506,
            -0.18783198297023773,
            -0.010247595608234406,
            0.018322620540857315,
            -0.025027187541127205,
            0.13115501403808594,
            -0.06333034485578537,
            -0.08708322793245316,
            0.1267736405134201,
            -0.2793824076652527,
            0.017066292464733124,
            0.017945963889360428,
            -0.11508706957101822,
            0.00008587578486185521,
            0.16528598964214325,
            0.10795853286981583,
            0.0010714834788814187,
            0.06638457626104355,
            -0.15678519010543823,
            -0.1110389232635498,
            0.08782575279474258,
            -0.14287319779396057,
            0.18269403278827667,
            0.08057516068220139,
            0.1282173991203308,
            -0.12656907737255096,
            -0.06607485562562943,
            -0.13775095343589783,
            -0.1019463911652565,
            0.23242022097110748,
            -0.07453302294015884,
            0.13027030229568481,
            -0.10924885421991348,
            -0.2463177889585495,
            -0.07572104781866074,
            -0.05737890303134918,
            -0.1398453563451767,
            -0.10838214308023453,
            -0.14257045090198517,
            0.19926229119300842,
            0.044109757989645004,
            0.11863819509744644,
            0.13059468567371368,
            -0.0009212044533342123,
            0.06103679910302162,
            0.2217664122581482,
            0.16923578083515167,
            -0.15065862238407135,
            0.019766559824347496,
            -0.1441096067428589,
            -0.18050797283649445,
            0.01870412938296795,
            -0.08994311839342117,
            -0.17203444242477417,
            -0.0011398452334105968,
            0.15327014029026031,
            0.07589656859636307,
            0.08311353623867035,
            -0.09306559711694717,
            0.077586829662323,
            -0.03863678127527237,
            -0.00888654962182045,
            -0.03597978875041008,
            0.1830562800168991,
            0.051993925124406815,
            -0.16667044162750244,
            0.1472303569316864,
            0.06689925491809845,
            0.26221978664398193,
            -0.11417582631111145,
            -0.19055359065532684,
            0.2415209263563156,
            0.023942867293953896,
            0.17241594195365906,
            -0.05794766917824745,
            0.1414218544960022,
            -0.03249363601207733,
            0.014796472154557705,
            -0.07942938804626465,
            0.027207065373659134,
            0.12436959147453308,
            -0.061451807618141174,
            0.0878479927778244,
            -0.03204818069934845,
            0.10739442706108093,
            0.014036616310477257,
            -0.10242972522974014,
            0.03206237033009529,
            -0.07526198774576187,
            -0.17092780768871307,
            -0.05501885712146759,
            0.10672485083341599,
            0.06574453413486481,
            0.048551399260759354,
            0.048514336347579956,
            -0.06773630529642105,
            -0.026427123695611954,
            -0.02104397863149643,
            -0.1624116599559784,
            0.15486721694469452,
            0.028890905901789665,
            0.019834116101264954,
            0.14224299788475037,
            0.06941074132919312,
            0.030344806611537933,
            -0.05224066600203514,
            -0.014793328940868378,
            -0.0035663468297570944,
            0.13787919282913208,
            -0.04997583478689194,
            0.10143568366765976,
            -0.03252146765589714,
            -0.17061327397823334,
            -0.0663989782333374,
            -0.18435810506343842,
            -0.11967317014932632,
            0.05410287529230118,
            -0.0720532238483429,
            -0.009217199869453907,
            0.18077661097049713,
            -0.03899556025862694,
            0.12200057506561279,
            0.010793693363666534,
            0.06352497637271881,
            -0.22051256895065308,
            -0.19173656404018402,
            -0.09490343928337097,
            0.13814464211463928,
            -0.009378455579280853,
            -0.0554366298019886,
            0.0798441544175148,
            0.17807532846927643,
            -0.03550533577799797,
            -0.10161368548870087,
            0.1048857718706131,
            0.07434750348329544,
            -0.14273449778556824,
            -0.16513065993785858,
            -0.1394050121307373,
            -0.00876344833523035,
            0.12483172118663788,
            -0.17767846584320068,
            -0.08112702518701553,
            0.06648741662502289,
            0.07651042938232422,
            -0.0998636782169342,
            -0.045014966279268265,
            0.030003445222973824,
            -0.07456890493631363,
            -0.1753310263156891,
            0.02905198372900486,
            -0.10119286179542542,
            0.00515041733160615,
            0.1597701460123062,
            -0.07376372069120407,
            0.027539273723959923,
            -0.15065376460552216,
            0.007180612999945879,
            0.11740174889564514,
            0.13008929789066315,
            -0.05663391575217247,
            0.09844417870044708,
            -0.004132996778935194,
            0.02773856371641159,
            0.09050024300813675,
            -0.09794331341981888,
            0.018635882064700127,
            -0.03804043307900429,
            0.08374310284852982,
            -0.06126987934112549,
            -0.01992318592965603,
            -0.06335119903087616,
            -0.067217156291008,
            -0.03452320396900177,
            -0.17090338468551636,
            -0.09960484504699707,
            -0.018762649968266487,
            -0.04315011948347092,
            0.06367866694927216,
            0.11978524178266525,
            0.019008295610547066,
            -0.21408917009830475,
            -0.04022814333438873,
            -0.10775364935398102,
            -0.06449616700410843,
            0.07503291964530945,
            -0.057926565408706665,
            -0.119783915579319,
            -0.1174890324473381,
            -0.0909213125705719,
            0.08987421542406082,
            -0.14462055265903473,
            -0.0059465887024998665,
            0.016174759715795517,
            0.0666797086596489,
            -0.00837043859064579,
            0.04988887906074524,
            -0.08652742207050323,
            0.15029725432395935,
            0.07551231235265732,
            -0.14442475140094757,
            0.027325216680765152,
            -0.13578404486179352,
            0.0629555955529213,
            0.09758922457695007,
            0.05084922909736633,
            0.14320601522922516,
            -0.024188993498682976,
            -0.04446374997496605,
            0.14639928936958313,
            0.133273646235466,
            -0.07119620591402054,
            0.027610095217823982,
            -0.18623793125152588,
            -0.18418161571025848,
            0.22128991782665253,
            0.005384188145399094,
            0.11296428740024567,
            0.16135796904563904,
            0.12557703256607056,
            0.024019071832299232,
            -0.1492181420326233,
            0.09043368697166443,
            0.010079893283545971,
            0.10561535507440567,
            0.11170510947704315,
            0.023250870406627655,
            0.21951553225517273,
            -0.22445417940616608,
            -0.12550853192806244,
            0.12187182903289795,
            -0.09454984217882156,
            -0.08539668470621109,
            0.1642410159111023,
            0.14845578372478485,
            -0.005737591069191694,
            0.07269287109375,
            0.018558116629719734,
            0.16687677800655365,
            0.12830205261707306,
            -0.05460207536816597,
            -0.08114990592002869,
            0.08309595286846161,
            -0.17173227667808533,
            -0.05331876128911972,
            0.004653107840567827,
            0.12074300646781921,
            0.01038982905447483,
            0.022873654961586,
            0.03306831791996956,
            0.12797723710536957,
            0.08853444457054138,
            -0.005323515739291906,
            -0.09062192589044571,
            -0.013145992532372475,
            0.0025158224161714315,
            0.07158797234296799,
            -0.10334726423025131,
            0.05638536438345909,
            0.06951061636209488,
            -0.01618756353855133,
            -0.003230564994737506,
            0.021537892520427704,
            0.1527530699968338,
            0.023185499012470245,
            -0.15136808156967163,
            0.017121391370892525,
            0.15590640902519226,
            -0.11223188787698746,
            0.13730165362358093,
            0.025442369282245636,
            -0.11108645796775818,
            0.09312061220407486,
            0.026976725086569786,
            0.018548939377069473,
            0.1594470888376236,
            -0.015458253212273121,
            -0.016199925914406776,
            -0.0250883549451828,
            0.18715041875839233,
            0.13185425102710724,
            -0.11697086691856384,
            -0.012561625801026821,
            -0.005673136096447706,
            -0.05848785117268562,
            -0.036309659481048584,
            -0.20555761456489563,
            0.12941019237041473,
            -0.09296759963035583,
            0.07419724017381668,
            -0.061549682170152664,
            -0.07037267833948135,
            0.091701440513134,
            0.06617608666419983,
            0.016159463673830032,
            -0.03830205649137497,
            -0.041138820350170135,
            0.15526272356510162,
            0.011274892836809158,
            -0.02638172172009945,
            0.10499878972768784,
            -0.09122951328754425,
            0.059787068516016006,
            0.19544866681098938,
            -0.06925962120294571,
            0.11817443370819092,
            -0.0663895234465599,
            -0.001798488199710846,
            -0.022897185757756233,
            -0.03755704313516617,
            0.1487165093421936,
            -0.17815400660037994,
            -0.10105239599943161,
            0.05048074573278427,
            0.09271576255559921,
            -0.07135822623968124,
            0.06520584225654602,
            0.1251927614212036,
            -0.06632596999406815,
            -0.09492778033018112,
            0.19266344606876373,
            -0.06025639921426773,
            0.09762796014547348,
            -0.028324918821454048,
            0.049498725682497025,
            0.04268762841820717,
            -0.003688873490318656,
            0.02959180250763893,
            0.009447961114346981,
            0.07061763107776642,
            -0.10624270141124725,
            0.02317250892519951,
            -0.08500420302152634,
            -0.12282472103834152,
            -0.06086865812540054,
            -0.10478107631206512,
            -0.11373027414083481,
            0.04818081110715866,
            0.03639376908540726,
            0.033417709171772,
            0.00482617923989892,
            -0.020445935428142548,
            -0.1993342638015747,
            -0.054324060678482056,
            -0.060633037239313126,
            0.044595587998628616,
            0.15263202786445618,
            -0.03737795352935791,
            -0.06077677756547928,
            0.026450423523783684,
            -0.06424691528081894,
            0.09244340658187866,
            -0.1408703327178955,
            0.0382947102189064,
            -0.02133757621049881,
            0.0168050117790699,
            0.04062311351299286,
            -0.08425632864236832,
            0.07725203037261963,
            0.0601750947535038,
            0.1457955539226532,
            0.06720277667045593,
            0.11341656744480133,
            0.1459002047777176,
            -0.05957552045583725,
            0.0343116819858551,
            0.05944638326764107,
            -0.06219309940934181,
            -0.029898127540946007,
            -0.023724611848592758,
            0.20986320078372955,
            0.058160413056612015,
            -0.012857849709689617,
            0.1682966947555542,
            0.027014415711164474,
            0.026060031726956367,
            0.1286008656024933,
            0.15953363478183746,
            -0.03152114525437355,
            -0.048510655760765076,
            0.07083636522293091,
            -0.04082965478301048,
            0.10401854664087296,
            0.1257493644952774,
            -0.011829355731606483,
            0.10443525016307831,
            -0.011950952000916004,
            0.1257602721452713,
            -0.14366409182548523,
            0.018998021259903908,
            -0.1972273737192154,
            0.10017512738704681,
            -0.17084558308124542,
            -0.04270782321691513,
            0.042233049869537354,
            0.039401691406965256,
            -0.021385466679930687,
            -0.07977619767189026,
            0.03273482993245125,
            -0.10813257843255997,
            -0.00006646347173955292,
            -0.0816987007856369,
            0.12920452654361725,
            0.15521982312202454,
            0.1838844269514084,
            -0.05233217403292656,
            -0.12716670334339142,
            -0.05360570549964905,
            0.034724920988082886,
            0.05456600338220596,
            0.013925490900874138,
            0.2000601887702942,
            0.04778112471103668,
            0.02350177802145481,
            0.09739962965250015,
            0.010110430419445038,
            0.02790669910609722,
            0.0486002117395401,
            0.1393742561340332,
            0.10790731012821198,
            0.09499490261077881,
            -0.08774813264608383,
            -0.03022131137549877,
            -0.08954102545976639,
            -0.01345224678516388,
            -0.17221103608608246,
            0.01713630184531212,
            0.07811438292264938,
            0.061387330293655396,
            -0.004888453055173159,
            -0.1573367565870285,
            -0.01284866314381361,
            0.02651991695165634,
            0.14163684844970703,
            -0.032388828694820404,
            -0.22548340260982513,
            0.17034558951854706,
            0.10623395442962646,
            0.04209301248192787,
            -0.16317105293273926,
            0.22958850860595703,
            -0.0722830519080162,
            -0.1096130833029747,
            0.09402118623256683,
            0.1421349197626114,
            -0.15680715441703796,
            -0.200644850730896,
            0.17670749127864838,
            0.06175772845745087,
            -0.061623603105545044,
            -0.15791182219982147,
            -0.03993318974971771,
            0.012120404280722141,
            0.05375998467206955,
            -0.1290363371372223,
            -0.12287501990795135,
            -0.018786687403917313,
            -0.16645531356334686,
            -0.07796771079301834,
            0.1430111974477768,
            -0.18612883985042572,
            0.0870816558599472,
            -0.08259440958499908,
            0.10594246536493301,
            -0.03203233703970909,
            -0.2045055478811264,
            -0.1483938843011856,
            0.048810604959726334,
            -0.07483891397714615,
            -0.03619036450982094,
            -0.04422951862215996,
            -0.008182084187865257,
            0.27288731932640076,
            0.05749107897281647,
            -0.007315578404814005,
            -0.02281002514064312,
            -0.16266846656799316,
            -0.060692790895700455,
            -0.18177343904972076,
            0.031631000339984894,
            -0.034393344074487686,
            -0.09668014198541641,
            -0.029706522822380066,
            -0.07526860386133194,
            -0.1008547991514206,
            0.020534224808216095,
            0.08058173954486847,
            0.057776983827352524,
            -0.11703283339738846,
            -0.05307075008749962,
            0.027564501389861107,
            -0.11764559149742126,
            -0.04791480302810669,
            -0.059142764657735825,
            -0.10047229379415512,
            0.02116641402244568,
            -0.053839825093746185,
            0.07756954431533813,
            0.11053047329187393,
            -0.15767842531204224,
            0.09136360883712769,
            0.03167000412940979,
            0.033303484320640564,
            -0.0015009802300482988,
            -0.1077696681022644,
            -0.14795811474323273,
            0.17611293494701385,
            0.05048902705311775,
            -0.023309098556637764,
            -0.0223965086042881,
            -0.08884859085083008,
            -0.014340362511575222,
            0.09592647105455399,
            0.11293113976716995,
            0.09808867424726486,
            -0.000020418370695551857,
            -0.04148351773619652,
            0.08345348387956619,
            -0.03621254861354828,
            0.056064095348119736,
            -0.1765901744365692,
            0.027021314948797226,
            -0.003471885807812214,
            -0.031770944595336914,
            0.08911989629268646,
            -0.018982073292136192,
            0.18860851228237152,
            0.004674632102251053,
            0.20477208495140076,
            0.17463067173957825,
            0.0363285094499588,
            -0.1016787439584732,
            -0.21715547144412994,
            0.11832676082849503,
            -0.14242984354496002,
            0.14484713971614838,
            0.07478059083223343,
            0.009537706151604652,
            0.2734430730342865,
            0.012882455252110958,
            -0.12660524249076843,
            0.023492883890867233,
            -0.11694448441267014,
            0.099241241812706,
            0.16655609011650085,
            0.02894202247262001,
            0.03227606043219566,
            0.03133383020758629,
            -0.14178097248077393,
            -0.049648649990558624,
            -0.04454486817121506,
            -0.1352587193250656,
            -0.18725183606147766,
            0.09929673373699188,
            -0.1411503255367279,
            0.09498497098684311,
            0.15239377319812775,
            -0.025995653122663498,
            -0.09348282217979431,
            -0.2515731453895569,
            0.07287634909152985,
            0.04391540586948395,
            0.03928954154253006,
            -0.1764642745256424,
            -0.028090449050068855,
            -0.10882460325956345,
            0.056736066937446594,
            -0.02986009046435356,
            -0.042107924818992615,
            0.006538879591971636,
            -0.1649557203054428,
            0.203304260969162,
            -0.12401584535837173,
            -0.05502470210194588,
            -0.01983611285686493,
            0.010102851316332817,
            -0.29584160447120667,
            -0.16767100989818573,
            -0.17186546325683594,
            0.16534486413002014,
            0.14556199312210083,
            -0.1160309687256813,
            -0.09936409443616867,
            0.16165396571159363,
            0.015812231227755547,
            0.037072744220495224,
            -0.14040835201740265,
            0.038108278065919876,
            0.1713031679391861,
            0.19054479897022247,
            0.04909183830022812,
            0.08451513946056366,
            -0.09834401309490204,
            0.03434998542070389,
            0.1968468427658081,
            0.12090049684047699,
            0.06673242896795273,
            -0.21829041838645935,
            0.0036616951692849398,
            0.22310864925384521,
            -0.03539035841822624,
            0.02908150665462017,
            0.020211610943078995,
            -0.018099026754498482,
            -0.22486810386180878,
            -0.09063652157783508,
            -0.26836249232292175,
            -0.057941682636737823,
            -0.01413270179182291,
            0.19129137694835663,
            0.04395580664277077,
            0.0583021454513073,
            0.20678174495697021,
            -0.01670827716588974,
            -0.017039816826581955,
            -0.11264065653085709,
            0.15476484596729279,
            0.12279293686151505,
            0.24163417518138885,
            0.11513271182775497,
            -0.11078854650259018,
            -0.09436890482902527,
            0.007089403923600912,
            0.0006698276847600937,
            0.017960378900170326,
            0.06443745642900467,
            0.07540533691644669,
            -0.02846866101026535,
            -0.2386176735162735,
            -0.06583473086357117,
            -0.016722090542316437,
            0.046785272657871246,
            -0.0791931301355362,
            0.0328848771750927,
            0.06461481004953384,
            0.038094524294137955,
            -0.0010307816555723548,
            -0.18455266952514648,
            -0.1003342792391777,
            0.09505215287208557,
            -0.1488610804080963,
            -0.03370445966720581,
            -0.10993140935897827,
            0.3034553825855255,
            -0.14460976421833038,
            0.17211423814296722,
            0.07310575246810913,
            -0.07150743156671524,
            0.08826589584350586,
            -0.126472607254982,
            0.2502491772174835,
            0.2554861605167389,
            0.1615803986787796,
            -0.05251801013946533,
            -0.057319771498441696,
            0.12254590541124344,
            -0.09842106699943542,
            0.006780698895454407,
            -0.22321942448616028,
            -0.10795827209949493,
            0.025487104430794716,
            0.008213860914111137,
            -0.003967572003602982,
            -0.034973643720149994,
            0.09962840378284454,
            -0.0677238181233406,
            0.13519001007080078,
            0.04051540419459343,
            -0.07458783686161041,
            -0.012384925037622452,
            0.02434081956744194,
            0.09841624647378922,
            -0.14409920573234558,
            0.05952823534607887,
            0.056461043655872345,
            0.04462142661213875,
            -0.09009972959756851,
            0.19506190717220306,
            -0.11695785820484161,
            0.11038395017385483,
            0.06133655086159706,
            -0.08989579230546951,
            0.03628108277916908,
            -0.1657373309135437,
            -0.07733090966939926,
            0.15448425710201263,
            0.04987969622015953,
            0.03520413860678673,
            0.09589723497629166,
            0.020185628905892372,
            0.01740455999970436,
            0.12974756956100464,
            -0.012246447615325451,
            0.21061672270298004,
            -0.08746668696403503,
            -0.11902381479740143,
            -0.14129453897476196,
            0.1710337996482849,
            -0.038898855447769165,
            -0.19207161664962769,
            0.018434204161167145,
            0.0818188339471817,
            -0.06211656704545021,
            -0.049923039972782135,
            -0.047749798744916916,
            0.0007380805909633636,
            0.09856966137886047,
            -0.1592487394809723,
            -0.05177558213472366,
            -0.06485852599143982,
            0.06336800009012222,
            0.15212908387184143,
            0.2114822417497635,
            0.03478308394551277,
            0.06311992555856705,
            -0.18887469172477722,
            -0.12717264890670776,
            -0.09482988715171814,
            0.09206244349479675,
            0.17044170200824738,
            0.01952182501554489,
            0.14224566519260406,
            -0.12034370750188828,
            -0.008399737998843193,
            0.1323191225528717,
            -0.12646237015724182,
            -0.12876908481121063,
            0.12792125344276428,
            0.08614956587553024,
            -0.10538448393344879,
            0.04390249401330948,
            0.05536317452788353,
            -0.026867570355534554,
            -0.16254563629627228,
            -0.004365441855043173,
            -0.09633873403072357,
            0.10648831725120544,
            -0.0676509365439415,
            -0.08793855458498001,
            0.06006896123290062,
            0.05903413146734238,
            -0.10815156251192093,
            -0.11888237297534943,
            0.09734171628952026,
            -0.01771429367363453,
            -0.06234156712889671,
            -0.038172926753759384,
            -0.11279283463954926,
            0.17901571094989777,
            -0.07939836382865906,
            -0.01333196833729744,
            0.12428275495767593,
            0.01612839289009571,
            0.11968157440423965,
            0.025618694722652435,
            -0.10269101709127426,
            0.10337535291910172,
            -0.21326251327991486,
            0.08030985295772552,
            0.10735950618982315,
            -0.02433675341308117,
            -0.06877082586288452,
            -0.029061438515782356,
            -0.07558226585388184,
            0.06306015700101852,
            -0.08686070889234543,
            0.09642932564020157,
            -0.1528148353099823,
            0.10595244914293289,
            0.066891148686409,
            -0.06754640489816666,
            -0.025935346260666847,
            -0.11626174300909042,
            -0.09840013831853867,
            0.04971819743514061,
            -0.00304779433645308,
            -0.09187769889831543,
            -0.0009520689491182566,
            0.08721005916595459,
            -0.00274422625079751,
            0.014875277876853943,
            -0.05618254095315933,
            -0.013286493718624115,
            0.028018489480018616,
            -0.05627784505486488,
            -0.04063381627202034,
            0.05246658995747566,
            0.07739351689815521,
            -0.07168766111135483,
            0.18469972908496857,
            -0.1439397782087326,
            -0.09063209593296051,
            0.05008767545223236,
            0.079663947224617,
            0.1971118152141571,
            0.06594108790159225,
            0.06531444191932678,
            -0.16809308528900146,
            0.013398019596934319,
            0.08198286592960358,
            -0.15420570969581604,
            -0.024593064561486244,
            0.026757774874567986,
            0.1428380012512207,
            -0.04760996252298355,
            -0.07534988224506378,
            0.11677085608243942,
            0.17984837293624878,
            0.025559693574905396,
            0.21168215572834015,
            -0.019019056111574173,
            0.13999703526496887,
            0.04857771843671799,
            -0.10204853862524033,
            -0.0027959628496319056,
            -0.03936595097184181,
            0.203308567404747,
            0.14111104607582092,
            0.03393437713384628,
            -0.046498171985149384,
            0.05384629964828491,
            -0.07268904894590378,
            0.05035903677344322,
            0.023169439285993576,
            -0.0029117248486727476,
            -0.09400983154773712,
            0.10614585131406784,
            0.07809558510780334,
            -0.12117202579975128,
            -0.0038378846365958452,
            -0.08492983877658844,
            0.16341860592365265,
            -0.11232737451791763,
            0.15536458790302277,
            -0.04677675664424896,
            0.053334783762693405,
            -0.19632545113563538,
            -0.06007576733827591,
            0.008194624446332455,
            0.09862243384122849,
            0.04193354770541191,
            0.11021315306425095,
            0.1005612388253212,
            -0.060864824801683426,
            -0.10931985825300217,
            0.16720454394817352,
            -0.10221723467111588,
            -0.024318665266036987,
            -0.11138030141592026,
            -0.1499280333518982,
            0.21061675250530243,
            -0.07723546028137207,
            0.07114628702402115,
            0.19330795109272003,
            0.07055836170911789,
            0.19218946993350983,
            -0.0691399872303009,
            -0.047465454787015915,
            -0.1111425831913948,
            0.03942670300602913,
            0.06618553400039673,
            0.056330326944589615,
            0.13041196763515472,
            -0.07703445106744766,
            0.042322177439928055,
            -0.07008662074804306,
            0.14274628460407257,
            0.09082257002592087,
            0.029604429379105568,
            -0.03802109509706497,
            -0.19821184873580933,
            0.11253625154495239,
            0.04537511244416237,
            -0.06583599746227264,
            -0.007706849370151758,
            0.09276603907346725,
            -0.10157153755426407,
            -0.06185717135667801,
            0.005583558231592178,
            -0.15107373893260956,
            0.017982440069317818,
            0.05092497169971466,
            -0.03569531813263893,
            -0.0991976335644722,
            -0.0002722111239563674,
            -0.014941058121621609,
            0.11514410376548767,
            -0.11522489786148071,
            0.01766975224018097,
            0.033408984541893005,
            -0.06470997631549835,
            0.17552891373634338,
            0.0713050588965416,
            0.11660459637641907,
            0.08563029021024704,
            -0.020280947908759117,
            0.17041327059268951,
            -0.04624917730689049,
            -0.030638758093118668,
            -0.18399213254451752,
            0.03434280678629875,
            -0.06888961046934128,
            0.05798172950744629,
            -0.05225878208875656,
            -0.049977291375398636,
            -0.03362672030925751,
            0.16124853491783142,
            -0.04776208847761154,
            -0.02897893264889717,
            -0.16017097234725952,
            -0.06930796802043915,
            0.16735319793224335,
            0.08431349694728851,
            -0.08349926024675369,
            -0.21150900423526764,
            -0.0004817683657165617,
            -0.15692131221294403,
            -0.051047902554273605,
            0.1510174423456192,
            0.1990227848291397,
            0.009614112786948681,
            -0.18737366795539856,
            0.06374981254339218,
            0.1618272364139557,
            0.011170032434165478,
            0.07200156152248383,
            -0.19462524354457855,
            -0.03142072260379791,
            -0.10604501515626907,
            0.09132623672485352,
            -0.1329437792301178,
            0.08164435625076294,
            -0.0061752283945679665,
            -0.15473471581935883,
            0.1609107106924057,
            -0.10632947087287903,
            0.13912633061408997,
            0.10064280778169632,
            0.03856351226568222,
            0.11379183828830719,
            0.08804191648960114,
            0.03417323902249336,
            0.06638430058956146,
            -0.031913284212350845,
            -0.05453132838010788,
            0.07164385169744492,
            0.09103374928236008,
            -0.16955415904521942,
            -0.10853452235460281,
            -0.17527249455451965,
            -0.026555387303233147,
            -0.16210903227329254,
            -0.01651497185230255,
            0.12034541368484497,
            0.007542552892118692,
            0.07431717216968536,
            -0.03392515704035759,
            0.09747578948736191,
            -0.0406247042119503,
            0.18067561089992523,
            -0.030003555119037628,
            0.11520663648843765,
            0.005147623363882303,
            -0.01904364861547947,
            -0.07712015509605408,
            0.12821801006793976,
            -0.040038831532001495,
            0.04730925336480141,
            -0.1504315286874771,
            -0.04168976843357086,
            0.2077578753232956,
            0.012230947613716125,
            -0.07272977381944656,
            0.09720980376005173,
            0.08560390025377274,
            -0.21140643954277039,
            0.09374639391899109,
            -0.05931093916296959,
            0.06354700773954391,
            0.02427675761282444,
            -0.11894731968641281,
            -0.07496444880962372,
            0.0005667888326570392,
            0.05730629712343216,
            -0.2080686390399933,
            -0.1649440973997116,
            -0.05532631278038025,
            -0.0624590739607811,
            0.060001190751791,
            -0.0711623877286911,
            0.12681199610233307,
            -0.14223413169384003,
            0.033574178814888,
            0.06273933500051498,
            -0.1732109785079956,
            -0.025334784761071205,
            0.21498963236808777,
            -0.09427961707115173,
            0.14731252193450928,
            -0.09611193835735321,
            0.06314399093389511,
            0.04467005282640457,
            -0.13131804764270782,
            -0.07379505783319473,
            0.1865459531545639,
            0.174825057387352,
            0.08122126758098602,
            0.056799013167619705,
            -0.16928987205028534,
            0.07307207584381104,
            0.05443134531378746,
            0.03733988106250763,
            -0.022814998403191566,
            -0.13347019255161285,
            0.05001569166779518,
            -0.00804231222718954,
            -0.10264001786708832,
            -0.15972109138965607,
            0.1034693494439125,
            0.10083106905221939,
            -0.15384362637996674,
            0.015353996306657791,
            0.019133327528834343,
            0.027678104117512703,
            -0.11849607527256012,
            -0.17099575698375702,
            0.007012943737208843,
            0.17860084772109985,
            0.13511905074119568,
            -0.004384727217257023,
            0.054108452051877975,
            0.02981831505894661,
            -0.04347443953156471,
            0.04179183393716812,
            -0.037194278091192245,
            -0.055974993854761124,
            -0.08545944839715958,
            -0.06764959543943405,
            0.057271748781204224,
            0.04975905641913414,
            0.007555432617664337,
            0.06843746453523636,
            -0.18245108425617218,
            -0.03490656614303589,
            -0.04516875371336937,
            -0.15949533879756927,
            0.2008562535047531,
            -0.10601487755775452,
            -0.14377713203430176,
            0.04774622991681099,
            0.06745878607034683,
            -0.19713592529296875,
            0.06871244311332703,
            0.14344601333141327,
            0.15612171590328217,
            -0.026124995201826096,
            -0.014770903624594212,
            -0.11014945060014725,
            -0.01865542121231556,
            0.10631643980741501,
            0.10083263367414474,
            0.044326119124889374,
            0.04916523024439812,
            -0.16164492070674896,
            -0.006737195886671543,
            0.05971987918019295,
            -0.059406496584415436,
            -0.16068428754806519,
            0.004827144090086222,
            0.008292979560792446,
            -0.00301618711091578,
            0.03398743271827698,
            0.002177563728764653,
            0.023100057616829872,
            -0.21007198095321655,
            0.043926484882831573,
            -0.07658948004245758,
            -0.02366551384329796,
            -0.05949614942073822,
            -0.09044086933135986,
            -0.13425633311271667,
            0.03609568998217583,
            0.044176701456308365,
            -0.06358272582292557,
            0.09328214824199677,
            -0.051202256232500076,
            -0.014906206168234348,
            0.05835378170013428,
            -0.10182958841323853,
            -0.06801552325487137,
            -0.004209307488054037,
            0.1550012081861496,
            0.12481909245252609,
            -0.007163420785218477,
            -0.017837494611740112,
            0.08478652685880661,
            -0.16040827333927155,
            0.029738815501332283,
            -0.05196184664964676,
            -0.0502360463142395,
            -0.05124770104885101,
            -0.02355305850505829,
            -0.03656214103102684,
            -0.0376942902803421,
            0.10545626282691956,
            -0.11332756280899048,
            0.12348654866218567,
            0.07135256379842758,
            -0.16272325813770294,
            0.03908761218190193,
            0.09254821389913559,
            -0.0033385511487722397,
            -0.058279842138290405,
            -0.012820632196962833,
            0.02100508101284504,
            0.024178236722946167,
            -0.18180830776691437,
            0.10330137610435486,
            0.0019323076121509075,
            0.015900367870926857,
            -0.15248477458953857,
            -0.057631682604551315,
            0.10099393129348755,
            0.06545007973909378,
            -0.01740056462585926,
            0.04530353471636772,
            0.08322329819202423,
            -0.21195581555366516,
            -0.025480061769485474,
            0.13801129162311554,
            0.13423536717891693,
            -0.04719862714409828,
            -0.0008570034988224506,
            0.10885939747095108,
            -0.08651649951934814,
            -0.06388125568628311,
            -0.16991989314556122,
            -0.048721253871917725,
            -0.03446512296795845,
            0.04604291170835495,
            0.10440094769001007,
            0.009760042652487755,
            -0.033700115978717804,
            0.056127481162548065,
            -0.06472158432006836,
            -0.11553990840911865,
            0.12249647825956345,
            -0.12378700822591782,
            -0.10248032212257385,
            -0.11772875487804413,
            0.04019807651638985,
            0.0434861034154892,
            -0.07476964592933655,
            -0.08822432160377502,
            0.1417652666568756,
            -0.11275629699230194,
            -0.015636201947927475,
            0.04134632274508476,
            0.04548818990588188,
            0.021932415664196014,
            -0.050522491335868835,
            -0.014904258772730827,
            0.07604080438613892,
            0.002668422181159258,
            0.08604493737220764,
            0.09628468006849289,
            -0.02172364667057991,
            0.025054939091205597,
            0.020682144910097122,
            0.09755381941795349,
            -0.08381108939647675,
            0.1305113434791565,
            -0.01471716072410345,
            0.21492299437522888,
            -0.10926055908203125,
            -0.017389515414834023,
            -0.004842833615839481,
            0.0613962821662426,
            -0.21535852551460266,
            0.02794770896434784,
            0.03350537642836571,
            -0.08770271390676498,
            -0.016082484275102615,
            -0.015503610484302044,
            -0.09956786781549454,
            0.046597305685281754,
            0.10409916192293167,
            0.06131661683320999,
            0.1221282035112381,
            0.1691623479127884,
            -0.12348417192697525,
            -0.04551742225885391,
            0.10598842799663544,
            0.08316665887832642,
            0.18654711544513702,
            -0.11460446566343307,
            0.09512470662593842,
            0.13293126225471497,
            -0.01963849924504757,
            -0.0042122905142605305,
            -0.10204228013753891,
            -0.09037546068429947,
            -0.08550414443016052,
            -0.09285041689872742,
            0.12903015315532684,
            -0.04887371137738228,
            -0.07610880583524704,
            0.16397760808467865,
            -0.048452410846948624,
            0.1036284863948822,
            -0.0718865767121315,
            0.005170932970941067,
            0.20118284225463867,
            -0.04200529679656029,
            0.1815670281648636,
            0.022817227989435196,
            0.11476465314626694,
            0.2056870013475418,
            0.1590915471315384,
            0.0596272349357605,
            0.03230290114879608,
            0.061867605894804,
            0.11338267475366592,
            0.07184506207704544,
            0.10524580627679825,
            -0.07877295464277267,
            -0.15125733613967896,
            -0.08020532131195068,
            0.12056177854537964,
            0.11355010420084,
            -0.11620833724737167,
            -0.01305919885635376,
            0.013257495127618313,
            -0.015177062712609768,
            -0.00453177047893405,
            0.083767831325531,
            -0.16134324669837952,
            0.02494129352271557,
            -0.07251755893230438,
            -0.009190940298140049,
            0.004647505469620228,
            -0.06778855621814728,
            -0.023345131427049637,
            -0.08486015349626541,
            -0.0069344318471848965,
            0.14074788987636566,
            -0.10631828010082245,
            0.02300828881561756,
            -0.05311371013522148,
            0.11437970399856567,
            -0.12900599837303162,
            0.07298477739095688,
            0.19122456014156342,
            -0.07350806891918182,
            -0.0019242489943280816,
            0.12253377586603165,
            -0.03303782269358635,
            -0.0005777972983196378,
            0.054156344383955,
            -0.010039029642939568,
            -0.02906973659992218,
            0.1144666075706482,
            0.08046964555978775,
            0.1428484469652176,
            -0.11580595374107361,
            0.002147987950593233,
            0.026404429227113724,
            -0.1492021232843399,
            -0.1553151160478592,
            0.16933059692382812,
            -0.1119006872177124,
            0.06787171214818954,
            0.20304346084594727,
            -0.06579753756523132,
            0.1176597848534584,
            -0.1391213983297348,
            -0.03362496569752693,
            0.060109999030828476,
            0.1651231199502945,
            0.06606219708919525,
            -0.13909178972244263,
            -0.2110043317079544,
            0.048519641160964966,
            0.07408284395933151,
            -0.04790019616484642,
            0.1404765099287033,
            0.02007683366537094,
            0.1857900619506836,
            0.08357446640729904,
            0.09979042410850525,
            -0.015400168485939503,
            0.00279990560375154,
            0.049382150173187256,
            0.08180256932973862,
            0.0168848168104887,
            0.017114195972681046,
            -0.17574971914291382,
            -0.032112568616867065,
            0.14627300202846527,
            0.051533881574869156,
            -0.08374576270580292,
            -0.0693444311618805,
            -0.05043429881334305,
            -0.03332512080669403,
            -0.12185897678136826,
            -0.20104491710662842,
            0.1885029822587967,
            0.17298118770122528,
            -0.018871542066335678,
            0.17033705115318298,
            -0.05909854173660278,
            -0.18829861283302307,
            -0.12011467665433884,
            0.1962040662765503,
            0.017489604651927948,
            0.21258459985256195,
            -0.058199960738420486,
            -0.1859877109527588,
            0.05430230870842934,
            0.029924461618065834,
            0.06644405424594879,
            0.037404727190732956,
            -0.002619517035782337,
            -0.08417315036058426,
            -0.13887761533260345,
            -0.12210693955421448,
            -0.08493155986070633,
            0.03785890340805054,
            0.0056860074400901794,
            0.028202906250953674,
            -0.028949379920959473,
            -0.01064889132976532,
            -0.21459513902664185,
            -0.0037225373089313507,
            -0.008858728222548962,
            -0.03314808011054993,
            -0.11193761229515076,
            0.03636867180466652,
            0.0005884913261979818,
            0.16548657417297363,
            -0.049909770488739014,
            0.18660783767700195,
            -0.11735163629055023,
            -0.15299203991889954,
            0.17951925098896027,
            -0.15402817726135254,
            -0.04441267251968384,
            -0.0010944331297650933,
            -0.03224657103419304,
            0.1797437220811844,
            -0.06961479783058167,
            -0.015070509165525436,
            0.08943724632263184,
            0.10348629206418991,
            -0.01849757879972458,
            0.19627273082733154,
            0.1685905009508133,
            0.023935707286000252,
            0.06943653523921967,
            0.009641310200095177,
            -0.023451246321201324,
            -0.03044147603213787,
            -0.011498945765197277,
            0.20577187836170197,
            0.020157380029559135,
            0.007259340025484562,
            -0.05542796477675438,
            -0.08680164813995361,
            -0.14336387813091278,
            0.08256610482931137,
            -0.05475407466292381,
            -0.053173307329416275,
            0.16444581747055054,
            0.012424939312040806,
            -0.08095085620880127,
            0.1315491497516632,
            -0.05756296589970589,
            -0.033501457422971725,
            0.1580379754304886,
            -0.06746269762516022,
            0.13234438002109528,
            0.16075007617473602,
            0.031555987894535065,
            0.019673340022563934,
            0.025250772014260292,
            -0.19397681951522827,
            -0.029702933505177498,
            -0.03799742832779884,
            -0.005246228072792292,
            -0.017206495627760887,
            0.013327536173164845,
            0.18493911623954773,
            0.17160828411579132,
            -0.07263760268688202,
            0.16631828248500824,
            -0.10253459215164185,
            -0.03399603068828583,
            -0.1023024320602417,
            0.004972378257662058,
            0.10882549732923508,
            0.20452329516410828,
            -0.15118275582790375,
            0.15682107210159302,
            -0.13265615701675415,
            0.13148392736911774,
            0.06317246705293655,
            -0.15976303815841675,
            -0.07641466706991196,
            -0.08979135751724243,
            0.12197345495223999,
            0.0023697195574641228,
            -0.01470187772065401,
            0.03940023481845856,
            -0.035822395235300064,
            0.011812636628746986,
            -0.15149979293346405,
            0.13856159150600433,
            0.031152883544564247,
            0.02585965394973755,
            -0.04886546730995178,
            0.09830518066883087,
            0.11757787317037582,
            -0.03789939358830452,
            0.04552613943815231,
            -0.03346177190542221,
            0.02541867084801197,
            0.11289003491401672,
            -0.0640876367688179,
            0.14612093567848206,
            0.043989259749650955,
            0.02822907269001007,
            -0.13810060918331146,
            0.09652616828680038,
            0.06716758757829666,
            0.033627625554800034,
            0.09223145991563797,
            -0.03957474231719971,
            -0.16279488801956177,
            -0.09149065613746643,
            0.18034645915031433,
            -0.009574076160788536,
            -0.05708322674036026,
            -0.007604323793202639,
            -0.08086907863616943,
            -0.12241128832101822,
            -0.0422828383743763,
            0.01063879020512104,
            0.04595274478197098,
            0.1982741355895996,
            0.0970161035656929,
            0.09551278501749039,
            -0.04382312297821045,
            0.06191692501306534,
            0.08219722658395767,
            0.01983766071498394,
            0.005162772722542286,
            0.1762823909521103,
            -0.1111535057425499,
            0.21056358516216278,
            0.05060155317187309,
            -0.005700894631445408,
            0.06335888803005219,
            -0.18602228164672852,
            -0.11595998704433441,
            0.04216867685317993,
            -0.11187057197093964,
            0.030486922711133957,
            -0.016176417469978333,
            0.059845779091119766,
            -0.10164175927639008,
            -0.026003370061516762,
            0.08411530405282974,
            0.017759600654244423,
            0.007346405182033777,
            0.08952730894088745,
            0.02210872620344162,
            0.023188306018710136,
            -0.054387085139751434,
            -0.009317358024418354,
            -0.13083520531654358,
            -0.002369555179029703,
            0.011400419287383556,
            0.09617339819669724,
            0.05708589404821396,
            0.024988366290926933,
            -0.19354447722434998,
            0.09081114828586578,
            0.05691646784543991,
            0.10572049766778946,
            -0.0406368188560009,
            -0.03254639357328415,
            -0.006366988644003868,
            -0.05011734366416931,
            -0.1198720708489418,
            0.1858920156955719,
            0.11811511218547821,
            -0.050612520426511765,
            -0.07432094216346741,
            -0.005752453114837408,
            -0.05919213593006134,
            0.06445133686065674,
            -0.0381447970867157,
            0.11496106535196304,
            0.033884793519973755,
            0.012802710756659508,
            -0.03236095979809761,
            0.1453549563884735,
            -0.07451136410236359,
            0.059540312737226486,
            -0.15534846484661102,
            -0.05524167791008949,
            -0.03215447813272476,
            -0.08737682551145554,
            -0.0618395172059536,
            0.11078926920890808,
            0.06706631928682327,
            0.1866254210472107,
            0.06756948679685593,
            -0.13711732625961304,
            -0.05307891219854355,
            0.047159649431705475,
            -0.07540785521268845,
            -0.011596372351050377,
            0.02747386507689953,
            0.13741812109947205,
            0.044860128313302994,
            0.14932279288768768,
            0.12579664587974548,
            -0.05342353135347366,
            0.07110504806041718,
            0.05884038656949997,
            0.056094445288181305,
            0.08456110954284668,
            -0.21554163098335266,
            0.07105880230665207,
            0.0899689570069313,
            -0.05625873804092407,
            0.08659809827804565,
            -0.13553984463214874,
            -0.1606932431459427,
            0.029818890616297722,
            -0.15559032559394836,
            0.05112360417842865,
            0.06783892214298248,
            0.00773267587646842,
            -0.09682050347328186,
            -0.10746761411428452,
            0.0214193444699049,
            0.16027086973190308,
            -0.12096792459487915,
            -0.1259390264749527,
            0.1214224323630333,
            -0.1430676430463791,
            -0.20675376057624817,
            -0.13350042700767517,
            -0.1544545292854309,
            -0.012295168824493885,
            0.05750184506177902,
            0.0032336267177015543,
            -0.12307542562484741,
            -0.07705159485340118,
            -0.12123115360736847,
            0.1062084287405014,
            -0.06996557861566544,
            -0.12061510980129242,
            0.14520969986915588,
            -0.016955148428678513,
            -0.12992285192012787,
            0.04564294219017029,
            0.0592493899166584,
            0.017654363065958023,
            -0.10866543650627136,
            0.02037380449473858,
            -0.21234507858753204,
            -0.09400906413793564,
            -0.011394491419196129,
            0.059768564999103546,
            -0.027048403397202492,
            -0.17983198165893555,
            -0.11557357013225555,
            -0.007513122167438269,
            0.07682114094495773,
            0.002988353604450822,
            -0.15346099436283112,
            0.0808921679854393,
            -0.1436883509159088,
            -0.023905543610453606,
            0.016144005581736565,
            0.12604932487010956,
            0.017881302163004875,
            -0.1898854821920395,
            0.0047736866399645805,
            -0.10280758887529373,
            0.03706369921565056,
            0.18157756328582764,
            0.1407141536474228,
            0.0514395609498024,
            -0.0033908123150467873,
            -0.174638032913208,
            0.018858300521969795,
            -0.18145819008350372,
            0.05151667818427086,
            -0.06115570664405823,
            -0.08525269478559494,
            -0.14496785402297974,
            0.10087903589010239,
            0.15718303620815277,
            0.0006834478699602187,
            -0.021900411695241928,
            -0.11626774817705154,
            0.14983777701854706,
            -0.03263330087065697,
            0.004304464440792799,
            0.09042631089687347,
            0.1056341677904129,
            -0.11639739573001862,
            0.0866146832704544,
            -0.005551755893975496,
            0.17058715224266052,
            0.16150830686092377,
            -0.08303842693567276,
            0.01351400837302208,
            0.06868584454059601,
            -0.12119760364294052,
            0.019894253462553024,
            -0.1361052691936493,
            -0.14789411425590515,
            -0.14275199174880981,
            -0.12686847150325775,
            0.023254984989762306,
            0.0668729916214943,
            0.036705732345581055,
            -0.09269915521144867,
            0.12806357443332672,
            0.20575852692127228,
            -0.05320548638701439,
            0.05947566032409668,
            -0.17307937145233154,
            -0.0685603991150856,
            -0.08974383771419525,
            -0.0429781973361969,
            0.01716616004705429,
            -0.06125288084149361,
            0.04052171856164932,
            -0.07687041163444519,
            -0.028725795447826385,
            0.046566154807806015,
            0.04428759962320328,
            -0.05701645836234093,
            -0.06333091109991074,
            -0.06622927635908127,
            -0.017595743760466576,
            -0.03049936518073082,
            0.007643861696124077,
            -0.1696270853281021,
            -0.19486793875694275,
            0.054032906889915466,
            0.05122549086809158,
            -0.20475275814533234,
            0.04070429131388664,
            -0.06747192144393921,
            0.027660876512527466,
            0.058092888444662094,
            0.09440067410469055,
            0.0502595528960228,
            0.12032113969326019,
            -0.06261198222637177,
            -0.1805882304906845,
            -0.14766138792037964,
            -0.06265714019536972,
            -0.02696414105594158,
            0.08872219175100327,
            -0.11625175178050995,
            -0.1994900107383728,
            0.12111768126487732,
            -0.1451864242553711,
            -0.08574497699737549,
            -0.008980185724794865,
            -0.03647316247224808,
            -0.03508944809436798,
            0.0025506422389298677,
            -0.1491173654794693,
            0.08423188328742981,
            0.04939417913556099,
            -0.02536628022789955,
            -0.047492533922195435,
            0.1096649020910263,
            -0.04860778525471687,
            0.12994998693466187,
            -0.019866829738020897,
            0.10537539422512054,
            0.17512358725070953,
            -0.034046731889247894,
            0.08274201303720474,
            -0.03899122774600983,
            -0.0290985107421875,
            0.028302326798439026,
            0.076161690056324,
            -0.13402943313121796,
            -0.018713004887104034,
            -0.055319882929325104,
            0.13209599256515503,
            0.0569591261446476,
            -0.018980173394083977,
            0.12818488478660583,
            -0.12984533607959747,
            0.019811278209090233,
            -0.06410012394189835,
            0.0069770230911672115,
            0.12258519977331161,
            0.2018408179283142,
            -0.114156074821949,
            -0.07507328689098358,
            0.08872804045677185,
            0.07799947261810303,
            -0.019624892622232437,
            -0.09587996453046799,
            -0.019284211099147797,
            0.19935965538024902,
            0.10338056087493896,
            0.014159007929265499,
            -0.1339033842086792,
            -0.08469905704259872,
            0.19375672936439514,
            0.09557501971721649,
            -0.16120590269565582,
            0.041244227439165115,
            -0.06499966233968735,
            -0.03186853229999542,
            0.06456927210092545,
            -0.007832558825612068,
            0.1373027265071869,
            -0.01705901138484478,
            -0.001015352550894022,
            -0.09138456732034683,
            -0.08066456019878387,
            0.09200390428304672,
            -0.11286012828350067,
            -0.027659764513373375,
            0.009778754785656929,
            0.09341534227132797,
            -0.1186399832367897,
            -0.1111416220664978,
            0.02668166346848011,
            0.16712260246276855,
            0.07322041690349579,
            0.10387195646762848,
            -0.053131211549043655,
            -0.08780112117528915,
            0.05885029211640358,
            -0.043040722608566284,
            -0.045918527990579605,
            0.07833687961101532,
            0.04553494602441788,
            -0.04539422690868378,
            -0.11628835648298264,
            0.1601359248161316,
            0.0068377102725207806,
            -0.12310630083084106,
            0.049750372767448425,
            -0.01860359124839306,
            0.004052370321005583,
            -0.09924934804439545,
            -0.12139147520065308,
            -0.20354118943214417,
            0.18146710097789764,
            0.112846739590168,
            -0.001602605334483087,
            0.09708722680807114,
            -0.1364932805299759,
            0.016171209514141083,
            -0.07804010063409805,
            0.027150891721248627,
            0.1715804934501648,
            0.07773450016975403,
            0.055502813309431076,
            0.042855288833379745,
            0.06359966099262238,
            0.05987465754151344,
            -0.07716045528650284,
            0.062093064188957214,
            -0.02709496207535267,
            0.023684686049818993,
            -0.06976892799139023,
            0.00397507706657052,
            -0.14601419866085052,
            0.059595100581645966,
            -0.03358285874128342,
            -0.09291151911020279,
            -0.19531233608722687,
            0.03724037483334541,
            0.00016115068865474313,
            -0.008351363241672516,
            0.002729501575231552,
            0.1846473067998886,
            0.17927134037017822,
            0.04739554598927498,
            -0.11701098829507828,
            0.04196932911872864,
            0.020058829337358475,
            0.03848331421613693,
            0.21612870693206787,
            -0.0630352646112442,
            -0.05050349235534668,
            0.08575798571109772,
            0.04953649267554283,
            0.0426056794822216,
            0.00008726320811547339,
            -0.010036354884505272,
            -0.08299046754837036,
            -0.022201765328645706,
            -0.0016435128636658192,
            -0.11878909170627594,
            0.014898165129125118,
            0.11974277347326279,
            0.0497414655983448,
            0.08834666013717651,
            -0.14065483212471008,
            -0.03370895981788635,
            -0.03648292273283005,
            0.03562410920858383,
            0.058991458266973495,
            0.02405341900885105,
            0.08220957964658737,
            -0.07955531775951385,
            -0.11445526778697968,
            0.15002943575382233,
            0.15897703170776367,
            -0.12331530451774597,
            -0.04505910351872444,
            0.07119686156511307,
            -0.07091939449310303,
            -0.11984848976135254,
            0.160145103931427,
            -0.07577068358659744,
            -0.09305283427238464,
            0.1768866330385208,
            -0.0019936030730605125,
            0.0012642365181818604,
            -0.0792728140950203,
            -0.07036454975605011,
            -0.08724434673786163,
            -0.09042515605688095,
            -0.11972697079181671,
            -0.025730159133672714,
            0.11267022043466568,
            0.01711304858326912,
            0.10496806353330612,
            0.06563055515289307,
            0.1215536966919899,
            0.10364371538162231,
            0.10435289144515991,
            -0.16496554017066956,
            0.03400310501456261,
            -0.03356390818953514,
            0.2125115990638733,
            -0.013155660592019558,
            -0.0834280475974083,
            -0.0002202694013249129,
            -0.07539942860603333,
            0.0075523704290390015,
            0.055987101048231125,
            0.06312770396471024,
            -0.09464985132217407,
            -0.11661725491285324,
            -0.035645805299282074,
            -0.11894494295120239,
            0.13723304867744446,
            -0.12912216782569885,
            0.02238657884299755,
            -0.0023638431448489428,
            0.15657636523246765,
            0.07646265625953674,
            -0.10213764011859894,
            -0.016502296552062035,
            -0.05129766836762428,
            0.04316498711705208,
            -0.1216195747256279,
            0.10110751539468765,
            0.13064536452293396,
            -0.08694702386856079,
            -0.010587361641228199,
            -0.0018789268797263503,
            0.07028241455554962,
            0.13539643585681915,
            0.07239912450313568,
            0.008472439832985401,
            0.04515181854367256,
            -0.01369105651974678,
            0.008887700736522675,
            -0.05286147817969322,
            -0.20554649829864502,
            -0.06279017776250839,
            0.20523200929164886,
            0.08218006044626236,
            0.09081032872200012,
            0.06687414646148682,
            0.010281551629304886,
            0.011725074611604214,
            0.0015479127177968621,
            -0.02440347708761692,
            -0.017551543191075325,
            0.041785914450883865,
            -0.03651043400168419,
            0.021707838401198387,
            0.14798301458358765,
            -0.11968967318534851,
            0.00472739664837718,
            0.008072311989963055,
            0.18116651475429535,
            -0.035570576786994934,
            0.07963281869888306,
            -0.06099619343876839,
            -0.04853104054927826,
            0.15945136547088623,
            0.003655586624518037,
            0.16460734605789185,
            0.02307768166065216,
            -0.001977472333237529,
            -0.04970795288681984,
            0.15871688723564148,
            -0.10602687299251556,
            -0.05372216925024986,
            0.10754435509443283,
            0.1471441388130188,
            -0.009075154550373554,
            -0.020371194928884506,
            -0.009680659510195255,
            -0.001752389594912529,
            0.1159924864768982,
            -0.02438914217054844,
            0.0007416009320877492,
            0.0245889313519001,
            -0.014761531725525856,
            -0.022995300590991974,
            0.1335209757089615,
            -0.016055621206760406,
            -0.07166185230016708,
            0.07693611830472946,
            0.14094458520412445,
            0.0562039352953434,
            -0.058204181492328644,
            -0.1773502677679062,
            0.14568643271923065,
            0.08743834495544434,
            -0.21647880971431732,
            -0.1682635247707367,
            0.15306541323661804,
            0.1349736452102661,
            -0.019657157361507416,
            -0.02907484769821167,
            -0.006608533672988415,
            0.05053995922207832,
            0.1443566530942917,
            -0.08178631216287613,
            -0.15039588510990143,
            0.023579128086566925,
            0.1978141963481903,
            -0.06909267604351044,
            -0.04389072582125664,
            -0.053576163947582245,
            0.10292108356952667,
            0.08248097449541092,
            -0.06187031790614128,
            0.03196001052856445,
            0.04158486798405647,
            0.06711016595363617,
            0.06251891702413559,
            -0.03535817936062813,
            0.07624860107898712,
            0.133920818567276,
            -0.0778098851442337,
            0.12602220475673676,
            -0.050794441252946854,
            0.2047581970691681,
            0.06360674649477005,
            -0.11734471470117569,
            0.07760647684335709,
            -0.1678958237171173,
            0.16133497655391693,
            0.018631765618920326,
            -0.08955994993448257,
            0.09284312278032303,
            0.09159569442272186,
            -0.1296698898077011,
            0.10294369608163834,
            -0.011439184658229351,
            -0.18022502958774567,
            0.05059140920639038,
            -0.11592261493206024,
            -0.04687931388616562,
            -0.047817934304475784,
            -0.019231926649808884,
            0.0195295549929142,
            -0.19434775412082672,
            0.04208803176879883,
            -0.11082904040813446,
            -0.1154550164937973,
            0.08793918043375015,
            0.06486885249614716,
            0.0871259868144989,
            -0.035780370235443115,
            0.11053913831710815,
            0.08795354515314102,
            -0.09494885057210922,
            0.0047935605980455875,
            -0.038061920553445816,
            0.09380774945020676,
            0.01856931485235691,
            -0.08954222500324249,
            -0.001327364705502987,
            -0.1412220001220703,
            -0.0365237258374691,
            -0.17748777568340302,
            0.15125329792499542,
            -0.09958154708147049,
            -0.028680462390184402,
            0.04779783636331558,
            0.14099092781543732,
