{
  "timestamp": "2026-02-04T15:39:10.694Z",
  "episode": 20,
  "hypothesis": "EXP-016: Dueling DQN with 42-dim state (isolate architecture from features)",
  "config": {
    "symbols": [
      "BTCUSDT",
      "ETHUSDT",
      "SOLUSDT"
    ],
    "numAgents": 3,
    "trainSplit": 0.8,
    "monthsOfData": 6,
    "episodes": 120,
    "episodeLength": 1000,
    "trainFrequency": 4,
    "batchSize": 64,
    "bufferSize": 50000,
    "dqn": {
      "inputSize": 42,
      "hiddenLayers": [
        128,
        64,
        32
      ],
      "outputSize": 5,
      "learningRate": 0.00028,
      "gamma": 0.95,
      "tau": 0.01,
      "epsilonStart": 1,
      "epsilonEnd": 0.16,
      "epsilonDecay": 0.995,
      "dropout": 0.38,
      "l2Regularization": 0.028,
      "useBatchNorm": true,
      "gradientClipNorm": 0.5,
      "useHuberLoss": true,
      "huberDelta": 1,
      "actionBias": true,
      "actionBiasDecay": 0.997,
      "useDoubleDQN": true,
      "useLinearEpsilonDecay": true,
      "totalExpectedEpisodes": 120,
      "rewardBasedEpsilonAdjustment": true,
      "lowWinRateThreshold": 0.4,
      "epsilonBoostAmount": 0.1,
      "useDueling": true,
      "useNoisyNetworks": false,
      "noisySigmaInit": 0.5,
      "symbolEpsilonScaling": {
        "BTCUSDT": 1.15,
        "ETHUSDT": 1,
        "SOLUSDT": 0.95
      }
    },
    "nstep": {
      "enabled": false,
      "nSteps": 3,
      "gamma": 0.95
    },
    "per": {
      "enabled": false,
      "alpha": 0.6,
      "beta": 0.4,
      "betaIncrement": 0.001
    },
    "env": {
      "initialCapital": 10000,
      "positionSizePercent": 0.1,
      "commission": 0.001,
      "slippage": 0.0005,
      "lookbackPeriod": 100,
      "maxBarsPerEpisode": null,
      "maxDrawdownLimit": 0.15,
      "maxBarsInPosition": 100,
      "kbConfig": {
        "enabled": true,
        "addKBFeatures": true,
        "useKBRewardShaping": true
      }
    },
    "earlyStoppingPatience": 25,
    "minImprovement": 0.01,
    "logInterval": 10,
    "evalInterval": 20
  },
  "valSharpe": 8.164915157324488,
  "perSymbolResults": [
    {
      "symbol": "BTCUSDT",
      "trades": 9,
      "winRate": 33.33333333333333,
      "pnl": 9.169485877704346,
      "sharpe": 14.056675877107384
    },
    {
      "symbol": "ETHUSDT",
      "trades": 9,
      "winRate": 44.44444444444444,
      "pnl": 8.833941283459046,
      "sharpe": 9.422865718109515
    },
    {
      "symbol": "SOLUSDT",
      "trades": 13,
      "winRate": 30.76923076923077,
      "pnl": 1.6809445849109999,
      "sharpe": 1.0152038767565614
    }
  ],
  "numAgents": 3,
  "weights": [
    {
      "weights": [
        {
          "shape": [
            42,
            128
          ],
          "data": [
            -0.020951922982931137,
            0.014561780728399754,
            0.030278999358415604,
            -0.08528313785791397,
            0.08971583098173141,
            0.06029077619314194,
            0.013879338279366493,
            0.05233589559793472,
            -0.09586894512176514,
            0.1356751024723053,
            0.19057421386241913,
            0.001926858676597476,
            0.029488544911146164,
            -0.006750160362571478,
            -0.049775343388319016,
            -0.013850117102265358,
            -0.06249545142054558,
            -0.16821004450321198,
            -0.018506120890378952,
            -0.11074016988277435,
            -0.06444986909627914,
            0.05051383748650551,
            0.08531012386083603,
            0.02004055306315422,
            0.0527963787317276,
            0.03117077611386776,
            0.02664193883538246,
            0.03240615129470825,
            -0.016700366511940956,
            0.05662837252020836,
            -0.16758447885513306,
            0.11949913948774338,
            -0.009256741032004356,
            0.0895581915974617,
            -0.07348525524139404,
            -0.12169060111045837,
            0.02727534808218479,
            0.06580695509910583,
            0.08652187138795853,
            0.03614462539553642,
            0.05848473682999611,
            0.09539291262626648,
            -0.11494936048984528,
            0.13942518830299377,
            -0.014470851980149746,
            0.05110955238342285,
            0.032983679324388504,
            -0.042888179421424866,
            0.01689932867884636,
            -0.054246194660663605,
            -0.06385868042707443,
            -0.04635012522339821,
            0.025367872789502144,
            0.020366234704852104,
            0.10638132691383362,
            0.01082733366638422,
            -0.014346146956086159,
            -0.007398506626486778,
            -0.04199614375829697,
            -0.14966808259487152,
            -0.01459197886288166,
            -0.1698097437620163,
            -0.025305429473519325,
            -0.13522084057331085,
            0.14751994609832764,
            0.08308298885822296,
            0.005822116509079933,
            -0.05981405824422836,
            0.15999984741210938,
            0.02575737237930298,
            0.02664041519165039,
            0.019480543211102486,
            -0.03525262326002121,
            -0.039085980504751205,
            -0.03856716305017471,
            -0.09547175467014313,
            0.07812262326478958,
            0.05681620165705681,
            0.07040641456842422,
            -0.016664449125528336,
            0.057780809700489044,
            -0.03377912566065788,
            -0.04925559088587761,
            0.012771361507475376,
            -0.029393674805760384,
            0.06288842856884003,
            -0.009092777967453003,
            -0.13499018549919128,
            0.022051924839615822,
            0.25226467847824097,
            0.03392690792679787,
            -0.07888773083686829,
            -0.11762338131666183,
            -0.10700969398021698,
            -0.115733303129673,
            -0.07370879501104355,
            -0.10028646886348724,
            -0.195607528090477,
            -0.05456489697098732,
            0.06406902521848679,
            0.1331501305103302,
            0.06418817490339279,
            -0.11305747181177139,
            0.14761225879192352,
            0.016652951017022133,
            0.08121023327112198,
            0.04000379517674446,
            0.12787148356437683,
            -0.13925954699516296,
            0.053649745881557465,
            0.01676061563193798,
            -0.05866539850831032,
            -0.008193503133952618,
            0.17213810980319977,
            -0.013682994060218334,
            0.04825973138213158,
            -0.19462727010250092,
            0.032809335738420486,
            -0.08476649224758148,
            0.03734569624066353,
            -0.13912321627140045,
            -0.057952072471380234,
            -0.007163691334426403,
            -0.20616844296455383,
            -0.11238259822130203,
            0.022862428799271584,
            0.022460518404841423,
            -0.03942617028951645,
            -0.06671663373708725,
            0.21536210179328918,
            -0.004094543866813183,
            -0.022540666162967682,
            0.09553411602973938,
            0.05832468718290329,
            0.030346324667334557,
            0.17077375948429108,
            -0.020491482689976692,
            0.14476439356803894,
            -0.1960497796535492,
            0.06393381208181381,
            -0.09490223973989487,
            -0.1722540557384491,
            -0.10099539905786514,
            0.1182469055056572,
            -0.10531127452850342,
            0.10639866441488266,
            0.17589052021503448,
            -0.19485805928707123,
            -0.09072890132665634,
            0.08804357051849365,
            -0.04860392585396767,
            0.0599667988717556,
            -0.031922828406095505,
            -0.16853784024715424,
            0.008427349850535393,
            0.036114566028118134,
            -0.0026237487327307463,
            -0.19527097046375275,
            0.13574443757534027,
            -0.16941817104816437,
            0.13242530822753906,
            -0.10221471637487411,
            -0.16722431778907776,
            0.050651706755161285,
            0.03145092353224754,
            0.19771964848041534,
            0.005056893453001976,
            0.1532164365053177,
            0.03100508637726307,
            0.010532206855714321,
            0.021392373368144035,
            0.10250773280858994,
            0.04989906772971153,
            -0.20956769585609436,
            0.01816449873149395,
            0.20400746166706085,
            -0.12413705885410309,
            0.04004765674471855,
            -0.029154136776924133,
            0.08555427193641663,
            0.11223132163286209,
            -0.08202462643384933,
            -0.09943614155054092,
            0.0014434122713282704,
            -0.007633755914866924,
            0.1806717813014984,
            -0.14381356537342072,
            0.026777034625411034,
            0.062161482870578766,
            0.003473582910373807,
            -0.06524694710969925,
            -0.00556624261662364,
            -0.0349930115044117,
            0.18231312930583954,
            -0.08943333476781845,
            -0.033218078315258026,
            -0.007784202694892883,
            -0.029274452477693558,
            -0.2218225747346878,
            -0.03011954203248024,
            0.04511989653110504,
            -0.021050119772553444,
            0.03663814812898636,
            0.16180072724819183,
            0.019857078790664673,
            -0.0028748975601047277,
            -0.09910187870264053,
            0.09566241502761841,
            0.1060863733291626,
            0.012007408775389194,
            -0.019153956323862076,
            -0.19760997593402863,
            -0.05396132916212082,
            0.11362849920988083,
            0.08147133886814117,
            0.180623397231102,
            0.11449749022722244,
            0.10858462750911713,
            0.11319291591644287,
            -0.2676388919353485,
            -0.15532302856445312,
            -0.01901552453637123,
            0.002265819115564227,
            0.19014355540275574,
            0.14666831493377686,
            0.14714233577251434,
            -0.13824151456356049,
            0.027610139921307564,
            0.07108530402183533,
            -0.17281568050384521,
            -0.013163271360099316,
            -0.14147646725177765,
            -0.11837635189294815,
            0.06605740636587143,
            0.041042424738407135,
            0.08876994252204895,
            0.13124960660934448,
            -0.035606324672698975,
            0.0293031707406044,
            -0.17595501244068146,
            -0.07242292910814285,
            0.10262797772884369,
            -0.013566365465521812,
            0.015680557116866112,
            -0.07915762811899185,
            -0.07748652994632721,
            0.008240013383328915,
            -0.20804505050182343,
            0.02671278454363346,
            -0.12563194334506989,
            -0.1553017795085907,
            0.032013170421123505,
            -0.014402732253074646,
            0.043385330587625504,
            0.053018707782030106,
            -0.030432838946580887,
            0.08189405500888824,
            0.027939045801758766,
            -0.018869100138545036,
            -0.12794248759746552,
            0.07614924758672714,
            -0.009687475860118866,
            0.010913622565567493,
            -0.06030326336622238,
            0.04935850203037262,
            -0.1012663021683693,
            0.11098869889974594,
            0.19298800826072693,
            -0.12035451084375381,
            -0.14802934229373932,
            -0.2637909948825836,
            0.07551350444555283,
            -0.1432419866323471,
            -0.08149068057537079,
            -0.03576815873384476,
            0.04464101046323776,
            -0.0867808535695076,
            -0.030413907021284103,
            -0.07620102167129517,
            -0.13360032439231873,
            0.09478069096803665,
            -0.052059661597013474,
            0.13514883816242218,
            0.015389821492135525,
            -0.043804071843624115,
            0.05078761279582977,
            -0.0369381383061409,
            -0.24097609519958496,
            0.040815319865942,
            -0.004930379334837198,
            -0.04676385223865509,
            0.07108932733535767,
            -0.14555920660495758,
            0.03065783530473709,
            -0.04133808985352516,
            -0.05922330170869827,
            -0.1163569912314415,
            -0.015862008556723595,
            0.03068731352686882,
            0.07991459965705872,
            0.013334574177861214,
            -0.0679151862859726,
            -0.14144538342952728,
            -0.013873104937374592,
            0.16031107306480408,
            0.09304624050855637,
            -0.049936693161726,
            0.14155900478363037,
            -0.1343616545200348,
            -0.03300333395600319,
            0.12451149523258209,
            0.15972699224948883,
            -0.0019133273744955659,
            -0.16044047474861145,
            -0.05506683140993118,
            -0.11193445324897766,
            0.04502894729375839,
            0.09700722247362137,
            -0.23562490940093994,
            -0.09754439443349838,
            -0.1779286116361618,
            0.1502164900302887,
            0.008872821927070618,
            0.15610846877098083,
            -0.04038645699620247,
            -0.07731602340936661,
            -0.2043069452047348,
            -0.022045359015464783,
            -0.16344031691551208,
            -0.1660478562116623,
            -0.06564121693372726,
            -0.0380517914891243,
            -0.06482119858264923,
            0.04497490078210831,
            0.045054759830236435,
            -0.0440223403275013,
            0.0031028715893626213,
            0.028144072741270065,
            0.07515870034694672,
            -0.266644150018692,
            0.03374333307147026,
            0.035458628088235855,
            0.047033701092004776,
            0.1124483048915863,
            0.1430850625038147,
            0.14362789690494537,
            -0.17210505902767181,
            0.005785153713077307,
            0.2299714982509613,
            -0.07845564186573029,
            0.08748993277549744,
            -0.044161971658468246,
            -0.10357286781072617,
            -0.03458932787179947,
            -0.0622527115046978,
            -0.0650755763053894,
            0.16767707467079163,
            0.009035578928887844,
            -0.021574286743998528,
            -0.01039201021194458,
            0.11072716116905212,
            0.13959601521492004,
            -0.03130330517888069,
            -0.16922836005687714,
            -0.09935570508241653,
            0.023480070754885674,
            0.026415962725877762,
            0.04198214039206505,
            0.05664372816681862,
            -0.03211458772420883,
            0.10214155912399292,
            -0.13341090083122253,
            -0.12774506211280823,
            -0.08804816752672195,
            0.00647743372246623,
            -0.07326153665781021,
            -0.10561375319957733,
            -0.1672288328409195,
            -0.15904510021209717,
            0.012544052675366402,
            -0.12295552343130112,
            0.00300595979206264,
            -0.15656091272830963,
            -0.10604425519704819,
            0.14501681923866272,
            -0.07532733678817749,
            -0.15383613109588623,
            -0.1657334417104721,
            -0.18703266978263855,
            0.10854874551296234,
            -0.17701780796051025,
            0.008389449678361416,
            0.08867752552032471,
            -0.042282335460186005,
            -0.052949048578739166,
            -0.08095544576644897,
            -0.09083638340234756,
            0.18180060386657715,
            0.0053101591765880585,
            0.003216713899746537,
            -0.08226834982633591,
            -0.0936795249581337,
            0.05394710600376129,
            -0.05368155241012573,
            0.016374967992305756,
            0.1831570714712143,
            -0.21381914615631104,
            -0.009739996865391731,
            0.022876746952533722,
            0.002679684432223439,
            -0.06052187457680702,
            0.035701852291822433,
            -0.2040969878435135,
            0.18867525458335876,
            0.16184237599372864,
            0.027069497853517532,
            0.0668816938996315,
            0.06334803253412247,
            -0.06229972094297409,
            -0.004956409800797701,
            0.04571080207824707,
            -0.08220919966697693,
            0.018268747255206108,
            0.12201893329620361,
            0.05024317651987076,
            0.1965002864599228,
            -0.0549275279045105,
            0.08417962491512299,
            0.10043589770793915,
            0.16316115856170654,
            -0.11942135542631149,
            -0.007725002244114876,
            -0.08087445050477982,
            -0.1014333963394165,
            0.06094105914235115,
            0.031854599714279175,
            -0.1793038696050644,
            0.11160839349031448,
            0.09095636010169983,
            0.02737858146429062,
            0.03178335726261139,
            -0.008591309189796448,
            0.01154706533998251,
            -0.2053510546684265,
            -0.10033343732357025,
            -0.06345729529857635,
            -0.10476627200841904,
            0.149169921875,
            0.11510936170816422,
            0.10186289995908737,
            -0.002796770539134741,
            -0.002591838361695409,
            0.005121645051985979,
            0.13287316262722015,
            -0.10331234335899353,
            0.07944676280021667,
            -0.0662207081913948,
            -0.049874428659677505,
            -0.029863866046071053,
            0.03580491989850998,
            -0.073508620262146,
            0.0907219722867012,
            0.08448172360658646,
            0.014665517956018448,
            0.00208289735019207,
            0.09646685421466827,
            -0.04517712816596031,
            0.15755048394203186,
            0.046190548688173294,
            0.09850405901670456,
            -0.10494982451200485,
            0.03890414908528328,
            0.06909029930830002,
            -0.0949358269572258,
            -0.014356925152242184,
            0.10139787942171097,
            -0.0698971375823021,
            0.0650983452796936,
            -0.013193957507610321,
            -0.03275109827518463,
            -0.019390560686588287,
            -0.08556544035673141,
            -0.04521625116467476,
            0.2142326831817627,
            -0.10396453738212585,
            0.0827699676156044,
            0.008539056405425072,
            -0.00175726437009871,
            -0.018348274752497673,
            0.07199583947658539,
            0.06803007423877716,
            -0.1401929259300232,
            -0.043482664972543716,
            0.06881175935268402,
            0.03859017789363861,
            -0.26260653138160706,
            0.013720226474106312,
            0.0602334663271904,
            -0.12531553208827972,
            -0.02977229841053486,
            -0.16920144855976105,
            -0.08511378616094589,
            -0.11555060744285583,
            -0.004946860484778881,
            -0.21958027780056,
            -0.04669035226106644,
            0.011423105373978615,
            0.011306687258183956,
            0.14504244923591614,
            0.06977581232786179,
            -0.12500499188899994,
            -0.12047214061021805,
            0.13993099331855774,
            0.03282494843006134,
            0.10731473565101624,
            0.13346156477928162,
            0.09218453615903854,
            0.06425758451223373,
            -0.008984747342765331,
            0.039139874279499054,
            -0.05122804269194603,
            -0.03420213982462883,
            -0.015996837988495827,
            0.08710397034883499,
            0.09202908724546432,
            0.061806388199329376,
            0.11731978505849838,
            0.050971947610378265,
            0.038839709013700485,
            0.013135246001183987,
            0.2331036627292633,
            -0.19023971259593964,
            0.13988937437534332,
            -0.09089358150959015,
            -0.027300499379634857,
            0.0759768858551979,
            0.12222779542207718,
            -0.13014306128025055,
            -0.04158759117126465,
            -0.05857985094189644,
            0.04737864062190056,
            -0.0025118975900113583,
            -0.03218896687030792,
            -0.015372044406831264,
            0.0671660527586937,
            -0.12605944275856018,
            -0.08329451829195023,
            0.016634413972496986,
            -0.08769361674785614,
            0.0010129461297765374,
            0.052393633872270584,
            -0.1105525866150856,
            -0.00033908188925124705,
            0.029426831752061844,
            0.012463472783565521,
            0.14598049223423004,
            -0.08617540448904037,
            0.007092355750501156,
            0.0041464949026703835,
            0.14462243020534515,
            -0.08596094697713852,
            0.00513507891446352,
            -0.03865814581513405,
            -0.01784502901136875,
            -0.18890923261642456,
            0.07564470171928406,
            0.20815911889076233,
            -0.008977217599749565,
            0.055918361991643906,
            -0.06003748998045921,
            -0.03654271364212036,
            0.12472519278526306,
            -0.10288219898939133,
            0.02886495180428028,
            0.19702444970607758,
            -0.03249651566147804,
            0.10326753556728363,
            0.08578302711248398,
            0.22018462419509888,
            -0.044100794941186905,
            0.04480283707380295,
            0.04369264468550682,
            0.10315237194299698,
            -0.12642209231853485,
            0.02925826981663704,
            0.08682769536972046,
            -0.12078946828842163,
            -0.00724366120994091,
            -0.02916560135781765,
            -0.1542511284351349,
            0.03904331102967262,
            -0.11011449992656708,
            0.028995951637625694,
            0.14133694767951965,
            0.013184304349124432,
            -0.07668904960155487,
            -0.02605598047375679,
            -0.02563081495463848,
            -0.04720763489603996,
            -0.028153829276561737,
            -0.026444079354405403,
            0.18350693583488464,
            -0.01008594874292612,
            0.02523873932659626,
            -0.07449757307767868,
            -0.004096474498510361,
            -0.12726666033267975,
            -0.08478329330682755,
            0.061037708073854446,
            -0.06209680065512657,
            0.07318366318941116,
            -0.08813696354627609,
            -0.016315944492816925,
            -0.17115627229213715,
            0.1204359233379364,
            -0.1441912055015564,
            -0.12116383761167526,
            0.021481193602085114,
            0.026980329304933548,
            -0.11086022853851318,
            -0.03996550291776657,
            0.1452857404947281,
            0.02657613903284073,
            -0.08760402351617813,
            0.01304027158766985,
            -0.04674839973449707,
            0.026406478136777878,
            0.09431828558444977,
            -0.0252391267567873,
            0.208509162068367,
            0.13266830146312714,
            0.11806050688028336,
            -0.1543063074350357,
            -0.17690229415893555,
            -0.010704338550567627,
            -0.11143913865089417,
            0.15309159457683563,
            0.09480403363704681,
            0.09420212358236313,
            0.09598535299301147,
            -0.10324493050575256,
            0.058678917586803436,
            0.14362506568431854,
            0.11996205896139145,
            -0.09645216912031174,
            -0.07229989767074585,
            0.03844679147005081,
            0.01374770887196064,
            -0.11501771211624146,
            -0.09609386324882507,
            -0.000851782679092139,
            0.005898105911910534,
            0.08619312942028046,
            -0.11984249204397202,
            -0.015935538336634636,
            -0.01842925325036049,
            -0.021472370252013206,
            -0.03444480895996094,
            -0.12963983416557312,
            -0.19684885442256927,
            -0.045864038169384,
            -0.1484227180480957,
            0.09265229105949402,
            0.01872902736067772,
            -0.01485370472073555,
            0.11637934297323227,
            0.048235051333904266,
            -0.14931978285312653,
            -0.011965361423790455,
            0.08319643139839172,
            -0.11699049174785614,
            -0.049857765436172485,
            0.0490860790014267,
            -0.11642610281705856,
            0.06619725376367569,
            0.017286155372858047,
            0.008893614634871483,
            0.10470645129680634,
            0.1477494090795517,
            -0.05536266788840294,
            0.024147111922502518,
            0.09477435797452927,
            0.02846340462565422,
            -0.07044824957847595,
            -0.012431932613253593,
            -0.13172990083694458,
            0.04521910473704338,
            -0.0911085456609726,
            0.06912612169981003,
            0.04591251537203789,
            0.04493961110711098,
            0.1408177614212036,
            0.024079738184809685,
            0.10345634073019028,
            0.13867434859275818,
            0.15430644154548645,
            0.0212432648986578,
            0.19817198812961578,
            0.02375614643096924,
            -0.12372016906738281,
            -0.06442229449748993,
            -0.04644529148936272,
            0.03430067375302315,
            0.09122554957866669,
            0.06199522316455841,
            -0.12946821749210358,
            0.010306944139301777,
            -0.04434552788734436,
            0.03426335006952286,
            -0.09944292902946472,
            0.09070757031440735,
            0.10553179681301117,
            -0.06954097747802734,
            -0.10923444479703903,
            0.05023179203271866,
            0.07207666337490082,
            -0.002585355192422867,
            -0.008970357477664948,
            0.023144444450736046,
            0.058716364204883575,
            -0.0106536028906703,
            0.18977433443069458,
            -0.044969141483306885,
            0.032808706164360046,
            -0.05198684707283974,
            -0.12425991147756577,
            -0.003125706221908331,
            -0.05188589543104172,
            -0.06813754886388779,
            0.07071064412593842,
            -0.06558343768119812,
            0.018788907676935196,
            0.035820867866277695,
            -0.05120081081986427,
            -0.10947050154209137,
            0.18025676906108856,
            0.002163825323805213,
            -0.020769963040947914,
            -0.1480904370546341,
            0.13263538479804993,
            -0.12463721632957458,
            -0.08727126568555832,
            -0.014844846911728382,
            0.18254294991493225,
            -0.07748711854219437,
            -0.0738932266831398,
            0.16819220781326294,
            -0.04849320277571678,
            -0.14038236439228058,
            -0.05086377263069153,
            0.05494878068566322,
            -0.09551980346441269,
            -0.02105320245027542,
            -0.0035715776029974222,
            0.15628397464752197,
            0.08799292147159576,
            0.1606384813785553,
            0.004431985318660736,
            0.07731007039546967,
            0.00104908412322402,
            0.12950466573238373,
            0.08162005245685577,
            0.09229922294616699,
            0.13369780778884888,
            0.09730216860771179,
            -0.07331724464893341,
            -0.031424906104803085,
            -0.06184476241469383,
            -0.04340950399637222,
            -0.17977119982242584,
            0.06539828330278397,
            -0.08225470036268234,
            -0.02328045293688774,
            0.008890886791050434,
            -0.174024760723114,
            0.029293224215507507,
            0.09964866936206818,
            0.0976850688457489,
            -0.06058672443032265,
            0.16101740300655365,
            -0.024316325783729553,
            -0.018047602847218513,
            -0.20425277948379517,
            0.007086140103638172,
            -0.03885671868920326,
            0.1455472856760025,
            0.09958291798830032,
            -0.03689759969711304,
            -0.001245995401404798,
            0.22455112636089325,
            0.12407172471284866,
            -0.3083035945892334,
            0.12638318538665771,
            -0.15700605511665344,
            0.009103058837354183,
            0.0037015017587691545,
            0.03700713440775871,
            -0.1289779394865036,
            -0.21162977814674377,
            -0.022994786500930786,
            0.09466889500617981,
            0.1955558806657791,
            -0.006978715304285288,
            0.00504273921251297,
            -0.22094286978244781,
            0.175215944647789,
            0.008912932127714157,
            -0.20107650756835938,
            0.10764992237091064,
            0.0013216909719631076,
            0.14858600497245789,
            -0.2128598541021347,
            -0.1924184262752533,
            0.12496857345104218,
            0.16637805104255676,
            -0.019392691552639008,
            -0.04326952248811722,
            0.0768488198518753,
            -0.02504097670316696,
            -0.041713643819093704,
            0.05743066966533661,
            -0.00628150487318635,
            0.11346019059419632,
            -0.03196451812982559,
            -0.22763992846012115,
            0.024944916367530823,
            -0.08232759684324265,
            -0.10556633025407791,
            0.024577904492616653,
            0.040242839604616165,
            -0.0772322416305542,
            -0.11056149005889893,
            0.21140246093273163,
            0.03430318087339401,
            -0.04994940012693405,
            0.04787586256861687,
            -0.10198959708213806,
            -0.04245854541659355,
            0.05594487488269806,
            -0.14772629737854004,
            -0.21874523162841797,
            0.00719294510781765,
            -0.11850408464670181,
            -0.019827811047434807,
            -0.05085809901356697,
            -0.019660286605358124,
            0.03269147500395775,
            0.042823657393455505,
            -0.11416718363761902,
            -0.018396634608507156,
            -0.02738652005791664,
            0.008434205316007137,
            -0.14834481477737427,
            0.0652981773018837,
            0.041125550866127014,
            0.05253281816840172,
            -0.08941974490880966,
            0.10062477737665176,
            -0.19555258750915527,
            -0.07082517445087433,
            0.060481052845716476,
            -0.01890551671385765,
            -0.002405237639322877,
            -0.05425899848341942,
            0.1595437377691269,
            -0.19046753644943237,
            -0.1516786813735962,
            -0.009254660457372665,
            0.1518099159002304,
            0.024310579523444176,
            -0.08362314850091934,
            0.16322772204875946,
            0.11822164803743362,
            -0.14844849705696106,
            0.05730081722140312,
            0.04659438505768776,
            0.03900602087378502,
            0.12218355387449265,
            -0.12771932780742645,
            0.11580508202314377,
            -0.15011714398860931,
            -0.11310521513223648,
            0.09231870621442795,
            -0.017481673508882523,
            0.024846184998750687,
            0.20963622629642487,
            -0.09449250996112823,
            0.02667168714106083,
            0.07620905339717865,
            -0.11285430938005447,
            -0.18713679909706116,
            -0.09695572406053543,
            0.035936545580625534,
            0.13321805000305176,
            0.076389841735363,
            0.1743360459804535,
            -0.02817917801439762,
            -0.12939459085464478,
            0.10282672941684723,
            0.11816441267728806,
            -0.15790483355522156,
            0.14624866843223572,
            -0.084907166659832,
            0.021084770560264587,
            0.1904860883951187,
            -0.03828437998890877,
            0.004193800501525402,
            -0.03283372521400452,
            0.03844323009252548,
            0.0030348345171660185,
            -0.043882906436920166,
            -0.07163592427968979,
            -0.009382534772157669,
            -0.05031063035130501,
            -0.10665759444236755,
            -0.02384701929986477,
            -0.039023470133543015,
            0.18250375986099243,
            -0.002131079090759158,
            -0.025645166635513306,
            -0.05730089545249939,
            0.031840622425079346,
            -0.1326797753572464,
            0.2128153145313263,
            0.06286350637674332,
            0.01946079544723034,
            -0.11911316961050034,
            -0.06760846078395844,
            -0.001853330759331584,
            0.1643102467060089,
            -0.014999247156083584,
            -0.09191613644361496,
            -0.0916450247168541,
            0.039353907108306885,
            -0.12298949062824249,
            0.19231979548931122,
            0.12869130074977875,
            -0.14071796834468842,
            -0.13351014256477356,
            -0.007037078030407429,
            0.02665543742477894,
            0.037112511694431305,
            0.13703380525112152,
            -0.07999181002378464,
            0.10800743103027344,
            -0.14581148326396942,
            0.011629306711256504,
            0.23024488985538483,
            -0.2083752602338791,
            -0.09142090380191803,
            -0.140774667263031,
            -0.07223136723041534,
            0.0923754870891571,
            0.0028360511641949415,
            0.1445491462945938,
            -0.13604843616485596,
            0.0238480344414711,
            0.09508069604635239,
            0.010033817030489445,
            -0.1662847250699997,
            0.0281599722802639,
            0.02153421938419342,
            0.13963939249515533,
            -0.21019808948040009,
            -0.0792667344212532,
            -0.07470277696847916,
            -0.17010760307312012,
            -0.10518757253885269,
            0.09351212531328201,
            0.02732563577592373,
            -0.18599554896354675,
            0.012058448046445847,
            0.10103067010641098,
            -0.02472596988081932,
            -0.1884070187807083,
            -0.09517199546098709,
            -0.11441753804683685,
            0.0014061849797144532,
            -0.07403422147035599,
            -0.22861771285533905,
            0.16064809262752533,
            0.0005680068279616535,
            -0.001559480675496161,
            0.11153949797153473,
            0.09564919769763947,
            -0.07331224530935287,
            0.02708245813846588,
            0.016285130754113197,
            -0.005427562166005373,
            -0.0816647931933403,
            -0.1572769582271576,
            0.18037131428718567,
            -0.07984447479248047,
            0.08005356043577194,
            -0.0998639315366745,
            -0.034508686512708664,
            0.15149812400341034,
            -0.12183845043182373,
            -0.02555842325091362,
            -0.015497971326112747,
            -0.008139355108141899,
            -0.13235920667648315,
            -0.015777304768562317,
            -0.06736374646425247,
            0.15548256039619446,
            0.10400351881980896,
            -0.009004863910377026,
            -0.0004624856519512832,
            -0.05423552170395851,
            -0.1711043268442154,
            -0.08279501646757126,
            0.08693975955247879,
            -0.009721482172608376,
            -0.11241370439529419,
            -0.021930241957306862,
            -0.11947101354598999,
            -0.07338070869445801,
            0.10207544267177582,
            -0.060500260442495346,
            -0.07638183236122131,
            0.06661655753850937,
            0.08290421962738037,
            -0.1404649317264557,
            -0.03170962259173393,
            -0.032355569303035736,
            -0.07806657254695892,
            0.004129220265895128,
            -0.10641194880008698,
            -0.13435101509094238,
            -0.0586954802274704,
            -0.05598572641611099,
            0.030080532655119896,
            0.004841730464249849,
            0.06044087931513786,
            0.11922720819711685,
            0.002416843781247735,
            -0.2116827815771103,
            -0.014323701150715351,
            -0.057892873883247375,
            0.07777427136898041,
            -0.22093898057937622,
            -0.08110015839338303,
            0.14433921873569489,
            0.08626402169466019,
            -0.03738439455628395,
            -0.06641329824924469,
            0.17427904903888702,
            0.1544836163520813,
            0.03713588789105415,
            -0.13315165042877197,
            0.18161360919475555,
            0.011548147536814213,
            0.03924724832177162,
            -0.16748763620853424,
            -0.12542925775051117,
            0.0179788488894701,
            -0.08701000362634659,
            -0.1271945834159851,
            0.018208548426628113,
            -0.04687536135315895,
            -0.03210758417844772,
            0.16169996559619904,
            0.1341812014579773,
            0.0275392085313797,
            -0.12336471676826477,
            -0.21204955875873566,
            0.22926953434944153,
            0.1042899414896965,
            -0.19561371207237244,
            0.017947761341929436,
            0.06555942445993423,
            -0.10788257420063019,
            -0.11309122294187546,
            -0.09401834011077881,
            -0.1320979744195938,
            0.09261772781610489,
            -0.07637349516153336,
            -0.05914479121565819,
            0.016591591760516167,
            -0.04407094419002533,
            0.07597334682941437,
            0.1407192200422287,
            -0.13077117502689362,
            -0.02640393003821373,
            -0.01228293776512146,
            -0.08751869201660156,
            0.036995481699705124,
            0.1278866082429886,
            0.17291435599327087,
            0.033326562494039536,
            0.05525163561105728,
            -0.05824897438287735,
            0.012874811887741089,
            -0.005837408825755119,
            -0.031353432685136795,
            0.03531603515148163,
            -0.03830407187342644,
            -0.03627447411417961,
            0.11853936314582825,
            -0.03736778721213341,
            0.0011437023058533669,
            -0.15312407910823822,
            -0.03896087035536766,
            0.07492408901453018,
            0.06804924458265305,
            0.14362739026546478,
            -0.13021306693553925,
            -0.09314689040184021,
            -0.1836334764957428,
            -0.0859677717089653,
            0.056401316076517105,
            0.05942152813076973,
            0.061678629368543625,
            0.23270411789417267,
            -0.01787719316780567,
            -0.08052796870470047,
            -0.11990649998188019,
            -0.2662551999092102,
            0.031616415828466415,
            -0.1534268707036972,
            -0.07960398495197296,
            0.11135002225637436,
            -0.07556481659412384,
            0.17217975854873657,
            0.11726107448339462,
            0.08064030110836029,
            0.03283177688717842,
            0.11214534193277359,
            -0.11069902032613754,
            0.06193976476788521,
            -0.10844458639621735,
            -0.08681006729602814,
            -0.09644130617380142,
            0.15061940252780914,
            0.08866596221923828,
            0.0564902164041996,
            -0.10513458400964737,
            -0.07997705042362213,
            0.10907147079706192,
            0.15571671724319458,
            -0.050910018384456635,
            0.012469329871237278,
            -0.02684391289949417,
            -0.021536149084568024,
            -0.04652189090847969,
            -0.0927407443523407,
            0.03737661615014076,
            -0.05566127970814705,
            -0.01774510368704796,
            -0.1157173365354538,
            -0.05732860043644905,
            0.1716945767402649,
            -0.05352594703435898,
            -0.07611268013715744,
            0.1861993819475174,
            -0.12659132480621338,
            -0.12279012054204941,
            -0.1031586155295372,
            0.1692284643650055,
            0.10169953107833862,
            -0.11116737872362137,
            -0.0410960391163826,
            0.11717044562101364,
            0.01896432600915432,
            0.22850583493709564,
            -0.03745502978563309,
            -0.15423281490802765,
            0.05081372708082199,
            -0.08609984070062637,
            0.029657866805791855,
            0.05273456498980522,
            0.0562458410859108,
            0.08651901036500931,
            -0.07804607599973679,
            -0.14109092950820923,
            -0.17261676490306854,
            0.08015098422765732,
            -0.0894007533788681,
            0.1501157432794571,
            0.14882248640060425,
            -0.15648087859153748,
            0.06706137210130692,
            -0.1780390739440918,
            0.03196211904287338,
            0.11546491086483002,
            0.12191836535930634,
            -0.030507883056998253,
            0.08636680990457535,
            -0.20840808749198914,
            0.1522507667541504,
            0.14956095814704895,
            -0.1569303572177887,
            0.1429218202829361,
            -0.014754312112927437,
            -0.07352469861507416,
            0.04267870634794235,
            0.13110759854316711,
            0.14327526092529297,
            0.04705300182104111,
            -0.01839613914489746,
            0.006609980016946793,
            -0.09165900200605392,
            -0.1828642189502716,
            -0.00862093735486269,
            -0.2064070850610733,
            -0.08417998999357224,
            0.09050790965557098,
            -0.026886742562055588,
            0.004892999306321144,
            -0.06445414572954178,
            0.0739564597606659,
            0.155438631772995,
            -0.022765951231122017,
            -0.1811141073703766,
            0.028559928759932518,
            0.07632077485322952,
            -0.09403499215841293,
            0.17279206216335297,
            0.014071657322347164,
            0.05872673541307449,
            0.08017804473638535,
            -0.053842972964048386,
            -0.04482819885015488,
            0.06279928982257843,
            0.059285178780555725,
            -0.058388177305459976,
            -0.14684361219406128,
            0.05235911160707474,
            0.16469453275203705,
            -0.06832335889339447,
            -0.024556946009397507,
            -0.05790078639984131,
            -0.14095619320869446,
            0.005909400060772896,
            0.07089840620756149,
            0.024192584678530693,
            0.06943822652101517,
            0.13152851164340973,
            0.1816491037607193,
            0.04443208873271942,
            -0.10265979915857315,
            0.004328199662268162,
            -0.19250644743442535,
            -0.20560620725154877,
            0.030313532799482346,
            0.08408264815807343,
            0.11798898130655289,
            0.07349222898483276,
            -0.10487611591815948,
            -0.06655076891183853,
            -0.03338751569390297,
            0.0049031819216907024,
            0.06883610039949417,
            -0.008742975071072578,
            -0.06749611347913742,
            0.12533214688301086,
            0.1040576621890068,
            -0.02056252770125866,
            0.019337601959705353,
            -0.06579963862895966,
            0.004310872871428728,
            0.08479480445384979,
            0.030703606083989143,
            0.20637698471546173,
            -0.07951250672340393,
            0.012362271547317505,
            -0.05968585982918739,
            0.05825454369187355,
            0.06062096729874611,
            0.022279823198914528,
            0.14129629731178284,
            0.14531196653842926,
            -0.009108193218708038,
            -0.02033659629523754,
            -0.006346545182168484,
            0.030814236029982567,
            -0.05846964567899704,
            0.21712720394134521,
            0.12793788313865662,
            -0.02396739460527897,
            0.011613552458584309,
            -0.07020676881074905,
            -0.08162031322717667,
            0.10179959982633591,
            -0.0014540002448484302,
            0.09850476682186127,
            -0.1443450152873993,
            0.20155532658100128,
            0.00039499925333075225,
            -0.08226499706506729,
            -0.1409461349248886,
            -0.09405555576086044,
            0.049480076879262924,
            -0.017666678875684738,
            0.077571339905262,
            -0.07208709418773651,
            -0.012008669786155224,
            0.04525408893823624,
            -0.019079258665442467,
            -0.01925923116505146,
            0.01130498107522726,
            -0.19424323737621307,
            0.11758687347173691,
            -0.18951824307441711,
            -0.003211469855159521,
            0.12656839191913605,
            0.1484190821647644,
            0.06939922273159027,
            -0.05984698235988617,
            -0.1019420251250267,
            -0.034056782722473145,
            -0.12665675580501556,
            -0.0607113316655159,
            0.2485562413930893,
            -0.0720771998167038,
            -0.09588810056447983,
            0.030725404620170593,
            0.06422947347164154,
            0.13811813294887543,
            -0.10482632368803024,
            -0.1145055890083313,
            -0.021537957713007927,
            -0.11218297481536865,
            0.0006705752457492054,
            0.11635396629571915,
            -0.08223624527454376,
            -0.1772172898054123,
            -0.0267607644200325,
            -0.11711937934160233,
            0.07635504007339478,
            0.08016089349985123,
            0.16101789474487305,
            -0.026397105306386948,
            0.0033900467678904533,
            0.03340070694684982,
            0.03249691054224968,
            -0.02310408465564251,
            -0.01977694034576416,
            -0.01743520423769951,
            -0.06787558645009995,
            0.12253444641828537,
            0.02748001366853714,
            0.1359073519706726,
            -0.00032319233287125826,
            0.0783243402838707,
            0.015808863565325737,
            0.1853846162557602,
            0.185495525598526,
            -0.09329913556575775,
            0.17351774871349335,
            0.0790771096944809,
            0.20335620641708374,
            -0.07011624425649643,
            -0.15086878836154938,
            -0.02566470578312874,
            -0.1040048897266388,
            -0.1876334547996521,
            -0.1404155045747757,
            0.009389935992658138,
            -0.006688726134598255,
            -0.09490872174501419,
            0.052517108619213104,
            0.1983928233385086,
            0.10909635573625565,
            -0.04402920603752136,
            0.01702808402478695,
            -0.04385076463222504,
            -0.10083415359258652,
            0.23484334349632263,
            0.13313806056976318,
            0.180880606174469,
            -0.007498839870095253,
            0.12649846076965332,
            0.029805006459355354,
            -0.061728585511446,
            -0.039733029901981354,
            0.23563125729560852,
            -0.016605226323008537,
            -0.05964716151356697,
            -0.05189487710595131,
            0.12051486223936081,
            -0.18073317408561707,
            -0.06976067274808884,
            -0.0729670450091362,
            0.031132981181144714,
            0.033921778202056885,
            -0.12092868983745575,
            -0.019912587478756905,
            -0.16153763234615326,
            -0.04583202674984932,
            0.07652422785758972,
            0.07354728132486343,
            -0.16698487102985382,
            0.03382471948862076,
            -0.019180376082658768,
            0.05758256837725639,
            -0.20130334794521332,
            -0.02227608859539032,
            -0.012292402796447277,
            -0.10502950102090836,
            0.10267478972673416,
            -0.004641985986381769,
            0.0025153772439807653,
            -0.059827107936143875,
            -0.06986525654792786,
            0.06458190083503723,
            -0.010056809522211552,
            0.03362901136279106,
            0.11712480336427689,
            0.02412314899265766,
            0.041296739131212234,
            -0.12104734778404236,
            -0.05673122778534889,
            -0.2186998575925827,
            -0.05641224607825279,
            -0.006562848575413227,
            -0.04171132296323776,
            -0.12208151072263718,
            0.060159020125865936,
            0.10730167478322983,
            -0.04443905130028725,
            0.030739709734916687,
            0.03524498641490936,
            -0.13878439366817474,
            -0.01581290178000927,
            0.028516296297311783,
            0.11319627612829208,
            0.07561136037111282,
            -0.08150029927492142,
            -0.11184012144804001,
            0.14394813776016235,
            -0.05172378569841385,
            0.022286204621195793,
            0.15636928379535675,
            0.08149353414773941,
            0.013778416439890862,
            -0.06412578374147415,
            0.04591338708996773,
            -0.10924763232469559,
            0.13934384286403656,
            0.08097125589847565,
            0.058759987354278564,
            0.07117725908756256,
            0.12399845570325851,
            0.19246888160705566,
            -0.2388065755367279,
            -0.004479801282286644,
            0.10135103762149811,
            0.028723884373903275,
            0.20247028768062592,
            0.05707612633705139,
            0.11032451689243317,
            -0.1204943060874939,
            -0.13325707614421844,
            -0.15046921372413635,
            -0.0011719478061422706,
            -0.004064939450472593,
            -0.17466333508491516,
            0.0299703199416399,
            -0.08386444300413132,
            0.18838849663734436,
            0.04227522760629654,
            0.02388167195022106,
            0.05161913484334946,
            -0.009202391840517521,
            0.08918958902359009,
            -0.06211432069540024,
            0.08111496269702911,
            0.048876699060201645,
            -0.08840176463127136,
            -0.026097632944583893,
            -0.059605684131383896,
            -0.061993442475795746,
            -0.10550517588853836,
            0.1364731341600418,
            0.058386869728565216,
            -0.019840044900774956,
            0.04367084056138992,
            -0.05709776282310486,
            0.12987622618675232,
            -0.058693353086709976,
            -0.041087061166763306,
            0.08906599134206772,
            0.08054173737764359,
            0.011470263823866844,
            0.16781863570213318,
            0.13789570331573486,
            0.022606095299124718,
            -0.08268152177333832,
            -0.1705821007490158,
            -0.04433782771229744,
            -0.1103229895234108,
            -0.04436909034848213,
            0.17051686346530914,
            -0.009532310999929905,
            0.0013724665623158216,
            0.11199736595153809,
            0.18901342153549194,
            -0.007137721870094538,
            -0.028629358857870102,
            0.190421462059021,
            0.13164211809635162,
            -0.11527692526578903,
            0.06779541075229645,
            -0.06569135934114456,
            0.03268937021493912,
            0.05364854261279106,
            0.05341113358736038,
            -0.12721148133277893,
            -0.045137837529182434,
            0.2191743552684784,
            0.08799134194850922,
            0.11401448398828506,
            -0.08495767414569855,
            -0.07317150384187698,
            0.08314992487430573,
            0.18147766590118408,
            -0.08631168305873871,
            -0.10182853788137436,
            0.06392240524291992,
            -0.0335615910589695,
            0.1270962804555893,
            0.010965349152684212,
            -0.0643923282623291,
            0.2001027911901474,
            -0.042432691901922226,
            0.10767515748739243,
            -0.08912060409784317,
            -0.09692467749118805,
            0.030636025592684746,
            -0.19561919569969177,
            0.06804260611534119,
            0.06883662194013596,
            -0.03030671924352646,
            0.0014533639186993241,
            -0.02770574577152729,
            -0.06005224585533142,
            -0.10623212158679962,
            0.11124571412801743,
            -0.001620008028112352,
            -0.0752858966588974,
            -0.03692479059100151,
            0.032313574105501175,
            -0.07985130697488785,
            0.025979744270443916,
            -0.1725858747959137,
            -0.0026036002673208714,
            0.21627944707870483,
            -0.001333829597570002,
            0.15584804117679596,
            0.11282521486282349,
            0.16664034128189087,
            -0.13290773332118988,
            -0.11050236225128174,
            -0.031307123601436615,
            0.10290533304214478,
            -0.04926029220223427,
            -0.03760403394699097,
            0.037948496639728546,
            0.04932795837521553,
            -0.01740337535738945,
            0.07109823822975159,
            0.011495435610413551,
            -0.1752774566411972,
            0.010012766346335411,
            -0.16131781041622162,
            0.046416424214839935,
            0.10209964960813522,
            -0.2135491967201233,
            -0.14767678081989288,
            -0.07290726900100708,
            0.06223313510417938,
            -0.09820259362459183,
            -0.12767493724822998,
            -0.06990353018045425,
            -0.10979539155960083,
            0.05879085883498192,
            -0.002768031321465969,
            0.05808297172188759,
            -0.043719470500946045,
            0.011423453688621521,
            0.04804043844342232,
            0.13790622353553772,
            -0.173303484916687,
            -0.0061281356029212475,
            0.04429197311401367,
            -0.017596974968910217,
            -0.08658596873283386,
            -0.0837506502866745,
            0.010255144909024239,
            -0.028581000864505768,
            0.07464748620986938,
            0.09669078886508942,
            0.030347755178809166,
            0.07329985499382019,
            -0.10511185228824615,
            -0.07490886747837067,
            -0.019277071580290794,
            -0.18804225325584412,
            -0.07478088140487671,
            -0.024912109598517418,
            -0.11727941781282425,
            0.09660787880420685,
            -0.18268056213855743,
            -0.005544046405702829,
            0.1369941383600235,
            -0.017265381291508675,
            0.028521420434117317,
            -0.2092723399400711,
            -0.07051356881856918,
            -0.03924179822206497,
            0.07402262091636658,
            0.04478970915079117,
            0.045056819915771484,
            0.015168743208050728,
            -0.11840994656085968,
            -0.14735659956932068,
            -0.10475337505340576,
            -0.10484917461872101,
            -0.041098203510046005,
            0.03229536488652229,
            -0.13643719255924225,
            -0.17587898671627045,
            -0.09354739636182785,
            -0.16533692181110382,
            -0.15424539148807526,
            -0.03133387491106987,
            -0.06025262549519539,
            -0.0047239018604159355,
            -0.11507298052310944,
            -0.10781542956829071,
            -0.058835335075855255,
            0.10255515575408936,
            0.026172637939453125,
            -0.13541723787784576,
            -0.030274678021669388,
            0.04596820846199989,
            0.18608435988426208,
            0.07806061953306198,
            -0.011653801426291466,
            -0.002205268945544958,
            0.0952460989356041,
            0.013660643249750137,
            0.014918848872184753,
            -0.07616135478019714,
            0.009453453123569489,
            -0.006545300595462322,
            -0.061331167817115784,
            -0.13679197430610657,
            0.14653825759887695,
            0.06641675531864166,
            -0.02155260555446148,
            0.1404724419116974,
            0.11367405951023102,
            0.021454742178320885,
            -0.0660957545042038,
            -0.09616921097040176,
            -0.03688556328415871,
            -0.027508340775966644,
            -0.03189832717180252,
            0.13250283896923065,
            -0.09168263524770737,
            0.08252038806676865,
            -0.021486347541213036,
            0.00031968747498467565,
            0.11415271461009979,
            0.013135452754795551,
            -0.16206355392932892,
            -0.021603966131806374,
            0.06667611002922058,
            -0.06817148625850677,
            0.04488341137766838,
            -0.033188097178936005,
            -0.007903696037828922,
            -0.01235736720263958,
            -0.0659400001168251,
            -0.07236652821302414,
            0.09342639148235321,
            -0.05027839541435242,
            0.01668495126068592,
            0.1909218281507492,
            -0.11085841804742813,
            0.1517292559146881,
            0.13876350224018097,
            -0.11569232493638992,
            0.058978691697120667,
            0.05127197504043579,
            0.027721654623746872,
            -0.07298946380615234,
            0.13416710495948792,
            -0.11474044620990753,
            0.06699775159358978,
            0.10213340818881989,
            -0.045542310923337936,
            -0.014372983947396278,
            0.026622172445058823,
            0.11568564176559448,
            0.005789936985820532,
            -0.058623265475034714,
            -0.17737065255641937,
            -0.100233294069767,
            -0.06106342002749443,
            -0.029002351686358452,
            -0.05786852166056633,
            0.02166312374174595,
            -0.023099593818187714,
            0.018957121297717094,
            -0.07730234414339066,
            0.030699612572789192,
            0.006318061612546444,
            -0.2137264758348465,
            0.05186900869011879,
            -0.0219251848757267,
            0.15409937500953674,
            -0.0306230578571558,
            0.1734296977519989,
            0.15322494506835938,
            -0.10887418687343597,
            0.035043228417634964,
            0.03167010471224785,
            0.08298475295305252,
            -0.09552983939647675,
            0.07839713245630264,
            -0.08666172623634338,
            0.08059360086917877,
            0.09598059207201004,
            0.023518936708569527,
            -0.06037162244319916,
            0.1035747230052948,
            0.10474597662687302,
            0.04861127585172653,
            -0.03332582488656044,
            0.13696567714214325,
            0.015183771960437298,
            0.06434009969234467,
            -0.21112285554409027,
            0.0254101250320673,
            -0.06090838834643364,
            -0.0009763013222254813,
            -0.005704878829419613,
            -0.025200672447681427,
            0.05170435085892677,
            0.16773957014083862,
            0.1605481207370758,
            -0.10600350797176361,
            0.18263596296310425,
            0.010750394314527512,
            0.15501630306243896,
            0.10994984209537506,
            -0.014218496158719063,
            0.19079990684986115,
            -0.019295264035463333,
            -0.0024371787440031767,
            -0.18013131618499756,
            -0.07483436167240143,
            -0.15131859481334686,
            0.015467843972146511,
            0.006683064624667168,
            0.017550714313983917,
            -0.11490102857351303,
            -0.09716934710741043,
            -0.01810906082391739,
            -0.2016703188419342,
            -0.12492464482784271,
            0.09537211060523987,
            -0.09552809596061707,
            -0.12208016961812973,
            0.06101400777697563,
            0.07277087867259979,
            -0.04524727538228035,
            0.11483841389417648,
            -0.18158987164497375,
            -0.0728931725025177,
            0.06637134402990341,
            0.06332522630691528,
            -0.00857914425432682,
            -0.0722327008843422,
            -0.03396039456129074,
            -0.20372991263866425,
            -0.03250937908887863,
            -0.10650169104337692,
            0.06642700731754303,
            -0.12768957018852234,
            -0.08334963023662567,
            -0.1489425003528595,
            0.11126518249511719,
            0.030723197385668755,
            0.0028346888720989227,
            -0.14534129202365875,
            0.03637789934873581,
            0.01392155047506094,
            0.07055479288101196,
            0.08750652521848679,
            0.09767689555883408,
            0.14280614256858826,
            0.1483738124370575,
            -0.0302483718842268,
            -0.024896059185266495,
            -0.03725218400359154,
            -0.18095318973064423,
            0.09503147006034851,
            -0.05205383896827698,
            0.017603134736418724,
            -0.02315046451985836,
            0.09331230819225311,
            0.042349036782979965,
            -0.16392704844474792,
            -0.022878728806972504,
            0.01251698937267065,
            -0.07262979447841644,
            0.15541626513004303,
            0.12552933394908905,
            -0.018419919535517693,
            -0.08823083341121674,
            0.12782198190689087,
            0.19978809356689453,
            -0.02610274776816368,
            0.058038756251335144,
            -0.017337068915367126,
            0.07755254209041595,
            0.04754389449954033,
            -0.04253150522708893,
            -0.061620160937309265,
            -0.05436806380748749,
            -0.10496458411216736,
            -0.1439831256866455,
            -0.13795430958271027,
            -0.11427836865186691,
            0.13387253880500793,
            0.06620417535305023,
            -0.13467229902744293,
            -0.022097541019320488,
            -0.1415717452764511,
            0.05845804139971733,
            -0.03155766800045967,
            0.06182681769132614,
            -0.03759465366601944,
            -0.0682707205414772,
            0.045337431132793427,
            0.0649338811635971,
            0.0933295488357544,
            -0.0416884571313858,
            0.03732653334736824,
            -0.16291473805904388,
            -0.0540168397128582,
            0.06685614585876465,
            -0.1878000795841217,
            0.1967041790485382,
            0.07488928735256195,
            0.06871677935123444,
            0.018361689522862434,
            -0.018680205568671227,
            0.008770665153861046,
            -0.05853290483355522,
            -0.002608462469652295,
            -0.17825262248516083,
            -0.04221385344862938,
            -0.21484902501106262,
            0.0713999792933464,
            -0.15960951149463654,
            -0.07751788944005966,
            0.020138075575232506,
            0.09777458012104034,
            -0.06846782565116882,
            -0.012915081344544888,
            0.06329777836799622,
            0.023130616173148155,
            0.08109395951032639,
            0.21375979483127594,
            -0.04918140172958374,
            -0.16744861006736755,
            0.04851265624165535,
            0.10495088994503021,
            0.07886803895235062,
            -0.08366654813289642,
            0.015102176927030087,
            0.022607840597629547,
            0.09665796160697937,
            -0.08657462149858475,
            0.015122703276574612,
            0.08633074164390564,
            0.02818984165787697,
            0.03736076503992081,
            -0.038257844746112823,
            -0.1493784636259079,
            -0.05988888069987297,
            -0.149753138422966,
            -0.14407476782798767,
            -0.08195426315069199,
            0.09155641496181488,
            -0.09874765574932098,
            -0.04820375144481659,
            -0.13302049040794373,
            0.03695804625749588,
            0.1151878610253334,
            -0.1715875118970871,
            -0.07983452826738358,
            0.13435176014900208,
            0.028727451339364052,
            0.16984693706035614,
            -0.1277201771736145,
            0.0034305399749428034,
            0.10464940965175629,
            0.10546538978815079,
            -0.09238436073064804,
            0.12526683509349823,
            0.026562679558992386,
            0.06964511424303055,
            -0.08150727301836014,
            -0.06508984416723251,
            0.13995595276355743,
            -0.08275428414344788,
            0.08044133335351944,
            0.030910294502973557,
            -0.14883986115455627,
            -0.13210362195968628,
            0.06374410539865494,
            0.11572090536355972,
            0.01956372894346714,
            0.10464539378881454,
            0.06944461166858673,
            0.06742977350950241,
            -0.11660705506801605,
            -0.06061346083879471,
            0.12744590640068054,
            -0.053103186190128326,
            -0.06138915568590164,
            0.10161951929330826,
            0.134638249874115,
            0.09165748953819275,
            0.001913733663968742,
            -0.0012110337847843766,
            -0.135898157954216,
            -0.061579301953315735,
            0.11883669346570969,
            0.11816567927598953,
            -0.03594471141695976,
            -0.026113122701644897,
            -0.13126462697982788,
            0.021932018920779228,
            -0.1928238570690155,
            -0.019650915637612343,
            -0.09247447550296783,
            0.09309767931699753,
            0.09999268501996994,
            -0.18246857821941376,
            -0.055215153843164444,
            0.15095363557338715,
            0.056036654859781265,
            -0.1197769045829773,
            -0.03321988880634308,
            0.0758906751871109,
            0.1099134311079979,
            0.03190695121884346,
            0.1416086107492447,
            -0.05313243716955185,
            -0.00788569450378418,
            0.011637632735073566,
            -0.05973777920007706,
            0.09163852781057358,
            -0.09616000205278397,
            -0.06721247732639313,
            0.023986851796507835,
            0.08638814091682434,
            0.09195927530527115,
            -0.05539214611053467,
            0.20102542638778687,
            -0.19536033272743225,
            -0.007157134357839823,
            0.12132809311151505,
            0.014244338497519493,
            -0.1750362515449524,
            0.210654616355896,
            -0.057650212198495865,
            0.0411587730050087,
            -0.05293828248977661,
            0.04049254581332207,
            0.1167374774813652,
            -0.12369629740715027,
            0.014785156585276127,
            0.05340805649757385,
            -0.03020280785858631,
            0.10959548503160477,
            0.09526083618402481,
            -0.15399059653282166,
            -0.020295778289437294,
            0.02061476744711399,
            0.1576235592365265,
            -0.17081063985824585,
            0.009090669453144073,
            -0.007063162047415972,
            -0.065425805747509,
            0.0739593505859375,
            0.09507597982883453,
            0.08043089509010315,
            0.0861295759677887,
            -0.03286033868789673,
            -0.04757656529545784,
            -0.20652395486831665,
            0.1418205350637436,
            -0.07732086628675461,
            -0.0682220384478569,
            0.05546683818101883,
            -0.14780861139297485,
            0.04233770817518234,
            -0.18482184410095215,
            0.13503943383693695,
            -0.12944075465202332,
            -0.0025754370726644993,
            -0.07181362807750702,
            -0.06317172944545746,
            -0.01402171328663826,
            -0.09636519104242325,
            -0.09350831806659698,
            0.01782868430018425,
            -0.17709419131278992,
            0.055697787553071976,
            -0.06346520036458969,
            0.005753953475505114,
            0.07855041325092316,
            0.01648729294538498,
            0.01303422823548317,
            -0.030399249866604805,
            0.07401146739721298,
            -0.01920800656080246,
            0.12640276551246643,
            -0.07341355830430984,
            0.05736968666315079,
            0.1378757804632187,
            -0.044309988617897034,
            0.1322837769985199,
            -0.16410085558891296,
            0.027159176766872406,
            -0.05765873193740845,
            -0.0019652678165584803,
            0.1241115853190422,
            -0.12434161454439163,
            0.025628378614783287,
            -0.06487633287906647,
            -0.1294526308774948,
            -0.0859137549996376,
            -0.04706597700715065,
            0.03448253497481346,
            -0.010123075917363167,
            -0.07945521920919418,
            0.12174662202596664,
            0.005325699225068092,
            0.06059364601969719,
            -0.11669375747442245,
            -0.07359246909618378,
            0.04443537816405296,
            -0.09248187392950058,
            -0.06554984301328659,
            0.06493842601776123,
            0.06637746095657349,
            0.02578866481781006,
            0.10498159378767014,
            -0.10617469996213913,
            -0.08861126005649567,
            0.0831008106470108,
            0.05961783230304718,
            0.12357082962989807,
            0.022794445976614952,
            0.020528992637991905,
            -0.18129758536815643,
            0.045329924672842026,
            0.05857286602258682,
            -0.028729476034641266,
            0.1745658814907074,
            -0.08764073252677917,
            -0.18462352454662323,
            0.07251709699630737,
            0.057121772319078445,
            -0.01499552745372057,
            0.05527434125542641,
            -0.12832707166671753,
            -0.019840188324451447,
            0.09271866083145142,
            0.14176280796527863,
            -0.03973357379436493,
            -0.13838186860084534,
            -0.07634478062391281,
            -0.0571991503238678,
            -0.11978163570165634,
            0.09911078214645386,
            -0.14521007239818573,
            -0.024569623172283173,
            -0.09525756537914276,
            -0.09832863509654999,
            0.06417620182037354,
            -0.13332264125347137,
            0.0006703315884806216,
            -0.048888251185417175,
            -0.07669451087713242,
            0.155708909034729,
            -0.0240864846855402,
            0.20982880890369415,
            0.014655642211437225,
            -0.024154454469680786,
            -0.03766164928674698,
            0.059573449194431305,
            0.017480239272117615,
            0.009081680327653885,
            -0.005432541482150555,
            0.008547474630177021,
            0.007518140133470297,
            -0.037277307361364365,
            -0.0481862910091877,
            0.211507186293602,
            0.09456589072942734,
            0.21446199715137482,
            -0.030086232349276543,
            0.08449320495128632,
            -0.07611186057329178,
            0.13804686069488525,
            -0.0275117140263319,
            -0.047181371599435806,
            0.045668646693229675,
            0.12078329920768738,
            0.10021193325519562,
            0.13371098041534424,
            -0.009764950722455978,
            0.21495050191879272,
            0.00431316951289773,
            -0.17869612574577332,
            -0.025142647325992584,
            0.0036463032010942698,
            -0.07599092274904251,
            -0.05602138489484787,
            -0.04242115095257759,
            0.19101013243198395,
            0.0817190408706665,
            -0.10542354732751846,
            -0.20190125703811646,
            -0.04326578229665756,
            0.17559440433979034,
            -0.009622521698474884,
            -0.15127170085906982,
            0.05377295985817909,
            -0.1591648906469345,
            -0.0022814786061644554,
            0.12663663923740387,
            -0.15062770247459412,
            -0.1312221884727478,
            -0.023330116644501686,
            0.10308893024921417,
            -0.0007954015745781362,
            -0.12464292347431183,
            -0.029644060879945755,
            -0.20225486159324646,
            0.026394177228212357,
            -0.09407815337181091,
            -0.19030267000198364,
            -0.06896388530731201,
            -0.07966762781143188,
            0.21354646980762482,
            0.03127298504114151,
            0.07859788089990616,
            -0.06939852982759476,
            -0.08278675377368927,
            0.043402157723903656,
            -0.08452527970075607,
            -0.051083795726299286,
            -0.04716288670897484,
            0.03220709413290024,
            0.15195487439632416,
            -0.0896129161119461,
            0.05847969651222229,
            0.039743371307849884,
            0.01055796816945076,
            0.2083178460597992,
            0.0654141902923584,
            0.009591729380190372,
            0.04842926189303398,
            0.01982695981860161,
            -0.0862487182021141,
            -0.01400733832269907,
            0.10323142260313034,
            -0.030497953295707703,
            -0.07578576356172562,
            0.02603946439921856,
            -0.10425868630409241,
            0.09312821179628372,
            -0.01361743826419115,
            -0.1728510707616806,
            0.08450309932231903,
            -0.20598572492599487,
            -0.013468566350638866,
            -0.029746592044830322,
            0.11616744101047516,
            -0.105422243475914,
            0.06090974807739258,
            0.12201342731714249,
            0.05419239401817322,
            0.006585933733731508,
            -0.03337068855762482,
            -0.08036641031503677,
            -0.06042368337512016,
            0.025199804455041885,
            -0.04165271297097206,
            0.1968005746603012,
            -0.060427065938711166,
            0.18547064065933228,
            -0.12791112065315247,
            -0.041218072175979614,
            -0.05585557594895363,
            0.0015440615825355053,
            0.07616552710533142,
            -0.028483783826231956,
            0.1892891824245453,
            0.009123928844928741,
            0.13391631841659546,
            -0.08987755328416824,
            0.16166803240776062,
            -0.16510161757469177,
            -0.005123775918036699,
            0.08658444881439209,
            -0.09124484658241272,
            -0.12865068018436432,
            -0.038143910467624664,
            -0.048239074647426605,
            -0.05552379786968231,
            -0.10307258367538452,
            0.2008860856294632,
            -0.027859508991241455,
            0.0016150508308783174,
            -0.05776718631386757,
            0.09467290341854095,
            0.1597425639629364,
            0.01978609338402748,
            0.1906341016292572,
            0.10938915610313416,
            0.10570256412029266,
            0.06256785243749619,
            -0.126170814037323,
            -0.04548900946974754,
            0.005653358995914459,
            0.07409387081861496,
            -0.03937019035220146,
            0.0685136616230011,
            0.01295764185488224,
            -0.032864827662706375,
            -0.21374408900737762,
            0.033144522458314896,
            -0.010843606665730476,
            -0.07439016550779343,
            0.12940074503421783,
            -0.046723540872335434,
            0.006547837518155575,
            0.1864922195672989,
            -0.08990273624658585,
            -0.06003107875585556,
            0.11840952187776566,
            -0.08060117065906525,
            -0.017102565616369247,
            0.05039449781179428,
            -0.12922920286655426,
            -0.004572161007672548,
            0.04670543968677521,
            0.09529921412467957,
            -0.04478257894515991,
            0.03954264149069786,
            0.05595054849982262,
            -0.036258578300476074,
            -0.021078990772366524,
            -0.10695845633745193,
            0.001327675417996943,
            -0.08416889607906342,
            0.12523072957992554,
            -0.14444418251514435,
            -0.03796559199690819,
            -0.02003563940525055,
            -0.05079561099410057,
            0.10715445876121521,
            0.13543297350406647,
            0.14912156760692596,
            -0.0001449592673452571,
            0.08727670460939407,
            -0.02325979433953762,
            -0.05708550661802292,
            -0.01036380510777235,
            0.006462989840656519,
            0.10097691416740417,
            0.0808870792388916,
            0.03895333409309387,
            0.16111019253730774,
            0.16550102829933167,
            -0.09056272357702255,
            0.015117588452994823,
            -0.018782848492264748,
            -0.09813767671585083,
            0.09593059122562408,
            0.03658808395266533,
            -0.14859971404075623,
            0.09588861465454102,
            -0.0400698222219944,
            -0.05069871246814728,
            -0.11594656109809875,
            -0.04614141583442688,
            -0.09850741177797318,
            -0.0008331474964506924,
            0.16014908254146576,
            -0.019582560285925865,
            0.1614920198917389,
            0.024904681369662285,
            -0.0683809220790863,
            0.00507275341078639,
            -0.05699419602751732,
            0.06283178180456161,
            0.0935259684920311,
            -0.01715623214840889,
            0.06254148483276367,
            -0.16084198653697968,
            0.13922104239463806,
            -0.15849415957927704,
            0.034267693758010864,
            0.13723604381084442,
            0.12529808282852173,
            -0.06343797594308853,
            0.0023337816819548607,
            0.09834448248147964,
            0.07128297537565231,
            0.06969494372606277,
            -0.16206559538841248,
            0.04049975425004959,
            0.043600209057331085,
            -0.1564304083585739,
            0.18611104786396027,
            -0.13505950570106506,
            0.06290954351425171,
            0.1588384360074997,
            0.03498847037553787,
            0.05913335457444191,
            0.004697324708104134,
            0.07543551176786423,
            0.009480833075940609,
            0.003208332462236285,
            0.011246120557188988,
            0.10265573859214783,
            -0.019539037719368935,
            -0.05585365742444992,
            0.13108162581920624,
            0.04110322147607803,
            0.1687522828578949,
            -0.05532829090952873,
            -0.014007060788571835,
            -0.18637873232364655,
            -0.05758693069219589,
            -0.10573245584964752,
            -0.1346132606267929,
            0.04115751385688782,
            -0.14825376868247986,
            0.13971185684204102,
            0.024966184049844742,
            -0.08735569566488266,
            -0.1038435697555542,
            -0.0009996945736929774,
            -0.12069808691740036,
            0.04536174610257149,
            0.07563838362693787,
            -0.05200648307800293,
            0.05657059699296951,
            0.05785524100065231,
            -0.09996329247951508,
            -0.022958703339099884,
            -0.03256327286362648,
            -0.13255946338176727,
            0.1469978392124176,
            0.06199287250638008,
            0.15622177720069885,
            0.028424518182873726,
            0.0796990841627121,
            -0.05178098380565643,
            0.05606389418244362,
            0.12347610294818878,
            0.06724561005830765,
            0.05749385431408882,
            -0.053413886576890945,
            -0.005802731029689312,
            0.1370832473039627,
            0.16995006799697876,
            0.026466280221939087,
            0.06175629049539566,
            0.036406707018613815,
            -0.0014572781510651112,
            0.016120674088597298,
            -0.026797298341989517,
            -0.03964627906680107,
            -0.07339039444923401,
            -0.0012044230243191123,
            -0.05406751483678818,
            -0.10542646050453186,
            0.052807413041591644,
            0.07449092715978622,
            -0.1252768337726593,
            -0.12326312810182571,
            0.014980582520365715,
            -0.010309244506061077,
            -0.060086145997047424,
            -0.0018950824160128832,
            -0.08275531232357025,
            0.08754133433103561,
            -0.058721400797367096,
            -0.1544470191001892,
            0.1399632841348648,
            -0.05097467079758644,
            0.023662269115447998,
            0.0683223083615303,
            -0.0686774030327797,
            -0.0822676420211792,
            0.09857609122991562,
            0.001521398196928203,
            0.08504805713891983,
            0.052296653389930725,
            0.17831237614154816,
            -0.01520700566470623,
            -0.09624644368886948,
            -0.09589715301990509,
            0.11854615807533264,
            0.0005589260254055262,
            0.08613590151071548,
            0.08553874492645264,
            -0.04385591298341751,
            0.089045450091362,
            -0.00438032066449523,
            0.050028279423713684,
            0.028072800487279892,
            0.14444714784622192,
            0.01872239075601101,
            0.021705761551856995,
            -0.18317313492298126,
            0.08005783706903458,
            0.11594759672880173,
            -0.06265626102685928,
            -0.07744870334863663,
            -0.011238601990044117,
            -0.048341911286115646,
            -0.06597918272018433,
            -0.019588710740208626,
            -0.02926952950656414,
            0.005686443764716387,
            0.010898332111537457,
            -0.11791448295116425,
            0.08221887052059174,
            0.11512597650289536,
            -0.0728498175740242,
            0.1511221081018448,
            -0.12794658541679382,
            -0.05943847820162773,
            -0.012288587167859077,
            0.07080032676458359,
            -0.049871016293764114,
            0.08728086948394775,
            0.10351395606994629,
            -0.04688521847128868,
            0.014094710350036621,
            0.10961618274450302,
            0.026874732226133347,
            -0.13281755149364471,
            -0.0772603452205658,
            -0.0685143768787384,
            -0.010950553230941296,
            0.029280707240104675,
            -0.001522115315310657,
            0.16149857640266418,
            0.16119033098220825,
            0.09382423013448715,
            0.09772796183824539,
            0.08084888756275177,
            -0.1317368894815445,
            -0.014795830473303795,
            -0.016646087169647217,
            0.04971056431531906,
            0.2028086632490158,
            0.10815086960792542,
            -0.047825220972299576,
            -0.08445727825164795,
            0.13112778961658478,
            -0.06566677987575531,
            0.07920943200588226,
            -0.08010157197713852,
            -0.0959741473197937,
            -0.022902868688106537,
            0.1460433304309845,
            0.16776977479457855,
            -0.0643911063671112,
            -0.09767434746026993,
            -0.0801803395152092,
            -0.11783003807067871,
            0.08676058053970337,
            -0.11664894968271255,
            -0.04940946772694588,
            -0.07150410860776901,
            0.007549522910267115,
            0.0010255954694002867,
            -0.029421072453260422,
            0.16052094101905823,
            0.1302245557308197,
            -0.08617302775382996,
            -0.06399395316839218,
            0.14273107051849365,
            0.02435673587024212,
            -0.11297989636659622,
            -0.10484182834625244,
            -0.08919321745634079,
            0.1363108605146408,
            -0.15829138457775116,
            -0.006421542260795832,
            0.011037532240152359,
            -0.04779396578669548,
            0.05798966437578201,
            -0.0043558282777667046,
            -0.042849160730838776,
            -0.15232974290847778,
            0.09625589102506638,
            -0.0812649354338646,
            -0.18344444036483765,
            -0.12265218794345856,
            0.02713022008538246,
            -0.07521490007638931,
            0.047527533024549484,
            -0.11250922083854675,
            -0.0008989046327769756,
            0.06454446166753769,
            -0.06251461803913116,
            0.05876566097140312,
            -0.03346296399831772,
            0.024591730907559395,
            0.07249204814434052,
            0.10701220482587814,
            -0.06335610151290894,
            0.0034399894066154957,
            -0.10067422688007355,
            0.1393672078847885,
            0.0728684514760971,
            -0.07313127815723419,
            -0.11511785537004471,
            0.10274171084165573,
            0.17084239423274994,
            0.18921662867069244,
            0.115542471408844,
            0.056588903069496155,
            0.05019931122660637,
            -0.04056306928396225,
            0.011995646171271801,
            -0.12107796221971512,
            -0.13754963874816895,
            -0.0005751890130341053,
            0.01399991288781166,
            0.048072852194309235,
            0.15919895470142365,
            0.06772937625646591,
            0.045496877282857895,
            0.12644192576408386,
            -0.05023607984185219,
            0.06015251204371452,
            0.012309890240430832,
            0.02467731572687626,
            -0.11569368094205856,
            0.007738858927041292,
            0.13775360584259033,
            0.07553496211767197,
            0.07604337483644485,
            -0.028127171099185944,
            0.07760398089885712,
            -0.07836571335792542,
            0.049029093235731125,
            -0.07112887501716614,
            0.13102629780769348,
            -0.05000121891498566,
            -0.17177897691726685,
            -0.01131795160472393,
            -0.07491248846054077,
            -0.04561962932348251,
            -0.03801427781581879,
            -0.06168182194232941,
            0.16437190771102905,
            -0.1585671603679657,
            -0.08782672137022018,
            -0.18556557595729828,
            -0.19505222141742706,
            -0.019874677062034607,
            0.05820470303297043,
            -0.11565304547548294,
            0.11518922448158264,
            -0.19125527143478394,
            -0.028096934780478477,
            0.06335441768169403,
            -0.10819527506828308,
            0.04741113632917404,
            0.2058795541524887,
            -0.17164427042007446,
            -0.11954623460769653,
            0.04546632245182991,
            0.21188469231128693,
            -0.085321806371212,
            0.0020367756951600313,
            -0.19289810955524445,
            0.11046991497278214,
            0.11620412766933441,
            -0.04116431996226311,
            0.15469714999198914,
            0.041484277695417404,
            0.12439879775047302,
            -0.009372477419674397,
            0.06123461201786995,
            0.1446244865655899,
            0.12716464698314667,
            -0.009240783751010895,
            0.15755939483642578,
            0.10410445928573608,
            0.04874254763126373,
            0.061392925679683685,
            -0.09560642391443253,
            -0.007859993726015091,
            -0.1583651602268219,
            -0.1156507208943367,
            -0.09656628221273422,
            0.031928811222314835,
            0.03705325350165367,
            -0.1088956966996193,
            0.0887441337108612,
            -0.007530843373388052,
            -0.1454642415046692,
            -0.056782133877277374,
            0.13772757351398468,
            -0.0010536524932831526,
            0.07373921573162079,
            -0.0743270069360733,
            -0.07734836637973785,
            -0.10890182107686996,
            -0.19063915312290192,
            -0.03561261668801308,
            0.03439551591873169,
            -0.0706842690706253,
            0.005394882522523403,
            -0.0208003930747509,
            0.013912341557443142,
            -0.05864270403981209,
            0.12349797040224075,
            0.10368400067090988,
            -0.0006821033894084394,
            -0.052165012806653976,
            0.08976231515407562,
            -0.14189298450946808,
            -0.1566978543996811,
            0.05555743724107742,
            0.017828265205025673,
            0.1062433049082756,
            0.07164143770933151,
            -0.07645779103040695,
            -0.15272513031959534,
            0.06053710728883743,
            -0.01012358907610178,
            0.20924332737922668,
            0.10864072293043137,
            0.003847720567137003,
            0.1362002193927765,
            0.02948521077632904,
            -0.1167738288640976,
            -0.033451147377491,
            0.0710030123591423,
            0.19478647410869598,
            -0.02849416621029377,
            -0.1314171403646469,
            -0.12377911061048508,
            -0.04456716775894165,
            0.08224038779735565,
            -0.014617550186812878,
            -0.08575662970542908,
            0.0048078210093081,
            -0.10669427365064621,
            0.10037770867347717,
            -0.12438840419054031,
            0.09860105067491531,
            0.011240221560001373,
            0.05190373957157135,
            -0.08045585453510284,
            0.07847725600004196,
            -0.07659386098384857,
            0.13388986885547638,
            -0.03757110983133316,
            -0.003218316938728094,
            -0.10896280407905579,
            0.026562191545963287,
            0.06394392997026443,
            -0.1964891105890274,
            -0.06507889181375504,
            0.1895603984594345,
            -0.11727138608694077,
            0.0505707822740078,
            -0.012569000013172626,
            0.022399725392460823,
            0.004666399210691452,
            0.04964621737599373,
            -0.19147203862667084,
            -0.14978145062923431,
            -0.1570034772157669,
            0.18761491775512695,
            0.10196292400360107,
            0.03359373286366463,
            -0.2115180641412735,
            0.15775269269943237,
            0.10019040107727051,
            -0.01132579892873764,
            -0.17326639592647552,
            0.04756085202097893,
            -0.08177589625120163,
            0.0992136299610138,
            0.11576704680919647,
            -0.0021771967876702547,
            -0.05572469159960747,
            -0.13486254215240479,
            0.04518198221921921,
            0.0408925861120224,
            0.09909112751483917,
            -0.03370080515742302,
            -0.13715650141239166,
            -0.19244836270809174,
            -0.17684955894947052,
            0.08014635741710663,
            0.12412113696336746,
            -0.0047288816422224045,
            0.19279910624027252,
            -0.15701115131378174,
            -0.0714273601770401,
            -0.023232627660036087,
            -0.165555939078331,
            0.15929950773715973,
            -0.04917789623141289,
            0.17143529653549194,
            -0.16231265664100647,
            0.11522475630044937,
            0.0067604901269078255,
            0.12612588703632355,
            0.06433518975973129,
            0.029402850195765495,
            0.028158357366919518,
            -0.002010473981499672,
            -0.08396851271390915,
            -0.18856948614120483,
            -0.02954486943781376,
            -0.182484433054924,
            0.13807468116283417,
            0.010034938342869282,
            0.04079051315784454,
            -0.1364215463399887,
            -0.02132888324558735,
            0.06843767315149307,
            0.1048448234796524,
            0.0637064129114151,
            0.2149425894021988,
            -0.05384049564599991,
            -0.10973531007766724,
            -0.03413376584649086,
            -0.06638994812965393,
            0.007979144342243671,
            0.2013711929321289,
            -0.028329169377684593,
            -0.08553333580493927,
            0.07998514175415039,
            0.03934251517057419,
            0.06735378503799438,
            0.18347494304180145,
            -0.05947753041982651,
            0.06504801660776138,
            -0.10200276970863342,
            0.0966167151927948,
            -0.03646461293101311,
            0.10728169232606888,
            0.08042744547128677,
            0.1728437840938568,
            -0.011721351183950901,
            -0.06410679221153259,
            0.08510509133338928,
            0.16895131766796112,
            -0.11922949552536011,
            0.06383377313613892,
            0.14877218008041382,
            0.06639312952756882,
            -0.062292780727148056,
            -0.0037389916833490133,
            -0.1795884072780609,
            0.0017406835686415434,
            -0.10507161915302277,
            0.10157972574234009,
            -0.023830721154808998,
            0.06963307410478592,
            -0.05893436074256897,
            -0.11965642869472504,
            -0.07815570384263992,
            0.15684351325035095,
            -0.10158871859312057,
            0.20931409299373627,
            0.13917304575443268,
            0.06844893842935562,
            0.10817074030637741,
            0.13157214224338531,
            0.14016476273536682,
            0.051478080451488495,
            -0.17179752886295319,
            0.08119340240955353,
            0.18819540739059448,
            -0.08129754662513733,
            0.015879828482866287,
            0.013192732818424702,
            -0.03230328857898712,
            0.18146447837352753,
            0.07939252257347107,
            0.022395340725779533,
            0.15767502784729004,
            -0.02330932952463627,
            -0.20444229245185852,
            -0.04386570677161217,
            0.010185823775827885,
            0.21267622709274292,
            0.17954614758491516,
            0.12971346080303192,
            0.09632261842489243,
            -0.05568724870681763,
            0.17479315400123596,
            -0.01106706541031599,
            -0.15677711367607117,
            0.10179432481527328,
            -0.19445611536502838,
            -0.1401074379682541,
            -0.1118074581027031,
            -0.056863490492105484,
            -0.14413633942604065,
            -0.1728144735097885,
            -0.16819711029529572,
            0.031096728518605232,
            0.11408550292253494,
            0.1317831575870514,
            0.039933059364557266,
            0.02175491489470005,
            -0.23449166119098663,
            -0.03982038423418999,
            0.15122534334659576,
            -0.04811776429414749,
            -0.020073384046554565,
            -0.020661842077970505,
            -0.20231324434280396,
            -0.0981438010931015,
            -0.11084457486867905,
            0.1886000633239746,
            -0.16018669307231903,
            0.0415608249604702,
            0.04141652211546898,
            -0.07042652368545532,
            0.046668533235788345,
            -0.12020083516836166,
            0.03800906985998154,
            0.014707723632454872,
            -0.1333966702222824,
            -0.07480479776859283,
            0.018809858709573746,
            -0.07864318788051605,
            -0.19376292824745178,
            0.17034506797790527,
            0.014089717529714108,
            -0.1575215458869934,
            0.05006419122219086,
            0.009177366271615028,
            -0.18738749623298645,
            -0.005337427835911512,
            -0.02635519951581955,
            -0.0031747259199619293,
            0.07792933285236359,
            -0.020042836666107178,
            0.05919751152396202,
            0.051378458738327026,
            0.046207550913095474,
            -0.13955001533031464,
            0.011873984709382057,
            -0.079205222427845,
            0.0030897262040525675,
            -0.163529172539711,
            -0.10597293823957443,
            -0.09324195235967636,
            0.01204995159059763,
            -0.03062300570309162,
            -0.08634494990110397,
            -0.16276684403419495,
            0.09169880300760269,
            0.03132963180541992,
            -0.23403389751911163,
            -0.0635342001914978,
            -0.10434534400701523,
            -0.09299355000257492,
            0.14571897685527802,
