{
  "timestamp": "2026-02-05T07:48:15.168Z",
  "episode": 60,
  "hypothesis": "EXP-018: Prioritized Experience Replay (PER) for focusing on high TD-error transitions",
  "config": {
    "symbols": [
      "BTCUSDT",
      "ETHUSDT",
      "SOLUSDT"
    ],
    "numAgents": 3,
    "trainSplit": 0.8,
    "monthsOfData": 6,
    "episodes": 120,
    "episodeLength": 1000,
    "trainFrequency": 4,
    "batchSize": 64,
    "bufferSize": 50000,
    "dqn": {
      "inputSize": 42,
      "hiddenLayers": [
        128,
        64,
        32
      ],
      "outputSize": 5,
      "learningRate": 0.00028,
      "gamma": 0.95,
      "tau": 0.01,
      "epsilonStart": 1,
      "epsilonEnd": 0.16,
      "epsilonDecay": 0.995,
      "dropout": 0.38,
      "l2Regularization": 0.028,
      "useBatchNorm": true,
      "gradientClipNorm": 0.5,
      "useHuberLoss": true,
      "huberDelta": 1,
      "actionBias": true,
      "actionBiasDecay": 0.997,
      "useDoubleDQN": true,
      "useLinearEpsilonDecay": true,
      "totalExpectedEpisodes": 120,
      "rewardBasedEpsilonAdjustment": true,
      "lowWinRateThreshold": 0.4,
      "epsilonBoostAmount": 0.1,
      "useDueling": false,
      "useNoisyNetworks": false,
      "noisySigmaInit": 0.5,
      "symbolEpsilonScaling": {
        "BTCUSDT": 1.15,
        "ETHUSDT": 1,
        "SOLUSDT": 0.95
      }
    },
    "nstep": {
      "enabled": false,
      "nSteps": 3,
      "gamma": 0.95
    },
    "per": {
      "enabled": true,
      "alpha": 0.6,
      "beta": 0.4,
      "betaIncrement": 0.001
    },
    "env": {
      "initialCapital": 10000,
      "positionSizePercent": 0.1,
      "commission": 0.001,
      "slippage": 0.0005,
      "lookbackPeriod": 100,
      "maxBarsPerEpisode": null,
      "maxDrawdownLimit": 0.15,
      "maxBarsInPosition": 100,
      "kbConfig": {
        "enabled": true,
        "addKBFeatures": true,
        "useKBRewardShaping": true
      }
    },
    "earlyStoppingPatience": 25,
    "minImprovement": 0.01,
    "logInterval": 10,
    "evalInterval": 20
  },
  "valSharpe": 9.428906341251526,
  "perSymbolResults": [
    {
      "symbol": "BTCUSDT",
      "trades": 10,
      "winRate": 30,
      "pnl": 9.089581869465587,
      "sharpe": 12.25761191963937
    },
    {
      "symbol": "ETHUSDT",
      "trades": 8,
      "winRate": 50,
      "pnl": 6.085281399997337,
      "sharpe": 7.301580687117761
    },
    {
      "symbol": "SOLUSDT",
      "trades": 14,
      "winRate": 42.857142857142854,
      "pnl": 15.940683444547798,
      "sharpe": 8.727526416997451
    }
  ],
  "numAgents": 3,
  "weights": [
    {
      "weights": [
        {
          "shape": [
            42,
            128
          ],
          "data": [
            -0.038134120404720306,
            0.06843426823616028,
            -0.06118495389819145,
            0.06795257329940796,
            -0.015256108716130257,
            0.1677282154560089,
            -0.04305126145482063,
            0.08050365746021271,
            0.15607799589633942,
            -0.04110783711075783,
            0.0021368132438510656,
            0.00926692970097065,
            -0.017200443893671036,
            -0.03815107420086861,
            -0.15536412596702576,
            0.06207768991589546,
            -0.007311186753213406,
            -0.06727487593889236,
            0.03786312788724899,
            0.032191455364227295,
            -0.03288924694061279,
            -0.08153663575649261,
            -0.006560382433235645,
            0.00041057541966438293,
            -0.059887100011110306,
            -0.1901758313179016,
            -0.16438335180282593,
            0.05657565966248512,
            -0.07618078589439392,
            -0.0062734573148190975,
            0.025601565837860107,
            0.0056964983232319355,
            0.20174244046211243,
            0.11101283878087997,
            -0.04108501970767975,
            -0.010378570295870304,
            0.1343102753162384,
            -0.014572172425687313,
            0.18348351120948792,
            0.013373269699513912,
            -0.020086072385311127,
            -0.11625424772500992,
            0.0851924791932106,
            0.071388378739357,
            0.2479558289051056,
            -0.1138407289981842,
            -0.016618799418210983,
            0.08352382481098175,
            -0.1644781231880188,
            -0.10477019101381302,
            0.007090054452419281,
            0.0183496605604887,
            -0.03261157497763634,
            0.012103531509637833,
            0.005353295709937811,
            0.10165581852197647,
            -0.01928451843559742,
            -0.10384213179349899,
            0.0783991664648056,
            -0.04655326157808304,
            -0.00959179550409317,
            -0.06391546875238419,
            -0.15170258283615112,
            -0.14296671748161316,
            -0.005927409045398235,
            -0.03464467078447342,
            0.14804255962371826,
            0.09159038215875626,
            0.011756272986531258,
            0.030028976500034332,
            -0.06404806673526764,
            0.06523767113685608,
            0.02119303122162819,
            0.08244293183088303,
            0.14811168611049652,
            0.3289511203765869,
            -0.02129598706960678,
            -0.030511006712913513,
            0.13242115080356598,
            -0.00648107472807169,
            -0.03490026667714119,
            -0.04447698965668678,
            -0.03710060566663742,
            -0.08545858412981033,
            -0.12989690899848938,
            0.04161538556218147,
            -0.048487961292266846,
            -0.002969656838104129,
            0.16326439380645752,
            0.1166343092918396,
            -0.06094019114971161,
            -0.038862425833940506,
            0.08939769864082336,
            -0.015836533159017563,
            0.04790358990430832,
            -0.101496621966362,
            -0.06060533970594406,
            0.040917787700891495,
            -0.2289598137140274,
            0.14554157853126526,
            -0.012995066121220589,
            -0.12922707200050354,
            0.030048957094550133,
            -0.0022919324692338705,
            -0.09937342256307602,
            -0.16479212045669556,
            0.19698388874530792,
            -0.2877335846424103,
            0.04759910702705383,
            -0.03371582180261612,
            0.021061254665255547,
            -0.04625173658132553,
            0.09616322070360184,
            0.020706547424197197,
            -0.019602522253990173,
            0.17556186020374298,
            -0.0005058182287029922,
            0.11062025278806686,
            0.043379977345466614,
            0.08965490013360977,
            0.06086241453886032,
            0.1336020678281784,
            0.19432970881462097,
            0.050749484449625015,
            -0.1843821406364441,
            -0.057062432169914246,
            0.0036403618287295103,
            0.14059513807296753,
            -0.18802577257156372,
            0.04545263946056366,
            0.0800834521651268,
            -0.12208974361419678,
            -0.17081622779369354,
            -0.10443712770938873,
            -0.07381048053503036,
            0.09403304755687714,
            -0.17816418409347534,
            -0.13906246423721313,
            -0.14782951772212982,
            -0.05506759509444237,
            -0.23301559686660767,
            0.08808115869760513,
            0.08035463094711304,
            -0.061814457178115845,
            0.031187593936920166,
            -0.15905310213565826,
            0.06501153856515884,
            0.01381341740489006,
            0.06916691362857819,
            -0.010481382720172405,
            -0.07244158536195755,
            -0.11940992623567581,
            0.029425380751490593,
            0.19426017999649048,
            -0.11043308675289154,
            -0.06425001472234726,
            0.034215230494737625,
            -0.03904855251312256,
            -0.13891492784023285,
            -0.06663349270820618,
            0.08135977387428284,
            -0.005729802884161472,
            -0.10275337100028992,
            -0.011533718556165695,
            0.06119385361671448,
            -0.13223421573638916,
            -0.04777238890528679,
            -0.030234120786190033,
            0.08959677815437317,
            -0.0323978066444397,
            -0.03941331431269646,
            -0.21051709353923798,
            -0.08103013783693314,
            -0.11905289441347122,
            0.07902097702026367,
            0.03233237564563751,
            0.0654589906334877,
            -0.002570158103480935,
            -0.030045514926314354,
            0.15981781482696533,
            0.0700850561261177,
            0.07398519665002823,
            -0.05848521739244461,
            0.026239803060889244,
            0.1444465070962906,
            -0.06795657426118851,
            0.021696580573916435,
            -0.07638413459062576,
            -0.06758743524551392,
            0.12914571166038513,
            -0.08248230069875717,
            0.03623794764280319,
            0.04874920845031738,
            0.03654580935835838,
            0.03437211364507675,
            -0.056358981877565384,
            -0.055782172828912735,
            -0.00039714417653158307,
            -0.09857496619224548,
            -0.11413834989070892,
            0.039825793355703354,
            -0.1346336305141449,
            0.09535985440015793,
            -0.17098656296730042,
            -0.011699051596224308,
            0.011327287182211876,
            -0.13389010727405548,
            -0.12015165388584137,
            0.010610058903694153,
            0.16387668251991272,
            0.005371739622205496,
            -0.026416214182972908,
            -0.05313214287161827,
            0.07160836458206177,
            0.09122702479362488,
            0.10208623856306076,
            -0.024074310436844826,
            -0.033243533223867416,
            -0.2486090362071991,
            0.005770960822701454,
            0.17624236643314362,
            -0.11349639296531677,
            -0.057643644511699677,
            0.036253560334444046,
            0.059560202062129974,
            0.10606060922145844,
            -0.06594090163707733,
            -0.0026254826225340366,
            0.020949559286236763,
            0.10307348519563675,
            0.05976100638508797,
            -0.07391194254159927,
            0.023118920624256134,
            0.07267745584249496,
            -0.06555213779211044,
            0.06627172231674194,
            -0.0558268204331398,
            0.008421408012509346,
            0.0011255533900111914,
            -0.005075561348348856,
            -0.08009443432092667,
            0.031496670097112656,
            0.0399143360555172,
            -0.015077882446348667,
            -0.001156624755822122,
            0.06270898878574371,
            0.05942034348845482,
            0.1830400675535202,
            -0.20441791415214539,
            0.1402468979358673,
            -0.025886017829179764,
            0.05958796292543411,
            0.20452561974525452,
            0.15857966244220734,
            -0.06463742256164551,
            0.05275619775056839,
            0.19724436104297638,
            -0.10347341746091843,
            -0.008637470193207264,
            0.0262309517711401,
            -0.11986880749464035,
            -0.11286788433790207,
            -0.11893599480390549,
            0.1180320531129837,
            -0.024749550968408585,
            -0.11994368582963943,
            -0.012703495100140572,
            0.025069376453757286,
            -0.14000840485095978,
            0.16221009194850922,
            0.1283048689365387,
            0.0617438368499279,
            -0.023492425680160522,
            -0.056170135736465454,
            -0.1459493339061737,
            -0.10970129072666168,
            -0.19555701315402985,
            -0.0848686620593071,
            -0.03808972239494324,
            -0.13779951632022858,
            0.0024367845617234707,
            0.03007938340306282,
            -0.19156447052955627,
            0.06735972315073013,
            0.19944030046463013,
            0.12005088478326797,
            -0.26725736260414124,
            0.005198374856263399,
            0.03205949813127518,
            -0.008169185370206833,
            -0.10539621114730835,
            -0.05654078349471092,
            0.027084439992904663,
            0.10715604573488235,
            0.14717470109462738,
            0.010901517234742641,
            0.11316514015197754,
            -0.05404292047023773,
            -0.0886974111199379,
            -0.25106188654899597,
            -0.05401011183857918,
            -0.09067156165838242,
            -0.016290146857500076,
            -0.03638767451047897,
            -0.07719644904136658,
            0.09766571968793869,
            -0.11081884801387787,
            -0.03655312955379486,
            -0.0610448457300663,
            -0.0493193045258522,
            0.06007954478263855,
            0.08851931244134903,
            0.08011418581008911,
            -0.040007252246141434,
            0.013998315669596195,
            -0.09203357994556427,
            0.0038056434132158756,
            -0.015285998582839966,
            -0.05284322053194046,
            -0.014920929446816444,
            -0.03561335429549217,
            0.13347533345222473,
            -0.002082724589854479,
            0.03679581359028816,
            -0.11275725811719894,
            0.07359123975038528,
            -0.047300368547439575,
            -0.015045716427266598,
            -0.0005238979356363416,
            0.019326267763972282,
            -0.10816619545221329,
            0.031982604414224625,
            -0.014240480959415436,
            -0.07344172149896622,
            0.07307051867246628,
            0.008695992641150951,
            -0.03483324870467186,
            -0.024294715374708176,
            -0.14905785024166107,
            0.12435031682252884,
            0.010004588402807713,
            0.013713239692151546,
            0.0354108065366745,
            -0.0032281209714710712,
            -0.08446711301803589,
            0.036622535437345505,
            -0.1185142770409584,
            -0.0026563196443021297,
            -0.14283722639083862,
            -0.1347867101430893,
            0.08281035721302032,
            -0.03520606458187103,
            0.04932112246751785,
            -0.018219050019979477,
            0.15013469755649567,
            0.04853375256061554,
            -0.09634995460510254,
            0.07705646008253098,
            -0.11305676400661469,
            0.14272764325141907,
            -0.01043620053678751,
            -0.12228462845087051,
            -0.02020120993256569,
            0.18911108374595642,
            -0.029888682067394257,
            0.03704146295785904,
            0.020119763910770416,
            0.1996554285287857,
            -0.011046373285353184,
            0.19493910670280457,
            0.056249771267175674,
            0.1825704276561737,
            -0.09731897711753845,
            -0.030102653428912163,
            -0.08736922591924667,
            0.19230087101459503,
            0.053698718547821045,
            0.07931505143642426,
            -0.049775198101997375,
            -0.08425147086381912,
            -0.016549615189433098,
            0.21359865367412567,
            -0.06889127939939499,
            -0.03163488209247589,
            0.060891639441251755,
            0.1682337075471878,
            0.1534806340932846,
            -0.08258192241191864,
            -0.11636487394571304,
            0.11115142703056335,
            -0.07821442186832428,
            0.10262943804264069,
            -0.017517535015940666,
            -0.008279409259557724,
            0.20074547827243805,
            -0.006697962060570717,
            -0.06693210452795029,
            0.04249032214283943,
            -0.04067644476890564,
            -0.058577071875333786,
            -0.0625617653131485,
            -0.006964550819247961,
            0.16445870697498322,
            0.09779994189739227,
            -0.0644042044878006,
            0.09975706040859222,
            0.06669986248016357,
            0.031116889789700508,
            -0.17435012757778168,
            -0.2940877676010132,
            0.1701488345861435,
            0.010131319984793663,
            -0.05596962571144104,
            -0.1417258232831955,
            0.1144748404622078,
            0.049479302018880844,
            0.012755520641803741,
            0.019362781196832657,
            0.14858092367649078,
            0.059282708913087845,
            -0.06228477880358696,
            0.09176427870988846,
            -0.05793057009577751,
            -0.02277246117591858,
            0.18523816764354706,
            0.006152089219540358,
            -0.08950658142566681,
            -0.03181495517492294,
            0.09862037003040314,
            -0.08235789090394974,
            -0.16179314255714417,
            0.15450723469257355,
            -0.0036087711341679096,
            0.06899915635585785,
            -0.0982179343700409,
            0.024129215627908707,
            0.13852116465568542,
            -0.03356730192899704,
            -0.0996355414390564,
            0.026844721287488937,
            -0.07028806954622269,
            -0.1196490079164505,
            -0.00847737304866314,
            -0.035019855946302414,
            -0.0026577822864055634,
            0.017120754346251488,
            0.17631135880947113,
            -0.049349345266819,
            -0.035807326436042786,
            0.058824025094509125,
            -0.12355824559926987,
            -0.11648165434598923,
            0.12884877622127533,
            0.009035387076437473,
            0.093524269759655,
            0.06963446736335754,
            0.09574326127767563,
            -0.22315683960914612,
            -0.14642645418643951,
            0.07201746851205826,
            0.04568866267800331,
            -0.09039989858865738,
            0.030727583914995193,
            0.1727471649646759,
            -0.04125061631202698,
            -0.08918976038694382,
            -0.07792030274868011,
            -0.023111049085855484,
            -0.1786739081144333,
            0.20714209973812103,
            -0.06502125412225723,
            0.10171562433242798,
            0.012888966128230095,
            -0.039286669343709946,
            0.08843622356653214,
            0.07776255160570145,
            0.14513622224330902,
            -0.1194658949971199,
            0.11748059839010239,
            -0.2598704993724823,
            0.11639417707920074,
            -0.06804656237363815,
            0.1542329639196396,
            0.08902853727340698,
            -0.12646909058094025,
            -0.2154378890991211,
            0.1459313929080963,
            -0.10205578804016113,
            0.03438567742705345,
            -0.10974681377410889,
            0.03457111120223999,
            0.07176872342824936,
            0.0649804025888443,
            -0.07842689752578735,
            0.0864979699254036,
            0.15359839797019958,
            0.11098747700452805,
            -0.13937707245349884,
            -0.06068015098571777,
            0.11579931527376175,
            -0.040669165551662445,
            -0.08056136965751648,
            0.028589103370904922,
            -0.023134693503379822,
            0.031350743025541306,
            -0.06958311051130295,
            0.08046116679906845,
            0.05971124395728111,
            0.03615308925509453,
            0.1285446584224701,
            -0.11170434206724167,
            -0.08758360147476196,
            -0.09245014935731888,
            0.09533539414405823,
            -0.002344605978578329,
            0.02403421886265278,
            -0.001399765256792307,
            0.19938072562217712,
            -0.30890730023384094,
            0.01428360678255558,
            -0.20587478578090668,
            -0.0839395746588707,
            -0.12186615914106369,
            -0.004813633859157562,
            0.09131844341754913,
            -0.040300872176885605,
            0.04409994184970856,
            0.12459757179021835,
            -0.04350148141384125,
            0.19236287474632263,
            -0.09016439318656921,
            0.19317255914211273,
            0.05408107116818428,
            -0.07020179182291031,
            0.14811940491199493,
            0.02536751516163349,
            0.022539492696523666,
            0.08487942069768906,
            0.05234552547335625,
            0.06503390520811081,
            -0.1949603408575058,
            -0.0835178792476654,
            -0.0690976232290268,
            0.11688846349716187,
            0.07242913544178009,
            0.07186227291822433,
            0.05998643860220909,
            0.0950075015425682,
            0.19960182905197144,
            0.03981693089008331,
            0.06258776038885117,
            0.055965397506952286,
            0.010251140221953392,
            0.054451148957014084,
            -0.1821109503507614,
            0.06864892691373825,
            0.014270385727286339,
            0.15374910831451416,
            -0.0805535763502121,
            -0.11080408841371536,
            0.025789346545934677,
            0.1351184844970703,
            -0.07895584404468536,
            -0.0398029088973999,
            0.020011499524116516,
            0.06205969303846359,
            0.07953508198261261,
            -0.014148209244012833,
            -0.007026718929409981,
            -0.14692437648773193,
            -0.07315713912248611,
            -0.006453139707446098,
            0.06111108511686325,
            0.022723812609910965,
            0.030084243044257164,
            0.021783841773867607,
            0.035392407327890396,
            -0.12404284626245499,
            -0.05909454822540283,
            0.0174113679677248,
            -0.0012236109469085932,
            0.049248117953538895,
            -0.009637084789574146,
            0.05551470071077347,
            0.19374261796474457,
            -0.017604492604732513,
            -0.250705748796463,
            -0.029775632545351982,
            -0.07993607223033905,
            0.21056705713272095,
            -0.23268958926200867,
            -0.16729854047298431,
            -0.0003337890957482159,
            -0.04032527655363083,
            -0.07887408137321472,
            0.14339610934257507,
            -0.0991111695766449,
            0.20055590569972992,
            0.03797321021556854,
            -0.15922163426876068,
            0.12393979728221893,
            -0.06909377872943878,
            -0.1686338186264038,
            -0.025035496801137924,
            -0.06648554652929306,
            0.08298728615045547,
            -0.08586444705724716,
            -0.15658220648765564,
            0.07059656828641891,
            -0.02498934417963028,
            0.16174478828907013,
            0.0593293122947216,
            0.06011781468987465,
            0.12424089759588242,
            -0.15172483026981354,
            -0.16873539984226227,
            0.12314607203006744,
            0.009283887222409248,
            -0.1101345419883728,
            0.12876804172992706,
            -0.19543270766735077,
            -0.048642680048942566,
            -0.1162513792514801,
            -0.12589867413043976,
            -0.17475372552871704,
            -0.2067481428384781,
            -0.00953691452741623,
            -0.13413682579994202,
            0.10166606307029724,
            -0.05300841107964516,
            0.07254471629858017,
            0.062461379915475845,
            -0.1459447741508484,
            0.07944558560848236,
            -0.09970654547214508,
            -0.04333886131644249,
            -0.08796466141939163,
            0.1214309111237526,
            -0.08286647498607635,
            -0.05725177377462387,
            -0.06399403512477875,
            0.012788479216396809,
            0.17661328613758087,
            0.07137889415025711,
            -0.03842517361044884,
            0.14432667195796967,
            -0.05971084162592888,
            -0.07644016295671463,
            -0.23990975320339203,
            0.11405780911445618,
            -0.07600466907024384,
            -0.08998973667621613,
            -0.17104387283325195,
            -0.0512307845056057,
            -0.043276213109493256,
            0.12075313180685043,
            -0.07885321974754333,
            0.06886042654514313,
            -0.11052010953426361,
            0.022419894114136696,
            0.1123674064874649,
            0.03421667963266373,
            0.18401208519935608,
            0.022840693593025208,
            -0.008688521571457386,
            0.18196548521518707,
            0.038150716572999954,
            -0.13712388277053833,
            0.15752007067203522,
            -0.09558384120464325,
            0.010964629240334034,
            0.0863339975476265,
            -0.11844182759523392,
            -0.06652116775512695,
            0.022101175040006638,
            0.09343498200178146,
            0.045586537569761276,
            0.18440499901771545,
            0.03871423378586769,
            0.00976336095482111,
            -0.011211369186639786,
            0.10080939531326294,
            0.053064022213220596,
            0.11741800606250763,
            -0.06213235482573509,
            0.16203776001930237,
            0.01037178561091423,
            -0.22717685997486115,
            -0.014879055321216583,
            -0.11825020611286163,
            0.05449226126074791,
            0.09085400402545929,
            -0.1358623206615448,
            0.1631138175725937,
            0.07931391894817352,
            0.05859589949250221,
            0.12852205336093903,
            0.03711678087711334,
            0.07179123908281326,
            -0.005401368718594313,
            -0.03915606066584587,
            0.053290143609046936,
            -0.0014927274314686656,
            0.052814941853284836,
            0.09620261192321777,
            -0.09363340586423874,
            0.032681867480278015,
            0.08669629693031311,
            0.10196982324123383,
            0.05363177880644798,
            -0.06956521421670914,
            0.011637706309556961,
            0.009325439110398293,
            -0.15543386340141296,
            -0.05165616422891617,
            -0.051720503717660904,
            0.0349319651722908,
            -0.10304849594831467,
            0.12726643681526184,
            0.005446278490126133,
            0.017938392236828804,
            0.019804183393716812,
            0.039683908224105835,
            0.031613320112228394,
            0.13281205296516418,
            -0.08402067422866821,
            0.014924225397408009,
            0.056213390082120895,
            0.03821384161710739,
            -0.12402253597974777,
            -0.12421692907810211,
            -0.16174359619617462,
            0.015627168118953705,
            -0.1169385015964508,
            -0.0048654223792254925,
            0.05431310087442398,
            -0.09900351613759995,
            -0.2147168517112732,
            -0.028377709910273552,
            0.11533544957637787,
            0.15731225907802582,
            -0.03423253446817398,
            -0.005335116758942604,
            0.0024772558826953173,
            0.11890973150730133,
            -0.09053623676300049,
            0.005047502461820841,
            0.08273615688085556,
            0.024538815021514893,
            0.13325339555740356,
            -0.1589815467596054,
            0.11261826753616333,
            -0.19691087305545807,
            0.03166045621037483,
            -0.0956178829073906,
            0.0073524522595107555,
            0.12552787363529205,
            0.1904042363166809,
            -0.13089460134506226,
            -0.07637029141187668,
            0.037849683314561844,
            -0.014320637099444866,
            0.09161465615034103,
            -0.13841359317302704,
            -0.0553034245967865,
            0.008241071365773678,
            -0.008952068164944649,
            -0.132765993475914,
            0.08578267693519592,
            0.09763208776712418,
            -0.13970662653446198,
            -0.06622223556041718,
            -0.028631379827857018,
            -0.035767026245594025,
            0.1144002228975296,
            0.021191926673054695,
            0.15344248712062836,
            0.15374934673309326,
            -0.07448035478591919,
            -0.08999107033014297,
            -0.012025500647723675,
            -0.03345758467912674,
            -0.16815665364265442,
            -0.0009596546296961606,
            -0.004019925836473703,
            -0.07005638629198074,
            -0.1071203276515007,
            0.07726102322340012,
            0.16344960033893585,
            0.17613907158374786,
            0.04860254377126694,
            0.03920956328511238,
            -0.22422955930233002,
            -0.12065230309963226,
            -0.15082740783691406,
            -0.09206520766019821,
            0.020218880847096443,
            -0.054104022681713104,
            0.09595119953155518,
            -0.1354905068874359,
            0.13742193579673767,
            -0.032478272914886475,
            -0.2726799547672272,
            0.053899385035037994,
            -0.023182028904557228,
            0.20872274041175842,
            0.12078846246004105,
            -0.024849440902471542,
            0.14762353897094727,
            -0.1095874011516571,
            -0.06040622666478157,
            0.10203443467617035,
            0.16586603224277496,
            0.1751430332660675,
            0.00124808878172189,
            0.005064000375568867,
            0.03649899363517761,
            0.16802388429641724,
            -0.014350212179124355,
            -0.027995213866233826,
            -0.01992654614150524,
            -0.02651745080947876,
            -0.15097865462303162,
            0.014369402080774307,
            -0.06151942163705826,
            0.10564493387937546,
            0.02652980387210846,
            -0.10909455269575119,
            0.16374145448207855,
            -0.14852237701416016,
            -0.07744119316339493,
            -0.10602759569883347,
            0.24206870794296265,
            0.0539422482252121,
            0.04881856217980385,
            0.12141834944486618,
            0.03927687183022499,
            0.1120927631855011,
            -0.12287343293428421,
            0.17924290895462036,
            -0.13489535450935364,
            -0.25659582018852234,
            -0.03609269857406616,
            0.00655656261369586,
            0.333481103181839,
            0.04497431218624115,
            0.09039143472909927,
            -0.0991901159286499,
            -0.03312025964260101,
            -0.13468925654888153,
            -0.19407205283641815,
            0.020551666617393494,
            0.004415321629494429,
            -0.03848960995674133,
            -0.053452666848897934,
            0.23877131938934326,
            -0.10562998056411743,
            0.06716208159923553,
            -0.12102160602807999,
            0.1788640320301056,
            0.1871364712715149,
            0.050081972032785416,
            -0.033779434859752655,
            0.15352627635002136,
            0.1206478625535965,
            -0.013466250151395798,
            -0.1126345619559288,
            0.0372588150203228,
            -0.18597498536109924,
            -0.0041977763175964355,
            -0.08716582506895065,
            -0.08521547168493271,
            -0.037374164909124374,
            0.26301610469818115,
            0.04254552349448204,
            -0.25690677762031555,
            0.06387767195701599,
            -0.03731397166848183,
            0.18070955574512482,
            0.11757449805736542,
            0.07823152840137482,
            -0.06778089702129364,
            0.06404116749763489,
            0.03218325600028038,
            0.19885604083538055,
            -0.0449192076921463,
            0.18467170000076294,
            -0.031820785254240036,
            0.02925119176506996,
            -0.039926379919052124,
            0.07427578419446945,
            0.04914349690079689,
            0.06759052723646164,
            0.020741214975714684,
            0.07548762112855911,
            -0.0032305654603987932,
            0.0668220967054367,
            -0.049824271351099014,
            -0.1058291643857956,
            0.04447512701153755,
            -0.004001846071332693,
            0.048705585300922394,
            -0.038285158574581146,
            -0.010008295066654682,
            0.056476786732673645,
            -0.0684567540884018,
            -0.15786072611808777,
            -0.03538193926215172,
            -0.0007994636544026434,
            0.1207420602440834,
            0.11321992427110672,
            0.16222313046455383,
            0.08828260749578476,
            -0.0768163874745369,
            0.08936677128076553,
            0.07484070956707001,
            -0.02200990356504917,
            -0.12688308954238892,
            -0.031193193048238754,
            0.11818048357963562,
            -0.019994311034679413,
            -0.019693292677402496,
            -0.08719363808631897,
            0.007659393362700939,
            -0.023159049451351166,
            0.02325841784477234,
            -0.018156973645091057,
            -0.04111368581652641,
            -0.06081441417336464,
            0.11305616050958633,
            -0.03910904377698898,
            -0.05675693601369858,
            -0.01897204853594303,
            0.13735322654247284,
            -0.14261960983276367,
            -0.051147814840078354,
            0.16212640702724457,
            0.1237955242395401,
            0.02112223207950592,
            0.15310150384902954,
            -0.0901956707239151,
            -0.06558383256196976,
            0.008888433687388897,
            -0.08293311297893524,
            0.06056506559252739,
            -0.20525754988193512,
            -0.019640110433101654,
            0.03866361454129219,
            0.09110365062952042,
            -0.11192252486944199,
            -0.07691346108913422,
            0.16227200627326965,
            -0.05696207657456398,
            -0.12843821942806244,
            0.08212453126907349,
            -0.05701504647731781,
            -0.05418500304222107,
            -0.012521978467702866,
            -0.24201509356498718,
            0.10706248134374619,
            0.0896889716386795,
            -0.054544612765312195,
            -0.05124770477414131,
            0.042096395045518875,
            0.08703518658876419,
            -0.07739704102277756,
            -0.009337708353996277,
            0.15270298719406128,
            0.04865800216794014,
            -0.11740756034851074,
            -0.16126836836338043,
            -0.03687472268939018,
            0.10626454651355743,
            0.09535732865333557,
            -0.16986297070980072,
            0.06972632557153702,
            -0.019573630765080452,
            -0.052052322775125504,
            -0.027776047587394714,
            0.08410437405109406,
            0.22844426333904266,
            -0.011927672661840916,
            -0.007442026399075985,
            0.013808855786919594,
            0.03059791773557663,
            0.09952741116285324,
            -0.05815065652132034,
            0.2179492563009262,
            0.0551394447684288,
            0.05575432628393173,
            0.0004607891896739602,
            -0.08028734475374222,
            -0.04946782812476158,
            0.019052943214774132,
            -0.09455302357673645,
            -0.2000512331724167,
            -0.04373651370406151,
            -0.009490534663200378,
            0.009945572353899479,
            -0.163809135556221,
            0.047081343829631805,
            -0.05678989365696907,
            0.008619545958936214,
            -0.13735997676849365,
            0.023627441376447678,
            0.05991452932357788,
            0.028034411370754242,
            -0.0005457517690956593,
            0.06905931234359741,
            0.14175526797771454,
            0.08343560993671417,
            -0.20164495706558228,
            -0.13262882828712463,
            0.058602094650268555,
            -0.03325938433408737,
            -0.08154609054327011,
            -0.05733245983719826,
            -0.0074638850055634975,
            0.10573767125606537,
            0.06806234270334244,
            0.14491364359855652,
            -0.20904599130153656,
            -0.008930188603699207,
            0.16430218517780304,
            -0.026212094351649284,
            0.018925847485661507,
            -0.17036093771457672,
            0.01338872592896223,
            0.24001656472682953,
            0.11448407918214798,
            0.06430386006832123,
            0.15801472961902618,
            -0.13590924441814423,
            -0.009849155321717262,
            0.2649339735507965,
            0.08175785094499588,
            -0.06812593340873718,
            -0.04430682212114334,
            0.24780021607875824,
            0.15483659505844116,
            -0.014992640353739262,
            -0.10653305798768997,
            0.13455159962177277,
            -0.219269260764122,
            0.0821068286895752,
            0.11637178063392639,
            0.2106773406267166,
            -0.0070486245676875114,
            -0.09190984070301056,
            0.0847395732998848,
            0.10621646046638489,
            0.024533983319997787,
            -0.054290447384119034,
            0.03994964808225632,
            0.3019619882106781,
            -0.04119216650724411,
            0.1272604763507843,
            0.011013977229595184,
            0.01702786423265934,
            0.12431691586971283,
            -0.0029612774960696697,
            -0.15167777240276337,
            -0.12238480895757675,
            0.01247776672244072,
            0.027557779103517532,
            -0.09183754026889801,
            0.2111000418663025,
            0.029782170429825783,
            0.01922415941953659,
            -0.016465626657009125,
            0.15098553895950317,
            0.027310442179441452,
            0.16577379405498505,
            -0.10199566185474396,
            -0.01213268842548132,
            0.07497590780258179,
            0.09170859307050705,
            -0.10672064125537872,
            -0.18775609135627747,
            0.0018531715031713247,
            -0.024252871051430702,
            0.045888014137744904,
            -0.020841950550675392,
            0.04253453388810158,
            -0.21121175587177277,
            -0.1673552691936493,
            -0.12711893022060394,
            0.20676741003990173,
            0.003062907140702009,
            0.039142340421676636,
            -0.11572074145078659,
            -0.07422705739736557,
            -0.08579294383525848,
            -0.04286272078752518,
            -0.03876400366425514,
            0.19200190901756287,
            -0.1373230367898941,
            0.17841967940330505,
            -0.16175435483455658,
            -0.140021413564682,
            0.01445704698562622,
            0.08890330046415329,
            -0.2118714451789856,
            0.0506894588470459,
            -0.10411864519119263,
            0.019481435418128967,
            0.08693865686655045,
            0.10450710356235504,
            -0.03875240311026573,
            -0.04187501594424248,
            0.1083049327135086,
            -0.2422948032617569,
            -0.15667828917503357,
            0.047550495713949203,
            -0.14416073262691498,
            -0.18825094401836395,
            -0.14705076813697815,
            -0.20434404909610748,
            -0.1343071311712265,
            -0.066180020570755,
            -0.17196445167064667,
            -0.07490604370832443,
            0.24605406820774078,
            -0.047820184379816055,
            0.019915897399187088,
            0.05026185140013695,
            -0.23798809945583344,
            -0.10973674803972244,
            -0.24444374442100525,
            -0.25925302505493164,
            0.10390067845582962,
            0.24416004121303558,
            0.21058006584644318,
            -0.02156597562134266,
            -0.024554967880249023,
            0.002862694673240185,
            -0.014583531767129898,
            0.05269598960876465,
            0.18023832142353058,
            0.03355905041098595,
            0.028043007478117943,
            0.01779779978096485,
            -0.11093504726886749,
            -0.15973737835884094,
            0.1064935177564621,
            -0.0661032497882843,
            0.07767380028963089,
            0.06722355633974075,
            -0.14218708872795105,
            0.0024144090712070465,
            -0.05213337764143944,
            0.11129381507635117,
            -0.16451475024223328,
            -0.023998862132430077,
            -0.06456711143255234,
            -0.025465644896030426,
            -0.010748940519988537,
            0.002926863729953766,
            0.133321151137352,
            -0.07603300362825394,
            -0.03224115073680878,
            0.04878972843289375,
            -0.024074021726846695,
            0.06829460710287094,
            0.14167305827140808,
            0.09227123856544495,
            0.21069887280464172,
            -0.04381030425429344,
            0.019406307488679886,
            -0.008931837044656277,
            0.018419744446873665,
            -0.16272643208503723,
            0.03490065038204193,
            -0.10479242354631424,
            0.09528904408216476,
            -0.188682422041893,
            0.07403886318206787,
            0.12605221569538116,
            0.005860596429556608,
            -0.006453235168009996,
            0.009282548911869526,
            0.02983063831925392,
            -0.08115886151790619,
            0.08175776898860931,
            0.19262288510799408,
            -0.08477828651666641,
            -0.05655084177851677,
            -0.12681177258491516,
            0.07850691676139832,
            -0.13469402492046356,
            0.12560708820819855,
            0.09385503083467484,
            -0.06552715599536896,
            -0.20124274492263794,
            -0.04974958673119545,
            -0.1720144897699356,
            0.06518874317407608,
            0.13934968411922455,
            -0.018557008355855942,
            -0.008562503382563591,
            -0.03456142544746399,
            0.13331231474876404,
            0.1365913599729538,
            -0.09792809933423996,
            0.08542975038290024,
            -0.09185150265693665,
            0.019273431971669197,
            -0.16552016139030457,
            -0.15025818347930908,
            -0.04438437893986702,
            0.20037871599197388,
            -0.04249840974807739,
            -0.06007842347025871,
            0.06228279694914818,
            0.15355908870697021,
            0.05120694637298584,
            0.12814301252365112,
            -0.08003778010606766,
            0.05455929413437843,
            0.07378672063350677,
            -0.017305690795183182,
            0.2205500602722168,
            -0.009256359189748764,
            0.044608887284994125,
            -0.07785063982009888,
            0.03685944527387619,
            -0.07221043854951859,
            0.04075993597507477,
            0.04978794977068901,
            -0.21423058211803436,
            0.0832965150475502,
            -0.10949891060590744,
            -0.0843970850110054,
            0.14094671607017517,
            0.011524485424160957,
            -0.0533609502017498,
            -0.1299135833978653,
            0.1503753811120987,
            0.04292262718081474,
            -0.010322395712137222,
            -0.04805968701839447,
            -0.08737077564001083,
            -0.14857637882232666,
            -0.06655769050121307,
            -0.043124981224536896,
            0.15032975375652313,
            -0.07721693813800812,
            0.0787699744105339,
            0.005385898984968662,
            0.07625167816877365,
            -0.14752675592899323,
            0.002337886719033122,
            -0.023061785846948624,
            0.10668936371803284,
            0.07259933650493622,
            -0.144537091255188,
            -0.014394150115549564,
            -0.04968488588929176,
            -0.223087877035141,
            0.0022080540657043457,
            0.07480154186487198,
            0.07520166039466858,
            -0.24485214054584503,
            -0.10186628252267838,
            0.05961131304502487,
            -0.06977339833974838,
            0.09969409555196762,
            -0.05548917129635811,
            0.0850873664021492,
            -0.01504544634371996,
            -0.007279667071998119,
            -0.05858183652162552,
            0.027297984808683395,
            -0.05175835266709328,
            0.18483933806419373,
            -0.030792322009801865,
            0.014051534235477448,
            -0.05098826065659523,
            -0.005938871763646603,
            0.1649637222290039,
            0.16003289818763733,
            -0.07072225213050842,
            -0.13743409514427185,
            -0.13626272976398468,
            0.031158816069364548,
            -0.04302438721060753,
            -0.1700894832611084,
            -0.06792885065078735,
            -0.0010205268627032638,
            -0.03014836274087429,
            -0.018289443105459213,
            0.18837665021419525,
            0.13082678616046906,
            0.08759497851133347,
            0.01802191138267517,
            -0.08305639773607254,
            -0.11151041835546494,
            -0.050106119364500046,
            0.026110656559467316,
            -0.108730748295784,
            0.0037317550741136074,
            -0.1478929966688156,
            0.005306934472173452,
            -0.10105651617050171,
            -0.07550361752510071,
            -0.06651192903518677,
            -0.00944984145462513,
            0.16952699422836304,
            0.13378572463989258,
            0.10128576308488846,
            0.04143264517188072,
            0.2009323388338089,
            0.24379052221775055,
            -0.004476114641875029,
            -0.1936798095703125,
            -0.024555105715990067,
            0.09825511276721954,
            0.03894832357764244,
            0.04412033408880234,
            0.12449512630701065,
            0.0002937193203251809,
            -0.14733903110027313,
            -0.03437893092632294,
            0.08385691791772842,
            -0.006541373673826456,
            -0.1007310226559639,
            0.03727642074227333,
            -0.024074330925941467,
            -0.0758364349603653,
            -0.074616439640522,
            -0.13341808319091797,
            -0.179456889629364,
            -0.026177961379289627,
            -0.08974073082208633,
            -0.16263727843761444,
            0.12215349078178406,
            -0.04659270495176315,
            0.08970984071493149,
            0.011647172272205353,
            0.09039361774921417,
            0.01707293651998043,
            0.022223055362701416,
            -0.155516117811203,
            -0.05400850251317024,
            0.028191765770316124,
            -0.03977722302079201,
            -0.007072932552546263,
            0.033588722348213196,
            -0.10211575031280518,
            0.04690711572766304,
            0.10204466432332993,
            0.06415167450904846,
            0.19708964228630066,
            -0.004097756464034319,
            0.019175339490175247,
            0.03157786279916763,
            0.20565439760684967,
            -0.02011210285127163,
            0.025577381253242493,
            -0.02249208092689514,
            -0.1518433839082718,
            -0.017717447131872177,
            0.025220634415745735,
            0.09304402023553848,
            -0.08123417943716049,
            -0.08540964871644974,
            -0.04301096126437187,
            0.06329435855150223,
            -0.0741034671664238,
            -0.025681771337985992,
            -0.1437234878540039,
            0.03551563248038292,
            -0.18140822649002075,
            0.23447540402412415,
            0.1213056668639183,
            -0.05844426900148392,
            0.07030374556779861,
            0.020082930102944374,
            -0.018961692228913307,
            0.14176949858665466,
            -0.17533010244369507,
            -0.10387541353702545,
            0.04117301106452942,
            -0.13185915350914001,
            -0.1612381637096405,
            -0.14720971882343292,
            -0.20185956358909607,
            -0.20560580492019653,
            -0.25640156865119934,
            0.21713469922542572,
            -0.07037210464477539,
            -0.0604223795235157,
            -0.10365065187215805,
            0.09977895766496658,
            0.10331061482429504,
            -0.13941922783851624,
            -0.04864754155278206,
            -0.07288279384374619,
            -0.18416184186935425,
            0.28469225764274597,
            0.15090776979923248,
            -0.02622111886739731,
            -0.055775709450244904,
            -0.12413569539785385,
            -0.07110433280467987,
            0.16099447011947632,
            0.011279543861746788,
            0.1145721971988678,
            0.0012271272717043757,
            0.0019899322651326656,
            0.040618713945150375,
            0.10459372401237488,
            -0.08273273706436157,
            0.1774466633796692,
            0.0011783919762820005,
            0.01486911904066801,
            0.020141875371336937,
            -0.18243102729320526,
            0.13535234332084656,
            -0.18220356106758118,
            0.1472969800233841,
            -0.11066527664661407,
            0.03551707789301872,
            -0.06167174130678177,
            -0.05312732979655266,
            -0.00048787760897539556,
            -0.13910871744155884,
            -0.00654629897326231,
            -0.1438884288072586,
            -0.07314969599246979,
            0.06842543184757233,
            0.020712897181510925,
            0.027925677597522736,
            -0.10675466805696487,
            0.11146970093250275,
            0.1819676011800766,
            -0.1949022114276886,
            -0.020395560190081596,
            0.06500116735696793,
            0.024648349732160568,
            0.3054640591144562,
            0.1558692753314972,
            0.08914195746183395,
            -0.12131694704294205,
            -0.02194083482027054,
            -0.08281143754720688,
            0.022901060059666634,
            -0.023020032793283463,
            0.025264982134103775,
            -0.07781784981489182,
            0.14716745913028717,
            0.10853362083435059,
            0.13403721153736115,
            -0.05517294630408287,
            -0.14764858782291412,
            0.0000585210436838679,
            -0.03325702250003815,
            0.04637228325009346,
            -0.04157191514968872,
            -0.07483001798391342,
            0.14338314533233643,
            0.027799904346466064,
            -0.03722914680838585,
            0.003387840697541833,
            0.07346058636903763,
            0.1446508914232254,
            -0.00016973876336123794,
            -0.09670335054397583,
            0.15601103007793427,
            -0.0962972342967987,
            -0.1271563023328781,
            -0.24231015145778656,
            -0.24906374514102936,
            0.05109987407922745,
            -0.1847791224718094,
            0.015434477478265762,
            -0.04833442345261574,
            0.13046810030937195,
            -0.043445199728012085,
            -0.2172202467918396,
            -0.0854465439915657,
            -0.039587002247571945,
            0.04519633948802948,
            -0.10400087386369705,
            -0.029778845608234406,
            0.031055675819516182,
            -0.0065762042067945,
            0.05960918217897415,
            0.048896025866270065,
            0.23932738602161407,
            -0.24230362474918365,
            0.11974707245826721,
            0.07877209782600403,
            0.009568305686116219,
            -0.29359275102615356,
            -0.18902182579040527,
            -0.0721445381641388,
            0.21545885503292084,
            -0.04958344250917435,
            0.1455366164445877,
            -0.12105376273393631,
            -0.020734598860144615,
            -0.007690003141760826,
            0.0547320730984211,
            -0.14591017365455627,
            0.0995207130908966,
            0.03931635618209839,
            0.10478458553552628,
            -0.016077948734164238,
            0.0711718425154686,
            -0.0028421466704458,
            0.009258488193154335,
            -0.0715598538517952,
            0.08238779008388519,
            0.1814032942056656,
            -0.1136268824338913,
            -0.20274363458156586,
            -0.028620662167668343,
            -0.15991662442684174,
            0.009270532988011837,
            0.0243491530418396,
            0.15418581664562225,
            0.01230428647249937,
            -0.13371677696704865,
            -0.059737712144851685,
            0.02610173262655735,
            0.02355620265007019,
            -0.05099017545580864,
            0.04394582286477089,
            0.05510956794023514,
            -0.05102591961622238,
            -0.1386224776506424,
            0.0331914909183979,
            0.05730316415429115,
            0.024904588237404823,
            0.12256499379873276,
            0.0199325792491436,
            0.11947622895240784,
            0.07588990032672882,
            -0.04853057488799095,
            -0.14400075376033783,
            -0.030092572793364525,
            0.05760439112782478,
            0.04903857782483101,
            0.06791117042303085,
            -0.039333924651145935,
            0.012943205423653126,
            0.15254366397857666,
            -0.15380385518074036,
            0.05803597345948219,
            0.205256387591362,
            0.12290409207344055,
            0.10113699734210968,
            -0.019718607887625694,
            0.10424274206161499,
            0.0974540039896965,
            -0.11679897457361221,
            -0.19338099658489227,
            -0.093338742852211,
            -0.006213546730577946,
            -0.019203394651412964,
            -0.07724420726299286,
            0.055177439004182816,
            -0.07349719852209091,
            0.026516249403357506,
            -0.051760848611593246,
            0.011785464361310005,
            0.0924268513917923,
            -0.0219451654702425,
            0.03568773344159126,
            -0.06407726556062698,
            -0.03994070738554001,
            0.09113747626543045,
            -0.06392934918403625,
            0.13322772085666656,
            -0.036905862390995026,
            0.061784934252500534,
            -0.0015496419509872794,
            -0.07981017231941223,
            -0.12906232476234436,
            0.1179596409201622,
            -0.12579475343227386,
            -0.0849381685256958,
            0.13271589577198029,
            0.02373415231704712,
            0.017817450687289238,
            0.08618735522031784,
            0.13522560894489288,
            -0.1273568719625473,
            0.13865423202514648,
            0.05022943764925003,
            -0.02405564673244953,
            0.05346547067165375,
            -0.005055631045252085,
            -0.10060941427946091,
            0.05269226059317589,
            -0.018793392926454544,
            0.0742417424917221,
            0.06284651160240173,
            0.05768078565597534,
            -0.008555980399250984,
            -0.20547643303871155,
            -0.18725593388080597,
            -0.06322268396615982,
            -0.16838465631008148,
            -0.1996932327747345,
            -0.05937449261546135,
            -0.13117451965808868,
            -0.04735173285007477,
            -0.05485076084733009,
            0.09797637164592743,
            -0.10194598138332367,
            0.07825909554958344,
            -0.08234881609678268,
            -0.13380207121372223,
            -0.0796528160572052,
            0.04369988292455673,
            0.057173438370227814,
            -0.032708700746297836,
            -0.017195822671055794,
            -0.13206037878990173,
            0.1098301038146019,
            -0.1295650452375412,
            0.0035089808516204357,
            -0.019216688349843025,
            0.06056051701307297,
            0.023936429992318153,
            0.08101294189691544,
            0.12547028064727783,
            0.13803020119667053,
            0.10398951917886734,
            0.15755429863929749,
            0.08399583399295807,
            -0.09708865731954575,
            0.05978741869330406,
            0.053071726113557816,
            -0.09105794131755829,
            0.13459479808807373,
            -0.06357589364051819,
            -0.08010055869817734,
            0.11591889709234238,
            0.052975840866565704,
            -0.07849599421024323,
            0.02222469635307789,
            0.027318095788359642,
            -0.03975408151745796,
            -0.07097425311803818,
            -0.019961830228567123,
            -0.04794525355100632,
            -0.10585718601942062,
            0.0018252257723361254,
            -0.15029394626617432,
            0.14330796897411346,
            -0.039387211203575134,
            0.10500241070985794,
            0.09326090663671494,
            -0.020240794867277145,
            -0.0993882492184639,
            -0.15213161706924438,
            0.21672280132770538,
            -0.05306096002459526,
            0.12229089438915253,
            -0.011825161054730415,
            0.07731655240058899,
            0.1139487698674202,
            -0.10420598834753036,
            -0.03892143815755844,
            0.0738174170255661,
            -0.00007654562796233222,
            0.15449723601341248,
            -0.03306184336543083,
            0.0037181698717176914,
            0.017292583361268044,
            -0.04005509242415428,
            0.07535434514284134,
            0.0520348995923996,
            0.12423908710479736,
            0.1584959626197815,
            0.034088727086782455,
            -0.11758172512054443,
            -0.03920088708400726,
            0.11464786529541016,
            -0.034206558018922806,
            0.10479693859815598,
            0.0597982183098793,
            0.03733716160058975,
            -0.14234788715839386,
            -0.11071483790874481,
            -0.05574166774749756,
            0.09696659445762634,
            -0.03494357317686081,
            0.016804879531264305,
            0.01876799575984478,
            0.07681278884410858,
            0.09405255317687988,
            -0.01594068855047226,
            0.12046432495117188,
            -0.10389512777328491,
            0.044198982417583466,
            -0.16771970689296722,
            0.0881933644413948,
            0.20500917732715607,
            -0.025783341377973557,
            -0.15172596275806427,
            -0.20328782498836517,
            -0.12418419122695923,
            -0.06473928689956665,
            0.0838291123509407,
            0.021086405962705612,
            0.032097991555929184,
            -0.0921844020485878,
            0.1164591908454895,
            -0.05901117995381355,
            -0.04909099265933037,
            0.21282994747161865,
            -0.058083675801754,
            0.12214183062314987,
            0.07487983256578445,
            0.06257390230894089,
            -0.1339399516582489,
            -0.10205358266830444,
            0.1017310842871666,
            0.06581812351942062,
            0.097218818962574,
            0.11301220208406448,
            -0.14351913332939148,
            0.09512139111757278,
            -0.061557840555906296,
            0.021973876282572746,
            -0.12549255788326263,
            0.03352600708603859,
            -0.07439329475164413,
            0.06739530712366104,
            0.037956565618515015,
            0.21150723099708557,
            -0.020627815276384354,
            -0.1840916872024536,
            -0.0693926215171814,
            0.09610782563686371,
            -0.1536436229944229,
            0.040174953639507294,
            -0.10336297750473022,
            -0.057367127388715744,
            -0.07275013625621796,
            -0.09746482223272324,
            0.05644776299595833,
            -0.08827303349971771,
            -0.1730923056602478,
            0.10541413724422455,
            -0.03708427771925926,
            -0.0021277787163853645,
            0.17516162991523743,
            -0.12355522066354752,
            0.058159731328487396,
            -0.07845735549926758,
            0.002757588867098093,
            0.09902885556221008,
            0.16338945925235748,
            0.0033185358624905348,
            0.14005498588085175,
            0.006166558712720871,
            0.15813088417053223,
            0.011441717855632305,
            0.06959901750087738,
            0.021346865221858025,
            -0.022549740970134735,
            -0.012216189876198769,
            -0.19850680232048035,
            0.013698671944439411,
            -0.020687468349933624,
            0.11736040562391281,
            0.11840097606182098,
            0.15401718020439148,
            -0.03941819444298744,
            -0.009601334109902382,
            0.023708604276180267,
            0.08422552794218063,
            -0.03528551012277603,
            -0.04308294504880905,
            0.15504030883312225,
            -0.1342695951461792,
            -0.012178340926766396,
            0.19023089110851288,
            0.05364152789115906,
            -0.057405296713113785,
            0.09793370962142944,
            0.00918520987033844,
            0.008365771733224392,
            0.017966197803616524,
            -0.14240224659442902,
            0.014127332717180252,
            0.08782585710287094,
            0.17645934224128723,
            -0.03957761079072952,
            -0.04227388650178909,
            0.05690024420619011,
            -0.020340047776699066,
            -0.016000045463442802,
            0.04730185493826866,
            -0.03787068650126457,
            0.19617825746536255,
            -0.12875136733055115,
            -0.057942990213632584,
            -0.1609216034412384,
            0.11444736272096634,
            -0.10832013934850693,
            -0.08373787999153137,
            -0.02528880350291729,
            -0.11685977131128311,
            -0.08148817718029022,
            0.18254972994327545,
            -0.02331031858921051,
            0.09162387251853943,
            0.10206934064626694,
            -0.059626758098602295,
            0.14525511860847473,
            0.10413272678852081,
            -0.1978103220462799,
            0.19696709513664246,
            0.1392994076013565,
            -0.03824261203408241,
            -0.08956554532051086,
            0.11567427963018417,
            0.04636551812291145,
            0.12176869809627533,
            -0.016426272690296173,
            0.04041387140750885,
            -0.031201567500829697,
            -0.0003980049805250019,
            -0.029237177222967148,
            -0.16744549572467804,
            -0.07701296359300613,
            -0.0952480286359787,
            -0.021604418754577637,
            -0.09753705561161041,
            0.02783709391951561,
            -0.11011069267988205,
            -0.0481334887444973,
            0.056934889405965805,
            -0.10815104097127914,
            -0.102317675948143,
            -0.02258143201470375,
            0.05428706482052803,
            -0.019435128197073936,
            -0.06294068694114685,
            0.153753861784935,
            0.1261197328567505,
            0.1048867255449295,
            0.002804837189614773,
            -0.1198752298951149,
            0.21019217371940613,
            -0.18832820653915405,
            0.15730755031108856,
            -0.09792519360780716,
            0.1047288328409195,
            0.03047051839530468,
            -0.02793770469725132,
            0.019905969500541687,
            -0.0459434874355793,
            0.0236932672560215,
            0.0632619708776474,
            0.01114977989345789,
            0.1013268232345581,
            -0.12509693205356598,
            -0.07146663218736649,
            -0.0668252557516098,
            -0.060251250863075256,
            -0.027893856167793274,
            -0.1919490545988083,
            -0.052767910063266754,
            0.020290812477469444,
            -0.10363446176052094,
            -0.029267799109220505,
            0.12571337819099426,
            0.1794893443584442,
            -0.13039804995059967,
            0.18298757076263428,
            0.013588511385023594,
            0.051800601184368134,
            -0.07302148640155792,
            0.016699332743883133,
            0.08147931843996048,
            -0.014585855416953564,
            0.06246856600046158,
            -0.20993712544441223,
            0.006239584181457758,
            -0.030051490291953087,
            -0.08442418277263641,
            -0.1316664218902588,
            0.13269029557704926,
            0.1476353257894516,
            -0.054743144661188126,
            0.081636942923069,
            -0.09043911844491959,
            0.11091060936450958,
            -0.08169259876012802,
            0.09135069698095322,
            -0.024895289912819862,
            0.0913194790482521,
            0.02400978095829487,
            0.02573516219854355,
            -0.007770564407110214,
            -0.00036522129084914923,
            -0.16474056243896484,
            0.018823301419615746,
            -0.0283416286110878,
            -0.21257585287094116,
            -0.0038973959162831306,
            0.17400628328323364,
            -0.20153817534446716,
            -0.03681106120347977,
            0.07572106271982193,
            -0.16752861440181732,
            0.011030683293938637,
            -0.008227450773119926,
            0.09311141073703766,
            -0.006251956336200237,
            -0.006694435141980648,
            0.029483888298273087,
            -0.10894235968589783,
            -0.09774130582809448,
            0.048860978335142136,
            0.053489115089178085,
            -0.10768444091081619,
            0.02572888694703579,
            0.003555594477802515,
            0.01940314471721649,
            0.043729353696107864,
            0.011520194821059704,
            0.008446902967989445,
            -0.0562884621322155,
            -0.09458262473344803,
            0.05810796469449997,
            0.04015973210334778,
            -0.11604255437850952,
            0.07806560397148132,
            -0.06868285685777664,
            -0.06393132358789444,
            -0.13210837543010712,
            -0.0263234730809927,
            -0.1175537034869194,
            -0.19794903695583344,
            0.06737950444221497,
            -0.009344594553112984,
            -0.05702100321650505,
            0.13543900847434998,
            0.13621020317077637,
            0.11041796207427979,
            0.17845338582992554,
            -0.006249033845961094,
            -0.0258493535220623,
            -0.0148446811363101,
            0.09548122435808182,
            -0.14635410904884338,
            0.05704087018966675,
            -0.09079611301422119,
            -0.17705678939819336,
            -0.006371180061250925,
            0.07938189804553986,
            0.04056290537118912,
            0.10750093311071396,
            -0.05728619545698166,
            0.06327589601278305,
            -0.1619473397731781,
            -0.04387020692229271,
            0.11309871822595596,
            0.007624385878443718,
            -0.19791093468666077,
            -0.024689748883247375,
            -0.03549310564994812,
            -0.06708840280771255,
            0.006002602633088827,
            0.04760961979627609,
            -0.07414887100458145,
            -0.06970830261707306,
            -0.03839579224586487,
            -0.08964872360229492,
            0.0782257691025734,
            0.013655858114361763,
            0.017843563109636307,
            0.10155891627073288,
            0.026569204404950142,
            0.11830619722604752,
            -0.16833579540252686,
            -0.1390199363231659,
            0.013394275680184364,
            0.03143518045544624,
            -0.1444806158542633,
            -0.10245109349489212,
            0.14706683158874512,
            0.02233845740556717,
            0.14422741532325745,
            0.09806555509567261,
            -0.06802836805582047,
            -0.12382993847131729,
            -0.055960044264793396,
            0.08058864623308182,
            0.10727105289697647,
            0.05871453881263733,
            -0.039296213537454605,
            -0.17200081050395966,
            0.01783052645623684,
            0.119293212890625,
            -0.067162424325943,
            -0.09282184392213821,
            0.08690877258777618,
            0.08777550607919693,
            -0.14760412275791168,
            -0.18203701078891754,
            0.12013742327690125,
            -0.11675917357206345,
            -0.06474614143371582,
            0.11824233084917068,
            -0.0532810352742672,
            0.19551914930343628,
            -0.048910848796367645,
            -0.002317033475264907,
            -0.11691580712795258,
            -0.03522481024265289,
            -0.09132149070501328,
            -0.0006387010216712952,
            -0.11726757884025574,
            -0.013813938945531845,
            0.039735887199640274,
            0.08485373109579086,
            0.03507601097226143,
            0.008791512809693813,
            0.1811446249485016,
            -0.032566335052251816,
            0.07311853021383286,
            -0.13178665935993195,
            -0.079081691801548,
            0.07713650912046432,
            0.07769347727298737,
            -0.043933071196079254,
            0.09636077284812927,
            0.08572906255722046,
            -0.037519894540309906,
            -0.045648083090782166,
            0.07202767580747604,
            -0.02286531589925289,
            -0.06783899664878845,
            0.07050276547670364,
            0.08921197056770325,
            -0.05409517139196396,
            0.18694500625133514,
            -0.10707475244998932,
            -0.05521389842033386,
            0.0442252978682518,
            0.11343120038509369,
            0.19655917584896088,
            0.01587698422372341,
            -0.008048920892179012,
            0.10247711837291718,
            -0.17850296199321747,
            -0.07854095101356506,
            0.019405683502554893,
            -0.06512805819511414,
            -0.14672398567199707,
            -0.061633821576833725,
            -0.02151862159371376,
            -0.018223732709884644,
            0.07087941467761993,
            0.039186134934425354,
            -0.04607892781496048,
            -0.09893371164798737,
            -0.13488438725471497,
            0.01710108295083046,
            -0.1817571073770523,
            -0.09910350292921066,
            -0.1576654613018036,
            -0.07112837582826614,
            0.1262069046497345,
            0.1065424382686615,
            0.03927982598543167,
            0.08640466630458832,
            0.1694163978099823,
            0.2158299833536148,
            -0.062295716255903244,
            -0.2141341120004654,
            0.11931434273719788,
            0.011923093348741531,
            -0.20088037848472595,
            -0.20834586024284363,
            0.04983443394303322,
            -0.08832328021526337,
            -0.03192192688584328,
            -0.15104420483112335,
            0.049018364399671555,
            0.004983146209269762,
            -0.14564494788646698,
            0.18465809524059296,
            0.0641695111989975,
            -0.023226136341691017,
            -0.03853331878781319,
            -0.02856689691543579,
            0.008535001426935196,
            0.07279963046312332,
            0.013757661916315556,
            -0.07443700730800629,
            -0.00851601641625166,
            -0.09856528788805008,
            0.011779644526541233,
            -0.11428620666265488,
            -0.1606355458498001,
            -0.1357707381248474,
            0.04391520097851753,
            -0.005159665364772081,
            -0.08298040181398392,
            0.007317366078495979,
            -0.13320888578891754,
            -0.12754009664058685,
            0.036792077124118805,
            0.05844061076641083,
            0.0372699573636055,
            0.010895978659391403,
            0.05788743868470192,
            0.026638254523277283,
            -0.14355306327342987,
            -0.08657156676054001,
            -0.1864890307188034,
            -0.08697675913572311,
            0.10834524780511856,
            0.028173573315143585,
            -0.004829028621315956,
            0.15973655879497528,
            -0.08468009531497955,
            -0.05406496301293373,
            0.09575481712818146,
            0.11404301226139069,
            -0.04802684858441353,
            -0.07283347100019455,
            -0.013363011181354523,
            0.1360621154308319,
            0.014161329716444016,
            -0.19713477790355682,
            -0.04154639691114426,
            0.03980805352330208,
            0.12524943053722382,
            -0.00551902549341321,
            -0.04060659930109978,
            0.09276440739631653,
            0.039946552366018295,
            0.19597451388835907,
            0.18705978989601135,
            0.1732511818408966,
            0.17195071280002594,
            -0.04922213405370712,
            0.14341521263122559,
            -0.12062662094831467,
            0.04599472135305405,
            -0.015371766872704029,
            0.12081342190504074,
            -0.1401868760585785,
            -0.15812967717647552,
            -0.12450186908245087,
            -0.13939574360847473,
            0.09114744514226913,
            0.024514442309737206,
            0.06817442923784256,
            -0.1446574628353119,
            -0.19714117050170898,
            -0.0885605663061142,
            -0.1174761950969696,
            -0.07225248217582703,
            -0.15131494402885437,
            -0.07549677044153214,
            0.16735638678073883,
            -0.03570045903325081,
            0.06317316740751266,
            0.03222787752747536,
            -0.01812235452234745,
            -0.005265926010906696,
            -0.1449342668056488,
            0.12560661137104034,
            -0.10465608537197113,
            0.05727039650082588,
            -0.14232467114925385,
            -0.08793727308511734,
            0.194064661860466,
            -0.016906604170799255,
            0.15673324465751648,
            0.06157294660806656,
            0.07740862667560577,
            -0.09059111028909683,
            -0.06263714283704758,
            0.026110853999853134,
            0.1446528285741806,
            0.14386002719402313,
            -0.09067970514297485,
            0.0017100527184084058,
            -0.06142163649201393,
            0.01834566704928875,
            -0.11851730942726135,
            -0.11542341858148575,
            0.093446746468544,
            0.010923139750957489,
            -0.06122168153524399,
            0.18351107835769653,
            -0.04286371171474457,
            -0.1527019888162613,
            0.03564612939953804,
            -0.08545999974012375,
            -0.03494378179311752,
            0.02931644767522812,
            -0.1358523964881897,
            0.12753687798976898,
            0.1028275191783905,
            -0.07185850292444229,
            -0.13107408583164215,
            -0.1813226342201233,
            -0.013444329611957073,
            0.03179435804486275,
            0.039405595511198044,
            0.10776776075363159,
            0.052965886890888214,
            -0.11171263456344604,
            -0.0742187350988388,
            0.04508068412542343,
            -0.04867219924926758,
            0.07986553013324738,
            -0.031665101647377014,
            0.10298089683055878,
            0.04997381940484047,
            -0.1960822343826294,
            0.1642758995294571,
            -0.19759613275527954,
            -0.12024926394224167,
            0.008364277891814709,
            0.12660425901412964,
            0.09485413134098053,
            0.00226023537106812,
            -0.0904569923877716,
            0.03848450258374214,
            0.04720998555421829,
            -0.007624003570526838,
            0.09904766082763672,
            -0.12201710790395737,
            -0.012279667891561985,
            0.012119650840759277,
            0.026629546657204628,
            -0.03468523919582367,
            -0.0008388195419684052,
            -0.09115858376026154,
            0.021048523485660553,
            -0.007086463738232851,
            0.06635046005249023,
            0.10294836014509201,
            -0.017075715586543083,
            0.07188266515731812,
            0.018125224858522415,
            -0.10085104405879974,
            0.04164206236600876,
            0.04792121797800064,
            -0.011640439741313457,
            -0.08308660238981247,
            -0.01551232673227787,
            0.019501686096191406,
            0.010468045249581337,
            -0.04793266952037811,
            0.12695132195949554,
            0.04835585132241249,
            0.04669269546866417,
            0.03362833708524704,
            0.03397876024246216,
            -0.00788307934999466,
            -0.0004281202855054289,
            -0.009225666522979736,
            -0.09044069051742554,
            0.017138810828328133,
            0.06908655911684036,
            -0.07277052849531174,
            0.18499088287353516,
            -0.06870323419570923,
            0.03362191468477249,
            0.03312963619828224,
            0.0660213753581047,
            -0.08839807659387589,
            0.13457134366035461,
            0.13563358783721924,
            0.14538197219371796,
            0.1614495813846588,
            -0.006890514865517616,
            -0.015389141626656055,
            0.07160152494907379,
            0.09498687833547592,
            0.16481517255306244,
            0.0025367019698023796,
            -0.0902344137430191,
            -0.09833748638629913,
            0.029608529061079025,
            -0.059104982763528824,
            -0.019095106050372124,
            -0.0039893826469779015,
            -0.1211213693022728,
            -0.050942033529281616,
            0.005649122875183821,
            -0.03486636281013489,
            0.018249250948429108,
            0.1482643187046051,
            0.07246154546737671,
            -0.06444477289915085,
            -0.05645569786429405,
            0.13681045174598694,
            0.019971724599599838,
            -0.14410586655139923,
            -0.011488858610391617,
            -0.15315406024456024,
            -0.0007878184551373124,
            -0.012275760993361473,
            0.002482350217178464,
            0.034388311207294464,
            -0.08363129198551178,
            0.07391044497489929,
            0.1738615781068802,
            0.06870169192552567,
            0.09795642644166946,
            -0.027400895953178406,
            -0.06129245087504387,
            0.08376633375883102,
            -0.13331402838230133,
            -0.11859650909900665,
            0.012207054533064365,
            -0.033198948949575424,
            0.11934718489646912,
            0.03832744434475899,
            0.11338289827108383,
            0.16216407716274261,
            0.05173688009381294,
            0.06127871572971344,
            0.14080233871936798,
            -0.12714757025241852,
            0.03517715260386467,
            -0.0715322270989418,
            0.04029615595936775,
            0.11673767119646072,
            0.10422584414482117,
            -0.017735851928591728,
            0.09285178780555725,
            -0.021839655935764313,
            -0.1298283487558365,
            0.09093394875526428,
            -0.11845076829195023,
            0.009516386315226555,
            0.03455149382352829,
            0.06758465617895126,
            -0.15278862416744232,
            -0.12401989847421646,
            0.0702967420220375,
            0.05492546781897545,
            0.03117651864886284,
            0.07550327479839325,
            0.13645124435424805,
            -0.0439927838742733,
            -0.1149408295750618,
            0.03903602808713913,
            -0.030587315559387207,
            0.07252150028944016,
            -0.15505315363407135,
            -0.1834193468093872,
            0.006823712959885597,
            -0.12382490187883377,
            -0.17794169485569,
            0.18541219830513,
            -0.05011232569813728,
            -0.21571992337703705,
            -0.02080930955708027,
            0.16070976853370667,
            -0.1350249946117401,
            0.081349216401577,
            -0.16744747757911682,
            0.0055513628758490086,
            0.14153358340263367,
            -0.1135280430316925,
            -0.021698011085391045,
            0.0031524011865258217,
            0.06830500811338425,
            -0.10809344798326492,
            0.05596444010734558,
            -0.10702870786190033,
            -0.05589383840560913,
            0.02043057605624199,
            0.18089492619037628,
            0.08766386657953262,
            0.16145071387290955,
            0.1973767876625061,
            -0.11719375103712082,
            0.2031610757112503,
            -0.050435375422239304,
            0.01848944090306759,
            0.13401879370212555,
            0.06533439457416534,
            0.013770605437457561,
            -0.08780895173549652,
            -0.09626690298318863,
            0.07734712958335876,
            0.15802744030952454,
            0.04121904447674751,
            0.2100929319858551,
            0.008973312564194202,
            0.05539393052458763,
            0.009274601005017757,
            -0.0800514966249466,
            -0.09333329647779465,
            -0.019334372133016586,
            -0.07567358016967773,
            -0.035387489944696426,
            0.09159882366657257,
            0.07563808560371399,
            -0.013634119182825089,
            -0.03233478590846062,
            -0.04747256636619568,
            -0.20090028643608093,
            0.13209611177444458,
            0.12427055090665817,
            0.04406620189547539,
            0.13984258472919464,
            -0.01417545136064291,
            -0.10909604281187057,
            -0.18408481776714325,
            -0.09215623140335083,
            0.01738087087869644,
            -0.08027368038892746,
            -0.11328142881393433,
            -0.02185606211423874,
            -0.09266192466020584,
            -0.09460881352424622,
            0.20907481014728546,
            -0.04579140245914459,
            0.1004994735121727,
            0.018444199115037918,
            0.09716207534074783,
            0.020196106284856796,
            -0.011450286023318768,
            -0.09530684351921082,
            -0.03579851984977722,
            0.14864173531532288,
            0.07274705916643143,
            0.03235961124300957,
            0.01953018642961979,
            -0.0981854647397995,
            0.17789281904697418,
            0.032422397285699844,
            0.018605008721351624,
            0.03929808363318443,
            0.009830353781580925,
            -0.012501678429543972,
            -0.004208980593830347,
            -0.055854473263025284,
            0.14956562221050262,
            -0.09738505631685257,
            0.02522272989153862,
            0.10608063638210297,
            -0.09295094013214111,
            -0.119309201836586,
            0.04099614545702934,
            0.04284437745809555,
            -0.19443729519844055,
            -0.009207148104906082,
            0.19587288796901703,
            -0.03529084101319313,
            0.027407711371779442,
            0.032986465841531754,
            0.10934428125619888,
            -0.035211868584156036,
            0.02349250577390194,
            0.03438983112573624,
            -0.10892564803361893,
            -0.07507973164319992,
            -0.029856916517019272,
            0.16286811232566833,
            0.05981205776333809,
            -0.18880003690719604,
            0.14257723093032837,
            -0.2048874944448471,
            -0.1875380426645279,
            0.09950344264507294,
            -0.04361932724714279,
            0.12231151759624481,
            -0.019149813801050186,
            0.08436804264783859,
            0.00564059941098094,
            -0.10183193534612656,
            -0.06606633961200714,
            0.0524510033428669,
            0.1960211545228958,
            0.03135448694229126,
            0.012860394082963467,
            0.002409408101812005,
            0.04069644585251808,
            -0.17392276227474213,
            0.01643029972910881,
            -0.11768367886543274,
            0.00865508709102869,
            -0.07324027270078659,
            0.015730921179056168,
            -0.12686775624752045,
            0.12530861794948578,
            0.21298284828662872,
            -0.18209202587604523,
            0.028520682826638222,
            -0.05457513406872749,
            -0.06502365320920944,
            0.10795541852712631,
            -0.006198899354785681,
            0.10590814799070358,
            -0.030435636639595032,
            -0.05624435842037201,
            -0.023993246257305145,
            -0.051314838230609894,
            0.042192623019218445,
            0.08072395622730255,
            -0.024097777903079987,
            -0.0030863380525261164,
            -0.036421168595552444,
            0.06336509436368942,
            0.06453187018632889,
            0.10127769410610199,
            0.019575582817196846,
            0.03835693374276161,
            0.16428323090076447,
            0.060843974351882935,
            0.11402516067028046,
            -0.12700678408145905,
            0.09806379675865173,
            0.10255810618400574,
            0.04979419335722923,
            0.13993185758590698,
            0.10310366749763489,
            0.1806032955646515,
            0.12001501023769379,
            -0.17553077638149261,
            -0.1612313985824585,
            -0.0848742350935936,
            -0.04584705829620361,
            0.11395943909883499,
            -0.06335202604532242,
            0.03208358585834503,
            0.025168005377054214,
            0.03211861848831177,
            -0.08945734053850174,
            -0.0868237167596817,
            0.029941312968730927,
            0.020708400756120682,
            0.07526116073131561,
            0.15939348936080933,
            -0.062245048582553864,
            -0.08847513049840927,
            0.13053350150585175,
            -0.017839308828115463,
            -0.07112624496221542,
            0.1560245305299759,
            -0.08681224286556244,
            0.015900427475571632,
            -0.07547654956579208,
            -0.09646933525800705,
            0.1432662457227707,
            0.08483952283859253,
            0.041274670511484146,
            0.09970149397850037,
            -0.019991889595985413,
            -0.1610976606607437,
            -0.11734664440155029,
            -0.0318719707429409,
            0.04029644653201103,
            -0.04000690579414368,
            0.07103001326322556,
            0.06522173434495926,
            0.05065416544675827,
            -0.17409223318099976,
            -0.07287993282079697,
            0.03428297117352486,
            -0.06798600405454636,
            0.0816253051161766,
            -0.1362980455160141,
            -0.00771999079734087,
            0.03685125336050987,
            -0.09940841794013977,
            -0.0031480430625379086,
            0.06565025448799133,
            -0.028704168274998665,
            0.2021969109773636,
            -0.1885260045528412,
            0.11977881193161011,
            0.18620041012763977,
            0.034202441573143005,
            -0.03870213404297829,
            -0.02427801862359047,
            -0.020014839246869087,
            -0.06917198747396469,
            -0.07893886417150497,
            0.0802076905965805,
            -0.015019887126982212,
            -0.06758137792348862,
            -0.12170030921697617,
            -0.01001250185072422,
            0.015680355951189995,
            -0.0772407054901123,
            -0.2034606784582138,
            0.10448770225048065,
            -0.09103817492723465,
            0.08295952528715134,
            0.03133003041148186,
            0.00566510995849967,
            -0.09933427721261978,
            -0.08485008031129837,
            -0.017277538776397705,
            -0.17193539440631866,
            -0.017995212227106094,
            -0.12381136417388916,
            -0.08376043289899826,
            0.0957760438323021,
            0.03166937083005905,
            0.07815737277269363,
            -0.01007459219545126,
            -0.011262386105954647,
            -0.03771393746137619,
            -0.06502477079629898,
            -0.03019305318593979,
            -0.030782554298639297,
            0.1479104906320572,
            -0.09309455007314682,
            -0.0771932378411293,
            -0.03802992403507233,
            0.1543567180633545,
            -0.15891261398792267,
            0.12493786215782166,
            -0.004816517699509859,
            -0.08994263410568237,
            -0.04648922011256218,
            -0.08850507438182831,
            0.00971976574510336,
            0.006225437391549349,
            0.06741449981927872,
            0.016645466908812523,
            -0.10419194400310516,
            0.15435294806957245,
            -0.1591908484697342,
            0.1115792915225029,
            0.09429626911878586,
            -0.1664026826620102,
            -0.05734850466251373,
            -0.07167727500200272,
            -0.03895806148648262,
            0.0206683948636055,
            -0.09956787526607513,
            -0.13185818493366241,
            0.061167217791080475,
            -0.04125773534178734,
            0.1279357671737671,
            -0.15138353407382965,
            0.13507333397865295,
            -0.02057618834078312,
            0.06657607108354568,
            0.08962112665176392,
            -0.021982548758387566,
            0.1142963245511055,
            0.05054757371544838,
            -0.07618943601846695,
            0.14718098938465118,
            -0.006319711916148663,
            -0.08014931529760361,
            -0.05604659765958786,
            -0.06090361997485161,
            -0.013173537328839302,
            -0.0991424173116684,
            0.0276445671916008,
            0.0511266328394413,
            0.10422801226377487,
            0.13308969140052795,
            -0.08455962687730789,
            -0.11020217090845108,
            -0.09423501789569855,
            0.14394187927246094,
            0.05408206582069397,
            0.10874266177415848,
            0.058264680206775665,
            0.1364753693342209,
            0.0755821093916893,
            0.08054980635643005,
            -0.13326062262058258,
            0.028285816311836243,
            0.0715944766998291,
            0.07660899311304092,
            -0.05671524628996849,
            0.0784340351819992,
            0.0638752207159996,
            -0.17022451758384705,
            0.03637507185339928,
            0.08548696339130402,
            -0.03378788381814957,
            -0.030989695340394974,
            -0.08822151273488998,
            0.21515990793704987,
            0.02284161187708378,
            -0.20361904799938202,
            0.036986589431762695,
            -0.11582363396883011,
            0.06624200195074081,
            0.09807661175727844,
            0.1460915207862854,
            0.20631523430347443,
            0.13158373534679413,
            -0.05827555060386658,
            0.10197947919368744,
            0.016289593651890755,
            0.0008112738141790032,
            -0.1313578337430954,
            0.19908230006694794,
            -0.0336037315428257,
            -0.008100176230072975,
            0.06213934347033501,
            0.052488185465335846,
            -0.042149581015110016,
            -0.1521041989326477,
            -0.033056460320949554,
            0.0937090516090393,
            -0.02748621068894863,
            0.017406856641173363,
            0.07249321043491364,
            0.04153454676270485,
            -0.11108505725860596,
            0.0916149914264679,
            -0.19197453558444977,
            -0.05087412893772125,
            -0.01847689226269722,
            0.07056903839111328,
            -0.15079210698604584,
            -0.07041336596012115,
            0.07609275728464127,
            0.11504510045051575,
            -0.042412567883729935,
            -0.10114399343729019,
            -0.029171163216233253,
            -0.06595002859830856,
            0.013761558569967747,
            0.04344760254025459,
            -0.14891047775745392,
            0.1149161234498024,
            0.10862985253334045,
            0.10777728259563446,
            0.023741016164422035,
            -0.055562131106853485,
            0.20113880932331085,
            0.0734054297208786,
            -0.17719250917434692,
            -0.04830121621489525,
            -0.09014023840427399,
            0.04608505591750145,
            0.13070912659168243,
            -0.16673125326633453,
            -0.020420895889401436,
            0.21320638060569763,
            -0.14962641894817352,
            0.10789866745471954,
            -0.019337281584739685,
            -0.12450659275054932,
            0.1517181545495987,
            0.05822313204407692,
            -0.02127874083817005,
            -0.014805219136178493,
            0.0024527697823941708,
            0.07848750054836273,
            -0.08886341750621796,
            0.03334639593958855,
            -0.07138638943433762,
            0.16599541902542114,
            -0.04801240563392639,
            -0.05412700027227402,
            0.05406226962804794,
            0.027391966432332993,
            -0.05583922564983368,
            0.1316152662038803,
            -0.11024615168571472,
            -0.05352061614394188,
            0.038080934435129166,
            -0.0767546072602272,
            -0.19160908460617065,
            0.14598603546619415,
            0.08865899592638016,
            0.038726381957530975,
            -0.13149532675743103,
            -0.007829646579921246,
            -0.005132080987095833,
            0.1312897652387619,
            -0.04778216779232025,
            -0.08136036247015,
            -0.020703662186861038,
            -0.014682521112263203,
            -0.038077015429735184,
            0.022457750514149666,
            -0.10568393021821976,
            0.03616202622652054,
            -0.10778345912694931,
            0.09671443700790405,
            0.038433197885751724,
            -0.05498689413070679,
            -0.1284099519252777,
            0.0036711422726511955,
            0.06995529681444168,
            0.09686502814292908,
            -0.056850235909223557,
            -0.05086812749505043,
            -0.05155336111783981,
            -0.08178286999464035,
            0.16564561426639557,
            0.005590051878243685,
            -0.08128098398447037,
            -0.04265454038977623,
            -0.038992397487163544,
            0.11153016239404678,
            -0.07266835123300552,
            0.06107751280069351,
            0.06955188512802124,
            -0.022268686443567276,
            -0.04862958565354347,
            -0.018787652254104614,
            -0.1273805946111679,
            -0.026236657053232193,
            -0.023394208401441574,
            0.027780460193753242,
            -0.1532573103904724,
            -0.1005760133266449,
            0.12711410224437714,
            0.0748949721455574,
            0.12323099374771118,
            -0.1036006435751915,
            0.15889091789722443,
            -0.07883546501398087,
            0.03835657611489296,
            -0.03474210575222969,
            -0.11831101030111313,
            -0.03264915943145752,
            0.18529149889945984,
            0.04090047627687454,
            0.03648746386170387,
            -0.14890585839748383,
            -0.06771643459796906,
            -0.08192703127861023,
            -0.18828818202018738,
            -0.011272954754531384,
            0.14308899641036987,
            -0.1934281885623932,
            -0.08191058039665222,
            -0.15868023037910461,
            0.011927404440939426,
            -0.052960820496082306,
            0.020310575142502785,
            0.18883804976940155,
            0.08719092607498169,
            -0.21035423874855042,
            0.1943504959344864,
            0.0500812828540802,
            -0.17633752524852753,
            0.08047374337911606,
            0.05453498288989067,
            -0.11733237653970718,
            -0.0517830029129982,
            0.050808802247047424,
            -0.06545764207839966,
            -0.09328777343034744,
            0.2042262703180313,
            0.04051532968878746,
            -0.1022523045539856,
            0.0650380551815033,
            -0.04209863021969795,
            0.23253773152828217,
            0.05669180303812027,
            0.08172520995140076,
            -0.055201608687639236,
            0.06385021656751633,
            0.04299808666110039,
            -0.07581397891044617,
            -0.03763933852314949,
            0.04156193509697914,
            -0.06721033155918121,
            0.031311921775341034,
            -0.056782811880111694,
            0.09326604753732681,
            0.12334351986646652,
            -0.05237491428852081,
            0.07229191064834595,
            -0.1086185947060585,
            0.056511566042900085,
            0.15819714963436127,
            -0.13998547196388245,
            -0.12092584371566772,
            -0.09024709463119507,
            0.1383061558008194,
            -0.14701984822750092,
            0.0602249875664711,
            0.060736991465091705,
