{
  "timestamp": "2026-02-04T03:49:22.377Z",
  "episode": 20,
  "hypothesis": "Iteration 6: Same as iter 3 (L2=0.03, dropout=0.40, epsilon=0.20) but 120 episodes for more trading",
  "config": {
    "symbols": [
      "BTCUSDT",
      "ETHUSDT",
      "SOLUSDT"
    ],
    "numAgents": 3,
    "trainSplit": 0.8,
    "monthsOfData": 6,
    "episodes": 120,
    "episodeLength": 1000,
    "trainFrequency": 4,
    "batchSize": 64,
    "bufferSize": 50000,
    "dqn": {
      "inputSize": 42,
      "hiddenLayers": [
        128,
        64,
        32
      ],
      "outputSize": 5,
      "learningRate": 0.0003,
      "gamma": 0.95,
      "tau": 0.01,
      "epsilonStart": 1,
      "epsilonEnd": 0.2,
      "epsilonDecay": 0.995,
      "dropout": 0.4,
      "l2Regularization": 0.03,
      "useBatchNorm": true,
      "gradientClipNorm": 0.5,
      "useHuberLoss": true,
      "huberDelta": 1,
      "actionBias": true,
      "actionBiasDecay": 0.997,
      "useDoubleDQN": true,
      "useLinearEpsilonDecay": true,
      "totalExpectedEpisodes": 120,
      "rewardBasedEpsilonAdjustment": true,
      "lowWinRateThreshold": 0.4,
      "epsilonBoostAmount": 0.1
    },
    "env": {
      "initialCapital": 10000,
      "positionSizePercent": 0.1,
      "commission": 0.001,
      "slippage": 0.0005,
      "lookbackPeriod": 100,
      "maxBarsPerEpisode": null,
      "maxDrawdownLimit": 0.15,
      "maxBarsInPosition": 100,
      "kbConfig": {
        "enabled": true,
        "addKBFeatures": true,
        "useKBRewardShaping": true
      }
    },
    "earlyStoppingPatience": 25,
    "minImprovement": 0.01,
    "logInterval": 10,
    "evalInterval": 20
  },
  "valSharpe": -11.904829809352266,
  "perSymbolResults": [
    {
      "symbol": "BTCUSDT",
      "trades": 9,
      "winRate": 22.22222222222222,
      "pnl": 4.583036692937526,
      "sharpe": 6.72264753416601
    },
    {
      "symbol": "ETHUSDT",
      "trades": 14,
      "winRate": 21.428571428571427,
      "pnl": -23.855875472840943,
      "sharpe": -24.98927338914274
    },
    {
      "symbol": "SOLUSDT",
      "trades": 12,
      "winRate": 25,
      "pnl": -28.881614870521123,
      "sharpe": -17.447863573080074
    }
  ],
  "numAgents": 3,
  "weights": [
    {
      "weights": [
        {
          "shape": [
            42,
            128
          ],
          "data": [
            -0.05691631883382797,
            -0.017378633841872215,
            -0.03727157413959503,
            0.09005339443683624,
            -0.08602192997932434,
            -0.034368764609098434,
            0.10430844128131866,
            -0.07235431671142578,
            0.07916627079248428,
            0.040148235857486725,
            -0.0343673899769783,
            -0.2791241407394409,
            -0.08647722750902176,
            0.08565856516361237,
            -0.03810853511095047,
            0.00022495226585306227,
            0.008516104891896248,
            0.047090429812669754,
            -0.08254818618297577,
            0.13482940196990967,
            0.022451180964708328,
            0.1867615282535553,
            -0.1384412944316864,
            -0.011619619093835354,
            -0.1520128697156906,
            0.1148882582783699,
            -0.14760541915893555,
            0.09290090203285217,
            -0.15459060668945312,
            -0.04925980418920517,
            0.011991854757070541,
            0.08849450945854187,
            0.13034066557884216,
            -0.07729537039995193,
            0.06575411558151245,
            0.03068372793495655,
            -0.0685226321220398,
            -0.05306160822510719,
            0.08535685390233994,
            0.06796141713857651,
            -0.05313745513558388,
            -0.03682023286819458,
            -0.10049804300069809,
            0.12814544141292572,
            0.013877572491765022,
            0.07596588134765625,
            -0.051686517894268036,
            -0.0413016751408577,
            0.16535435616970062,
            0.026281600818037987,
            -0.23216184973716736,
            -0.07223504036664963,
            0.0375651977956295,
            0.06612741202116013,
            0.14151093363761902,
            0.13381536304950714,
            -0.02018478326499462,
            0.06485103070735931,
            0.002422587713226676,
            -0.02318861521780491,
            0.05834932625293732,
            -0.0400368869304657,
            0.07482309639453888,
            0.02642872743308544,
            -0.13160955905914307,
            0.00917444471269846,
            -0.10335654020309448,
            -0.0934424102306366,
            0.03399223834276199,
            0.07270165532827377,
            0.11639901995658875,
            -0.04869744926691055,
            0.04361177235841751,
            -0.14193527400493622,
            0.06259620934724808,
            -0.08440685272216797,
            -0.1902655065059662,
            0.023898335173726082,
            0.04147113859653473,
            -0.08208399266004562,
            0.11316109448671341,
            0.03231837600469589,
            0.03981427475810051,
            0.016287347301840782,
            0.06365372985601425,
            0.06012920290231705,
            0.05835879594087601,
            -0.03564092889428139,
            -0.010545252822339535,
            -0.2050408124923706,
            0.02554452419281006,
            -0.10533527284860611,
            0.14296568930149078,
            0.06503410637378693,
            0.1039496660232544,
            0.024861644953489304,
            0.08957979828119278,
            0.05195140466094017,
            -0.09344851225614548,
            0.08489800244569778,
            0.08923840522766113,
            0.032214511185884476,
            0.005481154657900333,
            0.03244919702410698,
            0.13469789922237396,
            -0.07397822290658951,
            0.09072824567556381,
            0.10331474989652634,
            -0.12366916239261627,
            0.15548083186149597,
            -0.10691352933645248,
            0.03872146084904671,
            0.026971006765961647,
            0.06507372111082077,
            0.04622412845492363,
            -0.08738216012716293,
            -0.018640223890542984,
            -0.105792336165905,
            0.09822580218315125,
            0.078636534512043,
            -0.010299930348992348,
            0.14979644119739532,
            0.0673164650797844,
            0.1121823862195015,
            -0.05059061199426651,
            -0.038551121950149536,
            0.12449264526367188,
            -0.030179256573319435,
            -0.059996627271175385,
            0.05806305631995201,
            -0.08138752728700638,
            -0.009040823206305504,
            -0.15170128643512726,
            0.14518670737743378,
            0.06476595997810364,
            0.06060192734003067,
            0.02675255760550499,
            -0.03832168132066727,
            -0.09202481806278229,
            0.15807799994945526,
            -0.02801882103085518,
            -0.0925804004073143,
            0.06708701699972153,
            -0.03136053681373596,
            -0.029841847717761993,
            0.10426295548677444,
            0.08716573566198349,
            -0.05686914548277855,
            0.0015383755089715123,
            0.10086622834205627,
            0.0961330235004425,
            -0.07595671713352203,
            0.021153651177883148,
            0.1987372487783432,
            0.020811330527067184,
            -0.005541510414332151,
            -0.04621484503149986,
            -0.04473622515797615,
            0.032550353556871414,
            0.027615578845143318,
            0.02846113219857216,
            0.0564688965678215,
            -0.17639218270778656,
            -0.12684865295886993,
            0.09828262776136398,
            0.07495788484811783,
            -0.0781732052564621,
            0.13442425429821014,
            -0.054054781794548035,
            0.14688056707382202,
            -0.02678956463932991,
            -0.11703281849622726,
            0.021417394280433655,
            0.02407839521765709,
            0.026605013757944107,
            0.0322922058403492,
            -0.12633056938648224,
            -0.13814622163772583,
            -0.0006853225640952587,
            -0.008130301721394062,
            0.025602374225854874,
            -0.1065998375415802,
            0.16105486452579498,
            0.11355587095022202,
            0.05736789479851723,
            -0.06565573066473007,
            -0.09059656411409378,
            -0.07295940816402435,
            -0.060517460107803345,
            0.04634266346693039,
            -0.07547267526388168,
            0.047142479568719864,
            -0.004277210682630539,
            0.006668010260909796,
            -0.009811353869736195,
            -0.12681658565998077,
            -0.05980025231838226,
            -0.04559216648340225,
            0.13470199704170227,
            -0.11099586635828018,
            0.032004181295633316,
            0.10385800898075104,
            0.23923228681087494,
            0.024326732382178307,
            -0.0759805366396904,
            -0.00763569725677371,
            0.08232196420431137,
            0.10422857105731964,
            0.22229991853237152,
            0.002941565355286002,
            0.1759898066520691,
            -0.024502960965037346,
            0.096401646733284,
            -0.1377430409193039,
            -0.0006340850959531963,
            -0.017658749595284462,
            0.027309387922286987,
            0.1883823573589325,
            -0.04446999356150627,
            -0.10785938054323196,
            -0.0957554280757904,
            -0.1344156563282013,
            0.09530588984489441,
            -0.10135108232498169,
            -0.12311603128910065,
            -0.062066011130809784,
            -0.009169677272439003,
            0.04168875887989998,
            0.011790633201599121,
            0.11974205821752548,
            -0.14534226059913635,
            0.010204768739640713,
            0.013076111674308777,
            0.06401588767766953,
            -0.13439233601093292,
            -0.008457904681563377,
            -0.11810571700334549,
            0.07438993453979492,
            0.16662292182445526,
            -0.06970599293708801,
            -0.20815052092075348,
            0.0528390146791935,
            0.24314650893211365,
            -0.07997693121433258,
            -0.09095271676778793,
            0.15381693840026855,
            0.01945757493376732,
            0.1224895566701889,
            0.0059495652094483376,
            -0.07367969304323196,
            0.21413998305797577,
            -0.014245916157960892,
            0.2211323082447052,
            0.015949759632349014,
            -0.04015594348311424,
            0.05954623222351074,
            -0.14087271690368652,
            -0.011679485440254211,
            -0.11104804277420044,
            0.0812816396355629,
            -0.02391498163342476,
            0.10500022768974304,
            -0.00300485803745687,
            0.014395158737897873,
            -0.045497018843889236,
            -0.09232999384403229,
            -0.008284120820462704,
            0.10215409100055695,
            0.01747308112680912,
            0.0028674411587417126,
            0.003915056120604277,
            -0.03628548979759216,
            -0.039482809603214264,
            -0.030028309673070908,
            -0.010835440829396248,
            0.17064164578914642,
            0.0018957257270812988,
            -0.02530948631465435,
            -0.13390760123729706,
            -0.016542229801416397,
            0.09660941362380981,
            -0.16019298136234283,
            0.04038272425532341,
            0.11727365851402283,
            0.0083504319190979,
            0.15255855023860931,
            -0.17464514076709747,
            0.030665406957268715,
            0.05982990190386772,
            0.008755052462220192,
            -0.08449670672416687,
            0.09427430480718613,
            0.16670960187911987,
            0.07683517038822174,
            -0.08746366202831268,
            -0.10743667930364609,
            -0.020579300820827484,
            -0.0026769605465233326,
            0.02878202311694622,
            0.0036929778289049864,
            0.07997457683086395,
            0.03561412915587425,
            0.06211819499731064,
            0.13256113231182098,
            -0.05124335736036301,
            -0.07415561378002167,
            0.17569279670715332,
            -0.08973737806081772,
            0.1195853054523468,
            -0.07995862513780594,
            0.11796502768993378,
            -0.08656743168830872,
            -0.14290401339530945,
            0.13715139031410217,
            0.089213065803051,
            0.07662907242774963,
            -0.0738542452454567,
            0.013828454539179802,
            -0.034087568521499634,
            0.062321361154317856,
            0.10606880486011505,
            -0.0952007845044136,
            -0.0738951563835144,
            0.07522331178188324,
            0.0031240577809512615,
            0.12401019036769867,
            0.019817039370536804,
            -0.18530745804309845,
            -0.03669744357466698,
            -0.012753695249557495,
            0.1192350760102272,
            -0.0962187871336937,
            0.14140982925891876,
            0.036537036299705505,
            -0.008846160024404526,
            -0.07132521271705627,
            0.034999895840883255,
            -0.10702292621135712,
            -0.127806156873703,
            -0.09997818619012833,
            -0.046709734946489334,
            -0.10675546526908875,
            0.09805279225111008,
            0.0642893984913826,
            -0.053321730345487595,
            -0.03397199884057045,
            -0.0022153097670525312,
            0.046325620263814926,
            0.06772584468126297,
            -0.12315315008163452,
            0.03344268724322319,
            -0.18905122578144073,
            0.018440736457705498,
            -0.018123703077435493,
            0.08097852021455765,
            0.0476493276655674,
            0.0298296008259058,
            -0.10976865887641907,
            -0.0022605990525335073,
            0.014153828844428062,
            0.042533472180366516,
            0.06889105588197708,
            0.024523137137293816,
            -0.054398514330387115,
            0.043039802461862564,
            -0.06287771463394165,
            -0.0959920659661293,
            0.002702216850593686,
            -0.15677838027477264,
            0.13545319437980652,
            -0.08948329091072083,
            -0.043097253888845444,
            -0.03628385066986084,
            -0.05257576331496239,
            0.034852128475904465,
            -0.044264666736125946,
            -0.08184121549129486,
            -0.1794615089893341,
            0.12972646951675415,
            -0.022237909957766533,
            -0.06972508877515793,
            0.13222362101078033,
            0.1448681354522705,
            0.18049104511737823,
            0.111164890229702,
            0.10819774121046066,
            -0.06511383503675461,
            0.12102892994880676,
            0.009084407240152359,
            0.07408587634563446,
            -0.11890705674886703,
            0.008191592991352081,
            0.1784152090549469,
            0.07309926301240921,
            -0.18623772263526917,
            -0.05502182990312576,
            -0.034077368676662445,
            0.018085332587361336,
            -0.07044283300638199,
            0.19889090955257416,
            -0.020125124603509903,
            0.06892121583223343,
            0.0963122695684433,
            0.11531451344490051,
            0.12868599593639374,
            0.02342584729194641,
            -0.0653982013463974,
            0.0331474244594574,
            -0.10777079313993454,
            -0.056792668998241425,
            0.15098875761032104,
            -0.12772127985954285,
            0.06151847913861275,
            -0.029201006516814232,
            -0.10982716083526611,
            -0.055848006159067154,
            -0.05658671632409096,
            -0.03380207717418671,
            -0.02179431915283203,
            -0.1428924947977066,
            0.01730993762612343,
            -0.09091491252183914,
            -0.03399302065372467,
            0.07590342313051224,
            0.040187202394008636,
            -0.10116810351610184,
            0.20141267776489258,
            0.023035842925310135,
            -0.2289554625749588,
            0.08479148149490356,
            -0.0060606119222939014,
            -0.10585848987102509,
            0.20371375977993011,
            0.10202237963676453,
            0.16130998730659485,
            0.012125842273235321,
            -0.07169290632009506,
            0.07311338931322098,
            0.06236901506781578,
            -0.10407787561416626,
            -0.19487257301807404,
            0.07900437712669373,
            0.071059949696064,
            0.07162203639745712,
            0.0002954199444502592,
            0.11038671433925629,
            -0.16092833876609802,
            -0.018719613552093506,
            -0.1482415646314621,
            -0.02355767972767353,
            0.07828960567712784,
            0.0019675414077937603,
            0.13303664326667786,
            -0.006081555504351854,
            0.11913933604955673,
            -0.019046863541007042,
            0.015432643704116344,
            -0.0343109667301178,
            -0.07840193063020706,
            0.04492379352450371,
            -0.18682290613651276,
            0.18355444073677063,
            0.17806465923786163,
            0.14855319261550903,
            -0.0034356198739260435,
            -0.04994090646505356,
            0.13701675832271576,
            -0.1179976537823677,
            0.036589812487363815,
            0.11109749972820282,
            0.007152777165174484,
            -0.14587222039699554,
            0.13547225296497345,
            0.022442711517214775,
            -0.0818546935915947,
            0.03379680961370468,
            0.0034134958405047655,
            -0.07346488535404205,
            0.17288146913051605,
            0.01363333873450756,
            -0.08291196078062057,
            -0.07966457307338715,
            -0.07020436227321625,
            0.038612183183431625,
            -0.11562004685401917,
            0.00489208847284317,
            0.22268365323543549,
            0.02612249180674553,
            -0.018057605251669884,
            0.021591244265437126,
            -0.07352512329816818,
            -0.07260139286518097,
            -0.06876246631145477,
            0.11203742772340775,
            0.021860865876078606,
            0.10977576673030853,
            0.008178346790373325,
            0.08724585175514221,
            0.04882710427045822,
            0.013578970916569233,
            -0.04296189919114113,
            0.17506173253059387,
            0.006046035327017307,
            -0.061014898121356964,
            0.08418725430965424,
            -0.09345419704914093,
            -0.15555529296398163,
            -0.030149586498737335,
            -0.07350362837314606,
            -0.053416021168231964,
            -0.07839347422122955,
            0.1592685878276825,
            -0.05723703280091286,
            -0.10396353900432587,
            0.04614222049713135,
            -0.06044955179095268,
            0.01896020583808422,
            0.05936780571937561,
            -0.09466544538736343,
            -0.12986108660697937,
            -0.12003030627965927,
            -0.035310517996549606,
            -0.03145284950733185,
            -0.017837882041931152,
            0.16105128824710846,
            0.10616344958543777,
            0.14203694462776184,
            -0.01747721992433071,
            -0.06562697887420654,
            -0.1131477952003479,
            0.02412513457238674,
            0.02551528625190258,
            -0.01451908703893423,
            -0.038949545472860336,
            -0.013833303935825825,
            -0.02755684033036232,
            0.10510341823101044,
            -0.17864495515823364,
            0.02338218502700329,
            0.04576791450381279,
            0.18177035450935364,
            -0.14715655148029327,
            0.08352186530828476,
            -0.1319662630558014,
            0.18410444259643555,
            0.06548725813627243,
            0.07070036977529526,
            -0.11844953894615173,
            0.029084639623761177,
            -0.17625601589679718,
            -0.06283558905124664,
            -0.1398501694202423,
            0.02923486940562725,
            -0.07328396290540695,
            -0.03381740301847458,
            0.1784195750951767,
            -0.017432190477848053,
            0.22185325622558594,
            -0.07614569365978241,
            -0.15058043599128723,
            0.05819087103009224,
            -0.05513250082731247,
            0.10085465759038925,
            0.11698532849550247,
            0.15246862173080444,
            -0.06780914962291718,
            0.03430543839931488,
            -0.09806427359580994,
            0.050150010734796524,
            -0.07365693897008896,
            0.12259726226329803,
            0.14939311146736145,
            -0.095212422311306,
            0.13144713640213013,
            -0.004732904955744743,
            0.012043578550219536,
            -0.09850062429904938,
            -0.10935884714126587,
            -0.16909323632717133,
            -0.09581635147333145,
            -0.18119247257709503,
            -0.10670068114995956,
            -0.01609119027853012,
            -0.22581350803375244,
            0.04647933691740036,
            -0.05316518619656563,
            0.17656196653842926,
            -0.030054382979869843,
            0.017450155690312386,
            -0.22286438941955566,
            0.05695319175720215,
            0.08237120509147644,
            0.07830767333507538,
            -0.09771505743265152,
            -0.08638373017311096,
            -0.025302283465862274,
            -0.02057207189500332,
            -0.007812688127160072,
            -0.11057160794734955,
            0.03659360855817795,
            -0.12972824275493622,
            0.1620645374059677,
            0.10795343667268753,
            -0.1071145236492157,
            -0.15206672251224518,
            -0.03934824466705322,
            -0.2160145789384842,
            0.03562041372060776,
            0.13653291761875153,
            0.012811991386115551,
            0.07002773135900497,
            -0.06682539731264114,
            0.0041988929733633995,
            0.04369546100497246,
            -0.10306117683649063,
            0.031988803297281265,
            0.07189089059829712,
            -0.08718599379062653,
            0.15153996646404266,
            -0.03487555310130119,
            -0.040060073137283325,
            0.030478794127702713,
            0.06456391513347626,
            -0.027323240414261818,
            -0.003408337477594614,
            -0.026390546932816505,
            0.09809160977602005,
            -0.18724605441093445,
            -0.05588262900710106,
            -0.03395571559667587,
            -0.16760170459747314,
            0.10409655421972275,
            0.15228204429149628,
            0.014398528262972832,
            -0.030531086027622223,
            0.09797672182321548,
            0.18368381261825562,
            -0.16580362617969513,
            0.20605163276195526,
            0.16676974296569824,
            0.12635202705860138,
            0.018958434462547302,
            0.08564732223749161,
            0.14963708817958832,
            0.16928008198738098,
            0.03156902641057968,
            -0.09840895235538483,
            -0.05143703520298004,
            -0.2050771862268448,
            0.06229337304830551,
            -0.09319024533033371,
            0.0538577102124691,
            0.06911107152700424,
            0.044844672083854675,
            0.04296363890171051,
            -0.025807581841945648,
            0.03378855437040329,
            -0.0937759131193161,
            0.012054338119924068,
            0.11302254348993301,
            0.1018209382891655,
            0.16599412262439728,
            -0.1990629881620407,
            0.12041601538658142,
            0.036429066210985184,
            0.08466583490371704,
            0.1303565502166748,
            0.019499775022268295,
            -0.08171544224023819,
            0.13678397238254547,
            0.11332833021879196,
            -0.09195506572723389,
            -0.08368490636348724,
            -0.02012169547379017,
            0.13121241331100464,
            0.06084973365068436,
            -0.03464612737298012,
            -0.10807947814464569,
            -0.08470019698143005,
            -0.0413641594350338,
            -0.10356559604406357,
            0.02124892920255661,
            -0.015228803269565105,
            0.003755686106160283,
            0.0071123274974524975,
            0.03424014896154404,
            -0.07694365829229355,
            0.06197637692093849,
            -0.10341951996088028,
            -0.014796947129070759,
            0.15410204231739044,
            -0.02869318053126335,
            -0.05942476540803909,
            -0.06180422380566597,
            0.09772779047489166,
            -0.006481117568910122,
            0.027352895587682724,
            -0.02945060096681118,
            0.09867648035287857,
            0.021505633369088173,
            0.006280762143433094,
            -0.033890191465616226,
            -0.1923748254776001,
            -0.03458181023597717,
            0.020008327439427376,
            -0.006665653549134731,
            0.07584361732006073,
            0.07583505660295486,
            0.18445982038974762,
            0.12164408713579178,
            -0.18680112063884735,
            0.04379883036017418,
            0.09390827268362045,
            -0.13305242359638214,
            -0.1147441565990448,
            0.001130136544816196,
            -0.13264083862304688,
            -0.044331010431051254,
            0.0287436842918396,
            0.11274683475494385,
            -0.1362505406141281,
            -0.07823283970355988,
            0.11828906089067459,
            0.06066996976733208,
            -0.04653221368789673,
            0.13290226459503174,
            -0.01152060367166996,
            0.11523298919200897,
            -0.06000351905822754,
            -0.05974813550710678,
            0.11819980293512344,
            0.10634895414113998,
            0.008028334006667137,
            0.07066451013088226,
            -0.05896924436092377,
            -0.07398872077465057,
            -0.06289168447256088,
            -0.057473231106996536,
            -0.05953535437583923,
            0.02651139907538891,
            -0.0723792091012001,
            -0.062492482364177704,
            -0.008499533869326115,
            -0.1249285638332367,
            0.15085920691490173,
            0.1362128108739853,
            0.2054501473903656,
            -0.14381708204746246,
            0.012372604571282864,
            -0.017565643414855003,
            -0.06296271085739136,
            0.05032559484243393,
            0.15202902257442474,
            -0.10394828766584396,
            -0.000006616472091991454,
            -0.09311392903327942,
            0.09713102132081985,
            0.1318989396095276,
            -0.1882474571466446,
            0.08650439232587814,
            -0.06740574538707733,
            0.03838302567601204,
            -0.038622889667749405,
            0.10187773406505585,
            -0.07776382565498352,
            -0.0022848297376185656,
            -0.06984147429466248,
            0.16687780618667603,
            0.058604415506124496,
            0.0484478734433651,
            0.045915137976408005,
            0.01283212099224329,
            -0.05702373385429382,
            0.060285281389951706,
            -0.2055606245994568,
            -0.01533134002238512,
            0.07015189528465271,
            -0.005435416009277105,
            -0.018373288214206696,
            -0.01822063885629177,
            -0.11008861660957336,
            0.19752877950668335,
            0.07801730930805206,
            -0.08916406333446503,
            -0.004561269655823708,
            0.09460987895727158,
            0.002964968793094158,
            -0.03617952764034271,
            0.03762112557888031,
            -0.14156468212604523,
            -0.11036449670791626,
            -0.05346011742949486,
            -0.17684714496135712,
            -0.23914578557014465,
            0.2285023182630539,
            -0.026668144389986992,
            -0.14452700316905975,
            -0.19006234407424927,
            0.06095166876912117,
            -0.17432041466236115,
            -0.1047581285238266,
            -0.22185780107975006,
            0.03918761759996414,
            0.06252570450305939,
            0.04873976856470108,
            -0.02847611904144287,
            -0.0069555118680000305,
            0.08283174782991409,
            -0.0021710617002099752,
            -0.05725090205669403,
            0.039173487573862076,
            0.23394472897052765,
            0.07058852910995483,
            -0.16751162707805634,
            0.19667279720306396,
            0.10823456943035126,
            0.1698271781206131,
            -0.027884576469659805,
            0.12491030246019363,
            0.11387719959020615,
            -0.1103028804063797,
            0.16483010351657867,
            0.09073063731193542,
            -0.06634073704481125,
            -0.19688889384269714,
            0.01950027421116829,
            0.2248201072216034,
            0.03304881602525711,
            0.1853746920824051,
            0.05508621037006378,
            0.15334315598011017,
            0.21414166688919067,
            0.0768916979432106,
            -0.1310451775789261,
            0.10353952646255493,
            -0.020638804882764816,
            0.12079395353794098,
            0.07981996238231659,
            -0.007430405355989933,
            -0.08680320531129837,
            0.028655022382736206,
            0.020129607990384102,
            0.07562360167503357,
            0.051207929849624634,
            0.07702275365591049,
            -0.06978221237659454,
            0.06995273381471634,
            -0.09683375060558319,
            0.0753871276974678,
            0.021814916282892227,
            -0.06361302733421326,
            -0.06212780252099037,
            -0.1596093326807022,
            0.03903527185320854,
            -0.2633650004863739,
            0.05725628510117531,
            -0.13758212327957153,
            -0.16192494332790375,
            -0.018996264785528183,
            -0.1986752152442932,
            0.08835219591856003,
            0.1784476339817047,
            0.07584413886070251,
            0.016177097335457802,
            0.029143264517188072,
            0.06576893478631973,
            0.03495293855667114,
            0.09628115594387054,
            0.13041427731513977,
            -0.044478610157966614,
            -0.0996527224779129,
            -0.05665228143334389,
            0.10599110275506973,
            -0.11007415503263474,
            0.17233984172344208,
            -0.03146888315677643,
            -0.0331425778567791,
            0.00977891031652689,
            0.15056003630161285,
            0.058611493557691574,
            -0.11953487992286682,
            -0.14454273879528046,
            -0.05528881773352623,
            -0.06047077476978302,
            0.03257662057876587,
            0.028848813846707344,
            -0.11966373026371002,
            0.2231903076171875,
            0.1531415432691574,
            -0.022300824522972107,
            0.12705667316913605,
            0.20933020114898682,
            0.02831331640481949,
            0.12679611146450043,
            0.042785629630088806,
            -0.10829777270555496,
            -0.01697203330695629,
            0.12788771092891693,
            -0.27166035771369934,
            0.012502016499638557,
            0.06695836782455444,
            -0.17864945530891418,
            0.06420481950044632,
            0.013845270499587059,
            -0.08631631731987,
            -0.013567582704126835,
            0.06282351166009903,
            -0.07214609533548355,
            0.06753415614366531,
            -0.031349532306194305,
            -0.12417566031217575,
            -0.04431993141770363,
            0.10823074728250504,
            -0.048239219933748245,
            0.027073338627815247,
            0.014070514589548111,
            -0.17461033165454865,
            0.12418737262487411,
            -0.01566854864358902,
            0.09735052287578583,
            -0.007257745135575533,
            0.10823768377304077,
            -0.09746440500020981,
            0.12663599848747253,
            0.03737295791506767,
            0.05339385196566582,
            0.10853619873523712,
            0.163173109292984,
            -0.12781210243701935,
            -0.22888033092021942,
            -0.07354475557804108,
            -0.07308480888605118,
            -0.03409252688288689,
            -0.04869206249713898,
            -0.09789404273033142,
            0.23168937861919403,
            -0.10309813171625137,
            0.029574276879429817,
            0.09981096535921097,
            -0.058872830122709274,
            0.14320243895053864,
            -0.14013704657554626,
            0.0616023950278759,
            0.05266275629401207,
            -0.10575517266988754,
            -0.022479522973299026,
            -0.009627516381442547,
            -0.010007066652178764,
            0.2534218430519104,
            -0.06331007182598114,
            -0.0145663907751441,
            0.017679790034890175,
            0.13450878858566284,
            0.03144749626517296,
            0.020570939406752586,
            -0.004106129053980112,
            0.008775348775088787,
            -0.1810043454170227,
            0.12112115323543549,
            -0.1694793403148651,
            0.0939318984746933,
            0.08001326024532318,
            -0.04262666776776314,
            -0.06516597419977188,
            -0.08801746368408203,
            0.20820260047912598,
            0.003428315045312047,
            0.01428284216672182,
            -0.09199843555688858,
            -0.024121401831507683,
            0.04448674991726875,
            0.1222442016005516,
            -0.0031099943444132805,
            -0.1310918927192688,
            -0.029625941067934036,
            0.043882038444280624,
            -0.02068963460624218,
            0.021537888795137405,
            -0.08152230083942413,
            -0.026680968701839447,
            -0.021228687837719917,
            0.0015648447442799807,
            0.07038925588130951,
            0.038821253925561905,
            0.06206640228629112,
            -0.02053980529308319,
            0.11049848794937134,
            0.02376486361026764,
            0.032768651843070984,
            -0.0005568091291934252,
            0.08649428933858871,
            -0.08519388735294342,
            -0.016277283430099487,
            -0.01690453104674816,
            -0.04686565324664116,
            0.07086094468832016,
            0.04297688603401184,
            -0.07949218153953552,
            0.09629469364881516,
            -0.07584092020988464,
            -0.08785593509674072,
            0.02797134779393673,
            0.07001438736915588,
            0.04131488874554634,
            0.16831646859645844,
            -0.0059155989438295364,
            -0.10700137168169022,
            0.18333114683628082,
            -0.04828028380870819,
            0.04247823730111122,
            0.054230667650699615,
            -0.031164953485131264,
            -0.052109893411397934,
            0.11462634056806564,
            -0.11212310194969177,
            0.2364189177751541,
            -0.12528452277183533,
            -0.11160033941268921,
            -0.1535266637802124,
            -0.16863131523132324,
            0.024207746610045433,
            0.03613344207406044,
            0.032819196581840515,
            -0.131103515625,
            0.049370408058166504,
            0.0038210805505514145,
            0.12919393181800842,
            0.07489646226167679,
            0.11166755855083466,
            0.05267753452062607,
            -0.05777521803975105,
            0.13345025479793549,
            0.014074343256652355,
            -0.15077784657478333,
            -0.08635933697223663,
            -0.05609344691038132,
            -0.06123043969273567,
            0.051799844950437546,
            -0.09270354360342026,
            -0.017541736364364624,
            0.026338623836636543,
            0.05745901167392731,
            0.02239159494638443,
            0.14617954194545746,
            0.05363273620605469,
            0.006429178640246391,
            0.0739639475941658,
            -0.05136857554316521,
            -0.012815426103770733,
            0.1512708216905594,
            0.08509235829114914,
            0.028987370431423187,
            -0.03332560881972313,
            -0.009238763712346554,
            -0.05652964115142822,
            0.043927151709795,
            0.017031557857990265,
            0.0502234511077404,
            -0.10850075632333755,
            0.03315475955605507,
            0.02130085788667202,
            -0.03572165220975876,
            -0.019342491403222084,
            -0.1162545457482338,
            0.011540085077285767,
            0.059068333357572556,
            -0.09526759386062622,
            -0.12410355359315872,
            0.1474490463733673,
            0.08926470577716827,
            0.02061080001294613,
            -0.06295953691005707,
            0.11336874961853027,
            -0.22331899404525757,
            -0.052308689802885056,
            -0.014995094388723373,
            -0.04623096063733101,
            0.04251224547624588,
            -0.17387184500694275,
            0.1071450263261795,
            -0.2643558084964752,
            -0.05164280906319618,
            -0.05224618315696716,
            -0.0049628689885139465,
            0.11829422414302826,
            -0.04488733410835266,
            -0.010773519054055214,
            -0.08667802810668945,
            0.07101359218358994,
            0.048429686576128006,
            -0.011434384621679783,
            0.07285675406455994,
            -0.16130271553993225,
            0.1250000298023224,
            0.04918060451745987,
            0.08323566615581512,
            0.0431007482111454,
            -0.13927875459194183,
            -0.021385014057159424,
            -0.013695665635168552,
            0.09016315639019012,
            -0.10268120467662811,
            0.1048286035656929,
            0.04609869047999382,
            0.003486290108412504,
            -0.10759127140045166,
            -0.05743589624762535,
            -0.07957018911838531,
            0.12723614275455475,
            -0.0879243016242981,
            0.15620364248752594,
            0.034520506858825684,
            -0.0847955122590065,
            -0.021292120218276978,
            0.2063419371843338,
            -0.17507557570934296,
            -0.04352359473705292,
            -0.14194148778915405,
            0.0017926510190591216,
            0.24463330209255219,
            -0.014014667831361294,
            -0.08969167619943619,
            0.11016570031642914,
            -0.1722242832183838,
            0.07162608206272125,
            0.18220795691013336,
            -0.030754661187529564,
            -0.03669328987598419,
            -0.04047751426696777,
            -0.13465407490730286,
            0.18765248358249664,
            -0.050418805330991745,
            0.009828422218561172,
            0.07088246941566467,
            0.12259654700756073,
            -0.012034820392727852,
            -0.11966606974601746,
            0.10874796658754349,
            0.023391805589199066,
            0.11053793877363205,
            0.07679416239261627,
            -0.053938716650009155,
            -0.04546525329351425,
            -0.18245923519134521,
            0.09058302640914917,
            -0.04744785279035568,
            -0.018111463636159897,
            0.06762009114027023,
            0.010116636753082275,
            0.06991714239120483,
            0.06445599347352982,
            -0.007794602774083614,
            -0.007012839429080486,
            -0.02752079628407955,
            0.12514515221118927,
            -0.10311450064182281,
            -0.020788641646504402,
            0.06382392346858978,
            -0.2194136679172516,
            -0.10663186013698578,
            0.00994197092950344,
            -0.0476187989115715,
            -0.1978858858346939,
            -0.11864166706800461,
            -0.06901547312736511,
            0.1728346347808838,
            0.03630008548498154,
            -0.0018006747122853994,
            0.2073492705821991,
            0.06087404116988182,
            -0.09014157205820084,
            -0.1885409951210022,
            -0.163081556558609,
            -0.04975266009569168,
            0.07084233313798904,
            0.11954103410243988,
            0.02887348085641861,
            0.041155923157930374,
            -0.09418985247612,
            -0.05893957242369652,
            0.07644480466842651,
            -0.006295469589531422,
            -0.11044973880052567,
            0.03463292121887207,
            0.017575908452272415,
            -0.10640209913253784,
            -0.17063288390636444,
            -0.1220208927989006,
            -0.02932777814567089,
            -0.11545905470848083,
            -0.08410527557134628,
            -0.10498631000518799,
            -0.032712388783693314,
            0.011706885881721973,
            -0.055904120206832886,
            -0.2407146394252777,
            -0.02540908195078373,
            0.0005340581410564482,
            -0.04092863202095032,
            -0.12280677258968353,
            0.08804725855588913,
            0.04041711613535881,
            0.16066087782382965,
            0.19101431965827942,
            -0.07912398874759674,
            -0.01000864990055561,
            0.1483919471502304,
            -0.03905026987195015,
            -0.09668795764446259,
            -0.04376247525215149,
            -0.11198866367340088,
            -0.07105042040348053,
            -0.034561820328235626,
            0.16572105884552002,
            -0.10833913832902908,
            -0.17370052635669708,
            0.21845532953739166,
            -0.10239139199256897,
            0.072381891310215,
            -0.13215716183185577,
            -0.048222705721855164,
            -0.0385935939848423,
            0.06540144979953766,
            0.15495902299880981,
            -0.17676956951618195,
            0.050644807517528534,
            -0.08499515801668167,
            0.04320639744400978,
            0.013506368733942509,
            -0.11868415027856827,
            0.10855703055858612,
            -0.10180366784334183,
            -0.016185510903596878,
            0.06849298626184464,
            0.1697002500295639,
            -0.04516654089093208,
            0.025921009480953217,
            0.012227467261254787,
            0.10248495638370514,
            0.0041968971490859985,
            0.030147498473525047,
            0.010438207536935806,
            -0.0031154293101280928,
            -0.022070035338401794,
            -0.06292939931154251,
            -0.05630382150411606,
            0.061087340116500854,
            0.13992460072040558,
            -0.2145482450723648,
            0.09144847095012665,
            -0.024789446964859962,
            0.08193754404783249,
            -0.002199263544753194,
            -0.048700232058763504,
            0.022022303193807602,
            0.0476982481777668,
            0.029826926067471504,
            -0.08435607701539993,
            0.14734400808811188,
            -0.06975562125444412,
            -0.037886351346969604,
            -0.03631782904267311,
            -0.23441118001937866,
            -0.031966883689165115,
            0.2282647341489792,
            0.09246223419904709,
            0.03162001818418503,
            0.051258545368909836,
            -0.022771457210183144,
            0.009318147785961628,
            -0.002583651803433895,
            0.15221931040287018,
            -0.009820112958550453,
            -0.09954022616147995,
            -0.014816993847489357,
            -0.16702914237976074,
            0.12200599163770676,
            0.04828450456261635,
            -0.0785379558801651,
            -0.08766826242208481,
            -0.1489970088005066,
            -0.014819241128861904,
            -0.02070535346865654,
            0.009195019491016865,
            -0.05106421187520027,
            0.11082462221384048,
            0.02227240800857544,
            0.20567187666893005,
            -0.06672049313783646,
            0.0618865042924881,
            -0.05148842930793762,
            0.10236404091119766,
            0.04422232136130333,
            -0.2015584409236908,
            -0.14350526034832,
            -0.04298228397965431,
            0.04869147762656212,
            -0.01342525240033865,
            -0.10829019546508789,
            0.1757744699716568,
            -0.10849222540855408,
            -0.11958309262990952,
            0.006399780046194792,
            0.02359558269381523,
            0.08655839413404465,
            0.1434376835823059,
            0.013968067243695259,
            0.06437356770038605,
            0.05817847326397896,
            0.14735284447669983,
            0.173994243144989,
            -0.16155177354812622,
            0.03997008129954338,
            -0.19100092351436615,
            -0.07451465725898743,
            -0.03940095752477646,
            0.14912597835063934,
            0.040770918130874634,
            0.07043018192052841,
            -0.027032500132918358,
            0.021606314927339554,
            -0.05570521578192711,
            0.10967206954956055,
            -0.06624745577573776,
            0.10007210820913315,
            0.027012787759304047,
            -0.08752260357141495,
            -0.018897609785199165,
            0.039947714656591415,
            0.03503766283392906,
            -0.01665370538830757,
            -0.0791889950633049,
            0.2065540999174118,
            0.022024139761924744,
            0.03621399775147438,
            -0.08082197606563568,
            0.07910417765378952,
            0.048966191709041595,
            0.025658531114459038,
            -0.076185442507267,
            0.030169693753123283,
            0.08666660636663437,
            0.12930448353290558,
            -0.15136905014514923,
            0.05960724502801895,
            0.06292635947465897,
            0.05590534582734108,
            -0.11839721351861954,
            0.11036123335361481,
            -0.09656962752342224,
            0.008910562843084335,
            -0.12307033687829971,
            -0.014535555616021156,
            0.06433242559432983,
            -0.03310267627239227,
            0.06259588897228241,
            -0.0036784184630960226,
            -0.053659409284591675,
            0.13455404341220856,
            0.12127121537923813,
            -0.006501322146505117,
            -0.13586536049842834,
            -0.1619282215833664,
            0.026589740067720413,
            0.005749877076596022,
            0.1673041135072708,
            -0.02547256276011467,
            0.09497079998254776,
            0.20918041467666626,
            -0.050033118575811386,
            0.09679389744997025,
            0.06339487433433533,
            0.04924410954117775,
            0.043937064707279205,
            -0.0837821215391159,
            0.09969810396432877,
            0.08065453916788101,
            -0.1585860252380371,
            -0.11730702221393585,
            -0.1342128962278366,
            0.11963394284248352,
            -0.09321407228708267,
            -0.1731862872838974,
            -0.08162941038608551,
            0.05812574177980423,
            0.0006643263041041791,
            0.0732864961028099,
            -0.04307975992560387,
            0.04791107028722763,
            -0.005050040315836668,
            -0.03626551479101181,
            -0.019105374813079834,
            0.024755148217082024,
            0.15859642624855042,
            0.12359838932752609,
            0.19069847464561462,
            0.08458775281906128,
            0.03086109831929207,
            -0.06720369309186935,
            0.07762066274881363,
            0.06621114164590836,
            0.030003830790519714,
            0.20043163001537323,
            -0.019542817026376724,
            0.21637941896915436,
            -0.05579861253499985,
            -0.06572295725345612,
            -0.0879245400428772,
            0.0006422572187148035,
            0.24610276520252228,
            -0.1221751794219017,
            0.08252888172864914,
            0.11369318515062332,
            -0.025213642045855522,
            -0.16338397562503815,
            -0.12388410419225693,
            0.11654701083898544,
            0.016015710309147835,
            -0.12812422215938568,
            0.0440935343503952,
            0.003569797147065401,
            0.23955950140953064,
            -0.2478693425655365,
            -0.08534367382526398,
            0.2005872130393982,
            -0.025070954114198685,
            0.014278273098170757,
            -0.008219287730753422,
            -0.10510411113500595,
            -0.05905314162373543,
            0.05654887109994888,
            0.09045783430337906,
            -0.03596872091293335,
            -0.2473256140947342,
            -0.17526625096797943,
            -0.02977691777050495,
            -0.006984746549278498,
            -0.10338833183050156,
            -0.1618637889623642,
            0.03856398165225983,
            -0.05600723251700401,
            0.09642400592565536,
            0.07932977378368378,
            0.033978018909692764,
            0.2321176826953888,
            -0.13098478317260742,
            -0.086061492562294,
            0.03758031502366066,
            0.12400691956281662,
            0.09982569515705109,
            0.13242420554161072,
            0.12511026859283447,
            0.11647526174783707,
            0.12105578929185867,
            0.11329969018697739,
            -0.10404982417821884,
            -0.14282257854938507,
            -0.10457561165094376,
            -0.16212527453899384,
            0.13789132237434387,
            -0.0945919081568718,
            0.05232863873243332,
            0.05278027430176735,
            0.11305608600378036,
            0.04235106706619263,
            0.06430011987686157,
            -0.048240434378385544,
            -0.1364271640777588,
            0.14644668996334076,
            -0.004017160274088383,
            0.05000509321689606,
            0.017907440662384033,
            0.19008786976337433,
            0.026335131376981735,
            0.02528289146721363,
            -0.07701060175895691,
            0.027392402291297913,
            0.027758067473769188,
            -0.1419478952884674,
            0.07991167157888412,
            -0.026113860309123993,
            0.06399429589509964,
            -0.027650007978081703,
            -0.06149692460894585,
            -0.06922870129346848,
            -0.2280321568250656,
            -0.0020825134124606848,
            0.026290951296687126,
            -0.09318436682224274,
            0.011669972911477089,
            -0.007130539510399103,
            -0.02199029177427292,
            0.16341812908649445,
            -0.09732172638177872,
            0.04040616378188133,
            0.07714907079935074,
            -0.07602029293775558,
            -0.012616495601832867,
            0.09861452877521515,
            0.10190362483263016,
            0.08756545931100845,
            0.09028127044439316,
            0.1529824584722519,
            0.07389602810144424,
            -0.07790970057249069,
            0.08079652488231659,
            -0.08070667088031769,
            0.0847952738404274,
            0.12236323952674866,
            -0.11642670631408691,
            0.19374939799308777,
            0.07811787724494934,
            -0.16889408230781555,
            -0.04458294436335564,
            0.08094847947359085,
            -0.03428087383508682,
            0.005199326202273369,
            0.04625553637742996,
            0.18346825242042542,
            0.11005190014839172,
            0.07165832817554474,
            -0.09991714358329773,
            0.10876000672578812,
            -0.04318312555551529,
            -0.13429227471351624,
            -0.15273992717266083,
            -0.12237107753753662,
            0.2867727279663086,
            0.06196674332022667,
            0.06599466502666473,
            0.13336950540542603,
            -0.012177346274256706,
            0.14054833352565765,
            0.03496271371841431,
            0.2157817929983139,
            0.051310945302248,
            0.018573760986328125,
            0.023451488465070724,
            0.017997564747929573,
            -0.08488110452890396,
            0.0719403401017189,
            -0.16394522786140442,
            -0.15564098954200745,
            0.1003672331571579,
            0.04982740059494972,
            0.12027566134929657,
            0.10166789591312408,
            0.06328147649765015,
            -0.07313448190689087,
            0.08230797946453094,
            0.08209069073200226,
            -0.05307501181960106,
            0.14191050827503204,
            0.033716972917318344,
            -0.14105166494846344,
            0.013754238374531269,
            0.18356621265411377,
            -0.20167282223701477,
            0.061232008039951324,
            -0.05794122442603111,
            0.015233341604471207,
            -0.007135974708944559,
            -0.0019693041685968637,
            -0.0016230312176048756,
            0.0619613453745842,
            -0.12460661679506302,
            0.056078311055898666,
            -0.030438382178544998,
            -0.06608080863952637,
            0.12229815870523453,
            0.01628696545958519,
            0.15484945476055145,
            -0.018451767042279243,
            0.09932541847229004,
            -0.1663573980331421,
            0.03973551094532013,
            -0.1105368584394455,
            0.10175200551748276,
            -0.16001370549201965,
            -0.06172143295407295,
            0.05616401880979538,
            -0.011027520522475243,
            0.008958031423389912,
            -0.012873008847236633,
            -0.025112105533480644,
            0.045524053275585175,
            -0.18924449384212494,
            0.12299689650535583,
            -0.05945602431893349,
            0.09465070068836212,
            -0.07664690166711807,
            -0.18091782927513123,
            -0.07364478707313538,
            -0.14656300842761993,
            -0.15107417106628418,
            -0.06111639738082886,
            0.00987223256379366,
            -0.03565511107444763,
            -0.11038639396429062,
            0.07018514722585678,
            -0.18352505564689636,
            -0.17910955846309662,
            -0.09575788676738739,
            -0.01835724338889122,
            0.0653914287686348,
            -0.12032849341630936,
            -0.15494592487812042,
            0.1255522221326828,
            0.07746442407369614,
            0.0797782763838768,
            -0.19819973409175873,
            0.1213984563946724,
            0.06121468544006348,
            0.18442752957344055,
            -0.16451165080070496,
            0.05764024332165718,
            0.06946257501840591,
            -0.0601588636636734,
            0.15706314146518707,
            0.0174435842782259,
            0.050169579684734344,
            -0.013767424039542675,
            -0.1149471327662468,
            0.04096537083387375,
            0.06794339418411255,
            0.07876726984977722,
            0.0941210463643074,
            0.07559942454099655,
            0.05833715572953224,
            0.16360187530517578,
            -0.06302684545516968,
            0.012745669111609459,
            0.06779114902019501,
            0.03691556677222252,
            -0.19095121324062347,
            0.12184949219226837,
            0.1098080724477768,
            0.0041974433697760105,
            -0.06344117969274521,
            0.06133674085140228,
            0.0322340652346611,
            -0.06499601900577545,
            0.027972957119345665,
            -0.10653721541166306,
            0.07153885066509247,
            0.11030835658311844,
            -0.03641819953918457,
            0.1566724181175232,
            0.09047733247280121,
            -0.013247122056782246,
            0.09280111640691757,
            0.1590578854084015,
            0.0603281632065773,
            0.039121754467487335,
            0.16707593202590942,
            -0.020377766340970993,
            0.16819322109222412,
            0.01536246482282877,
            -0.04242365434765816,
            -0.02308865450322628,
            -0.09833090752363205,
            0.20819583535194397,
            0.01315202284604311,
            -0.08442801237106323,
            -0.06718584895133972,
            -0.14155085384845734,
            -0.10053734481334686,
            -0.030818672850728035,
            -0.020243419334292412,
            -0.008168753236532211,
            -0.05601290613412857,
            0.11915531009435654,
            -0.11429022997617722,
            0.025983817875385284,
            -0.07672784477472305,
            -0.03000701777637005,
            -0.043326374143362045,
            -0.044576823711395264,
            -0.00042399391531944275,
            -0.1169992983341217,
            -0.12323612719774246,
            0.03511439636349678,
            -0.021541187539696693,
            -0.023948611691594124,
            0.16472600400447845,
            0.03232380375266075,
            0.06062695384025574,
            0.09299927204847336,
            -0.03170890733599663,
            -0.059995122253894806,
            0.09231802076101303,
            -0.18196099996566772,
            -0.1950947344303131,
            -0.03473462536931038,
            0.09933187067508698,
            -0.14074799418449402,
            -0.11763767898082733,
            -0.09873950481414795,
            0.08603554219007492,
            0.03658320754766464,
            -0.035243161022663116,
            0.026564961299300194,
            0.04897094517946243,
            0.17713475227355957,
            -0.01239525806158781,
            -0.01995145156979561,
            -0.07361795008182526,
            -0.04408715292811394,
            -0.08312592655420303,
            0.09467583894729614,
            0.051749713718891144,
            -0.1736842542886734,
            0.08423326909542084,
            -0.1782531887292862,
            0.01606794074177742,
            -0.09551192075014114,
            -0.003961875569075346,
            0.0705319419503212,
            -0.05023954063653946,
            0.07003854960203171,
            -0.08480924367904663,
            0.03805505856871605,
            0.08016172051429749,
            0.1481209397315979,
            0.15291830897331238,
            0.20809906721115112,
            -0.09971681982278824,
            0.20885002613067627,
            -0.03891116380691528,
            0.05776727572083473,
            0.03201086446642876,
            0.0842902809381485,
            -0.048812199383974075,
            -0.021803023293614388,
            0.05387607961893082,
            -0.03180630877614021,
            0.021763643249869347,
            0.15717583894729614,
            0.021652478724718094,
            -0.08620643615722656,
            0.21308252215385437,
            -0.0877002701163292,
            0.08189254999160767,
            -0.09823516756296158,
            -0.05398888513445854,
            0.012628395110368729,
            -0.10257463902235031,
            -0.040849581360816956,
            -0.035703394562006,
            -0.05130638927221298,
            -0.10104506462812424,
            -0.025556964799761772,
            0.12325175851583481,
            0.0039079017005860806,
            0.06966358423233032,
            0.1694568693637848,
            -0.09532878547906876,
            0.08687541633844376,
            -0.04223845899105072,
            -0.02360137179493904,
            0.024592367932200432,
            0.05699494853615761,
            -0.10400839149951935,
            0.10545849800109863,
            -0.023907098919153214,
            -0.01825674995779991,
            0.08073493093252182,
            -0.1273304522037506,
            0.11443959176540375,
            -0.13977427780628204,
            0.09295212477445602,
            -0.029117293655872345,
            0.06400858610868454,
            0.04737077280879021,
            -0.15439794957637787,
            -0.03808748349547386,
            0.07949448376893997,
            0.027769705280661583,
            0.0073495591059327126,
            -0.1569223552942276,
            0.14708492159843445,
            -0.19034452736377716,
            0.193110853433609,
            0.09519384801387787,
            -0.02876758761703968,
            -0.11529301851987839,
            -0.1786380410194397,
            -0.06737339496612549,
            -0.032209381461143494,
            -0.06940889358520508,
            -0.13334336876869202,
            -0.03435521945357323,
            0.007646204903721809,
            -0.009366625919938087,
            -0.1322256177663803,
            0.01067137997597456,
            0.11911206692457199,
            -0.09714268893003464,
            0.06787246465682983,
            0.06469730287790298,
            -0.023153427988290787,
            -0.06172346696257591,
            0.024076590314507484,
            -0.00036871343036182225,
            0.18706941604614258,
            0.0650351420044899,
            0.015059391967952251,
            0.17547741532325745,
            -0.10831528902053833,
            -0.04841723293066025,
            -0.12281925976276398,
            0.13183890283107758,
            0.06314588338136673,
            -0.12363951653242111,
            0.16438230872154236,
            0.05924113094806671,
            -0.052711121737957,
            0.12616005539894104,
            0.18414463102817535,
            0.2126348316669464,
            0.07742457091808319,
            0.09339281916618347,
            0.030153360217809677,
            -0.03429138660430908,
            0.061207763850688934,
            0.1260766237974167,
            -0.015143295750021935,
            0.06591545045375824,
            0.08410955220460892,
            0.08151320368051529,
            -0.038688670843839645,
            0.011796899139881134,
            0.10860780626535416,
            0.18265092372894287,
            0.02777119353413582,
            0.04276159405708313,
            0.21047937870025635,
            0.029114600270986557,
            0.06842702627182007,
            -0.1273040473461151,
            0.018124103546142578,
            0.13016729056835175,
            0.04426565393805504,
            -0.1828901469707489,
            0.044862013310194016,
            0.05657389014959335,
            -0.030577661469578743,
            -0.14259174466133118,
            -0.04264084994792938,
            -0.13915793597698212,
            -0.021826887503266335,
            0.07475076615810394,
            0.005626746919006109,
            -0.16011054813861847,
            -0.06766258180141449,
            -0.03382689505815506,
            0.1069839745759964,
            -0.060520872473716736,
            -0.12756316363811493,
            0.15428391098976135,
            -0.20935596525669098,
            0.048593226820230484,
            -0.01307628769427538,
            -0.19277863204479218,
            -0.06895364075899124,
            0.1725074052810669,
            -0.07454267889261246,
            0.10936130583286285,
            0.048125289380550385,
            -0.024382978677749634,
            0.10942192375659943,
            0.051601771265268326,
            -0.13976901769638062,
            -0.03062034398317337,
            -0.09612831473350525,
            0.12531539797782898,
            -0.13554173707962036,
            0.12029095739126205,
            -0.03254351764917374,
            -0.09823687374591827,
            0.010912016965448856,
            0.10134754329919815,
            0.038729842752218246,
            -0.16549605131149292,
            0.0378374382853508,
            0.05285773053765297,
            -0.0897722914814949,
            0.1792660355567932,
            -0.09356294572353363,
            -0.07540018856525421,
            -0.1747845560312271,
            -0.022582365199923515,
            0.029604380950331688,
            0.049561481922864914,
            0.11424493044614792,
            0.021443653851747513,
            0.09422183036804199,
            -0.07399018108844757,
            0.08863165229558945,
            0.07516351342201233,
            0.09057662636041641,
            0.04279930517077446,
            0.13031317293643951,
            -0.16952292621135712,
            -0.036467693746089935,
            -0.10866671800613403,
            0.07733520865440369,
            -0.07934821397066116,
            0.11448637396097183,
            0.19426125288009644,
            -0.14366301894187927,
            0.022565051913261414,
            -0.016564521938562393,
            0.08730965852737427,
            0.08728321641683578,
            0.10185536742210388,
            -0.061682458966970444,
            -0.11848517507314682,
            0.09699919074773788,
            -0.053003523498773575,
            -0.11854182928800583,
            -0.11706603318452835,
            0.1620386242866516,
            0.10097119212150574,
            0.1485966444015503,
            0.005873747169971466,
            -0.09757568687200546,
            -0.0562317818403244,
            0.06684613972902298,
            -0.10886716842651367,
            -0.023832745850086212,
            -0.009220980107784271,
            -0.09897755831480026,
            0.048393137753009796,
            0.11231941729784012,
            -0.1362864226102829,
            -0.05418150871992111,
            -0.014840018004179,
            -0.004751001950353384,
            -0.002011856995522976,
            0.01962093822658062,
            0.12161839008331299,
            -0.03734072297811508,
            0.0035402649082243443,
            -0.13043859601020813,
            -0.12720951437950134,
            -0.030798887833952904,
            -0.08622803539037704,
            -0.01927116885781288,
            0.192098006606102,
            -0.06293731182813644,
            0.09872788935899734,
            0.12079261988401413,
            -0.062155831605196,
            0.15056875348091125,
            -0.005909339524805546,
            -0.04501708969473839,
            -0.13965405523777008,
            0.003954100888222456,
            -0.12830913066864014,
            -0.0331227071583271,
            -0.10386301577091217,
            -0.05160396918654442,
            -0.06200701743364334,
            0.12581971287727356,
            0.09801378846168518,
            -0.169000044465065,
            0.10488347709178925,
            0.03898812085390091,
            0.0915403664112091,
            -0.023996906355023384,
            0.02656042017042637,
            0.13823458552360535,
            0.21681110560894012,
            -0.08100181072950363,
            0.013792461715638638,
            -0.058683592826128006,
            0.019061606377363205,
            0.027457423508167267,
            -0.14198292791843414,
            -0.08062627911567688,
            -0.04610130563378334,
            0.015470965765416622,
            0.05413420498371124,
            0.14413028955459595,
            0.11544734239578247,
            0.21628990769386292,
            0.0414365716278553,
            -0.11774600297212601,
            0.08487353473901749,
            -0.12850938737392426,
            -0.146382138133049,
            -0.03183896094560623,
            -0.016499657183885574,
            0.1317877620458603,
            -0.002452804008498788,
            -0.024377083405852318,
            -0.032236211001873016,
            -0.002580464817583561,
            -0.11922476440668106,
            0.08396048843860626,
            0.011786594986915588,
            -0.009126369841396809,
            0.042302455753088,
            -0.09307371824979782,
            0.18323557078838348,
            -0.02487185224890709,
            -0.05024807155132294,
            -0.10941743850708008,
            -0.08927790075540543,
            0.06190551817417145,
            -0.0552225224673748,
            0.03122301958501339,
            0.07231015712022781,
            -0.012074630707502365,
            -0.018241696059703827,
            -0.07258272171020508,
            0.1442846804857254,
            0.08543811738491058,
            0.11817467957735062,
            0.0779583603143692,
            -0.0514884851872921,
            -0.02635977789759636,
            -0.07739678770303726,
            0.030880602076649666,
            0.19871340692043304,
            -0.07607705146074295,
            0.1639784872531891,
            -0.19323599338531494,
            0.07945124804973602,
            -0.00859969574958086,
            0.053536076098680496,
            -0.0863175168633461,
            0.14017917215824127,
            0.10808511078357697,
            -0.10003750771284103,
            -0.04784809425473213,
            0.024500278756022453,
            0.18901784718036652,
            0.1724436730146408,
            -0.006237389519810677,
            -0.014510761946439743,
            -0.0521232895553112,
            -0.0053540002554655075,
            0.013015897944569588,
            -0.08990926295518875,
            -0.05700155720114708,
            0.20135824382305145,
            0.1574614942073822,
            -0.033336542546749115,
            0.1605672538280487,
            0.00660565122961998,
            -0.005060296971350908,
            0.05647400766611099,
            -0.03908637538552284,
            -0.21147997677326202,
            0.12285609543323517,
            0.1254694163799286,
            0.03431006893515587,
            -0.02045368403196335,
            0.033596839755773544,
            0.10584443807601929,
            0.10883234441280365,
            0.08074662834405899,
            -0.002881473395973444,
            0.03361096978187561,
            -0.0037896218709647655,
            -0.05020264536142349,
            0.04297002777457237,
            0.022919045761227608,
            0.029713965952396393,
            -0.0448436476290226,
            -0.0008095051744021475,
            0.019993634894490242,
            0.08048297464847565,
            -0.0005591458757407963,
            0.071517214179039,
            -0.08765960484743118,
            -0.17476849257946014,
            0.045475270599126816,
            0.06458733230829239,
            0.07230418175458908,
            -0.16922111809253693,
            0.02206065133213997,
            -0.13563908636569977,
            -0.11333358287811279,
            -0.018473418429493904,
            0.060603752732276917,
            0.10179910063743591,
            -0.011366818100214005,
            0.009498522616922855,
            0.08011441677808762,
            0.0012449773494154215,
            -0.026857368648052216,
            0.025632860139012337,
            -0.024835990741848946,
            0.02879372052848339,
            -0.020908759906888008,
            -0.018805863335728645,
            -0.028959397226572037,
            0.07190453261137009,
            -0.05482583865523338,
            -0.025365035980939865,
            0.017133675515651703,
            -0.04425761476159096,
            -0.09240205585956573,
            -0.05091328173875809,
            -0.05996982753276825,
            -0.12172084301710129,
            0.16409902274608612,
            -0.006733754184097052,
            0.09880096465349197,
            0.03958188742399216,
            -0.012823396362364292,
            0.026455752551555634,
            -0.00602092407643795,
            0.16055920720100403,
            0.021701021119952202,
            0.10733387619256973,
            -0.02577250264585018,
            -0.04665599390864372,
            0.14189347624778748,
            0.0018794622737914324,
            0.052467577159404755,
            -0.1049937829375267,
            -0.08256934583187103,
            -0.032064635306596756,
            0.009152363985776901,
            0.037416573613882065,
            0.06216829642653465,
            -0.11563210934400558,
            -0.0004070355207659304,
            0.16428187489509583,
            -0.08147860318422318,
            -0.06369089335203171,
            0.05106080323457718,
            -0.0063033257611095905,
            -0.07449138909578323,
            -0.1296870857477188,
            -0.0036682537756860256,
            0.08393175154924393,
            0.03282640874385834,
            -0.205306738615036,
            -0.04463358595967293,
            0.019956396892666817,
            -0.1642242819070816,
            -0.1049768328666687,
            -0.06982837617397308,
            -0.051110249012708664,
            0.027479548007249832,
            -0.0191101785749197,
            0.02248498983681202,
            -0.03140836954116821,
            0.1679786741733551,
            0.046282809227705,
            0.007287220098078251,
            0.11195385456085205,
            0.09676116704940796,
            -0.07511982321739197,
            0.1289111226797104,
            -0.0536244697868824,
            0.07250349223613739,
            -0.03268466517329216,
            -0.005082841496914625,
            0.10699040442705154,
            -0.049682244658470154,
            -0.0029212255030870438,
            0.00545175326988101,
            -0.07718399167060852,
            0.17761369049549103,
            0.1316438913345337,
            -0.013691163621842861,
            -0.17456601560115814,
            0.044143542647361755,
            0.0936974287033081,
            0.20819546282291412,
            -0.05034087598323822,
            0.009255975484848022,
            0.17796988785266876,
            -0.04108245298266411,
            0.02493678592145443,
            0.021119175478816032,
            -0.03574240207672119,
            0.03890486806631088,
            0.18181964755058289,
            -0.03546128794550896,
            -0.03393850848078728,
            0.13455593585968018,
            0.12300103902816772,
            0.01114698313176632,
            -0.14009244740009308,
            -0.1349164992570877,
            -0.16374172270298004,
            0.029723331332206726,
            -0.015651889145374298,
            -0.135798379778862,
            -0.08881267160177231,
            -0.2003783881664276,
            0.04051145911216736,
            -0.07333207130432129,
            0.054171185940504074,
            -0.190181165933609,
            0.16143116354942322,
            -0.054364949464797974,
            -0.0029590243939310312,
            0.15145204961299896,
            0.07307922095060349,
            -0.06015825271606445,
            0.04135248810052872,
            0.00914196576923132,
            -0.10904460400342941,
            -0.07393781840801239,
            0.10586711764335632,
            0.06550472229719162,
            0.08379466086626053,
            -0.08250539004802704,
            0.018288064748048782,
            -0.03443000465631485,
            -0.0933290347456932,
            -0.1894729882478714,
            0.00560810836032033,
            -0.027208730578422546,
            -0.020462296903133392,
            0.017713766545057297,
            0.041588857769966125,
            -0.023502888157963753,
            0.1216910183429718,
            0.11135830730199814,
            -0.0017593253869563341,
            -0.11279274523258209,
            -0.1306239664554596,
            0.1591814160346985,
            0.03293587639927864,
            -0.038397133350372314,
            -0.09294571727514267,
            -0.022707557305693626,
            0.057593315839767456,
            -0.11531582474708557,
            -0.05250230059027672,
            -0.04760514944791794,
            0.021776683628559113,
            0.03630262613296509,
            0.16753634810447693,
            -0.05739853158593178,
            -0.014003888703882694,
            -0.12915317714214325,
            -0.022972967475652695,
            -0.016803432255983353,
            0.0755329579114914,
            0.04376601800322533,
            0.014024351723492146,
            0.07199040055274963,
            0.15685582160949707,
            0.004022195003926754,
            -0.03914862126111984,
            0.1379910260438919,
            0.12930260598659515,
            0.03942563757300377,
            -0.019858302548527718,
            0.07882259041070938,
            0.00037643234827555716,
            0.10280901193618774,
            0.1361767053604126,
            -0.05002278462052345,
            0.059508856385946274,
            -0.04704369232058525,
            0.08010223507881165,
            -0.09161625057458878,
            -0.11909433454275131,
            -0.21611003577709198,
            0.01079348474740982,
            0.05274229124188423,
            -0.20006057620048523,
            0.08445277810096741,
            -0.1874857097864151,
            0.04887794330716133,
            -0.048930712044239044,
            -0.07796679437160492,
            -0.1817387193441391,
            0.1155165508389473,
            -0.01448132749646902,
            -0.015129034407436848,
            -0.1408666968345642,
            0.1265941709280014,
            0.0601167306303978,
            0.023670753464102745,
            0.06021265685558319,
            -0.01506411749869585,
            -0.06188155710697174,
            0.1553058922290802,
            -0.07281922549009323,
            0.1065305769443512,
            0.18180982768535614,
            -0.04818322882056236,
            -0.033171411603689194,
            -0.07653714716434479,
            -0.09664361923933029,
            -0.07311850786209106,
            0.13155965507030487,
            0.17667126655578613,
            -0.054112326353788376,
            -0.06097407639026642,
            0.036013536155223846,
            -0.038501638919115067,
            -0.19104747474193573,
            -0.006359572522342205,
            0.11135508865118027,
            0.1393483281135559,
            -0.029678506776690483,
            -0.0639844611287117,
            0.08818908035755157,
            0.05974562466144562,
            0.18679247796535492,
            0.044569358229637146,
            0.01374930888414383,
            0.06610296666622162,
            0.026394009590148926,
            -0.2165510505437851,
            -0.14389821887016296,
            0.0024257260374724865,
            0.021420208737254143,
            -0.015288224443793297,
            -0.020863307639956474,
            -0.0799340307712555,
            0.037278030067682266,
            0.023305276408791542,
            -0.017046062275767326,
            -0.018069079145789146,
            -0.1536179929971695,
            -0.1509501338005066,
            0.04476340860128403,
            0.2016955018043518,
            0.04364931583404541,
            -0.05234925448894501,
            0.06463208049535751,
            0.07337979972362518,
            0.046975962817668915,
            0.03385739028453827,
            -0.12123804539442062,
            0.06024086847901344,
            0.0829513818025589,
            0.07026983052492142,
            -0.01766805164515972,
            -0.11283664405345917,
            -0.06540736556053162,
            0.08069998025894165,
            -0.1262466013431549,
            -0.022322142496705055,
            0.16865389049053192,
            0.10520649701356888,
            0.052747417241334915,
            -0.06814149767160416,
            -0.0771724134683609,
            -0.05020008608698845,
            0.0860380083322525,
            -0.07200294733047485,
            -0.12445233762264252,
            0.06852998584508896,
            -0.03537425771355629,
            -0.1349126398563385,
            0.04714839160442352,
            -0.1960507184267044,
            0.025158708915114403,
            0.019184833392500877,
            -0.1232166588306427,
            -0.16276393830776215,
            0.013220308348536491,
            -0.04528075084090233,
            0.20296111702919006,
            -0.18571943044662476,
            -0.05644294619560242,
            -0.09632297605276108,
            -0.056877829134464264,
            0.0686090886592865,
            -0.1364642083644867,
            -0.02870188094675541,
            -0.0482294000685215,
            -0.06735406070947647,
            0.04957978054881096,
            0.06356722861528397,
            0.1157706007361412,
            0.09272003173828125,
            -0.1754412204027176,
            -0.16399544477462769,
            -0.1466464400291443,
            -0.10110582411289215,
            -0.04523526504635811,
            0.05801162123680115,
            -0.0074853054247796535,
            -0.020226839929819107,
            0.17410677671432495,
            0.04605449363589287,
            0.019277121871709824,
            -0.06556469202041626,
            0.07822936773300171,
            -0.03618277981877327,
            0.0523051880300045,
            -0.07494492083787918,
            -0.09232008457183838,
            0.0333857536315918,
            -0.08713962137699127,
            -0.1556704342365265,
            -0.15184755623340607,
            -0.10068494081497192,
            0.02444286271929741,
            -0.080361008644104,
            0.1340271383523941,
            0.07761979848146439,
            0.11171025037765503,
            0.062206488102674484,
            0.1303573101758957,
            -0.15104056894779205,
            0.1300611048936844,
            -0.05131782591342926,
            0.023098401725292206,
            -0.11059360206127167,
            -0.057080548256635666,
            0.1300552785396576,
            0.09293145686388016,
            0.0619647242128849,
            0.09171867370605469,
            0.12168190628290176,
            -0.1001628041267395,
            -0.08592359721660614,
            -0.08258900791406631,
            -0.06029558926820755,
            -0.06355022639036179,
            -0.021207790821790695,
            0.004998353775590658,
            0.0505368746817112,
            -0.05202174931764603,
            0.04395400732755661,
            0.07577642798423767,
            -0.12632159888744354,
            -0.10333391278982162,
            -0.02452443726360798,
            0.11346937716007233,
            0.12828122079372406,
            0.05593995377421379,
            -0.086041659116745,
            -0.10891175270080566,
            -0.15892116725444794,
            -0.1158607006072998,
            0.1327633410692215,
            0.02572740614414215,
            -0.027901215478777885,
            0.1367933303117752,
            0.023441271856427193,
            0.012416576035320759,
            -0.08864054083824158,
            0.18637725710868835,
            0.11001291871070862,
            0.16306091845035553,
            -0.06533722579479218,
            -0.09568106383085251,
            -0.04258597642183304,
            0.13050375878810883,
            -0.20694422721862793,
            0.04364646598696709,
            -0.021299323067069054,
            -0.12087013572454453,
            -0.0029711746610701084,
            0.08953399956226349,
            -0.16501609981060028,
            0.020773520693182945,
            0.17136354744434357,
            -0.010293016210198402,
            0.0865272581577301,
            -0.013406003825366497,
            0.13229358196258545,
            -0.11325105279684067,
            0.009852204471826553,
            0.04560447111725807,
            0.09883703291416168,
            -0.1409621238708496,
            0.14465202391147614,
            -0.08419881761074066,
            0.012706942856311798,
            0.00979457888752222,
            -0.024172157049179077,
            -0.026594236493110657,
            -0.04778004065155983,
            0.06724914163351059,
            -0.04065733030438423,
            0.14651848375797272,
            -0.09072677046060562,
            -0.05406823009252548,
            -0.059256307780742645,
            -0.03701280057430267,
            -0.06229157745838165,
            0.05833638086915016,
            -0.0719875916838646,
            -0.058672163635492325,
            -0.04367321357131004,
            -0.07878419756889343,
            -0.10708558559417725,
            -0.044464726001024246,
            -0.07004990428686142,
            -0.05218980088829994,
            0.18978890776634216,
            -0.059105489403009415,
            0.01927640102803707,
            -0.03227860480546951,
            0.011670364998281002,
            -0.017905987799167633,
            -0.16365323960781097,
            -0.1834729015827179,
            0.06491923332214355,
            0.11935237050056458,
            -0.05007628723978996,
            -0.02868194878101349,
            -0.056024204939603806,
            -0.03212268650531769,
            0.0941302701830864,
            -0.00653149513527751,
            -0.023861967027187347,
            0.04769356921315193,
            -0.06439588963985443,
            0.050107840448617935,
            -0.049365896731615067,
            -0.1710461676120758,
            0.0035409042611718178,
            0.013504844158887863,
            -0.06460198760032654,
            0.0018476544646546245,
            -0.023274272680282593,
            -0.2056506723165512,
            0.026892486959695816,
            0.010934603400528431,
            -0.1038031280040741,
            0.13145670294761658,
            -0.12012174725532532,
            0.04157513007521629,
            -0.09012392163276672,
            0.019533010199666023,
            -0.04264143481850624,
            0.16507470607757568,
            -0.11123029887676239,
            -0.10793043673038483,
            -0.1563098281621933,
            -0.15712417662143707,
            0.01810857467353344,
            -0.058297134935855865,
            0.0014012465253472328,
            0.027315452694892883,
            0.00863014254719019,
            -0.11009760946035385,
            0.14343751966953278,
            0.1651245504617691,
            -0.055428288877010345,
            0.0361383855342865,
            -0.036576565355062485,
            -0.009492576122283936,
            -0.16929978132247925,
            -0.1950342208147049,
            0.11697980761528015,
            0.0548197403550148,
            0.06958766281604767,
            0.12322212010622025,
            0.10872171074151993,
            -0.04850912094116211,
            0.09297173470258713,
            -0.200619637966156,
            0.04382072016596794,
            0.031409427523612976,
            0.19887134432792664,
            -0.03647071123123169,
            -0.08266368508338928,
            0.019922489300370216,
            0.07367067039012909,
            -0.005381514318287373,
            -0.05431101843714714,
            0.048735931515693665,
            -0.013122458942234516,
            0.06693872064352036,
            0.019065510481595993,
            0.06487660855054855,
            -0.06312548369169235,
            0.051499925553798676,
            0.10912060737609863,
            0.1474480777978897,
            0.04431173950433731,
            0.10000010579824448,
            0.05805175006389618,
            0.1258402019739151,
            -0.10528233647346497,
            -0.07898511737585068,
            0.14868459105491638,
            -0.007816026918590069,
            0.06753341853618622,
            -0.006866747047752142,
            0.030765600502490997,
            -0.04994664713740349,
            0.1562616229057312,
            -0.011686574667692184,
            0.028449757024645805,
            -0.08417313545942307,
            -0.040592897683382034,
            -0.1519087255001068,
            -0.018322233110666275,
            0.17714102566242218,
            -0.03480010852217674,
            -0.0011806358816102147,
            0.02176898904144764,
            -0.012744281440973282,
            0.012691246345639229,
            -0.022913750261068344,
            -0.008464806713163853,
            0.07599825412034988,
            -0.07349273562431335,
            -0.004080722574144602,
            0.07520617544651031,
            -0.011658103205263615,
            0.06722236424684525,
            -0.16041195392608643,
            0.04080362245440483,
            0.11343374103307724,
            -0.01899019256234169,
            -0.055187348276376724,
            0.08211231231689453,
            -0.08763906359672546,
            -0.05603068321943283,
            0.09577447921037674,
            -0.12819929420948029,
            -0.050334442406892776,
            -0.08405371010303497,
            0.18202850222587585,
            -0.10222182422876358,
            -0.09179853647947311,
            0.08678197860717773,
            0.004349447786808014,
            0.0025713015347719193,
            -0.03768139332532883,
            0.14983659982681274,
            0.12466827034950256,
            -0.13443715870380402,
            -0.12806972861289978,
            -0.07924198359251022,
            0.061204466968774796,
            -0.18936757743358612,
            0.20986615121364594,
            0.01609168015420437,
            -0.00722188875079155,
            0.08278989791870117,
            -0.1135304644703865,
            0.10964737832546234,
            0.06465932726860046,
            0.0605192631483078,
            -0.028238805010914803,
            0.0342550091445446,
            0.02530595287680626,
            0.03759940713644028,
            0.17128540575504303,
            -0.12270968407392502,
            -0.048829592764377594,
            -0.019944407045841217,
            0.018897973001003265,
            0.1695324182510376,
            -0.13013017177581787,
            0.0402049794793129,
            -0.06795895099639893,
            -0.010574628598988056,
            -0.017290541902184486,
            0.08636447787284851,
            0.06316309422254562,
            0.027449294924736023,
            -0.19815567135810852,
            0.022612761706113815,
            0.08176132291555405,
            -0.14377254247665405,
            -0.01411860715597868,
            -0.11973732709884644,
            0.09752574563026428,
            -0.0836985856294632,
            -0.05144773796200752,
            -0.07433134317398071,
            -0.03846701979637146,
            0.0685332790017128,
            -0.10741142183542252,
            -0.09689616411924362,
            -0.07075002044439316,
            0.01306261494755745,
            -0.21504056453704834,
            0.09746809303760529,
            -0.02799062430858612,
            -0.06845000386238098,
            0.12159249931573868,
            0.13166888058185577,
            -0.08466760069131851,
            -0.09290497750043869,
            0.05569075793027878,
            -0.12061271071434021,
            0.03546352684497833,
            0.1333983689546585,
            -0.06402688473463058,
            0.1583792269229889,
            -0.03311185538768768,
            -0.19131898880004883,
            -0.11621880531311035,
            0.04692473262548447,
            -0.12265054136514664,
            0.1480715572834015,
            0.14304499328136444,
            -0.023500870913267136,
            0.12321184575557709,
            0.06312892585992813,
            -0.05238940194249153,
            -0.01077429298311472,
            -0.015032680705189705,
            -0.017215952277183533,
            -0.027984021231532097,
            0.12428676337003708,
            -0.018124081194400787,
            -0.10547780245542526,
            -0.12315530329942703,
            0.13286176323890686,
            0.017302732914686203,
            0.026346608996391296,
            0.07241276651620865,
            0.06852144747972488,
            -0.08155261725187302,
            0.0035419485066086054,
            0.0940491259098053,
            0.006380580365657806,
            0.0826835110783577,
            -0.1287100464105606,
            0.04830024763941765,
            -0.04123285785317421,
            -0.058084532618522644,
            -0.10287980735301971,
            -0.0559120737016201,
            0.12957514822483063,
            -0.04330466315150261,
            -0.2038867324590683,
            -0.01503401156514883,
            -0.0035605370067059994,
            0.0668042004108429,
            0.1233406588435173,
            -0.04929899796843529,
            0.0841999351978302,
            0.06551375985145569,
            -0.1402566283941269,
            -0.11062916368246078,
            -0.030037041753530502,
            -0.032539885491132736,
            0.01181026455014944,
            0.041392695158720016,
            -0.12621350586414337,
            0.06654807180166245,
            -0.12554119527339935,
            -0.14259450137615204,
            -0.0389411635696888,
            0.1436254382133484,
            -0.10506895184516907,
            -0.18799036741256714,
            0.03206004202365875,
            -0.20003168284893036,
            0.19627654552459717,
            -0.11670644581317902,
            -0.08739689737558365,
            0.136555477976799,
            0.005594370421022177,
            -0.027616353705525398,
            0.1523279845714569,
            0.18804235756397247,
            0.11126057803630829,
            0.1828184723854065,
            -0.00890486128628254,
            0.03226075321435928,
            -0.050844956189394,
            -0.07730437070131302,
            -0.15546216070652008,
            -0.13378849625587463,
            -0.19204550981521606,
            -0.14043684303760529,
            0.11181088536977768,
            -0.06631679087877274,
            0.004448238294571638,
            0.041211746633052826,
            0.14310982823371887,
            0.08028122037649155,
            -0.15203450620174408,
            -0.00986644346266985,
            -0.037351418286561966,
            0.12703342735767365,
            0.1429625153541565,
            -0.1399177461862564,
            0.1722261756658554,
            0.0870729610323906,
            0.11007572710514069,
            -0.11213406175374985,
            -0.09011440724134445,
            -0.12292931228876114,
            -0.010367198847234249,
            0.04875767230987549,
            0.08934051543474197,
            0.11788744479417801,
            -0.04455016180872917,
            -0.014229325577616692,
            -0.061380285769701004,
            0.04960082471370697,
            0.05372118204832077,
            0.08058609068393707,
            0.012779832817614079,
            0.051428113132715225,
            0.03128904849290848,
            -0.07994835823774338,
            -0.01184496283531189,
            -0.009691269136965275,
            0.21453052759170532,
            -0.03611089289188385,
            -0.0034278612583875656,
            -0.01084683183580637,
            0.004592439625412226,
            -0.026297777891159058,
            0.16589020192623138,
            -0.005235488060861826,
            -0.02049827203154564,
            0.13458675146102905,
            0.1786319762468338,
            -0.17807646095752716,
            0.05138611048460007,
            -0.022822324186563492,
            -0.0541682243347168,
            -0.013596376404166222,
            0.1609823852777481,
            -0.03796663507819176,
            0.012796404771506786,
            -0.08542817085981369,
            0.04641904681921005,
            0.09516839683055878,
            0.021400295197963715,
            0.16517148911952972,
            -0.042120106518268585,
            0.12670215964317322,
            0.1434171497821808,
            0.039968736469745636,
            0.05058813840150833,
            -0.1426248699426651,
            0.08697149902582169,
            0.1059068813920021,
            -0.041819438338279724,
            -0.010835356079041958,
            0.024157080799341202,
            0.11875211447477341,
            -0.0819949358701706,
            0.061153531074523926,
            -0.08181080967187881,
            -0.16336259245872498,
            -0.09096981585025787,
            -0.1539570540189743,
            0.010065171867609024,
            0.0870429053902626,
            0.017478158697485924,
            0.10056782513856888,
            0.1548234075307846,
            0.0092757074162364,
            0.14268459379673004,
            -0.01785597763955593,
            -0.06765660643577576,
            -0.0371566116809845,
            -0.036118701100349426,
            0.027433086186647415,
            0.04585105553269386,
            0.0274802353233099,
            -0.21509480476379395,
            -0.15634965896606445,
            0.11519503593444824,
            -0.17062580585479736,
            -0.010814785026013851,
            -0.04598276689648628,
            -0.15274612605571747,
            -0.08547238260507584,
            -0.1659066081047058,
            0.06853818148374557,
            0.005596533417701721,
            -0.06393618136644363,
            0.12028513103723526,
            -0.05077028647065163,
            0.029146896675229073,
            -0.0295717753469944,
            0.07136382162570953,
            -0.12431637197732925,
            0.07362838834524155,
            0.07477795332670212,
            -0.21672716736793518,
            0.0455862432718277,
            0.12515725195407867,
            0.06770557165145874,
            -0.02403099462389946,
            -0.016191095113754272,
            -0.06569293886423111,
            -0.019608648493885994,
            -0.03536928445100784,
            0.18744580447673798,
            0.21641920506954193,
            -0.10313315689563751,
            -0.025242824107408524,
            -0.014954464510083199,
            0.1633962094783783,
            0.11947637051343918,
            -0.05354112759232521,
            -0.06620705872774124,
            0.12735144793987274,
