{
  "timestamp": "2026-02-04T04:50:35.383Z",
  "episode": 20,
  "hypothesis": "Iteration 7: Like iter3 but lower L2 (0.025) to allow more trading while keeping quality",
  "config": {
    "symbols": [
      "BTCUSDT",
      "ETHUSDT",
      "SOLUSDT"
    ],
    "numAgents": 3,
    "trainSplit": 0.8,
    "monthsOfData": 6,
    "episodes": 100,
    "episodeLength": 1000,
    "trainFrequency": 4,
    "batchSize": 64,
    "bufferSize": 50000,
    "dqn": {
      "inputSize": 42,
      "hiddenLayers": [
        128,
        64,
        32
      ],
      "outputSize": 5,
      "learningRate": 0.00025,
      "gamma": 0.95,
      "tau": 0.01,
      "epsilonStart": 1,
      "epsilonEnd": 0.18,
      "epsilonDecay": 0.995,
      "dropout": 0.4,
      "l2Regularization": 0.025,
      "useBatchNorm": true,
      "gradientClipNorm": 0.5,
      "useHuberLoss": true,
      "huberDelta": 1,
      "actionBias": true,
      "actionBiasDecay": 0.997,
      "useDoubleDQN": true,
      "useLinearEpsilonDecay": true,
      "totalExpectedEpisodes": 100,
      "rewardBasedEpsilonAdjustment": true,
      "lowWinRateThreshold": 0.4,
      "epsilonBoostAmount": 0.1
    },
    "env": {
      "initialCapital": 10000,
      "positionSizePercent": 0.1,
      "commission": 0.001,
      "slippage": 0.0005,
      "lookbackPeriod": 100,
      "maxBarsPerEpisode": null,
      "maxDrawdownLimit": 0.15,
      "maxBarsInPosition": 100,
      "kbConfig": {
        "enabled": true,
        "addKBFeatures": true,
        "useKBRewardShaping": true
      }
    },
    "earlyStoppingPatience": 25,
    "minImprovement": 0.01,
    "logInterval": 10,
    "evalInterval": 20
  },
  "valSharpe": -2.7388664985823703,
  "perSymbolResults": [
    {
      "symbol": "BTCUSDT",
      "trades": 9,
      "winRate": 33.33333333333333,
      "pnl": 7.9100517838259465,
      "sharpe": 11.918568117811093
    },
    {
      "symbol": "ETHUSDT",
      "trades": 10,
      "winRate": 40,
      "pnl": -10.36045380914208,
      "sharpe": -8.98366344845059
    },
    {
      "symbol": "SOLUSDT",
      "trades": 14,
      "winRate": 28.57142857142857,
      "pnl": -18.597065179772905,
      "sharpe": -11.151504165107614
    }
  ],
  "numAgents": 3,
  "weights": [
    {
      "weights": [
        {
          "shape": [
            42,
            128
          ],
          "data": [
            0.0862119048833847,
            0.0175909623503685,
            -0.12938500940799713,
            -0.008841847069561481,
            0.011342945508658886,
            0.06452033668756485,
            -0.028533412143588066,
            0.020259637385606766,
            -0.04374230280518532,
            0.048990800976753235,
            0.005804142449051142,
            -0.22147834300994873,
            0.028383780270814896,
            -0.008175603114068508,
            -0.12260803580284119,
            0.13746638596057892,
            0.03326301649212837,
            -0.1082223579287529,
            0.015605940483510494,
            -0.052036941051483154,
            -0.04636497423052788,
            0.059305451810359955,
            -0.06097133085131645,
            0.0006776090594939888,
            0.1982874870300293,
            -0.02081231214106083,
            -0.007118217647075653,
            -0.06940998136997223,
            -0.04667997360229492,
            0.007866846397519112,
            -0.04554308205842972,
            0.18166929483413696,
            0.0023049055598676205,
            0.07333990186452866,
            0.06251318007707596,
            -0.04215717315673828,
            -0.12883006036281586,
            0.045905742794275284,
            0.21338889002799988,
            0.02690850757062435,
            -0.06667407602071762,
            -0.1393381953239441,
            0.1677871197462082,
            -0.03529546409845352,
            0.13282005488872528,
            -0.163664311170578,
            -0.10359958559274673,
            0.033071212470531464,
            0.014519679360091686,
            0.05900459364056587,
            -0.01929892972111702,
            0.01227355282753706,
            -0.15618661046028137,
            -0.06406132876873016,
            0.05428643152117729,
            0.06795969605445862,
            -0.05503295361995697,
            0.10278492420911789,
            0.12829336524009705,
            -0.04637525603175163,
            -0.1056203618645668,
            -0.16594095528125763,
            -0.05308026447892189,
            0.07019628584384918,
            0.049076952040195465,
            0.19501887261867523,
            0.0867096558213234,
            -0.03521393612027168,
            -0.05073220282793045,
            -0.01823520101606846,
            0.025281060487031937,
            0.043824583292007446,
            0.15560629963874817,
            0.06957360357046127,
            0.02928665652871132,
            0.061496999114751816,
            0.18742002546787262,
            0.02367589809000492,
            0.060893360525369644,
            -0.013323863968253136,
            0.009681686758995056,
            0.0046848212368786335,
            -0.08528143912553787,
            -0.07363668829202652,
            -0.009111911989748478,
            0.1447896957397461,
            -0.08163067698478699,
            -0.023368623107671738,
            0.1439836174249649,
            -0.12056951969861984,
            -0.18375778198242188,
            0.0017133286455646157,
            0.11605042964220047,
            -0.03491996228694916,
            -0.017003068700432777,
            -0.007238579448312521,
            -0.0020079689566046,
            -0.07505575567483902,
            -0.03720235079526901,
            -0.14628806710243225,
            -0.043220154941082,
            -0.07304356247186661,
            0.0657360777258873,
            0.14180852472782135,
            0.05014100670814514,
            -0.013568797148764133,
            0.1210436299443245,
            -0.016924817115068436,
            0.18755407631397247,
            -0.008642654865980148,
            -0.17470043897628784,
            -0.07232863456010818,
            -0.12406458705663681,
            -0.05525975301861763,
            0.03840165212750435,
            -0.2337111532688141,
            0.07560677081346512,
            0.10004297643899918,
            -0.08074595034122467,
            0.11087050288915634,
            -0.0032757800072431564,
            -0.008170770481228828,
            0.027815913781523705,
            0.018429026007652283,
            -0.05422130227088928,
            -0.019592178985476494,
            0.09825631231069565,
            -0.04944978654384613,
            -0.003588802879676223,
            0.007220177445560694,
            0.004155411384999752,
            -0.021183693781495094,
            0.15050385892391205,
            -0.048096176236867905,
            -0.0051958453841507435,
            -0.18830260634422302,
            -0.11491749435663223,
            -0.14942333102226257,
            0.06972869485616684,
            0.16728422045707703,
            -0.11531272530555725,
            -0.17516960203647614,
            -0.15001288056373596,
            -0.053562767803668976,
            -0.03314276784658432,
            0.011413131840527058,
            -0.045889418572187424,
            -0.043112289160490036,
            -0.13045573234558105,
            0.14701691269874573,
            -0.03360746055841446,
            -0.10352496057748795,
            -0.017450299113988876,
            -0.1556638926267624,
            0.1261833757162094,
            0.0393652580678463,
            0.11970839649438858,
            0.038409411907196045,
            -0.18171970546245575,
            0.052453648298978806,
            -0.008008692413568497,
            0.0155266048386693,
            0.17767374217510223,
            -0.13166619837284088,
            -0.07595432549715042,
            -0.09721695631742477,
            -0.04658642038702965,
            0.08244001120328903,
            0.09851907193660736,
            -0.14469219744205475,
            0.0738370269536972,
            -0.0031565676908940077,
            -0.09231466054916382,
            -0.11510670930147171,
            0.03752879053354263,
            0.047980308532714844,
            -0.00017204388859681785,
            -0.07160572707653046,
            -0.025742586702108383,
            -0.08649362623691559,
            0.05831414461135864,
            0.11284930258989334,
            0.04127234220504761,
            0.10360419750213623,
            0.05564581975340843,
            -0.14909470081329346,
            0.14698924124240875,
            -0.011815527454018593,
            0.031022584065794945,
            -0.08703931421041489,
            0.0048596216365695,
            0.04084741696715355,
            0.08938870579004288,
            -0.06559557467699051,
            0.22126364707946777,
            -0.1653658002614975,
            -0.008345337584614754,
            -0.009835628792643547,
            0.0692022293806076,
            0.029050659388303757,
            -0.1973465532064438,
            -0.14814959466457367,
            -0.07118341326713562,
            -0.0466611310839653,
            -0.024694086983799934,
            0.07286328077316284,
            -0.06416725367307663,
            -0.07354259490966797,
            0.13175377249717712,
            -0.06528986990451813,
            0.03834529593586922,
            -0.013006700202822685,
            -0.02880435809493065,
            0.22925396263599396,
            -0.08681701123714447,
            -0.11680839955806732,
            0.04795240983366966,
            0.08456149697303772,
            -0.14133647084236145,
            -0.03678746894001961,
            -0.11710706353187561,
            0.08499641716480255,
            -0.03382148593664169,
            -0.0977625846862793,
            -0.18659448623657227,
            0.19434715807437897,
            -0.12532217800617218,
            -0.1911129355430603,
            -0.04634891450405121,
            -0.06221576780080795,
            -0.027426231652498245,
            0.0532214380800724,
            0.06117546930909157,
            0.022110478952527046,
            0.1922144591808319,
            -0.029677314683794975,
            -0.06579969078302383,
            -0.08744388073682785,
            -0.036964185535907745,
            0.029441850259900093,
            -0.043595194816589355,
            0.09918981045484543,
            -0.0357184037566185,
            -0.08278603106737137,
            -0.03941214457154274,
            0.098544180393219,
            0.0012098281877115369,
            -0.03746606037020683,
            -0.26823848485946655,
            -0.006404635962098837,
            -0.1601707935333252,
            0.028609000146389008,
            0.08679025620222092,
            -0.19925177097320557,
            0.09014297276735306,
            -0.10417179763317108,
            0.01209397055208683,
            -0.12176554650068283,
            -0.04250720143318176,
            0.05817167088389397,
            -0.10041748732328415,
            -0.16229550540447235,
            0.00708844605833292,
            0.00944096501916647,
            -0.005525146145373583,
            -0.07170005142688751,
            0.031340092420578,
            0.10841376334428787,
            -0.0440441258251667,
            -0.052046362310647964,
            0.13603952527046204,
            -0.012459107674658298,
            -0.06260697543621063,
            -0.16552391648292542,
            -0.1702236384153366,
            -0.07236534357070923,
            0.01334982831031084,
            -0.05392857640981674,
            -0.10999005287885666,
            0.06961391866207123,
            -0.024907507002353668,
            0.031587205827236176,
            -0.12408405542373657,
            -0.14096058905124664,
            -0.12250905483961105,
            0.053411245346069336,
            -0.031527694314718246,
            -0.20134757459163666,
            -0.12124552577733994,
            0.0546351782977581,
            0.10636643320322037,
            0.10949552804231644,
            -0.07223442941904068,
            0.1710985004901886,
            0.09702670574188232,
            0.10666076838970184,
            0.0851365178823471,
            0.019237341359257698,
            -0.0875992700457573,
            -0.016364624723792076,
            -0.11075624078512192,
            0.015596755780279636,
            0.06489050388336182,
            -0.060205306857824326,
            0.016829760745167732,
            -0.21005919575691223,
            -0.16066229343414307,
            0.02577192522585392,
            -0.11117744445800781,
            -0.00552769098430872,
            0.006224086508154869,
            -0.18263067305088043,
            0.04625890776515007,
            -0.10779683291912079,
            -0.11976636201143265,
            -0.013126292265951633,
            -0.1419246941804886,
            -0.08905642479658127,
            -0.17600145936012268,
            0.07121406495571136,
            0.09157758951187134,
            -0.052886005491018295,
            0.0717809721827507,
            0.1001383438706398,
            0.14371667802333832,
            -0.056787170469760895,
            0.012834749184548855,
            0.05747551843523979,
            -0.02839682623744011,
            0.09826444834470749,
            -0.13180148601531982,
            0.06311189383268356,
            0.033342331647872925,
            -0.08049996942281723,
            0.018855895847082138,
            -0.0013585842680186033,
            -0.16689865291118622,
            0.01110507920384407,
            0.004888789728283882,
            -0.10844514518976212,
            -0.0590093694627285,
            0.18325859308242798,
            -0.047956131398677826,
            -0.09867756813764572,
            -0.14133934676647186,
            0.12322927266359329,
            0.01961536891758442,
            -0.028024837374687195,
            -0.11066285520792007,
            -0.06559682637453079,
            0.04535818472504616,
            -0.12683501839637756,
            -0.12253488600254059,
            0.1174093633890152,
            0.18634431064128876,
            -0.0031579129863530397,
            -0.016592036932706833,
            0.012827010825276375,
            -0.00670830812305212,
            0.1967879831790924,
            -0.0743091031908989,
            -0.07354401051998138,
            -0.0391966737806797,
            0.014943011105060577,
            -0.07973112165927887,
            -0.01511907484382391,
            0.050213977694511414,
            -0.00014644989278167486,
            -0.0981888622045517,
            -0.05155794695019722,
            -0.1098511815071106,
            0.1258826106786728,
            0.02599816955626011,
            0.07813311368227005,
            -0.15867722034454346,
            0.22881457209587097,
            -0.15873000025749207,
            0.036258209496736526,
            -0.06516134738922119,
            0.03234463185071945,
            0.17967340350151062,
            0.005388504825532436,
            0.004887924063950777,
            -0.13592460751533508,
            0.03493628650903702,
            -0.0717439204454422,
            0.043785106390714645,
            -0.0485457219183445,
            0.06853396445512772,
            -0.014295502565801144,
            -0.18143042922019958,
            0.13494771718978882,
            -0.04039646312594414,
            0.06834890693426132,
            -0.05632463097572327,
            -0.06225484982132912,
            -0.021529166027903557,
            -0.05200795829296112,
            0.0418626144528389,
            0.0002512154751457274,
            -0.06570357829332352,
            0.04308582469820976,
            -0.10216028243303299,
            0.06489937007427216,
            -0.1996721476316452,
            -0.049071814864873886,
            0.19927150011062622,
            -0.09024539589881897,
            0.12872861325740814,
            0.17934143543243408,
            -0.06186329200863838,
            0.05263711139559746,
            0.15693378448486328,
            -0.042653463780879974,
            -0.1316443532705307,
            0.12185045331716537,
            0.1391933411359787,
            0.04016569256782532,
            -0.015289190225303173,
            0.18282067775726318,
            0.06364522129297256,
            0.16566796600818634,
            0.020062992349267006,
            0.14254599809646606,
            -0.005810452625155449,
            0.014306388795375824,
            0.06716794520616531,
            -0.13221269845962524,
            0.05439355969429016,
            -0.019795849919319153,
            -0.03430571034550667,
            0.03120124712586403,
            -0.03163432329893112,
            0.0797269344329834,
            0.10422740876674652,
            0.06407373398542404,
            0.09097854793071747,
            -0.0267564095556736,
            -0.07561318576335907,
            0.07253929227590561,
            -0.166695699095726,
            0.01688610203564167,
            0.08468401432037354,
            -0.02922775037586689,
            0.13420334458351135,
            0.015758389607071877,
            0.05191005766391754,
            0.021074822172522545,
            0.043641697615385056,
            -0.014371249824762344,
            0.1279388964176178,
            0.0800124779343605,
            -0.02075764909386635,
            -0.06536102294921875,
            -0.1118115708231926,
            -0.027010947465896606,
            0.00010045492672361434,
            0.17258913815021515,
            -0.15542560815811157,
            -0.03891582414507866,
            -0.08851586282253265,
            0.049450233578681946,
            -0.028506416827440262,
            0.003962081391364336,
            0.07184522598981857,
            -0.21801058948040009,
            -0.15927699208259583,
            0.04518861323595047,
            0.059564974159002304,
            -0.08778226375579834,
            -0.024338413029909134,
            0.13809673488140106,
            0.034252531826496124,
            -0.12142559885978699,
            0.0418640598654747,
            -0.07083363085985184,
            0.08221261203289032,
            0.04282265529036522,
            -0.13680142164230347,
            0.19316238164901733,
            0.09237881749868393,
            -0.07805074751377106,
            -0.10591840744018555,
            -0.07784651219844818,
            0.09912733733654022,
            -0.11900351941585541,
            0.11825034767389297,
            -0.0027414346113801003,
            -0.0012589567340910435,
            -0.04758555442094803,
            -0.03826575726270676,
            -0.10251975059509277,
            0.1238720640540123,
            0.02925187721848488,
            -0.10227390378713608,
            0.010753323324024677,
            -0.04650728777050972,
            -0.11744081228971481,
            0.06937531381845474,
            -0.08601446449756622,
            -0.07815491408109665,
            -0.034494105726480484,
            0.18992190062999725,
            0.06595396250486374,
            -0.06269027292728424,
            0.13345688581466675,
            -0.043904513120651245,
            0.10433884710073471,
            0.047661226242780685,
            0.0477190725505352,
            0.06696081161499023,
            0.022434810176491737,
            -0.05145994946360588,
            -0.0375373512506485,
            -0.08336351811885834,
            -0.16197891533374786,
            -0.15773825347423553,
            0.031933773308992386,
            -0.07256994396448135,
            -0.036594923585653305,
            0.08775102347135544,
            0.017988836392760277,
            -0.09115868806838989,
            0.08257921040058136,
            0.12983790040016174,
            -0.1312769204378128,
            -0.040808986872434616,
            0.04135148972272873,
            -0.135367751121521,
            0.10841583460569382,
            0.08547567576169968,
            -0.03779234737157822,
            0.0335962288081646,
            -0.11648847907781601,
            0.14055711030960083,
            0.03579622879624367,
            0.09156639873981476,
            -0.044993478804826736,
            -0.06773193180561066,
            -0.047959454357624054,
            -0.14841806888580322,
            0.07007906585931778,
            0.0969574972987175,
            0.029758553951978683,
            -0.03199014067649841,
            -0.12244058400392532,
            -0.05637769401073456,
            -0.13397830724716187,
            -0.009743215516209602,
            -0.019776910543441772,
            0.11808878928422928,
            -0.04073707014322281,
            0.03608452528715134,
            -0.003610622137784958,
            0.04394511505961418,
            -0.015044907107949257,
            0.017660852521657944,
            -0.08556526154279709,
            -0.023837590590119362,
            0.04556657001376152,
            -0.04890008270740509,
            0.02860608510673046,
            0.18704624474048615,
            -0.05102161690592766,
            0.06698232144117355,
            0.1334899663925171,
            -0.0066119893454015255,
            -0.1041397824883461,
            0.018224555999040604,
            -0.16529925167560577,
            0.0937916710972786,
            0.12984849512577057,
            0.1562507003545761,
            -0.10470758378505707,
            -0.1394975781440735,
            0.03323621675372124,
            0.06738574802875519,
            0.059752456843853,
            -0.0016667717136442661,
            0.02638191357254982,
            -0.049639537930488586,
            -0.08819948881864548,
            -0.09670921415090561,
            0.06448055803775787,
            0.1112326830625534,
            0.008067100308835506,
            -0.007631643209606409,
            -0.05539953336119652,
            -0.004139593802392483,
            0.1888420134782791,
            0.15011858940124512,
            -0.11616010218858719,
            -0.04157562926411629,
            0.13369156420230865,
            -0.08036687970161438,
            -0.08638989925384521,
            -0.02232932485640049,
            -0.17151238024234772,
            0.10628856718540192,
            -0.0453760102391243,
            -0.04813737794756889,
            0.2086103856563568,
            0.19455848634243011,
            0.14927753806114197,
            -0.008775586262345314,
            0.08110926300287247,
            -0.0027179422322660685,
            -0.08358000218868256,
            0.1328076422214508,
            0.1303439438343048,
            -0.13559888303279877,
            0.09363041818141937,
            0.15832136571407318,
            -0.08861450850963593,
            0.026144543662667274,
            -0.03220570459961891,
            -0.04934750497341156,
            0.062484096735715866,
            0.05278341472148895,
            0.009781105443835258,
            0.056833282113075256,
            0.0642731711268425,
            -0.05912976339459419,
            -0.05362728610634804,
            -0.09214858710765839,
            0.045463550835847855,
            0.050386831164360046,
            0.07137058675289154,
            0.007483369205147028,
            0.047412920743227005,
            -0.015911385416984558,
            0.11108282953500748,
            -0.06852206587791443,
            -0.011040546000003815,
            -0.19219262897968292,
            0.044419027864933014,
            -0.1011180505156517,
            0.09153646975755692,
            0.09144262969493866,
            -0.060599833726882935,
            -0.0334780290722847,
            -0.0442010872066021,
            0.0509774424135685,
            0.15567146241664886,
            0.13180556893348694,
            0.024566305801272392,
            -0.20141027867794037,
            -0.07406380027532578,
            -0.01914704032242298,
            -0.02520402893424034,
            -0.02710896171629429,
            -0.019027872011065483,
            0.025150159373879433,
            -0.1492561399936676,
            -0.046901196241378784,
            -0.015112759545445442,
            -0.01956467516720295,
            0.06774204969406128,
            -0.10082641988992691,
            0.0009740815730765462,
            0.03123009391129017,
            -0.22234077751636505,
            -0.05935988947749138,
            -0.06160620599985123,
            -0.043308183550834656,
            -0.09152258187532425,
            0.053197529166936874,
            -0.11412510275840759,
            0.01599702052772045,
            -0.0006488347426056862,
            0.10790146887302399,
            -0.013083565980196,
            -0.028117014095187187,
            0.1687847226858139,
            0.010855610482394695,
            0.04662322625517845,
            0.08263789117336273,
            -0.16377633810043335,
            0.06578639149665833,
            0.08801060169935226,
            0.018806541338562965,
            -0.07157956808805466,
            0.048572178930044174,
            -0.08792565762996674,
            0.0682220533490181,
            0.05150241404771805,
            -0.17054446041584015,
            -0.05396665632724762,
            0.0036002632696181536,
            0.03208113834261894,
            0.01944573037326336,
            -0.12663914263248444,
            0.007155337370932102,
            0.02046382986009121,
            -0.1401914656162262,
            0.1477794051170349,
            -0.09173367917537689,
            0.1455579698085785,
            -0.04820980131626129,
            0.18090327084064484,
            0.16163110733032227,
            -0.13383202254772186,
            -0.07430151104927063,
            -0.04230803996324539,
            -0.04635445028543472,
            -0.000509014178533107,
            -0.06672027707099915,
            -0.09356152266263962,
            -0.11309993267059326,
            -0.07166819274425507,
            -0.09793546795845032,
            0.06760349124670029,
            -0.07764418423175812,
            0.05545391887426376,
            0.08523101359605789,
            -0.02251317724585533,
            0.19936741888523102,
            0.026436911895871162,
            0.04980132356286049,
            -0.004164968151599169,
            0.06795712560415268,
            -0.1270606964826584,
            -0.09100205451250076,
            0.02878485806286335,
            -0.06983812898397446,
            0.058178823441267014,
            -0.03195946291089058,
            -0.14321719110012054,
            -0.03333313763141632,
            -0.022760868072509766,
            0.034878987818956375,
            0.050162896513938904,
            -0.004309177398681641,
            -0.0554201565682888,
            -0.04277113080024719,
            0.018382443115115166,
            0.05680042505264282,
            0.06341875344514847,
            0.043655119836330414,
            0.13170555233955383,
            0.06721088290214539,
            -0.0785488560795784,
            0.08121152967214584,
            -0.05684681981801987,
            -0.015669582411646843,
            -0.026602353900671005,
            -0.03554924950003624,
            -0.019191665574908257,
            0.026061194017529488,
            -0.08046935498714447,
            0.026229865849018097,
            0.14446920156478882,
            0.0755097046494484,
            -0.013674712739884853,
            -0.10615633428096771,
            -0.02284322679042816,
            -0.028116948902606964,
            0.05419807508587837,
            -0.04478401318192482,
            -0.06361106783151627,
            -0.06218738853931427,
            0.07414497435092926,
            -0.13988058269023895,
            0.04299942031502724,
            0.11640861630439758,
            -0.031102750450372696,
            -0.1288820207118988,
            -0.0745018944144249,
            0.020764147862792015,
            0.060579631477594376,
            -0.03505726531147957,
            -0.11903578042984009,
            -0.2632957398891449,
            0.0819784551858902,
            0.029131945222616196,
            -0.05529741197824478,
            0.11050357669591904,
            -0.008825598284602165,
            -0.19191524386405945,
            0.043958865106105804,
            -0.1430642008781433,
            0.16469842195510864,
            -0.009994147345423698,
            -0.03640616685152054,
            -0.050804246217012405,
            0.033270951360464096,
            -0.09585708379745483,
            -0.03950217366218567,
            -0.06293468922376633,
            -0.09660794585943222,
            0.04574406519532204,
            0.035185977816581726,
            0.18228499591350555,
            -0.004978738725185394,
            -0.10238195210695267,
            0.09001379460096359,
            -0.06226995959877968,
            0.006638817489147186,
            0.06171801686286926,
            0.08491250872612,
            -0.015381724573671818,
            0.1425076723098755,
            0.10319336503744125,
            0.07065502554178238,
            0.20178183913230896,
            0.13473762571811676,
            -0.05175535008311272,
            -0.09316232055425644,
            0.06411175429821014,
            0.018903903663158417,
            0.050780635327100754,
            0.10725244134664536,
            0.13489091396331787,
            -0.050766393542289734,
            -0.056180283427238464,
            -0.02252403274178505,
            0.19382677972316742,
            0.053877100348472595,
            0.18877734243869781,
            0.32396620512008667,
            -0.13019409775733948,
            0.03560849651694298,
            0.1351414918899536,
            -0.08602020144462585,
            -0.25637897849082947,
            -0.08171442151069641,
            0.14617089927196503,
            0.08046762645244598,
            0.07867856323719025,
            0.14590677618980408,
            0.018852615728974342,
            -0.18650847673416138,
            0.1624373197555542,
            -0.10104487091302872,
            0.10042466223239899,
            0.09470858424901962,
            -0.016665427014231682,
            0.0445348396897316,
            -0.08557765185832977,
            -0.1440112143754959,
            0.00795941986143589,
            0.01168939657509327,
            -0.01868979074060917,
            -0.23424862325191498,
            -0.05947872996330261,
            0.045548874884843826,
            -0.042605992406606674,
            0.023826606571674347,
            -0.22461660206317902,
            -0.2693849503993988,
            -0.15488635003566742,
            -0.08135184645652771,
            0.1430460512638092,
            -0.057533830404281616,
            -0.09723243117332458,
            -0.04192034527659416,
            -0.009194471873342991,
            0.053114961832761765,
            0.00987392757087946,
            0.03900310397148132,
            -0.04991907253861427,
            0.010672388598322868,
            0.26051443815231323,
            0.10917886346578598,
            -0.04189743846654892,
            -0.043907128274440765,
            0.12211259454488754,
            -0.005296037532389164,
            0.08084709942340851,
            -0.07646721601486206,
            -0.034457407891750336,
            0.07457778602838516,
            -0.01984117366373539,
            -0.28411397337913513,
            -0.03459499031305313,
            0.2136792689561844,
            -0.08003760129213333,
            -0.06534083932638168,
            0.11365994065999985,
            0.009751752018928528,
            0.04553969204425812,
            -0.2112199068069458,
            -0.05894819274544716,
            -0.046109046787023544,
            -0.055057644844055176,
            0.0759165808558464,
            -0.055822838097810745,
            -0.1351010948419571,
            -0.0799834281206131,
            0.046978216618299484,
            -0.07229096442461014,
            -0.22323673963546753,
            0.018978143110871315,
            -0.05058726295828819,
            -0.04188515245914459,
            -0.17109309136867523,
            0.06883712857961655,
            0.15063372254371643,
            -0.019008491188287735,
            -0.04552926495671272,
            -0.06666482239961624,
            -0.13441362977027893,
            -0.13251593708992004,
            0.09368570894002914,
            -0.0361359603703022,
            0.1660929173231125,
            -0.0591263510286808,
            0.053745537996292114,
            -0.12242547422647476,
            -0.19623801112174988,
            -0.1765413135290146,
            -0.04850587993860245,
            0.20015184581279755,
            -0.20210009813308716,
            -0.14512823522090912,
            -0.040565814822912216,
            -0.018056407570838928,
            -0.05512234568595886,
            -0.20030060410499573,
            0.01408474426716566,
            -0.02044748142361641,
            0.028180981054902077,
            -0.07503025233745575,
            -0.14104992151260376,
            -0.10924290120601654,
            0.018490957096219063,
            0.04573483392596245,
            -0.0991513729095459,
            -0.04121766984462738,
            -0.0070615410804748535,
            0.051734309643507004,
            -0.23086440563201904,
            0.11842427402734756,
            0.047531526535749435,
            0.14113391935825348,
            -0.1019025444984436,
            -0.04151303693652153,
            0.1327662169933319,
            -0.1361558437347412,
            -0.11587873846292496,
            -0.047527704387903214,
            0.12878026068210602,
            0.2007742077112198,
            -0.0001916953333420679,
            -0.14908261597156525,
            0.17778198421001434,
            -0.006301121786236763,
            0.12834419310092926,
            -0.01328600849956274,
            -0.11211909353733063,
            0.044189076870679855,
            -0.0014181298902258277,
            -0.1292784959077835,
            -0.13127754628658295,
            -0.07777033001184464,
            -0.0903470516204834,
            -0.2125360369682312,
            0.10429980605840683,
            -0.14882206916809082,
            -0.008425936102867126,
            0.06279196590185165,
            -0.0698554664850235,
            0.18473652005195618,
            -0.08274546265602112,
            0.15414276719093323,
            0.06951002031564713,
            0.015653321519494057,
            0.14101429283618927,
            0.04166165366768837,
            -0.11904390156269073,
            0.033397749066352844,
            -0.02099175751209259,
            0.007620854303240776,
            -0.1459285169839859,
            0.09213419258594513,
            -0.07020236551761627,
            0.015126879326999187,
            -0.1695261299610138,
            0.08380655944347382,
            -0.13593058288097382,
            -0.05687616765499115,
            0.0923585444688797,
            0.06680724024772644,
            0.03156518563628197,
            -0.1036679595708847,
            0.05682990700006485,
            -0.06448325514793396,
            0.020350923761725426,
            0.09577754884958267,
            0.13656042516231537,
            -0.16751167178153992,
            0.11726594716310501,
            0.07093161344528198,
            -0.010831791907548904,
            0.08619136363267899,
            -0.05792929604649544,
            0.057917073369026184,
            -0.07348431646823883,
            -0.16688263416290283,
            -0.02349492348730564,
            -0.027971766889095306,
            0.19662782549858093,
            -0.045946840196847916,
            -0.02865275740623474,
            0.07315491139888763,
            -0.12966857850551605,
            -0.02261698991060257,
            0.10000815987586975,
            -0.11005846410989761,
            -0.00017744276556186378,
            -0.06934261322021484,
            -0.11979781836271286,
            0.012596620246767998,
            0.049469634890556335,
            0.03004436567425728,
            0.10309092700481415,
            -0.17346464097499847,
            0.03558853268623352,
            0.0016836931463330984,
            -0.10319064557552338,
            -0.045726459473371506,
            -0.13222694396972656,
            0.017959143966436386,
            0.11797083169221878,
            0.10979978740215302,
            -0.224269837141037,
            -0.006329822354018688,
            0.04277229309082031,
            -0.024866044521331787,
            -0.09352259337902069,
            0.0036693476140499115,
            0.011110424995422363,
            -0.089789479970932,
            0.15349972248077393,
            0.06155668944120407,
            0.004050204996019602,
            -0.040486641228199005,
            0.059415411204099655,
            -0.054479893296957016,
            -0.0009538826998323202,
            -0.025138022378087044,
            -0.09730170667171478,
            0.124097540974617,
            -0.09855807572603226,
            0.08873936533927917,
            -0.0397176630795002,
            -0.0029097883962094784,
            -0.11311455070972443,
            -0.22443969547748566,
            0.017816895619034767,
            0.06268765032291412,
            0.07965585589408875,
            -0.005321154370903969,
            -0.03405239060521126,
            0.10984543710947037,
            -0.039381735026836395,
            0.08171704411506653,
            0.11223480105400085,
            -0.08466847240924835,
            0.20196183025836945,
            -0.08422861248254776,
            0.03075508028268814,
            0.0906115174293518,
            -0.009107299149036407,
            -0.2131607085466385,
            -0.09250014275312424,
            -0.06158548220992088,
            0.16245406866073608,
            -0.21066173911094666,
            -0.03385109081864357,
            0.1235998272895813,
            -0.13816618919372559,
            0.03368651121854782,
            0.02782965451478958,
            0.002618177328258753,
            -0.14118917286396027,
            0.006370101124048233,
            -0.007237529847770929,
            0.04821353405714035,
            0.003651444800198078,
            -0.06247592717409134,
            -0.07124944776296616,
            -0.09470919519662857,
            0.05741334706544876,
            -0.2117398977279663,
            -0.10931330174207687,
            0.1815539449453354,
            0.05337842181324959,
            0.004972842521965504,
            0.17321063578128815,
            0.0562678724527359,
            -0.19452325999736786,
            0.00009867696644505486,
            0.05212073400616646,
            0.021232210099697113,
            0.028251368552446365,
            0.1195950135588646,
            -0.015009553171694279,
            -0.12868525087833405,
            -0.1035684123635292,
            0.09328047931194305,
            -0.0775594711303711,
            0.04598454013466835,
            -0.08192165195941925,
            -0.03398849070072174,
            0.005812388379126787,
            -0.16707995533943176,
            -0.08623883128166199,
            0.06034092605113983,
            0.023030497133731842,
            -0.009257343597710133,
            0.05175457522273064,
            -0.014493266120553017,
            0.06592723727226257,
            0.034563057124614716,
            -0.018048396334052086,
            -0.09826681017875671,
            0.09746492654085159,
            -0.05620253458619118,
            -0.019014276564121246,
            0.03098079189658165,
            -0.19844035804271698,
            -0.1057540774345398,
            -0.012688911519944668,
            0.030193302780389786,
            -0.018749140202999115,
            -0.030948441475629807,
            0.01348788756877184,
            -0.03067128174006939,
            -0.044767916202545166,
            -0.11039748787879944,
            0.14766447246074677,
            -0.015868503600358963,
            0.010372722521424294,
            0.03229924291372299,
            0.06969552487134933,
            -0.08670558780431747,
            -0.1465868502855301,
            0.15387500822544098,
            0.048110052943229675,
            -0.04444712772965431,
            0.1453397274017334,
            0.09326069056987762,
            0.027438776567578316,
            -0.08789709955453873,
            0.13807518780231476,
            0.12676513195037842,
            0.005220766179263592,
            -0.032825496047735214,
            0.137132465839386,
            0.19000904262065887,
            -0.10549570620059967,
            0.08956809341907501,
            -0.16461031138896942,
            0.13139820098876953,
            -0.14635246992111206,
            -0.12454590946435928,
            0.0983014926314354,
            -0.2054823487997055,
            -0.15442529320716858,
            0.042961202561855316,
            0.08886774629354477,
            0.0731879249215126,
            0.006996510550379753,
            -0.04236156865954399,
            0.06107454001903534,
            0.211625337600708,
            0.024510923773050308,
            -0.018680738285183907,
            -0.055300913751125336,
            0.12032890319824219,
            0.003334726905450225,
            0.04567166790366173,
            -0.2217503786087036,
            -0.15654411911964417,
            -0.034687358886003494,
            -0.04938163980841637,
            -0.13573704659938812,
            0.026821447536349297,
            -0.004307593684643507,
            -0.11131355911493301,
            -0.03255024924874306,
            -0.02288636565208435,
            -0.1082555428147316,
            -0.07847239822149277,
            0.0031957533210515976,
            -0.11254844069480896,
            0.11785426735877991,
            -0.0751953125,
            -0.010235208086669445,
            -0.09282675385475159,
            0.18628276884555817,
            -0.14803119003772736,
            0.09030860662460327,
            0.12384910881519318,
            -0.04326598346233368,
            0.06543754786252975,
            0.03868921846151352,
            -0.08615577965974808,
            -0.12054094672203064,
            0.0459701269865036,
            -0.007593604736030102,
            0.046161554753780365,
            0.1936844140291214,
            0.0027724767569452524,
            -0.06530171632766724,
            0.03408115729689598,
            -0.054749514907598495,
            -0.15180157124996185,
            -0.1008244976401329,
            -0.09777553379535675,
            -0.08552022278308868,
            -0.008419307880103588,
            0.0801880955696106,
            0.014908854849636555,
            0.08620943874120712,
            0.13416361808776855,
            -0.01067347638309002,
            -0.12483704835176468,
            0.10414591431617737,
            -0.20018868148326874,
            -0.056516509503126144,
            -0.10893310606479645,
            -0.01605568826198578,
            0.15572352707386017,
            -0.07654835283756256,
            -0.024098020046949387,
            -0.1411105841398239,
            -0.12305424362421036,
            -0.070868581533432,
            0.19851624965667725,
            -0.0024950227234512568,
            -0.02444540336728096,
            -0.10333476215600967,
            0.10406497865915298,
            -0.011010639369487762,
            0.053736623376607895,
            0.032293468713760376,
            -0.11795182526111603,
            0.08201789110898972,
            0.023920193314552307,
            0.03328615799546242,
            -0.01223299466073513,
            0.0640883669257164,
            -0.0337069034576416,
            0.03550193831324577,
            -0.17356863617897034,
            0.05410249903798103,
            0.02121000364422798,
            -0.05588443949818611,
            0.002687981352210045,
            0.14062580466270447,
            0.08936294168233871,
            -0.10802695155143738,
            -0.02941759116947651,
            -0.07562555372714996,
            0.10779710859060287,
            0.13942065834999084,
            0.01994013600051403,
            0.02815414033830166,
            -0.028349673375487328,
            -0.09253236651420593,
            0.025490982457995415,
            -0.0928901806473732,
            -0.04301228001713753,
            -0.0713794007897377,
            -0.008482075296342373,
            0.1610213965177536,
            0.1452726423740387,
            -0.0703279972076416,
            0.01803716830909252,
            0.09254098683595657,
            -0.10657232999801636,
            -0.13053202629089355,
            -0.008066989481449127,
            -0.15416836738586426,
            0.06379697471857071,
            0.09186503291130066,
            -0.14706535637378693,
            0.05554547905921936,
            0.14002539217472076,
            0.14010089635849,
            -0.11601533740758896,
            0.05863386020064354,
            -0.09518132358789444,
            -0.06686138361692429,
            0.04848555102944374,
            -0.03213891014456749,
            0.055520955473184586,
            0.08241073042154312,
            -0.0807696208357811,
            -0.04768357053399086,
            0.14614848792552948,
            0.050544098019599915,
            0.009645801037549973,
            -0.09561579674482346,
            -0.0679607167840004,
            -0.21792449057102203,
            -0.12561962008476257,
            -0.0003719099040608853,
            -0.059879083186388016,
            -0.21448934078216553,
            0.04610569775104523,
            0.11857806891202927,
            -0.22768361866474152,
            0.14199042320251465,
            0.023223361000418663,
            -0.03323310613632202,
            -0.14404700696468353,
            -0.03450048714876175,
            -0.060731951147317886,
            0.11481860280036926,
            -0.00893085915595293,
            -0.028781890869140625,
            -0.03225419670343399,
            0.07336537539958954,
            0.031569741666316986,
            0.09677614271640778,
            -0.10108961910009384,
            0.0025856115389615297,
            -0.01112015638500452,
            -0.08946780115365982,
            0.08663482964038849,
            0.027907883748412132,
            0.15794408321380615,
            0.13581040501594543,
            -0.09551668912172318,
            0.12009770423173904,
            0.16457423567771912,
            -0.14082816243171692,
            0.1771710366010666,
            -0.07139299809932709,
            0.13084934651851654,
            0.16150923073291779,
            0.18246027827262878,
            -0.12559300661087036,
            -0.09385807812213898,
            0.01730933226644993,
            0.14432798326015472,
            -0.04117628559470177,
            0.1607048064470291,
            0.05213749408721924,
            -0.09786811470985413,
            -0.03295798972249031,
            0.01699533499777317,
            -0.02616766281425953,
            -0.08729244023561478,
            0.12257134169340134,
            -0.0014923724811524153,
            0.05028536543250084,
            0.09645097702741623,
            -0.1125611662864685,
            0.17010781168937683,
            -0.01965959183871746,
            -0.0007035670569166541,
            0.0019660943653434515,
            -0.0686301663517952,
            -0.11964310705661774,
            0.12020532041788101,
            0.06544899940490723,
            0.034993402659893036,
            0.1077929362654686,
            0.022073332220315933,
            0.027150999754667282,
            0.007104102522134781,
            0.2257051020860672,
            -0.0497174896299839,
            -0.07059475034475327,
            -0.22093865275382996,
            -0.039896704256534576,
            -0.05660943314433098,
            -0.14353804290294647,
            -0.013557804748415947,
            -0.04949164763092995,
            0.01578475534915924,
            0.18258243799209595,
            0.057739581912755966,
            0.09384838491678238,
            0.011775326915085316,
            0.04496688023209572,
            -0.059231486171483994,
            0.14503657817840576,
            0.08017812669277191,
            0.05662933364510536,
            -0.05015808716416359,
            0.013565389439463615,
            -0.02969994768500328,
            -0.17013117671012878,
            -0.0401141531765461,
            -0.15429861843585968,
            -0.11642100661993027,
            -0.11466320604085922,
            0.06314963847398758,
            0.13358193635940552,
            0.05292603746056557,
            -0.015246983617544174,
            -0.20368792116641998,
            0.00641848798841238,
            0.15578001737594604,
            -0.010349508374929428,
            -0.050352685153484344,
            0.12855979800224304,
            -0.10749111324548721,
            0.11661588400602341,
            0.13725899159908295,
            0.07901550829410553,
            -0.02710063010454178,
            0.2017524689435959,
            -0.1561737358570099,
            -0.2745421826839447,
            -0.06879834085702896,
            0.04659461975097656,
            -0.09292317926883698,
            -0.03842568024992943,
            -0.010134466923773289,
            0.17035001516342163,
            0.0037721742410212755,
            -0.1615663468837738,
            -0.14776955544948578,
            -0.04581950232386589,
            0.03514097258448601,
            -0.15524692833423615,
            -0.15546508133411407,
            0.009158185683190823,
            -0.028857331722974777,
            0.12574748694896698,
            0.020009800791740417,
            0.1583205610513687,
            0.02799910120666027,
            -0.07624882459640503,
            -0.11858812719583511,
            0.06913081556558609,
            -0.07277404516935349,
            0.07213465124368668,
            -0.18230557441711426,
            0.01054187212139368,
            0.1107451319694519,
            0.07023080438375473,
            0.07984345406293869,
            -0.11315681040287018,
            -0.05293256416916847,
            0.0017569342162460089,
            0.012203565798699856,
            0.05060665309429169,
            0.16847410798072815,
            -0.10039303451776505,
            0.13453702628612518,
            0.08665776252746582,
            0.05019071325659752,
            0.14208397269248962,
            0.01557408832013607,
            0.024529021233320236,
            -0.039701197296381,
            0.05044037476181984,
            0.01029503159224987,
            -0.19162331521511078,
            0.05143533647060394,
            -0.15953150391578674,
            0.1499347984790802,
            -0.09186632186174393,
            0.007126203738152981,
            -0.1854800283908844,
            -0.11943331360816956,
            -0.1415528804063797,
            -0.15742994844913483,
            -0.09157509356737137,
            -0.0719151645898819,
            -0.12169009447097778,
            -0.06338640302419662,
            -0.057915326207876205,
            -0.12634342908859253,
            -0.026868384331464767,
            0.12687261402606964,
            0.06871853023767471,
            -0.16131271421909332,
            -0.08392104506492615,
            0.25783318281173706,
            0.14541973173618317,
            -0.008747241459786892,
            -0.15205620229244232,
            -0.010107561945915222,
            -0.06520094722509384,
            -0.13197243213653564,
            -0.10194861888885498,
            0.05844877287745476,
            0.017648009583353996,
            0.07610134035348892,
            -0.14987479150295258,
            -0.09578334540128708,
            -0.03709965944290161,
            -0.19412752985954285,
            0.0465618297457695,
            -0.042479388415813446,
            0.192167267203331,
            -0.1674824357032776,
            0.16760361194610596,
            0.10038276016712189,
            -0.20067179203033447,
            -0.12617923319339752,
            -0.21187950670719147,
            0.02016594633460045,
            -0.03080631233751774,
            -0.003477031597867608,
            -0.018838707357645035,
            -0.1586124449968338,
            0.1460968255996704,
            0.020358916372060776,
            0.01037258468568325,
            0.11071249097585678,
            -0.09527914971113205,
            0.11680872738361359,
            -0.111521877348423,
            0.03884855657815933,
            0.004581081215292215,
            -0.1014721468091011,
            -0.05737580358982086,
            -0.10702136904001236,
            -0.1058046966791153,
            -0.09937442094087601,
            0.10450246185064316,
            0.07117590308189392,
            -0.10106980055570602,
            -0.1832878738641739,
            -0.011497186496853828,
            -0.23801563680171967,
            -0.06128215044736862,
            0.07592087239027023,
            0.18384036421775818,
            -0.1128358542919159,
            -0.17574360966682434,
            0.03163686767220497,
            -0.24495507776737213,
            0.021992972120642662,
            0.0518689826130867,
            0.05130821466445923,
            0.06535984575748444,
            0.06467850506305695,
            -0.1805850714445114,
            0.10098488628864288,
            -0.06172911077737808,
            0.04778231307864189,
            -0.08399201184511185,
            0.1838972568511963,
            -0.027729587629437447,
            0.11601969599723816,
            -0.09335602074861526,
            0.1479039192199707,
            0.152680903673172,
            -0.02821285091340542,
            -0.08780787140130997,
            0.16353583335876465,
            0.08706504851579666,
            0.01900016888976097,
            0.0036391057074069977,
            0.0479818731546402,
            -0.1426970213651657,
            -0.10607575625181198,
            -0.115977942943573,
            -0.1477959305047989,
            0.00840283278375864,
            0.1742066591978073,
            -0.11676719784736633,
            0.06106119975447655,
            0.08429066091775894,
            -0.04944537207484245,
            0.002543338807299733,
            0.10193692892789841,
            -0.13654454052448273,
            -0.07094135880470276,
            -0.040756843984127045,
            0.10294481366872787,
            -0.016698971390724182,
            0.08930473029613495,
            0.030459536239504814,
            0.051446642726659775,
            0.010843093506991863,
            0.09583622217178345,
            0.003341211937367916,
            0.007578084710985422,
            0.2065836638212204,
            0.055368244647979736,
            0.1176229864358902,
            0.011651799082756042,
            -0.1728183478116989,
            0.0004666123422794044,
            0.03146045282483101,
            0.17198701202869415,
            -0.026606686413288116,
            0.09920787811279297,
            -0.07153107970952988,
            -0.05057346075773239,
            0.06980596482753754,
            -0.1502486616373062,
            -0.10986685007810593,
            0.07476811856031418,
            -0.0862647145986557,
            -0.025312839075922966,
            -0.057899270206689835,
            -0.05238000676035881,
            0.1809745579957962,
            -0.04735957831144333,
            -0.1354842483997345,
            -0.026337645947933197,
            0.02273518219590187,
            -0.1344229280948639,
            0.06277155131101608,
            0.06851359456777573,
            0.2153426706790924,
            -0.03275837004184723,
            0.015149099752306938,
            0.1391373723745346,
            -0.09901364147663116,
            -0.05994921550154686,
            0.13117706775665283,
            0.016805771738290787,
            0.099425308406353,
            -0.01738518849015236,
            0.07487897574901581,
            0.17824731767177582,
            -0.11635437607765198,
            0.057641226798295975,
            -0.022007398307323456,
            0.15741491317749023,
            0.14228878915309906,
            -0.09567322582006454,
            -0.033804915845394135,
            0.08442670851945877,
            -0.03991140052676201,
            -0.01811671257019043,
            -0.044519782066345215,
            -0.04858403652906418,
            0.018147598952054977,
            -0.19484922289848328,
            0.04042026773095131,
            -0.1101275235414505,
            -0.10965888947248459,
            0.11959472298622131,
            0.14536519348621368,
            -0.057680580765008926,
            -0.08480104058980942,
            0.10564172267913818,
            0.007760256994515657,
            -0.08206264674663544,
            0.0016119263600558043,
            -0.052479296922683716,
            0.13855603337287903,
            -0.19249916076660156,
            0.01621595025062561,
            0.01672702096402645,
            0.0424780510365963,
            0.17735549807548523,
            0.04860229790210724,
            -0.002379941288381815,
            -0.11600096523761749,
            0.16652341187000275,
            -0.10918810218572617,
            0.1166059672832489,
            -0.024598034098744392,
            0.04658270627260208,
            -0.093403659760952,
            -0.09751021862030029,
            -0.08919353783130646,
            -0.08551303297281265,
            0.010797981172800064,
            -0.027446230873465538,
            0.15114647150039673,
            -0.11817176640033722,
            0.07546079158782959,
            0.0017099371179938316,
            -0.0420725978910923,
            0.052248191088438034,
            0.07006212323904037,
            0.07682951539754868,
            -0.008481036871671677,
            0.05078332498669624,
            -0.050237540155649185,
            0.05634313449263573,
            0.08906087279319763,
            0.09363534301519394,
            -0.18026919662952423,
            -0.12784923613071442,
            -0.18416349589824677,
            0.02545137330889702,
            -0.009001128375530243,
            0.2019851803779602,
            0.12521904706954956,
            -0.07518274337053299,
            -0.14329886436462402,
            0.10203012079000473,
            0.026672041043639183,
            -0.06563936918973923,
            -0.036098357290029526,
            -0.09467511624097824,
            -0.10170353204011917,
            -0.07824964076280594,
            -0.05580996349453926,
            -0.0009136846638284624,
            -0.024236220866441727,
            0.06109511852264404,
            0.16911616921424866,
            -0.18007661402225494,
            0.022191746160387993,
            0.06984160840511322,
            0.14120642840862274,
            -0.062181152403354645,
            -0.015966031700372696,
            -0.0006938408478163183,
            0.01683451607823372,
            -0.0861164778470993,
            -0.0862906351685524,
            -0.1614210307598114,
            0.0842592790722847,
            -0.10209830850362778,
            0.04590004310011864,
            -0.1573895364999771,
            0.048794373869895935,
            0.02518356963992119,
            0.10776139795780182,
            0.11598065495491028,
            0.07659773528575897,
            -0.14462298154830933,
            -0.03556680679321289,
            0.05777676776051521,
            0.04705594852566719,
            -0.047510284930467606,
            -0.07432670146226883,
            0.030249042436480522,
            0.1886342316865921,
            0.08579393476247787,
            -0.0502152219414711,
            0.008830925449728966,
            0.08407284319400787,
            0.004409494809806347,
            -0.02836664766073227,
            0.033313311636447906,
            -0.04579230397939682,
            -0.016817422583699226,
            0.06446496397256851,
            0.14337916672229767,
            -0.0722331777215004,
            -0.0558076873421669,
            -0.032897140830755234,
            -0.038248755037784576,
            -0.20427727699279785,
            0.027575641870498657,
            0.01187355350703001,
            -0.0681382268667221,
            0.09132526814937592,
            -0.05881695821881294,
            -0.14407755434513092,
            0.07978317886590958,
            -0.010911348275840282,
            -0.1767486035823822,
            0.04550136253237724,
            0.10635077953338623,
            -0.04969608038663864,
            -0.07494250684976578,
            0.08088535070419312,
            -0.00010787017527036369,
            -0.020466215908527374,
            0.08554931730031967,
            -0.15825122594833374,
            -0.07563680410385132,
            0.0253748781979084,
            0.04977070912718773,
            0.14722149074077606,
            0.04805212467908859,
            0.0780586302280426,
            -0.0426766611635685,
            0.06400350481271744,
            0.14749790728092194,
            -0.09076907485723495,
            0.05373714491724968,
            -0.12165495753288269,
            0.02847336232662201,
            0.09242969006299973,
            -0.06928016245365143,
            -0.06403826177120209,
            -0.1380448043346405,
            0.06980865448713303,
            0.01366068422794342,
            0.0824655219912529,
            0.09499051421880722,
            -0.0654134750366211,
            -0.06758550554513931,
            -0.04052907973527908,
            0.08630307763814926,
            -0.06928256154060364,
            -0.013889187946915627,
            -0.10717418789863586,
            0.07557525485754013,
            0.04287947714328766,
            -0.1834840625524521,
            -0.08526807278394699,
            0.0482904314994812,
            0.20351392030715942,
            -0.05659521743655205,
            -0.085299052298069,
            -0.059486277401447296,
            -0.013649987988173962,
            -0.07665389776229858,
            0.057021744549274445,
            -0.08448377251625061,
            0.2140217423439026,
            0.14587761461734772,
            -0.005028287880122662,
            0.1826402246952057,
            0.16465988755226135,
            -0.044765450060367584,
            0.006418768782168627,
            0.11677120625972748,
            -0.11620531231164932,
            -0.1684090942144394,
            -0.03824346140027046,
            0.06781899183988571,
            0.04120488837361336,
            0.09535043686628342,
            -0.06331893056631088,
            0.005697231274098158,
            -0.09518108516931534,
            0.0915285125374794,
            0.062053579837083817,
            -0.03271479159593582,
            0.18550141155719757,
            -0.05391373857855797,
            0.0840071365237236,
            -0.038545865565538406,
            0.12422555685043335,
            0.11931020021438599,
            0.05029048025608063,
            0.03101128526031971,
            -0.052638884633779526,
            -0.08078097552061081,
            0.06216146796941757,
            0.01905771531164646,
            -0.0550500713288784,
            -0.1174418032169342,
            -0.011241868138313293,
            0.18559813499450684,
            -0.0007446187664754689,
            -0.11118309199810028,
            0.023293351754546165,
            0.043841272592544556,
            0.17758511006832123,
            0.13700346648693085,
            0.010949146002531052,
            -0.12122125178575516,
            -0.13891106843948364,
            0.127716526389122,
            -0.01778797060251236,
            0.08661845326423645,
            0.07190878689289093,
            0.015817686915397644,
            0.1055995523929596,
            -0.0983159989118576,
            0.07180164754390717,
            0.13190989196300507,
            -0.06629777699708939,
            -0.1112760379910469,
            -0.17893414199352264,
            -0.07229629904031754,
            -0.15429449081420898,
            -0.10044734179973602,
            -0.04054892063140869,
            0.0031028655357658863,
            0.14721797406673431,
            -0.13106806576251984,
            -0.1636013239622116,
            0.1012410968542099,
            0.11279752105474472,
            -0.09313199669122696,
            -0.16029417514801025,
            -0.010276258923113346,
            -0.06752661615610123,
            -0.029238928109407425,
            0.11606893688440323,
            0.11189226806163788,
            -0.0751221776008606,
            0.11116009950637817,
            -0.0353219099342823,
            0.13272400200366974,
            0.11643388867378235,
            0.1717623621225357,
            0.066297248005867,
            0.018923070281744003,
            0.039585039019584656,
            0.19744445383548737,
            0.0007800901075825095,
            -0.08055681735277176,
            0.14035427570343018,
            -0.1175418421626091,
            0.06097596138715744,
            -0.13591766357421875,
            -0.03238470107316971,
            0.08544189482927322,
            0.06053005903959274,
            0.07625255733728409,
            0.14574158191680908,
            0.10736167430877686,
            -0.024600839242339134,
            -0.03317316249012947,
            -0.10007823258638382,
            0.003492294577881694,
            0.06727239489555359,
            0.03615235537290573,
            -0.1268581748008728,
            0.004534250590950251,
            -0.0005471375770866871,
            -0.156306192278862,
            0.11400020122528076,
            -0.12386404722929001,
            -0.023477524518966675,
            0.018178671598434448,
            0.1267007738351822,
            -0.03628809005022049,
            0.01136337872594595,
            -0.038715679198503494,
            -0.18811874091625214,
            0.046305350959300995,
            0.033156897872686386,
            0.06702723354101181,
            0.014889959245920181,
            -0.03307993710041046,
            -0.2048313468694687,
            -0.02256835624575615,
            0.09120583534240723,
            0.06784796714782715,
            -0.14640791714191437,
            -0.10520198941230774,
            -0.10346973687410355,
            0.18270979821681976,
            -0.03687300533056259,
            0.0436609648168087,
            -0.03191649913787842,
            0.10122252255678177,
            -0.12047002464532852,
            0.0801587775349617,
            -0.018314065411686897,
            -0.12902046740055084,
            -0.06025642901659012,
            0.02715548686683178,
            0.02725129947066307,
            -0.18558818101882935,
            -0.04882586747407913,
            -0.033407311886548996,
            -0.013801435939967632,
            0.04097023606300354,
            0.051705338060855865,
            -0.06937538087368011,
            0.07377728074789047,
            -0.06682216376066208,
            0.024772658944129944,
            0.02426312118768692,
            0.012578210793435574,
            0.0011389246210455894,
            -0.0830155611038208,
            0.14157749712467194,
            0.09629920870065689,
            0.15170271694660187,
            -0.10685709863901138,
            0.05734589323401451,
            -0.03648064658045769,
            -0.048515334725379944,
            -0.05894574150443077,
            -0.12662814557552338,
            0.21124421060085297,
            -0.13514554500579834,
            0.07853122055530548,
            0.0672522485256195,
            -0.18819159269332886,
            -0.024147633463144302,
            0.08983492106199265,
            -0.06869781017303467,
            -0.0748797357082367,
            -0.07039374113082886,
            0.03537433221936226,
            0.09503543376922607,
            -0.1426275372505188,
            0.02280825562775135,
            -0.03133838251233101,
            -0.11349520832300186,
            -0.20805731415748596,
            -0.005683219991624355,
            -0.030225606635212898,
            0.007333193439990282,
            0.04168664664030075,
            0.03215144947171211,
            0.001518560224212706,
            0.1917014867067337,
            0.05481935292482376,
            0.05697011947631836,
            -0.17344112694263458,
            -0.06000077351927757,
            0.15867216885089874,
            0.06704100221395493,
            0.08750560879707336,
            0.022860804572701454,
            0.17024441063404083,
            0.1320580244064331,
            0.032420236617326736,
            -0.13091088831424713,
            0.18006722629070282,
            0.05419788882136345,
            -0.183978870511055,
            -0.1020360141992569,
            -0.0501863919198513,
            -0.006854129955172539,
            0.030521884560585022,
            -0.0767507329583168,
            -0.08622878044843674,
            0.015248806215822697,
            0.11025205254554749,
            -0.06962978839874268,
            -0.10436549037694931,
            0.06888971477746964,
            -0.018935754895210266,
            -0.133956179022789,
            -0.08118744194507599,
            -0.09852703660726547,
            0.16049516201019287,
            -0.01952388323843479,
            -0.1228041797876358,
            0.09993112832307816,
            0.0624888576567173,
            0.058258865028619766,
            -0.00948686059564352,
            0.11737384647130966,
            0.06632564216852188,
            0.08634339272975922,
            -0.16222894191741943,
            -0.12560071051120758,
            0.19321301579475403,
            -0.04540352523326874,
            -0.1676645427942276,
            0.0436876155436039,
            -0.0916430726647377,
            -0.12947644293308258,
            0.019454695284366608,
            0.09372774511575699,
            0.0729096457362175,
            -0.06573079526424408,
            0.02546246349811554,
            -0.17815327644348145,
            -0.21382741630077362,
            -0.13915762305259705,
            0.006758609786629677,
            0.000582540116738528,
            0.07978636026382446,
            0.013484871946275234,
            0.035278160125017166,
            0.11168325692415237,
            0.049499232321977615,
            -0.00766825582832098,
            -0.07646089047193527,
            0.037515539675951004,
            -0.04634271562099457,
            -0.020687352865934372,
            -0.17670290172100067,
            0.03448469936847687,
            -0.07990594953298569,
            0.16790838539600372,
            0.016533229500055313,
            0.09863980859518051,
            0.09892868995666504,
            0.04479510337114334,
            0.02872352860867977,
            -0.014710282906889915,
            0.06655217707157135,
            0.020939968526363373,
            0.0818474218249321,
            0.16994036734104156,
            0.010563177056610584,
            -0.014202745631337166,
            0.1301031857728958,
            -0.03366609290242195,
            0.03888111561536789,
            -0.056978050619363785,
            0.01699524186551571,
            0.1663951426744461,
            -0.1143922358751297,
            -0.2069912850856781,
            -0.15732242166996002,
            -0.207758828997612,
            0.040282800793647766,
            -0.05146630108356476,
            0.04972005635499954,
            -0.058212023228406906,
            0.0130195626989007,
            0.18873906135559082,
            -0.09841851145029068,
            0.050529927015304565,
            -0.019696498289704323,
            0.04783816263079643,
            0.09864340722560883,
            0.17795144021511078,
            -0.08430162072181702,
            -0.008941776119172573,
            -0.0081663578748703,
            0.048914048820734024,
            -0.020211754366755486,
            -0.1645432859659195,
            0.044079795479774475,
            -0.008114607073366642,
            -0.16844338178634644,
            -0.031411636620759964,
            0.01297286618500948,
            -0.01577591523528099,
            -0.04485716670751572,
            -0.06913023442029953,
            -0.03163022920489311,
            -0.054657258093357086,
            0.14647093415260315,
            -0.0818590298295021,
            0.10996820032596588,
            -0.09419461339712143,
            -0.06517652422189713,
            0.013419403694570065,
            0.17830145359039307,
            0.008037467487156391,
            0.008919213898479939,
            0.041866641491651535,
            -0.0654720887541771,
            0.006380029954016209,
            -0.1653209775686264,
            0.030644195154309273,
            -0.0069678970612585545,
            -0.06333420425653458,
            -0.07239854335784912,
            0.036378346383571625,
            0.1491071730852127,
            0.07126891613006592,
            -0.024176103994250298,
            -0.0770978033542633,
            0.03834638372063637,
            0.08412803709506989,
            -0.007830447517335415,
            -0.11026065051555634,
            -0.13858503103256226,
            0.13202440738677979,
            -0.006289750803261995,
            0.024897927418351173,
            -0.04984401911497116,
            0.050780657678842545,
            -0.12003926187753677,
            0.04518873989582062,
            0.07782605290412903,
            0.16396601498126984,
            -0.05784712731838226,
            0.215166836977005,
            -0.05853999778628349,
            -0.03708675131201744,
            0.15844523906707764,
            -0.037037696689367294,
            -0.17379562556743622,
            -0.025432653725147247,
            -0.1312606781721115,
            -0.08582692593336105,
            -0.061977338045835495,
            -0.1673041731119156,
            0.120787113904953,
            0.01857800781726837,
            -0.11809127032756805,
            0.09160160273313522,
            0.01512057799845934,
            0.17356061935424805,
            -0.014619818888604641,
            0.09435885399580002,
            0.09359034895896912,
            0.05380180850625038,
            0.08730186522006989,
            -0.1129022017121315,
            0.006312667857855558,
            -0.03934450447559357,
            -0.01458798162639141,
            -0.07578307390213013,
            0.08391743153333664,
            0.20570538938045502,
            -0.12115243077278137,
            -0.021188650280237198,
            -0.03945741429924965,
            0.06971748918294907,
            0.07027368992567062,
            0.086301289498806,
            0.018759669736027718,
            -0.016743546351790428,
            0.08913181722164154,
            0.014159990474581718,
            0.15992023050785065,
            -0.15647795796394348,
            0.08148932456970215,
            0.14442412555217743,
            -0.04388204962015152,
            0.12360741198062897,
            0.06530840694904327,
            -0.14766772091388702,
            0.017206067219376564,
            0.01670418307185173,
            0.15609921514987946,
            -0.0446559377014637,
            -0.09041983634233475,
            -0.18486961722373962,
            -0.059969011694192886,
            -0.13029922544956207,
            0.030502673238515854,
            0.13119778037071228,
            -0.07638467103242874,
            0.005028168670833111,
            -0.08435965329408646,
            0.04240040108561516,
            -0.01199322659522295,
            -0.004966875538229942,
            -0.03850751742720604,
            0.045436978340148926,
            0.06864902377128601,
            -0.1334199756383896,
            0.20578575134277344,
            0.01818658784031868,
            -0.05383363738656044,
            -0.13997428119182587,
            -0.000622025690972805,
            0.021187251433730125,
            -0.1361406147480011,
            0.102857805788517,
            0.007703845389187336,
            0.10410188138484955,
            -0.1223333552479744,
            0.1965199112892151,
            -0.008553748019039631,
            0.033076219260692596,
            -0.1220274567604065,
            0.12577754259109497,
            -0.09679611027240753,
            -0.09665584564208984,
            0.05653731897473335,
            0.17854855954647064,
            -0.14856164157390594,
            -0.08541961759328842,
            0.06175968050956726,
            0.0024604795034974813,
            0.03318750485777855,
            -0.11753122508525848,
            -0.12332931160926819,
            0.10152941942214966,
            -0.08050690591335297,
            -0.12922178208827972,
            -0.022036585956811905,
            0.012814552523195744,
            -0.0768609493970871,
            -0.017990978434681892,
            -0.14911521971225739,
            -0.037674680352211,
            0.009056699462234974,
            0.1422489434480667,
            0.05497942864894867,
            -0.004827541299164295,
            0.0087735615670681,
            0.1021176129579544,
            -0.083572156727314,
            0.049256883561611176,
            0.06879780441522598,
            0.21279965341091156,
            -0.009501628577709198,
            0.022959692403674126,
            0.029175151139497757,
            0.13459435105323792,
            -0.012818049639463425,
            0.0034089081455022097,
            -0.10478084534406662,
            -0.07111315429210663,
            -0.08037175238132477,
            0.025283658877015114,
            0.14216811954975128,
            0.014860899187624454,
            -0.08570273220539093,
            0.0463830791413784,
            0.13962841033935547,
            -0.011387588456273079,
            -0.10663045197725296,
            -0.03637911379337311,
            -0.17247703671455383,
            0.15983523428440094,
            -0.026342876255512238,
            -0.08977047353982925,
            -0.03791718930006027,
            -0.03289904072880745,
            -0.1784895658493042,
            0.06989529728889465,
            0.05892161279916763,
            0.011394921690225601,
            0.021304557099938393,
            0.1480768918991089,
            0.16964657604694366,
            0.14556533098220825,
            -0.1510290801525116,
            0.1854870766401291,
            0.025110507383942604,
            -0.1099170595407486,
            0.02903725393116474,
            0.070179782807827,
            0.1771780401468277,
            0.03980802372097969,
            -0.19408197700977325,
            -0.04970767721533775,
            -0.18700377643108368,
            -0.16097721457481384,
            0.004221959039568901,
            0.10407352447509766,
            0.08815969526767731,
            -0.09871980547904968,
            0.08303182572126389,
            0.025058520957827568,
            0.10092207044363022,
            -0.0790616050362587,
            -0.014734691008925438,
            -0.09262174367904663,
            -0.08344622701406479,
            -0.026189208030700684,
            -0.03447621688246727,
            -0.06676162779331207,
            0.0870470479130745,
            -0.015320860780775547,
            -0.07181181013584137,
            0.0798635333776474,
            0.03942731395363808,
            0.14365273714065552,
            0.05594770237803459,
            0.07107259333133698,
            0.15508385002613068,
            -0.040786806493997574,
            0.010321756824851036,
            0.060749251395463943,
            0.08176993578672409,
            0.013996830210089684,
            0.03722237050533295,
            0.09197074174880981,
            0.1308625489473343,
            0.008825186640024185,
            0.022918354719877243,
            0.12294367700815201,
            -0.0018908100901171565,
            0.17532414197921753,
            0.12827225029468536,
            -0.12705209851264954,
            0.08016791939735413,
            -0.17237958312034607,
            -0.09098358452320099,
            0.05652214586734772,
            -0.08136089146137238,
            -0.029820596799254417,
            0.10170850902795792,
            -0.13837943971157074,
            -0.09714635461568832,
            -0.002343930071219802,
            0.03854997456073761,
            0.09113340824842453,
            0.20229944586753845,
            -0.01697675883769989,
            -0.17538684606552124,
            0.09397058933973312,
            -0.07253173738718033,
            0.03808357194066048,
            0.04204833135008812,
            0.06809227168560028,
            -0.1363130360841751,
            -0.006501853000372648,
            0.02897973544895649,
            -0.16192124783992767,
            0.15882080793380737,
            -0.027072900906205177,
            -0.02536335401237011,
            -0.0755365863442421,
            -0.14744873344898224,
            0.20337897539138794,
            0.005312600638717413,
            0.019981561228632927,
            0.10711076855659485,
            -0.02097438834607601,
            -0.18861468136310577,
            -0.18255378305912018,
            -0.024078773334622383,
            -0.03520863503217697,
            0.01741723343729973,
            -0.06898435205221176,
            0.0037303995341062546,
            -0.023547926917672157,
            -0.1965797394514084,
            -0.11668660491704941,
            0.08673010021448135,
            0.08763477206230164,
            -0.06889631599187851,
            0.04238555207848549,
            -0.09877319633960724,
            0.03598072752356529,
            -0.061359427869319916,
            -0.0644005611538887,
            0.17134161293506622,
            -0.12529662251472473,
            -0.029470255598425865,
            -0.0591718852519989,
            0.037701237946748734,
            0.16330809891223907,
            0.02759905532002449,
            -0.08204441517591476,
            -0.12826523184776306,
            0.057692110538482666,
            0.017622141167521477,
            0.027393680065870285,
            0.049020491540431976,
            -0.07142867892980576,
            -0.01797490008175373,
            -0.033053889870643616,
            0.010656178928911686,
            -0.04491657763719559,
            -0.1454647183418274,
            -0.1703057438135147,
            0.09930655360221863,
            -0.05267055332660675,
            0.057766351848840714,
            0.015225468203425407,
            0.10402508080005646,
            0.004882671404629946,
            0.039015863090753555,
            -0.0050575509667396545,
            -0.09102220088243484,
            0.05129197984933853,
            0.05083528161048889,
            0.0026296181604266167,
            -0.00777141097933054,
            -0.10690782219171524,
            -0.024705668911337852,
            -0.051873527467250824,
            0.05417092889547348,
            -0.07412382960319519,
            -0.01690622977912426,
            0.08941493928432465,
            -0.17481866478919983,
            -0.037784915417432785,
            0.015934646129608154,
            0.13959431648254395,
            0.009506001137197018,
            -0.04109543561935425,
            -0.07026524096727371,
            -0.0359116792678833,
            -0.04410972446203232,
            0.04245889559388161,
            -0.0025808776263147593,
            0.119253009557724,
            -0.04346994683146477,
            -0.028456036001443863,
            0.02243284322321415,
            -0.023862911388278008,
            -0.14279034733772278,
            -0.1354021430015564,
            0.02355412021279335,
            0.0521472804248333,
            0.11972351372241974,
            0.1006447896361351,
            0.03814354166388512,
            -0.027433354407548904,
            0.16959241032600403,
            0.1206936165690422,
            -0.19649550318717957,
            0.0054743424989283085,
            0.012097426690161228,
            -0.08538427948951721,
            -0.07533556967973709,
            0.0038672129157930613,
            0.13695074617862701,
            0.0913105309009552,
            0.15196189284324646,
            0.027121419087052345,
            -0.09372218698263168,
            0.02391997165977955,
            0.07487927377223969,
            -0.07406861335039139,
            0.12890969216823578,
            0.128634974360466,
            0.09388279169797897,
            -0.07856936752796173,
            0.052924707531929016,
            -0.0642905980348587,
            0.16456185281276703,
            -0.14458122849464417,
            -0.07591810822486877,
            0.18028385937213898,
            -0.034987110644578934,
            -0.08888581395149231,
            -0.07707143574953079,
            0.07959058880805969,
            0.0279201939702034,
            0.06093847006559372,
            0.023369036614894867,
            -0.005707204341888428,
            0.04346604272723198,
            0.021970605477690697,
            0.00612499937415123,
            -0.046221159398555756,
            0.10439448058605194,
            0.04310371354222298,
            -0.06720887869596481,
            0.013558990322053432,
            0.022454047575592995,
            -0.08017972111701965,
            -0.07316526770591736,
            -0.09549764543771744,
            -0.023171603679656982,
            -0.0077101620845496655,
            -0.1455908566713333,
            -0.03930485621094704,
            -0.029577292501926422,
            -0.18010276556015015,
            -0.09632361680269241,
            0.10693918168544769,
            -0.13467222452163696,
            0.047472111880779266,
            0.032252028584480286,
            0.011882894672453403,
            -0.1054079532623291,
            -0.00824716966599226,
            0.1205311119556427,
            0.06222067028284073,
            0.13190078735351562,
            0.036639098078012466,
            0.026173170655965805,
            0.17350076138973236,
            0.000026995396183338016,
            0.1274009495973587,
            0.027396591380238533,
            -0.06334567815065384,
            0.11349247395992279,
            -0.036028411239385605,
            0.0983138233423233,
            0.027672450989484787,
            0.05798263102769852,
            0.11210814863443375,
            0.09615274518728256,
            -0.06811001151800156,
            -0.008649304509162903,
            -0.05515214428305626,
            0.021202046424150467,
            0.0018420377746224403,
            -0.08738026767969131,
            -0.14683344960212708,
            0.1473855972290039,
            0.12272731959819794,
            0.0862235277891159,
            -0.14818614721298218,
            -0.11099190264940262,
            0.06322178244590759,
            0.034950241446495056,
            -0.08068545162677765,
            0.0008487845188938081,
            0.07329785078763962,
            -0.03666893020272255,
            0.05833381414413452,
            0.002611413598060608,
            -0.0545613057911396,
            0.04983190447092056,
            0.17072075605392456,
            -0.15351060032844543,
            -0.1858125627040863,
            0.12276290357112885,
            -0.18810105323791504,
            -0.047467708587646484,
            -0.08994504064321518,
            -0.015814678743481636,
            -0.007041896227747202,
            -0.18237458169460297,
            -0.050005558878183365,
            -0.03415428847074509,
            0.14589282870292664,
            0.025162961333990097,
            0.21456009149551392,
            -0.10583257675170898,
            0.0648047924041748,
            -0.00878429226577282,
            -0.02455606870353222,
            -0.10093068331480026,
            0.04202013090252876,
            0.068977490067482,
            0.04646329581737518,
            -0.06513934582471848,
            -0.20387451350688934,
            -0.01663241907954216,
            -0.019358908757567406,
            0.041751425713300705,
            0.1383419930934906,
            0.11710301786661148,
            0.11299305409193039,
            -0.025199560448527336,
            -0.07576433569192886,
            0.10348786413669586,
            0.03186393901705742,
            0.13539595901966095,
            0.04473835602402687,
            0.1949586570262909,
            -0.08696071058511734,
            -0.053638726472854614,
            -0.07195109128952026,
            -0.04057040065526962,
            -0.05463234335184097,
            0.12756949663162231,
            0.02089579589664936,
            0.12982599437236786,
            -0.13527412712574005,
            -0.14556169509887695,
            -0.06668592989444733,
            0.04890014976263046,
            0.13948091864585876,
            -0.01762707345187664,
            0.11533401906490326,
            0.02623877488076687,
            -0.034447696059942245,
            0.08003391325473785,
            0.14609447121620178,
            0.04818037524819374,
            -0.08759983628988266,
            -0.06805294752120972,
            0.004127069842070341,
            -0.023390688002109528,
            -0.003739989595487714,
            -0.027832861989736557,
            0.07418926805257797,
            0.01576417125761509,
            0.063238225877285,
            0.1592143476009369,
            0.11753665655851364,
            -0.16013123095035553,
            -0.09098727256059647,
            0.030899927020072937,
            -0.11085186153650284,
            -0.027896620333194733,
            -0.12603408098220825,
            0.09822958707809448,
            0.03449651598930359,
            -0.07459039241075516,
            0.15560957789421082,
            -0.0045608049258589745,
            0.025055138394236565,
            -0.05641922354698181,
            -0.06446807831525803,
            -0.18877576291561127,
            0.021821003407239914,
            0.001717044971883297,
            -0.00997913908213377,
            0.03155139088630676,
            -0.02567584440112114,
            -0.08255849033594131,
            -0.12373393774032593,
            -0.10224955528974533,
            -0.050057586282491684,
            -0.18401455879211426,
            -0.08396051079034805,
            -0.19980402290821075,
            0.07898533344268799,
            -0.15473882853984833,
            -0.06984703987836838,
            0.07084282487630844,
            -0.15226729214191437,
            0.18541163206100464,
            0.13278581202030182,
            0.04268534481525421,
            -0.1312260925769806,
            0.07393308728933334,
            -0.0018930259393528104,
            0.027031386271119118,
            0.10206291824579239,
            0.009197109378874302,
            -0.008255017921328545,
            -0.03270025551319122,
            -0.03774155676364899,
            0.09296873211860657,
            0.10680261999368668,
            0.040979012846946716,
            -0.12478115409612656,
            -0.10099924355745316,
            -0.09189099073410034,
            -0.023903558030724525,
            -0.013628792949020863,
            -0.006056330166757107,
            -0.03400947153568268,
            -0.08121266216039658,
            -0.031414780765771866,
            -0.18234281241893768,
            -0.019871952012181282,
            0.014695060439407825,
            0.05672764033079147,
            -0.09075968712568283,
            -0.10994827747344971,
            -0.12794819474220276,
            -0.0449250191450119,
            -0.11240820586681366,
            0.03401905298233032,
            -0.14547201991081238,
            0.06871427595615387,
            -0.051508545875549316,
            -0.05768357962369919,
            0.121152363717556,
            -0.010569357313215733,
            0.10781660676002502,
            -0.07034765183925629,
            -0.0068618906661868095,
            -0.17388886213302612,
            0.0927194133400917,
            -0.06806761026382446,
            0.09680148214101791,
            -0.19415846467018127,
            -0.12099968641996384,
            0.1476089507341385,
            -0.13814224302768707,
            0.058432064950466156,
            0.0009981895564123988,
            0.0006188733968883753,
            -0.032544609159231186,
            0.16108666360378265,
            -0.0921267569065094,
            -0.08732843399047852,
            0.07377578318119049,
            0.04144879803061485,
            0.13495193421840668,
            0.16191382706165314,
            -0.044636040925979614,
            -0.052771665155887604,
            0.06627608835697174,
            -0.10042873024940491,
            -0.04934999346733093,
            0.07906471937894821,
            0.09349900484085083,
            -0.14831531047821045,
            0.01141898613423109,
            0.07832951843738556,
            0.0047258976846933365,
            0.14157064259052277,
            0.0640052855014801,
            0.00823812372982502,
            -0.002962840721011162,
            0.047032494097948074,
            0.1029810681939125,
            -0.06972050666809082,
            -0.12683063745498657,
            0.1474217027425766,
            -0.09020401537418365,
            -0.038411207497119904,
            0.12763090431690216,
            0.028771013021469116,
            -0.11283305287361145,
            -0.008321204222738743,
            -0.2087959498167038,
            -0.035341646522283554,
            0.020935429260134697,
            0.033388711512088776,
            0.14461347460746765,
            0.006397389341145754,
            0.009166399948298931,
            -0.03400378301739693,
            -0.04849206283688545,
            0.025599950924515724,
            0.03376097232103348,
            -0.018295815214514732,
            -0.15131370723247528,
            -0.05839516967535019,
            -0.007520631887018681,
            -0.021551726385951042,
            0.1644517183303833,
            -0.031034475192427635,
            0.08879762887954712,
            0.0046682292595505714,
            0.18910203874111176,
            -0.13748039305210114,
            -0.11125606298446655,
            -0.13918615877628326,
            0.1298643946647644,
            0.0082297557964921,
            0.024521684274077415,
            0.18901903927326202,
            -0.16557908058166504,
            -0.1422589272260666,
            -0.03165092691779137,
            -0.0064980159513652325,
            -0.013813072815537453,
            -0.0025885971263051033,
            -0.13191531598567963,
            -0.07448525726795197,
            -0.024829786270856857,
            -0.007626126054674387,
            0.1058354601264,
            -0.12080997973680496,
            -0.1353255808353424,
            -0.10377926379442215,
            0.0121300695464015,
            -0.0894419476389885,
            0.07791625708341599,
            0.09526259452104568,
            0.1616133153438568,
            -0.1208004429936409,
            0.02178094908595085,
            -0.13334818184375763,
            -0.14215590059757233,
            -0.09687976539134979,
            0.09297186136245728,
            -0.03672945499420166,
            0.02808425948023796,
            -0.16733209788799286,
            0.06287694722414017,
            -0.1345614194869995,
            0.13188335299491882,
            -0.015826798975467682,
            0.08728214353322983,
            0.07064806669950485,
            0.09065639972686768,
            -0.03671896457672119,
            -0.15021072328090668,
            -0.12345515191555023,
            0.05337730795145035,
            0.024310288950800896,
            0.056731946766376495,
            -0.08412156254053116,
            0.027846315875649452,
            -0.0349980928003788,
            0.08763096481561661,
            -0.11125680059194565,
            -0.2010892927646637,
            0.03709879890084267,
            0.18961629271507263,
            0.0897115170955658,
            0.06147109344601631,
            0.03747035935521126,
            -0.13734441995620728,
            0.0080182496458292,
            -0.07346028089523315,
            0.047247715294361115,
            -0.1293327510356903,
            -0.018612151965498924,
            0.07038461416959763,
            0.1711449921131134,
            -0.11096619814634323,
            -0.11822028458118439,
            0.15050268173217773,
            0.038992740213871,
            -0.057722192257642746,
            -0.0484696589410305,
            -0.06587009131908417,
            0.019140178337693214,
            -0.06368866562843323,
            0.06516338884830475,
            -0.007766923867166042,
            -0.028078095987439156,
            0.009998071938753128,
            0.039069607853889465,
            -0.03539975732564926,
            -0.1768018901348114,
            -0.039796993136405945,
            -0.1252719759941101,
            -0.06035056710243225,
            -0.0745546743273735,
            0.16206294298171997,
            -0.02336619794368744,
            0.17848239839076996,
            0.0922822654247284,
            0.036079712212085724,
            -0.09268638491630554,
            0.021837076172232628,
            -0.04415271803736687,
            -0.09258187562227249,
            0.07341329008340836,
            0.04978564381599426,
            -0.1094953864812851,
            0.08079396188259125,
            0.022315025329589844,
            0.026813287287950516,
            0.04325354844331741,
            0.03199423849582672,
            0.1444416344165802,
            -0.05309227854013443,
            0.12419836968183517,
            -0.060073371976614,
            -0.08168733865022659,
            -0.0467236153781414,
            -0.07151803374290466,
            -0.19028985500335693,
            0.03712628409266472,
            -0.10714543610811234,
            -0.022279715165495872,
            -0.08334515243768692,
            0.01788223534822464,
            0.051010701805353165,
            0.07653233408927917,
            0.04102347418665886,
            0.20937851071357727,
            -0.05415625870227814,
            0.11515630036592484,
            0.027233680710196495,
            -0.11526155471801758,
            0.11197169125080109,
            0.1116657629609108,
            -0.07969475537538528,
            -0.07675235718488693,
            -0.0471101738512516,
            0.20269805192947388,
            0.08588510006666183,
            0.14537158608436584,
            0.10297860205173492,
            -0.1527833789587021,
