{
  "timestamp": "2026-02-02T05:49:36.665Z",
  "episode": 20,
  "valSharpe": -20.799512916776777,
  "valPnL": -56.127362354739724,
  "valWinRate": 33.33333333333333,
  "valTrades": 36,
  "config": {
    "trainSplit": 0.8,
    "monthsOfData": 6,
    "episodes": 300,
    "episodeLength": 800,
    "trainFrequency": 4,
    "batchSize": 64,
    "bufferSize": 50000,
    "dqn": {
      "inputSize": 104,
      "hiddenLayers": [
        128,
        64,
        32
      ],
      "outputSize": 4,
      "learningRate": 0.0005,
      "gamma": 0.95,
      "tau": 0.01,
      "epsilonStart": 1,
      "epsilonEnd": 0.05,
      "epsilonDecay": 0.995,
      "dropout": 0.2,
      "l2Regularization": 0.005,
      "useBatchNorm": true,
      "gradientClipNorm": 0.5,
      "useHuberLoss": true,
      "huberDelta": 1,
      "actionBias": true,
      "actionBiasDecay": 0.998
    },
    "env": {
      "initialCapital": 10000,
      "positionSize": 0.1,
      "spread": 0.0001,
      "commission": 0.0004,
      "slippage": 0.0005,
      "lookbackPeriod": 60,
      "maxDrawdownLimit": 0.15,
      "stopLossPercent": 0.02,
      "takeProfitPercent": 0.04
    },
    "reward": {
      "pnlWeight": 0.6,
      "sharpeWeight": 0.2,
      "drawdownWeight": 0.1,
      "ictAlignmentWeight": 0.1,
      "useDenseReward": true,
      "unrealizedPnLWeight": 0.3,
      "holdingCostPerBar": 0.001,
      "inactivityPenalty": 0.003,
      "inactivityThreshold": 8
    },
    "logInterval": 10,
    "evalInterval": 20,
    "diagnosticsInterval": 50
  },
  "weights": {
    "weights": [
      {
        "shape": [
          104,
          128
        ],
        "data": [
          0.042526934295892715,
          -0.10896525532007217,
          -0.01338249072432518,
          -0.2834285795688629,
          0.052341993898153305,
          0.026430387049913406,
          0.08734512329101562,
          -0.0009260917431674898,
          0.14512526988983154,
          -0.00464774202555418,
          0.028437413275241852,
          0.14614132046699524,
          0.02744634822010994,
          0.23213405907154083,
          -0.019506169483065605,
          -0.006991368252784014,
          -0.22591865062713623,
          -0.28825291991233826,
          -0.24747686088085175,
          -0.12420593947172165,
          -0.07179217040538788,
          -0.0002920530387200415,
          -0.09161220490932465,
          -0.2722312808036804,
          -0.004798085894435644,
          0.012556634843349457,
          0.26743513345718384,
          0.12906113266944885,
          0.06763234734535217,
          0.12934117019176483,
          0.02055756188929081,
          0.12465370446443558,
          -0.02311301790177822,
          0.007671736646443605,
          0.1181129589676857,
          -0.03223145008087158,
          0.039894554764032364,
          -0.16381500661373138,
          -0.09832073003053665,
          -0.13790693879127502,
          -0.10245569795370102,
          -0.012391122989356518,
          0.0728221982717514,
          -0.01984778232872486,
          0.1460379660129547,
          -0.03769246116280556,
          0.33438020944595337,
          -0.04412157088518143,
          0.05287494510412216,
          -0.09230224043130875,
          -0.16528931260108948,
          -0.10866166651248932,
          0.07990184426307678,
          -0.07538242638111115,
          0.2783685624599457,
          0.22371135652065277,
          -0.0036952628288418055,
          -0.1038302630186081,
          0.059652313590049744,
          -0.14392229914665222,
          0.1684456765651703,
          -0.1704561561346054,
          0.08088098466396332,
          -0.15306851267814636,
          0.08408042043447495,
          -0.0057109035551548,
          -0.09074785560369492,
          0.18798862397670746,
          -0.036455731838941574,
          0.016805479303002357,
          -0.034406520426273346,
          0.0672663152217865,
          -0.04574336111545563,
          0.053157612681388855,
          0.06372173130512238,
          0.002898335922509432,
          0.10179272294044495,
          -0.028860745951533318,
          -0.13179326057434082,
          0.05476393550634384,
          -0.048614464700222015,
          0.09862098097801208,
          -0.12677857279777527,
          0.11636854708194733,
          0.13704468309879303,
          -0.15846239030361176,
          -0.20732438564300537,
          -0.051832977682352066,
          -0.015702659264206886,
          0.11232750117778778,
          -0.08941233158111572,
          -0.04008318483829498,
          0.05114630609750748,
          -0.02629268914461136,
          0.2211664915084839,
          0.10997524112462997,
          0.009423828683793545,
          0.03646043688058853,
          0.14970090985298157,
          -0.11435962468385696,
          0.14682048559188843,
          0.0922725573182106,
          0.022583385929465294,
          0.1002834141254425,
          -0.026784073561429977,
          -0.0029895748011767864,
          0.1101422980427742,
          0.09346562623977661,
          0.028357235714793205,
          -0.14925149083137512,
          0.03696063905954361,
          0.09507370740175247,
          0.03760765492916107,
          0.18995755910873413,
          -0.10581190884113312,
          0.06778057664632797,
          0.011212361045181751,
          0.13314734399318695,
          0.039363838732242584,
          0.09040936827659607,
          0.028145672753453255,
          0.06464111059904099,
          -0.07448289543390274,
          0.021554484963417053,
          -0.11530764400959015,
          -0.0767049640417099,
          0.10189419984817505,
          0.14827638864517212,
          0.016467953100800514,
          -0.06144462153315544,
          0.1933208703994751,
          0.028107620775699615,
          -0.028725730255246162,
          -0.031952161341905594,
          0.05666855350136757,
          -0.028794871643185616,
          -0.02857472375035286,
          -0.17565560340881348,
          0.17074774205684662,
          0.036046747118234634,
          0.05802325904369354,
          0.1565883457660675,
          -0.034658901393413544,
          0.21230292320251465,
          -0.10931874066591263,
          -0.2883280813694,
          -0.020561669021844864,
          -0.028228119015693665,
          0.07067961990833282,
          -0.06554117053747177,
          0.12920090556144714,
          -0.006478297524154186,
          0.014374561607837677,
          -0.05933061242103577,
          -0.10047527402639389,
          0.09962007403373718,
          0.13873882591724396,
          0.12789912521839142,
          -0.027718104422092438,
          -0.12071958184242249,
          -0.002538739936426282,
          -0.02637973427772522,
          0.11536448448896408,
          0.2002699375152588,
          0.032064199447631836,
          -0.18097162246704102,
          -0.13145959377288818,
          0.11328931897878647,
          0.2083297222852707,
          0.15291307866573334,
          -0.013578391633927822,
          -0.09316364675760269,
          0.09667079895734787,
          -0.17283941805362701,
          -0.051193274557590485,
          0.13087372481822968,
          0.10038473457098007,
          -0.02702755481004715,
          0.13453330099582672,
          0.14761866629123688,
          0.1870117038488388,
          0.12041977047920227,
          0.06766143441200256,
          -0.09586770832538605,
          -0.19747759401798248,
          -0.11612745374441147,
          0.09493760764598846,
          0.02739919349551201,
          -0.0005357696209102869,
          0.3259720802307129,
          0.07843901962041855,
          -0.029871050268411636,
          -0.000057490186009090394,
          -0.1653815060853958,
          0.09865982085466385,
          -0.05826689302921295,
          -0.02922317013144493,
          -0.19248326122760773,
          0.33317238092422485,
          0.125063955783844,
          0.020780714228749275,
          0.24089889228343964,
          0.2249099463224411,
          -0.0011986613972112536,
          0.04650991037487984,
          0.21945497393608093,
          0.14247043430805206,
          -0.08779457211494446,
          0.026389706879854202,
          0.10041506588459015,
          0.2396092265844345,
          0.1675204634666443,
          -0.09842553734779358,
          -0.0038931795861572027,
          0.07160134613513947,
          -0.0920230895280838,
          -0.127046138048172,
          0.042885445058345795,
          0.001918890280649066,
          0.02763204462826252,
          -0.09017443656921387,
          0.07431881129741669,
          0.08270270377397537,
          0.10815918445587158,
          -0.09464393556118011,
          0.02621229737997055,
          0.20291970670223236,
          -0.00574963353574276,
          0.009481571614742279,
          0.0002098757104249671,
          -0.009381449781358242,
          0.0875394195318222,
          -0.21301507949829102,
          0.07549244910478592,
          -0.05222095549106598,
          0.2928420901298523,
          -0.15989622473716736,
          -0.08440014719963074,
          0.05919370800256729,
          0.012748511508107185,
          -0.13939505815505981,
          -0.020632443949580193,
          0.11067493259906769,
          0.039266880601644516,
          0.008404604159295559,
          0.25131896138191223,
          0.2050098031759262,
          -0.07890036702156067,
          -0.2153438776731491,
          -0.00036894730874337256,
          -0.03852437064051628,
          0.031200701370835304,
          0.12546691298484802,
          -0.13514825701713562,
          -0.05595243349671364,
          0.02799573540687561,
          0.17964181303977966,
          0.12011921405792236,
          -0.16284549236297607,
          -0.19505998492240906,
          -0.12957167625427246,
          -0.06290603429079056,
          -0.10978784412145615,
          0.004338371101766825,
          -0.08259227126836777,
          -0.13252636790275574,
          0.13353341817855835,
          -0.21128185093402863,
          0.15053507685661316,
          0.034435804933309555,
          0.17580841481685638,
          -0.18044830858707428,
          -0.023543957620859146,
          -0.052410297095775604,
          0.003992168232798576,
          -0.002514290390536189,
          -0.00019895462901331484,
          -0.1903960406780243,
          0.058220818638801575,
          -0.023252716287970543,
          0.06583727151155472,
          -0.0027105435729026794,
          0.03931913524866104,
          0.11732064187526703,
          -0.2884615361690521,
          0.03932926803827286,
          -0.043526098132133484,
          0.034246623516082764,
          0.005170912481844425,
          0.1352320909500122,
          0.08044760674238205,
          0.08080335706472397,
          -0.006043843924999237,
          0.017292790114879608,
          -0.007475270889699459,
          -0.14888998866081238,
          -0.08482291549444199,
          0.08333974331617355,
          -0.1687527745962143,
          -0.11834198236465454,
          0.07769657671451569,
          -0.08759064227342606,
          -0.07996570318937302,
          -0.05291362851858139,
          0.07120907306671143,
          -0.018829859793186188,
          0.16461019217967987,
          0.08497907966375351,
          0.20064106583595276,
          -0.017839569598436356,
          0.11795502156019211,
          -0.17976577579975128,
          -0.05416136234998703,
          -0.06887296587228775,
          -0.11162396520376205,
          -0.05134962499141693,
          0.20762011408805847,
          -0.16948838531970978,
          0.0849711075425148,
          -0.0468372106552124,
          0.026064245030283928,
          0.1912364512681961,
          0.07534309476613998,
          0.006301080342382193,
          0.10985700786113739,
          0.1637570559978485,
          -0.048986613750457764,
          0.04414964094758034,
          -0.11468741297721863,
          0.12738043069839478,
          -0.013204416260123253,
          -0.06312036514282227,
          0.004790837876498699,
          0.0004221048147883266,
          0.041346754878759384,
          0.13568152487277985,
          -0.11579354852437973,
          0.010363309644162655,
          -0.06894911080598831,
          0.077316053211689,
          -0.16703471541404724,
          -0.02769991010427475,
          -0.13083142042160034,
          -0.11612898856401443,
          0.007128419354557991,
          0.07139161229133606,
          0.1331956833600998,
          -0.20079481601715088,
          0.058047596365213394,
          -0.1167713925242424,
          -0.2307739108800888,
          -0.11576054990291595,
          0.0965215414762497,
          -0.21022449433803558,
          0.1292428821325302,
          0.18759247660636902,
          -0.1773923933506012,
          -0.0632663145661354,
          0.01203431561589241,
          -0.09759322553873062,
          -0.056162331253290176,
          -0.05619943141937256,
          -0.01974717155098915,
          -0.15073347091674805,
          0.12626215815544128,
          0.05741120129823685,
          0.0872807428240776,
          -0.07754980772733688,
          0.000774664047639817,
          0.14175410568714142,
          -0.13477271795272827,
          0.13509821891784668,
          -0.07582440972328186,
          0.04093986004590988,
          0.1624402403831482,
          0.225310280919075,
          0.1606510728597641,
          0.10788864642381668,
          -0.03432654216885567,
          -0.02903495728969574,
          -0.08839743584394455,
          0.09054678678512573,
          -0.044207312166690826,
          -0.05823352560400963,
          0.20527006685733795,
          -0.12127280235290527,
          -0.13038404285907745,
          -0.09419367462396622,
          0.014361558482050896,
          0.07274768501520157,
          -0.07936805486679077,
          -0.07834788411855698,
          0.06240791082382202,
          0.010456394404172897,
          0.019095294177532196,
          0.005302341654896736,
          0.09883599728345871,
          0.03812519833445549,
          0.033642202615737915,
          -0.08176353573799133,
          -0.134995236992836,
          -0.07667943835258484,
          -0.25576886534690857,
          0.02548871748149395,
          -0.0003934440319426358,
          0.12747754156589508,
          0.04225876182317734,
          -0.11035086214542389,
          -0.12100013345479965,
          0.08766249567270279,
          -0.1045689657330513,
          0.0026377837639302015,
          -0.085712730884552,
          -0.08474112302064896,
          -0.017919879406690598,
          -0.011304191313683987,
          -0.14438368380069733,
          -0.06926757842302322,
          0.03843186795711517,
          -0.06705325841903687,
          -0.010482239536941051,
          -0.21580925583839417,
          -0.23707528412342072,
          0.02965720184147358,
          -0.09107442945241928,
          -0.15911389887332916,
          -0.016492806375026703,
          -0.015324200503528118,
          -0.05288160219788551,
          0.1057346910238266,
          0.09971212595701218,
          0.11040382832288742,
          -0.10924337804317474,
          0.17273889482021332,
          0.1591608077287674,
          -0.15383055806159973,
          0.13830238580703735,
          0.010294264182448387,
          -0.09417900443077087,
          0.11500459909439087,
          -0.04762134701013565,
          0.09749293327331543,
          -0.010035950690507889,
          0.11521147191524506,
          -0.061373621225357056,
          -0.17006370425224304,
          0.1389196664094925,
          0.09195759892463684,
          -0.14440757036209106,
          -0.1355387568473816,
          0.2774410843849182,
          -0.10691133141517639,
          0.041371412575244904,
          0.07730688899755478,
          -0.11165855079889297,
          -0.16084764897823334,
          0.05102626606822014,
          0.12623430788516998,
          -0.14211075007915497,
          -0.06541702151298523,
          0.14369352161884308,
          -0.12469703704118729,
          -0.14048907160758972,
          -0.01161904726177454,
          0.07705139368772507,
          0.25531455874443054,
          0.009572330862283707,
          0.04435350373387337,
          -0.16318929195404053,
          -0.14687049388885498,
          0.14787082374095917,
          -0.09788639843463898,
          -0.054257530719041824,
          -0.04699067398905754,
          0.01882989890873432,
          -0.32030102610588074,
          -0.028607992455363274,
          0.22680789232254028,
          0.07097281515598297,
          -0.013157288543879986,
          -0.027070706710219383,
          0.1078779473900795,
          0.02085992880165577,
          -0.07450013607740402,
          -0.08217118680477142,
          -0.23054155707359314,
          0.11892925947904587,
          -0.11599007248878479,
          -0.10714321583509445,
          -0.18037983775138855,
          0.13735747337341309,
          0.1678094118833542,
          -0.08493907004594803,
          -0.043237198144197464,
          0.21517875790596008,
          0.028950953856110573,
          0.058984771370887756,
          -0.05797412618994713,
          0.01667155511677265,
          0.06162509694695473,
          -0.21979182958602905,
          0.022389467805624008,
          -0.048200108110904694,
          0.10714554041624069,
          0.18601125478744507,
          -0.05141245201230049,
          0.1672833263874054,
          -0.006457679904997349,
          -0.04692479223012924,
          0.14526322484016418,
          0.005471245385706425,
          0.019663864746689796,
          0.16994020342826843,
          0.15901200473308563,
          -0.07259254902601242,
          -0.28357434272766113,
          -0.09983042627573013,
          -0.10592461377382278,
          -0.1769653707742691,
          -0.007824988104403019,
          -0.17444506287574768,
          0.1547442376613617,
          0.035741712898015976,
          0.18167752027511597,
          0.2696364223957062,
          0.13132818043231964,
          0.10842683911323547,
          -0.17606769502162933,
          -0.2659240961074829,
          -0.024539172649383545,
          0.04359562695026398,
          -0.08152460306882858,
          -0.026837872341275215,
          0.08799058198928833,
          0.12722253799438477,
          0.018967803567647934,
          0.03982914239168167,
          0.03508283570408821,
          0.25267040729522705,
          -0.10358022153377533,
          0.23557430505752563,
          0.005521455779671669,
          0.04788237437605858,
          -0.18836534023284912,
          0.06632587313652039,
          -0.1560884416103363,
          -0.08988248556852341,
          0.09453346580266953,
          0.1899092048406601,
          -0.06779555231332779,
          -0.21199806034564972,
          -0.11160682886838913,
          -0.10871100425720215,
          0.1395566463470459,
          -0.043685171753168106,
          -0.011305375024676323,
          0.16645872592926025,
          0.13830864429473877,
          0.11323235183954239,
          0.11813212186098099,
          0.22605197131633759,
          -0.04958707094192505,
          0.10192499309778214,
          0.03826297074556351,
          0.06081192195415497,
          -0.01799277402460575,
          0.28794804215431213,
          0.1168309897184372,
          0.08756241947412491,
          0.024779165163636208,
          -0.02365744486451149,
          -0.06760276854038239,
          -0.16951455175876617,
          -0.001880240859463811,
          -0.0813584253191948,
          -0.07809606194496155,
          -0.09716818481683731,
          0.18476973474025726,
          0.06533341109752655,
          0.24614593386650085,
          0.057197533547878265,
          -0.16159728169441223,
          -0.03004874475300312,
          -0.1924348771572113,
          -0.023674622178077698,
          -0.04032231867313385,
          0.07084698230028152,
          0.03359384462237358,
          0.3273359537124634,
          0.0685027614235878,
          0.017960049211978912,
          -0.004165416117757559,
          -0.004738741088658571,
          -0.12629380822181702,
          -0.2014159858226776,
          -0.03789597377181053,
          -0.3242230713367462,
          0.05328063666820526,
          0.10568214952945709,
          -0.038439612835645676,
          -0.14685408771038055,
          -0.05206851288676262,
          -0.21461798250675201,
          0.05396362394094467,
          0.0005102743743918836,
          0.20424653589725494,
          0.07851995527744293,
          0.12472745776176453,
          -0.18168164789676666,
          -0.07281936705112457,
          -0.021985534578561783,
          0.10016043484210968,
          -0.1868407279253006,
          0.007764068432152271,
          -0.004111432936042547,
          -0.1929878443479538,
          -0.11189009994268417,
          -0.2780612111091614,
          0.1471906304359436,
          -0.11653595417737961,
          -0.23197412490844727,
          -0.00666822399944067,
          -0.06222384795546532,
          -0.012810821644961834,
          -0.0009043186437338591,
          -0.08404135704040527,
          -0.029392197728157043,
          0.1852051466703415,
          0.14851199090480804,
          -0.03306734934449196,
          -0.027505328878760338,
          -0.1317608505487442,
          -0.04996692016720772,
          0.054855573922395706,
          -0.06720457971096039,
          -0.060143306851387024,
          0.18064303696155548,
          0.04079410806298256,
          -0.0002270227123517543,
          0.22148479521274567,
          0.0387391559779644,
          -0.14740532636642456,
          -0.16081665456295013,
          -0.11372248828411102,
          -0.12595215439796448,
          -0.07962775230407715,
          0.0018187565729022026,
          -0.01692882925271988,
          -0.10349389165639877,
          -0.0625876635313034,
          0.10292618721723557,
          -0.13988256454467773,
          -0.02606889232993126,
          -0.08369787037372589,
          0.01631840690970421,
          0.050002966076135635,
          0.12759700417518616,
          0.08341710269451141,
          -0.018712341785430908,
          -0.007293955888599157,
          0.10522754490375519,
          0.12120853364467621,
          0.14633259177207947,
          0.2661813199520111,
          0.21946416795253754,
          -0.10148546099662781,
          0.016583405435085297,
          -0.03964291512966156,
          0.012687326408922672,
          -0.0669497549533844,
          -0.1739097684621811,
          -0.2238653600215912,
          0.027431493625044823,
          0.08676522225141525,
          -0.15308496356010437,
          -0.11163388192653656,
          -0.1313658356666565,
          0.10555696487426758,
          0.06816189736127853,
          -0.03682655468583107,
          0.08218149095773697,
          0.1866408735513687,
          0.2301996350288391,
          -0.19593718647956848,
          -0.0330059751868248,
          -0.025959331542253494,
          -0.3484068810939789,
          0.14929011464118958,
          0.039418384432792664,
          0.017248524352908134,
          -0.08421564847230911,
          -0.10023954510688782,
          -0.1904754787683487,
          -0.047169242054224014,
          0.08446705341339111,
          -0.0037803063169121742,
          -0.06196168437600136,
          -0.012524712830781937,
          -0.048323001712560654,
          -0.0877346470952034,
          -0.052430447190999985,
          0.3028562664985657,
          -0.11170223355293274,
          0.1687713861465454,
          0.1093205064535141,
          -0.11786056309938431,
          -0.0697067454457283,
          0.2587776780128479,
          -0.10002688318490982,
          0.048120081424713135,
          -0.14820535480976105,
          -0.17413124442100525,
          0.06322291493415833,
          -0.03734977915883064,
          0.006502592470496893,
          0.012953605502843857,
          0.04019241780042648,
          -0.1080973818898201,
          -0.03913163021206856,
          0.022426925599575043,
          -0.19919569790363312,
          -0.1736193150281906,
          0.26945608854293823,
          -0.08392249047756195,
          -0.0898393765091896,
          -0.1760515719652176,
          0.21628588438034058,
          -0.019974231719970703,
          0.007127070799469948,
          -0.057540908455848694,
          -0.037203673273324966,
          -0.11561987549066544,
          -0.03921060264110565,
          0.0913664847612381,
          -0.19326981902122498,
          0.0836353749036789,
          -0.07024931907653809,
          0.06634888797998428,
          -0.05874089524149895,
          0.0009587102103978395,
          0.07434877008199692,
          -0.23762182891368866,
          0.01412347424775362,
          -0.11359778046607971,
          0.001282125012949109,
          0.013610517606139183,
          0.0880734845995903,
          -0.18305721879005432,
          -0.2505283057689667,
          0.22197498381137848,
          -0.035450126975774765,
          -0.0696326345205307,
          0.039194174110889435,
          -0.31174781918525696,
          -0.21756716072559357,
          0.03613007441163063,
          -0.09944840520620346,
          0.18062256276607513,
          0.171301007270813,
          0.009064344689249992,
          -0.04736506566405296,
          -0.042740270495414734,
          -0.002508284291252494,
          0.05727054551243782,
          0.05205957219004631,
          -0.015472018159925938,
          -0.02485479973256588,
          0.20973247289657593,
          -0.21344421803951263,
          0.03570438176393509,
          -0.050532013177871704,
          -0.02860145829617977,
          0.09584672003984451,
          0.10772690176963806,
          -0.2660290002822876,
          0.20437820255756378,
          0.07721223682165146,
          -0.04517434909939766,
          0.17576566338539124,
          -0.05064711719751358,
          -0.04383203759789467,
          -0.2806282341480255,
          0.10171586275100708,
          0.03277307748794556,
          0.0570523776113987,
          0.21494632959365845,
          0.11382023245096207,
          -0.11718054115772247,
          -0.10429328680038452,
          -0.007696366868913174,
          -0.024091117084026337,
          0.07547180354595184,
          -0.03354964405298233,
          -0.16424345970153809,
          0.01961064524948597,
          0.037420038133859634,
          0.03897326439619064,
          -0.15841151773929596,
          0.10269919782876968,
          0.02154436521232128,
          -0.14106455445289612,
          0.012663901783525944,
          -0.03210657089948654,
          -0.012276389636099339,
          -0.05319572612643242,
          0.09904353320598602,
          0.19376860558986664,
          -0.15664300322532654,
          0.015857288613915443,
          -0.08268073201179504,
          -0.08684225380420685,
          0.093450166285038,
          -0.04199223592877388,
          0.017224103212356567,
          -0.03763214871287346,
          0.003799926722422242,
          0.1121150478720665,
          -0.05877706781029701,
          -0.20353251695632935,
          0.028420841321349144,
          -0.03858313336968422,
          0.07056671380996704,
          -0.26992514729499817,
          -0.09927233308553696,
          0.06578034907579422,
          0.27030888199806213,
          -0.05816439539194107,
          -0.12445825338363647,
          -0.014623375609517097,
          -0.1845102310180664,
          -0.07453222572803497,
          0.012229861691594124,
          0.03788764402270317,
          -0.3385589122772217,
          -0.1511588841676712,
          -0.03634505718946457,
          -0.19265402853488922,
          0.11844687163829803,
          0.07517167180776596,
          0.04651084542274475,
          0.13412392139434814,
          0.021876810118556023,
          0.1522773802280426,
          -0.07518269121646881,
          -0.11539282649755478,
          -0.12140780687332153,
          0.14868657290935516,
          -0.09724937379360199,
          -0.02765018679201603,
          0.025505762547254562,
          -0.0970635637640953,
          -0.18793392181396484,
          0.17232806980609894,
          -0.02174563519656658,
          0.0590209923684597,
          0.15857718884944916,
          0.04888998717069626,
          -0.05424714833498001,
          -0.10034623742103577,
          -0.1476241648197174,
          0.010587334632873535,
          0.06618194282054901,
          0.09965167939662933,
          0.12386152148246765,
          0.06987511366605759,
          0.059148240834474564,
          0.10123785585165024,
          -0.05597258731722832,
          -0.20162548124790192,
          0.0076417685486376286,
          0.045757945626974106,
          0.20385849475860596,
          0.05462482199072838,
          0.016716692596673965,
          -0.10237954556941986,
          -0.07589127868413925,
          0.15220458805561066,
          -0.17862220108509064,
          0.018181735649704933,
          0.1775386929512024,
          -0.018063409253954887,
          0.04539521783590317,
          0.2214048206806183,
          -0.1421004682779312,
          0.004064805340021849,
          -0.06249392405152321,
          0.15895763039588928,
          -0.1135706752538681,
          -0.03675442188978195,
          0.08789097517728806,
          0.037188686430454254,
          0.10085491091012955,
          0.10520366579294205,
          -0.05887971073389053,
          -0.11010463535785675,
          -0.007500590290874243,
          -0.01945425383746624,
          -0.16226737201213837,
          -0.18862922489643097,
          0.05877330154180527,
          -0.08743110299110413,
          -0.045499980449676514,
          -0.10830482095479965,
          -0.12671710550785065,
          0.16770821809768677,
          0.088593028485775,
          0.275749534368515,
          -0.10320320725440979,
          -0.15435609221458435,
          -0.271199107170105,
          -0.12422070652246475,
          0.007173582911491394,
          0.12695564329624176,
          0.10724042356014252,
          0.03907060995697975,
          0.1782882809638977,
          -0.12937434017658234,
          0.02313956245779991,
          0.08070174604654312,
          0.14265067875385284,
          -0.19544410705566406,
          -0.013144077733159065,
          -0.18374595046043396,
          -0.05774272605776787,
          0.14703413844108582,
          -0.11614549160003662,
          0.02822974883019924,
          -0.21618886291980743,
          -0.23378711938858032,
          -0.08835013955831528,
          -0.03379003331065178,
          0.021796880289912224,
          -0.028644569218158722,
          -0.04326033592224121,
          0.09201192855834961,
          -0.03984268009662628,
          -0.06961747258901596,
          -0.0253274105489254,
          -0.18107523024082184,
          -0.1136706992983818,
          0.06101522967219353,
          0.15489347279071808,
          -0.15467673540115356,
          -0.09302010387182236,
          0.11377096176147461,
          0.05251867324113846,
          -0.09210648387670517,
          -0.005229638889431953,
          -0.15957657992839813,
          0.11328642815351486,
          -0.06798435747623444,
          -0.09802766144275665,
          -0.036525823175907135,
          0.07275998592376709,
          -0.13872799277305603,
          0.03509130701422691,
          0.05114253982901573,
          -0.08579975366592407,
          -0.018239079043269157,
          0.17803747951984406,
          0.16868048906326294,
          -0.1338440626859665,
          0.17013904452323914,
          -0.10628111660480499,
          -0.07281981408596039,
          -0.051192738115787506,
          -0.243141308426857,
          -0.0016185441054403782,
          -0.004914417397230864,
          -0.20205210149288177,
          -0.07811244577169418,
          0.02800093963742256,
          0.10091139376163483,
          0.19409210979938507,
          0.1245322972536087,
          0.04572227597236633,
          0.040598802268505096,
          -0.1724070906639099,
          0.050748225301504135,
          -0.16346366703510284,
          0.028600767254829407,
          -0.07217235863208771,
          -0.10302367061376572,
          0.04469190537929535,
          0.09429346024990082,
          -0.2672472894191742,
          0.18943314254283905,
          0.068568654358387,
          -0.032481759786605835,
          0.15191029012203217,
          0.14408443868160248,
          -0.023819008842110634,
          0.07392536848783493,
          0.15947408974170685,
          -0.08900190889835358,
          0.14479881525039673,
          -0.004524641670286655,
          -0.0671612098813057,
          0.1818709820508957,
          0.05250558629631996,
          -0.08737636357545853,
          -0.013028137385845184,
          0.12704147398471832,
          -0.1741676926612854,
          -0.047288283705711365,
          -0.012756198644638062,
          -0.044206369668245316,
          0.0482892170548439,
          0.023204226046800613,
          -0.12756359577178955,
          0.03222339600324631,
          0.16690990328788757,
          -0.0858021229505539,
          -0.09882422536611557,
          -0.04498757794499397,
          0.016897574067115784,
          -0.15391913056373596,
          0.06007910147309303,
          -0.1800290197134018,
          -0.0352759063243866,
          0.026101185008883476,
          0.0411980003118515,
          0.11892852932214737,
          0.09717223793268204,
          0.11881475150585175,
          0.03970102593302727,
          -0.16462576389312744,
          -0.3492862582206726,
          -0.03266078606247902,
          0.14056172966957092,
          0.04921545833349228,
          0.01052442193031311,
          -0.04724649712443352,
          -0.09055045247077942,
          -0.05279549956321716,
          0.027718959376215935,
          0.10002364963293076,
          -0.01738899201154709,
          -0.025728769600391388,
          0.2503436207771301,
          -0.03093234822154045,
          0.25843775272369385,
          -0.14216451346874237,
          -0.029169360175728798,
          0.1497436910867691,
          0.043783362954854965,
          -0.02176876738667488,
          0.09173482656478882,
          -0.052890900522470474,
          0.05964755266904831,
          0.1635800302028656,
          0.022379497066140175,
          0.2701263725757599,
          -0.17785407602787018,
          -0.01876593381166458,
          -0.038552988320589066,
          0.14301206171512604,
          -0.005425287876278162,
          -0.01604972407221794,
          -0.033807411789894104,
          -0.034952808171510696,
          -0.13405054807662964,
          -0.003917278256267309,
          -0.2685498893260956,
          -0.14104439318180084,
          -0.059626780450344086,
          0.0017229722579941154,
          0.017088955268263817,
          0.1061767116189003,
          -0.045636218041181564,
          -0.07466736435890198,
          -0.009688925929367542,
          0.15814639627933502,
          -0.0969592034816742,
          -0.05089256912469864,
          -0.10040877759456635,
          -0.1854436844587326,
          0.09313588589429855,
          0.024274902418255806,
          -0.12239780277013779,
          -0.1255904883146286,
          -0.11993168294429779,
          -0.12945514917373657,
          -0.05469335615634918,
          -0.14533692598342896,
          -0.1182480975985527,
          0.22116446495056152,
          -0.08315224945545197,
          0.16653519868850708,
          0.03676855191588402,
          -0.05163814127445221,
          0.12090718746185303,
          -0.023923512548208237,
          0.07353347539901733,
          -0.04890378937125206,
          -0.02522852271795273,
          0.08056215196847916,
          -0.07258954644203186,
          0.05838828533887863,
          -0.17328718304634094,
          -0.10212552547454834,
          -0.2111745923757553,
          -0.05409491807222366,
          -0.08538105338811874,
          -0.007809319067746401,
          -0.1926475316286087,
          0.14530164003372192,
          -0.11257581412792206,
          0.0959501564502716,
          -0.1526736468076706,
          -0.23173649609088898,
          0.20215655863285065,
          0.09944592416286469,
          -0.09459828585386276,
          -0.006929939147084951,
          0.172903373837471,
          -0.030220968648791313,
          -0.1131943017244339,
          0.08060025423765182,
          0.16183239221572876,
          -0.035771068185567856,
          0.12972886860370636,
          -0.05878038331866264,
          -0.06490860134363174,
          -0.07435949891805649,
          -0.13505850732326508,
          0.05483628809452057,
          -0.2890249192714691,
          0.19566458463668823,
          -0.09161093831062317,
          0.043622661381959915,
          0.23879820108413696,
          -0.2355683445930481,
          -0.0012642660876736045,
          -0.10399545729160309,
          -0.0750817283987999,
          -0.03863658010959625,
          -0.015308844856917858,
          0.13435447216033936,
          0.09754083305597305,
          -0.04084487631917,
          0.03282618895173073,
          0.14622586965560913,
          0.23387855291366577,
          -0.10769455879926682,
          -0.11997628211975098,
          -0.0857056975364685,
          -0.06595642119646072,
          0.031202442944049835,
          0.16927289962768555,
          0.0928015410900116,
          0.19031281769275665,
          -0.005844657775014639,
          -0.11713307350873947,
          -0.024643979966640472,
          -0.059568244963884354,
          -0.15974895656108856,
          0.03709975630044937,
          0.004601394757628441,
          -0.19630783796310425,
          -0.0860581323504448,
          0.03218388557434082,
          0.20302827656269073,
          -0.4281160831451416,
          0.0063414191827178,
          0.14248938858509064,
          -0.13656935095787048,
          0.20328791439533234,
          0.27802976965904236,
          0.2833845615386963,
          -0.26082029938697815,
          -0.07383853942155838,
          0.0928901806473732,
          -0.13189728558063507,
          -0.017453376203775406,
          0.19794096052646637,
          0.17419053614139557,
          0.01919681951403618,
          -0.0915338471531868,
          0.010521098971366882,
          -0.02749914489686489,
          -0.02186792902648449,
          -0.040392424911260605,
          0.030676085501909256,
          -0.12711870670318604,
          0.21161741018295288,
          -0.04574473947286606,
          -0.0429718941450119,
          0.12901131808757782,
          -0.2163124978542328,
          0.02928919717669487,
          -0.03336162492632866,
          0.06971535831689835,
          -0.11550451070070267,
          -0.08863727748394012,
          -0.04713016375899315,
          -0.07928191870450974,
          -0.17003627121448517,
          -0.00931604579091072,
          -0.2449076920747757,
          -0.07086553424596786,
          -0.2354881763458252,
          0.0016145246336236596,
          0.10032684355974197,
          0.011245259083807468,
          -0.07962621748447418,
          0.1577366590499878,
          0.07661324739456177,
          -0.04791729152202606,
          -0.1071213036775589,
          0.1290711760520935,
          -0.026225987821817398,
          0.13405883312225342,
          0.027872074395418167,
          -0.02225465700030327,
          0.010201487690210342,
          0.26500850915908813,
          -0.022076640278100967,
          -0.11506456881761551,
          -0.04466957598924637,
          0.06400134414434433,
          -0.08965803682804108,
          0.019357988610863686,
          0.12077133357524872,
          0.050094474107027054,
          -0.17389267683029175,
          -0.05888577923178673,
          0.17713186144828796,
          -0.26842933893203735,
          -0.13698507845401764,
          -0.1127551943063736,
          0.013262279331684113,
          0.10628246515989304,
          0.021253284066915512,
          0.07664001733064651,
          -0.07955430448055267,
          0.17263825237751007,
          -0.06335949152708054,
          0.04400135204195976,
          0.010274113155901432,
          -0.0230905432254076,
          -0.003784548258408904,
          0.04607822000980377,
          0.09524218738079071,
          0.07329801470041275,
          -0.29160240292549133,
          -0.1089935228228569,
          0.16338419914245605,
          0.18712341785430908,
          -0.0038591339252889156,
          -0.09176189452409744,
          0.23172612488269806,
          0.02948278747498989,
          -0.1167793795466423,
          -0.01637778803706169,
          0.07454454898834229,
          0.29632675647735596,
          -0.0666172057390213,
          -0.008503523655235767,
          0.05316506698727608,
          0.0959976464509964,
          0.04305758699774742,
          -0.06757184863090515,
          -0.05466689541935921,
          0.2150351107120514,
          -0.11454782634973526,
          0.2800251543521881,
          0.06512612104415894,
          0.024830667302012444,
          0.18479003012180328,
          0.06673175096511841,
          0.23521851003170013,
          -0.17480091750621796,
          -0.13693569600582123,
          -0.08795817196369171,
          0.13830536603927612,
          -0.07928219437599182,
          0.1877679079771042,
          -0.09008081257343292,
          0.00332059059292078,
          -0.05203380435705185,
          0.10770618170499802,
          -0.19798462092876434,
          -0.20239418745040894,
          0.15860429406166077,
          0.04102829098701477,
          -0.17130573093891144,
          -0.0524691604077816,
          -0.014217942021787167,
          0.06996330618858337,
          0.09341536462306976,
          -0.016069445759058,
          -0.059546854346990585,
          -0.031573761254549026,
          0.0064806705340743065,
          0.2690950632095337,
          0.2250632345676422,
          0.06753125041723251,
          0.1532658189535141,
          0.0029449118301272392,
          -0.0896562710404396,
          -0.19273719191551208,
          -0.07876677811145782,
          0.052663613110780716,
          0.28835439682006836,
          0.07139187306165695,
          0.08006656914949417,
          0.09473676979541779,
          -0.07369304448366165,
          -0.07462310791015625,
          0.01055330503731966,
          -0.12944450974464417,
          -0.002876434475183487,
          -0.000247618299908936,
          0.19091132283210754,
          0.05321463942527771,
          0.07926671206951141,
          -0.07693023234605789,
          0.15212774276733398,
          0.10241487622261047,
          -0.07402534782886505,
          0.14391084015369415,
          -0.0047933016903698444,
          -0.041888926178216934,
          -0.024188660085201263,
          0.1961769014596939,
          0.01625172421336174,
          0.05057374760508537,
          -0.12741605937480927,
          -0.07134104520082474,
          0.002289216034114361,
          -0.047465596348047256,
          0.006387360859662294,
          -0.02578604966402054,
          -0.23117677867412567,
          -0.07429222017526627,
          -0.06515306979417801,
          0.027795879170298576,
          0.06851650774478912,
          0.08577857911586761,
          -0.02124520018696785,
          -0.022453825920820236,
          0.003342620562762022,
          -0.17343857884407043,
          0.28967544436454773,
          0.33779340982437134,
          -0.21893207728862762,
          0.04930281639099121,
          0.03729120269417763,
          0.020883144810795784,
          -0.003449817653745413,
          -0.11723273247480392,
          -0.12028577923774719,
          0.152528315782547,
          -0.15289942920207977,
          0.1015760600566864,
          -0.1313675045967102,
          0.09160692989826202,
          -0.009261565282940865,
          -0.10144872218370438,
          -0.04010981321334839,
          0.06661538034677505,
          -0.15913066267967224,
          0.13176676630973816,
          0.013056265190243721,
          0.03077564388513565,
          -0.16800330579280853,
          -0.07470931857824326,
          0.06158945709466934,
          -0.05394836887717247,
          -0.09270459413528442,
          0.007604732643812895,
          -0.009250519797205925,
          -0.11580805480480194,
          -0.055908236652612686,
          -0.16372770071029663,
          0.008582779206335545,
          -0.03505648672580719,
          -0.016648398712277412,
          0.09025973826646805,
          -0.20684929192066193,
          0.021058186888694763,
          0.05633450299501419,
          -0.04244724661111832,
          -0.20346388220787048,
          0.009907230734825134,
          0.054946478456258774,
          -0.03389047086238861,
          0.063997283577919,
          -0.0774071142077446,
          -0.0004012488934677094,
          0.14466427266597748,
          0.09031004458665848,
          0.07450385391712189,
          -0.050884462893009186,
          0.00682784803211689,
          -0.11751497536897659,
          0.012906107120215893,
          0.12138928472995758,
          0.1313156932592392,
          -0.34762895107269287,
          -0.09833316504955292,
          -0.21683812141418457,
          0.024607770144939423,
          -0.08693559467792511,
          -0.08311048895120621,
          0.09603673219680786,
          0.031965188682079315,
          0.15617671608924866,
          0.08970638364553452,
          0.17953430116176605,
          0.2752041220664978,
          -0.03755784407258034,
          0.10896371304988861,
          0.021226612851023674,
          -0.07903168350458145,
          0.14892886579036713,
          -0.07991160452365875,
          -0.0312650166451931,
          -0.07222136855125427,
          0.11668117344379425,
          -0.005159118212759495,
          0.048629455268383026,
          -0.09843455255031586,
          0.15296974778175354,
          -0.04585789889097214,
          0.344587117433548,
          -0.07881733030080795,
          0.08936901390552521,
          0.012582234106957912,
          0.1432146430015564,
          0.23044846951961517,
          -0.366117388010025,
          -0.19655531644821167,
          0.0062627713195979595,
          -0.0867450088262558,
          0.24092504382133484,
          -0.12008946388959885,
          0.17969229817390442,
          0.02936405874788761,
          -0.09486877173185349,
          -0.05867091566324234,
          -0.06623575091362,
          0.08807986974716187,
          -0.14711973071098328,
          -0.07191852480173111,
          0.018687592819333076,
          0.02691786363720894,
          0.06924213469028473,
          0.22125306725502014,
          -0.08375556021928787,
          -0.12344460934400558,
          -0.009700879454612732,
          -0.0027385225985199213,
          -0.011150741018354893,
          0.058549389243125916,
          0.1518467515707016,
          0.05784188583493233,
          -0.26045575737953186,
          0.04510254040360451,
          0.16258573532104492,
          -0.17140927910804749,
          -0.10297013819217682,
          -0.047571003437042236,
          -0.11755252629518509,
          0.05709393322467804,
          -0.026731295511126518,
          -0.03316386044025421,
          -0.08077896386384964,
          -0.07574750483036041,
          0.010111679323017597,
          -0.015883972868323326,
          -0.20573902130126953,
          0.04034782946109772,
          0.17632724344730377,
          -0.23484067618846893,
          0.23842698335647583,
          0.01405718270689249,
          0.20733997225761414,
          0.011232227087020874,
          -0.05364459380507469,
          -0.15810073912143707,
          0.01971222274005413,
          -0.0363495759665966,
          -0.11566288769245148,
          0.146981343626976,
          -0.06141353026032448,
          0.2512087821960449,
          0.04239518567919731,
          -0.150991752743721,
          0.20542623102664948,
          -0.06826099008321762,
          -0.018261807039380074,
          0.22499942779541016,
          -0.06631321460008621,
          0.06194942817091942,
          -0.2284337282180786,
          -0.38060423731803894,
          0.09979451447725296,
          0.1398899257183075,
          -0.07903343439102173,
          -0.017718840390443802,
          0.037250518798828125,
          0.12576518952846527,
          0.07379008084535599,
          0.2902975380420685,
          0.06733888387680054,
          0.0910353884100914,
          -0.13213227689266205,
          0.08286716789007187,
          0.1003846600651741,
          -0.024295661598443985,
          0.00011181112495251,
          -0.06437546759843826,
          0.15404072403907776,
          0.011937962844967842,
          -0.10316479951143265,
          -0.018765080720186234,
          -0.08751460909843445,
          0.05625448748469353,
          -0.09063232690095901,
          0.12234194576740265,
          -0.05094540864229202,
          0.13157278299331665,
          -0.07937653362751007,
          0.08592512458562851,
          0.11914702504873276,
          -0.1272479146718979,
          -0.17947332561016083,
          -0.1434505432844162,
          -0.17263656854629517,
          0.04662207514047623,
          0.06378436833620071,
          -0.11387720704078674,
          0.17257815599441528,
          0.2540978193283081,
          0.109415702521801,
          0.22847214341163635,
          0.08963208645582199,
          -0.1251664161682129,
          0.16260065138339996,
          0.0217195563018322,
          -0.02334235981106758,
          -0.007628349587321281,
          0.06617113202810287,
          0.021323105320334435,
          0.08357939124107361,
          0.0916346088051796,
          0.2173507809638977,
          0.0597010962665081,
          -0.06594132632017136,
          -0.06832344830036163,
          -0.05158177390694618,
          0.1419905126094818,
          0.08951696753501892,
          -0.10456881672143936,
          0.00985386036336422,
          -0.133601114153862,
          -0.09370023757219315,
          0.1502172350883484,
          -0.20017442107200623,
          0.0948057770729065,
          0.30186453461647034,
          0.02447466552257538,
          0.20600399374961853,
          -0.10728871822357178,
          -0.030967067927122116,
          0.12970642745494843,
          0.049649547785520554,
          0.05031171813607216,
          0.060783982276916504,
          -0.08646303415298462,
          0.04632546380162239,
          -0.11589394509792328,
          -0.03939385712146759,
          -0.06693273037672043,
          0.1387605369091034,
          0.24017126858234406,
          -0.061759889125823975,
          -0.04488193988800049,
          0.14259520173072815,
          0.0491793230175972,
          -0.015323711559176445,
          -0.1623038351535797,
          -0.03144136443734169,
          -0.04110078886151314,
          0.12542670965194702,
          -0.020835017785429955,
          -0.1531337946653366,
          0.09070684760808945,
          -0.054300010204315186,
          0.01967758499085903,
          -0.05338764935731888,
          0.11387751251459122,
          0.03132591024041176,
          -0.011887280270457268,
          -0.00025693565839901567,
          0.23026145994663239,
          0.14861032366752625,
          -0.0020547020249068737,
          -0.04726123809814453,
          0.1177939921617508,
          0.1160227358341217,
          0.048951588571071625,
          0.047846004366874695,
          0.14636284112930298,
          0.19413723051548004,
          0.1971154808998108,
          0.004910395480692387,
          0.20973613858222961,
          0.03483462333679199,
          0.03245890885591507,
          -0.24318905174732208,
          -0.11258552968502045,
          -0.12637853622436523,
          -0.05450543761253357,
          -0.11065572500228882,
          -0.11574988812208176,
          0.008364479057490826,
          -0.23496128618717194,
          -0.058938972651958466,
          -0.06962092220783234,
          -0.2306641936302185,
          0.14973394572734833,
          -0.10318735986948013,
          -0.07137058675289154,
          0.17499899864196777,
          -0.09091845899820328,
          0.07766502350568771,
          -0.13741236925125122,
          -0.0193521436303854,
          0.15114450454711914,
          -0.10515972971916199,
          0.2012493759393692,
          0.0614469051361084,
          0.05274256318807602,
          -0.05402393266558647,
          0.07688888907432556,
          -0.050507836043834686,
          -0.0321706086397171,
          0.19023536145687103,
          -0.009507953189313412,
          0.036319538950920105,
          -0.0018650653073564172,
          0.017263667657971382,
          -0.008060965687036514,
          -0.0033347629941999912,
          0.07211092114448547,
          0.11169672012329102,
          0.014782755635678768,
          0.027351753786206245,
          0.15208907425403595,
          -0.11646363139152527,
          0.044842321425676346,
          -0.018472658470273018,
          0.14458376169204712,
          -0.05070941150188446,
          -0.046777594834566116,
          -0.08178289234638214,
          -0.1572933793067932,
          0.007588160689920187,
          -0.36555320024490356,
          -0.008578591048717499,
          -0.01140139251947403,
          -0.058599796146154404,
          0.24289894104003906,
          -0.3298099637031555,
          0.09347870945930481,
          -0.07192947715520859,
          0.011001371778547764,
          -0.21785521507263184,
          -0.0408911295235157,
          -0.061208054423332214,
          0.2516258955001831,
          0.024857457727193832,
          0.0941714346408844,
          0.10930538922548294,
          0.13905495405197144,
          0.1303970366716385,
          -0.08972000330686569,
          -0.061888158321380615,
          0.09407438337802887,
          0.06834065169095993,
          -0.03233213350176811,
          0.2384480983018875,
          -0.12436740100383759,
          0.2750287353992462,
          0.11156128346920013,
          -0.10329987853765488,
          0.19470758736133575,
          0.10531918704509735,
          0.0794462114572525,
          0.01231192797422409,
          0.0011964606819674373,
          0.2836315929889679,
          0.04586319625377655,
          -0.033962469547986984,
          0.10061277449131012,
          -0.026026524603366852,
          -0.0004095775366295129,
          0.13621966540813446,
          0.028064770624041557,
          0.1820605844259262,
          -0.14810670912265778,
          0.05738593265414238,
          0.0007596395444124937,
          -0.060226231813430786,
          0.18116730451583862,
          0.017913511022925377,
          0.08401460945606232,
          0.1246078833937645,
          -0.16101446747779846,
          0.10269016027450562,
          0.014077512547373772,
          -0.14494547247886658,
          0.07606735825538635,
          -0.10176818072795868,
          0.05212637409567833,
          -0.04851849749684334,
          -0.16341516375541687,
          0.08283506333827972,
          -0.08684787154197693,
          -0.08155854791402817,
          -0.2155648171901703,
          -0.24812276661396027,
          0.12286249548196793,
          0.16413196921348572,
          0.13005052506923676,
          0.1808830350637436,
          -0.009774611331522465,
          -0.027887476608157158,
          0.14911817014217377,
          -0.10669445246458054,
          -0.05061919614672661,
          0.006472438108175993,
          0.19263708591461182,
          0.0751909539103508,
          -0.05140753090381622,
          0.1379600614309311,
          0.08662290871143341,
          -0.18223170936107635,
          0.023071520030498505,
          0.11174561083316803,
          -0.016084684059023857,
          0.020094186067581177,
          -0.015172879211604595,
          -0.11079579591751099,
          -0.2351260781288147,
          -0.05006398260593414,
          0.03359350562095642,
          -0.12926866114139557,
          0.01067651342600584,
          0.059865858405828476,
          -0.021148182451725006,
          -0.06001513451337814,
          -0.21547222137451172,
          0.0002793289895635098,
          -0.25568491220474243,
          0.2638387084007263,
          0.08177261054515839,
          -0.22418685257434845,
          -0.026819216087460518,
          -0.19564791023731232,
          -0.07698991894721985,
          -0.035583872348070145,
          0.3999490439891815,
          0.08404463529586792,
          0.049485236406326294,
          0.28516843914985657,
          -0.1212267205119133,
          0.09753967076539993,
          -0.005712082143872976,
          -0.10845495015382767,
          0.010531477630138397,
          0.06356939673423767,
          0.1521899551153183,
          0.34315305948257446,
          0.059100858867168427,
          -0.041526854038238525,
          -0.04949628561735153,
          0.04618329182267189,
          0.04286712035536766,
          0.0018496336415410042,
          0.1795133501291275,
          -0.14259777963161469,
          0.11925369501113892,
          0.06032896041870117,
          -0.026227163150906563,
          0.101316437125206,
          -0.10870710760354996,
          0.037650201469659805,
          -0.007605099584907293,
          0.1599643975496292,
          -0.04622212424874306,
          -0.05588238686323166,
          -0.06294325739145279,
          -0.08727695792913437,
          0.19199833273887634,
          -0.04761667549610138,
          -0.17427846789360046,
          0.13307128846645355,
          -0.1427687108516693,
          0.04214126244187355,
          -0.059644896537065506,
          -0.0014981357380747795,
          0.037938326597213745,
          0.05364977568387985,
          -0.0815853700041771,
          -0.07313323020935059,
          0.03244186192750931,
          -0.03222939372062683,
          -0.20568709075450897,
          0.20806051790714264,
          0.004431207198649645,
          0.14565680921077728,
          -0.09791190177202225,
          -0.07297278940677643,
          -0.05926208943128586,
          0.03584400564432144,
          -0.09014048427343369,
          0.0610344335436821,
          -0.09551112353801727,
          -0.037978820502758026,
          0.07570774853229523,
          -0.08803272992372513,
          0.029772846028208733,
          0.3516084551811218,
          -0.04296739771962166,
          -0.05606018379330635,
          0.021128248423337936,
          -0.009717038832604885,
          -0.08530841022729874,
          0.2364998608827591,
          0.09245942533016205,
          0.03808417171239853,
          -0.05946388095617294,
          -0.05534813925623894,
          -0.003020747797563672,
          -0.025441661477088928,
          -0.07775021344423294,
          -0.08347438275814056,
          0.11668136715888977,
          -0.1233055517077446,
          0.10003122687339783,
          0.035315193235874176,
          0.18761351704597473,
          -0.0925823226571083,
          -0.1405545473098755,
          0.05607003718614578,
          0.16567398607730865,
          0.04170036315917969,
          0.08371790498495102,
          -0.0958203449845314,
          -0.1253873109817505,
          0.007095084525644779,
          0.01768403686583042,
          -0.0711279883980751,
          -0.10675150156021118,
          0.11022312194108963,
          0.24503736197948456,
          -0.12589611113071442,
          -0.11817627400159836,
          -0.04328484088182449,
          0.05714239180088043,
          0.20188771188259125,
          -0.008118340745568275,
          0.05755743756890297,
          0.06606902927160263,
          -0.15729112923145294,
          0.20129135251045227,
          0.12901800870895386,
          -0.09122107177972794,
          -0.3168429136276245,
          -0.13638101518154144,
          0.17577187716960907,
          0.031043540686368942,
          -0.1689867526292801,
          -0.1801682710647583,
          0.17815300822257996,
          0.2402629554271698,
          0.03327019885182381,
          0.1583123505115509,
          0.165079265832901,
          -0.01812032237648964,
          0.16991327702999115,
          0.04439062625169754,
          0.1857227385044098,
          0.15337440371513367,
          0.1480238288640976,
          -0.0628923773765564,
          0.014423739165067673,
          -0.1259453296661377,
          0.012450940907001495,
          0.05491393059492111,
          0.17363014817237854,
          -0.06658010184764862,
          0.024243507534265518,
          -0.07431451976299286,
          -0.025768818333745003,
          0.07237137109041214,
          -0.1176178976893425,
          -0.08402252942323685,
          -0.0500926673412323,
          0.08615589141845703,
          0.1588832587003708,
          -0.08122438192367554,
          -0.07309312373399734,
          0.07033044099807739,
          -0.08140450716018677,
          -0.0036108922213315964,
          0.023104723542928696,
          -0.17052094638347626,
          -0.05400630459189415,
          0.038810357451438904,
          -0.24031560122966766,
          -0.02345948852598667,
          0.04263470694422722,
          -0.07180553674697876,
          0.1665729284286499,
          0.09409286826848984,
          -0.04900476709008217,
          -0.038987092673778534,
          -0.151375412940979,
          0.13632583618164062,
          -0.10753924399614334,
          0.24698905646800995,
          -0.14801828563213348,
          -0.029047241434454918,
          -0.034993961453437805,
          -0.029809128493070602,
          0.0953378826379776,
          0.07954078912734985,
          -0.06773709505796432,
          -0.04708658158779144,
          -0.08068427443504333,
          0.14053675532341003,
          -0.023306747898459435,
          0.1837400645017624,
          -0.04767583683133125,
          -0.0479934960603714,
          0.2605406939983368,
          -0.2977367043495178,
          0.09295421093702316,
          0.048208918422460556,
          0.0562799833714962,
          0.05504383146762848,
          0.15798810124397278,
          -0.10739755630493164,
          0.15348418056964874,
          0.019351638853549957,
          0.2539108395576477,
          -0.010867806151509285,
          -0.028923267498612404,
          0.06662426888942719,
          0.10973674803972244,
          0.04300209879875183,
          0.02548600733280182,
          -0.007193760480731726,
          0.1480739563703537,
          0.019140390679240227,
          -0.046783484518527985,
          0.024825267493724823,
          0.036686141043901443,
          0.12727822363376617,
          0.10158738493919373,
          0.12119850516319275,
          0.22553953528404236,
          0.017852921038866043,
          0.13187779486179352,
          -0.10603809356689453,
          -0.10832388699054718,
          -0.02840098924934864,
          0.04083932936191559,
          0.05692999064922333,
          -0.030653471127152443,
          -0.10473982244729996,
          -0.22417180240154266,
          0.04505474865436554,
          0.013552377931773663,
          0.06305166333913803,
          0.10038178414106369,
          -0.20291157066822052,
          -0.14664626121520996,
          0.006547132506966591,
          -0.07517479360103607,
          -0.052650973200798035,
          -0.05012728273868561,
          0.23552216589450836,
          -0.09934510290622711,
          0.12578487396240234,
          -0.1832418143749237,
          0.057631779462099075,
          -0.08737095445394516,
          -0.16003675758838654,
          0.13889111578464508,
          0.1151394173502922,
          0.10199795663356781,
          -0.21759989857673645,
          0.17530830204486847,
          0.02314773015677929,
          0.1073230654001236,
          -0.2994815409183502,
          0.1379358321428299,
          -0.0037430496886372566,
          0.1761069893836975,
          -0.10133849829435349,
          -0.10832948237657547,
          -0.10235393792390823,
          0.05544279143214226,
          -0.147357776761055,
          -0.03373866528272629,
          0.050753165036439896,
          -0.0775105357170105,
          0.1156388446688652,
          -0.01957692764699459,
          -0.1205783560872078,
          -0.1145532876253128,
          0.20353204011917114,
          0.09345514327287674,
          -0.04176200553774834,
          -0.047853268682956696,
          0.09175102412700653,
          0.06199336051940918,
          -0.18762479722499847,
          0.20727452635765076,
          -0.08531098812818527,
          0.1995159536600113,
          -0.11948703974485397,
          -0.10092619061470032,
          0.07940202206373215,
          0.14543278515338898,
          0.09592853486537933,
          -0.022121090441942215,
          0.1191030964255333,
          -0.09847169369459152,
          -0.008201618678867817,
          0.030732056125998497,
          -0.06870575994253159,
          -0.024622749537229538,
          -0.15055862069129944,
          -0.13177917897701263,
          -0.11579501628875732,
          -0.1096876859664917,
          0.009258711710572243,
          0.20965386927127838,
          -0.19428375363349915,
          0.1913536936044693,
          0.059496115893125534,
          -0.1149546280503273,
          -0.1207091361284256,
          -0.06120329722762108,
          -0.05028997361660004,
          0.04520232602953911,
          0.1334923952817917,
          -0.22707533836364746,
          0.04216702654957771,
          0.047844789922237396,
          0.07725557684898376,
          0.02661317214369774,
          -0.015537476167082787,
          -0.04577675834298134,
          0.031835414469242096,
          0.1539955735206604,
          0.0780675932765007,
          0.054958753287792206,
          -0.05835384130477905,
          0.01603653095662594,
          -0.052161552011966705,
          0.07732713222503662,
          -0.0005852387403137982,
          0.029404137283563614,
          -0.10846801847219467,
          -0.19961859285831451,
          -0.040996868163347244,
          0.15525248646736145,
          0.08240290731191635,
          -0.09067470580339432,
          -0.004055442754179239,
          0.0035396150778979063,
          0.14255113899707794,
          -0.052602995187044144,
          -0.03803476691246033,
          -0.26350125670433044,
          0.16726908087730408,
          -0.08779911696910858,
          -0.15606127679347992,
          -0.0771891251206398,
          0.00042478213435970247,
          -0.01994021050632,
          0.2186179906129837,
          -0.021499428898096085,
          -0.015329461544752121,
          0.03801118582487106,
          0.14730815589427948,
          -0.01296654250472784,
          -0.046638038009405136,
          -0.13457296788692474,
          -0.11157897859811783,
          0.08601180464029312,
          -0.029885098338127136,
          -0.047161415219306946,
          0.21958595514297485,
          0.09763791412115097,
          0.07115822285413742,
          -0.0724535584449768,
          -0.15822303295135498,
          -0.13323602080345154,
          -0.01299632154405117,
          -0.09946522861719131,
          -0.010748602449893951,
          -0.0652337297797203,
          -0.15277546644210815,
          0.18873105943202972,
          0.11672722548246384,
          0.08400870859622955,
          0.04594378545880318,
          -0.008057293482124805,
          -0.1066521629691124,
          -0.10673106461763382,
          0.16496795415878296,
          0.024100443348288536,
          0.0007907404215075076,
          -0.03653198853135109,
          0.1500883400440216,
          -0.1467490941286087,
          0.01587085612118244,
          0.15541352331638336,
          -0.03721175715327263,
          0.17086119949817657,
          -0.0002370024158153683,
          -0.22056423127651215,
          -0.11655683070421219,
          0.08294643461704254,
          0.04722604528069496,
          0.09044472128152847,
          0.14620326459407806,
          0.0359511561691761,
          0.10573755204677582,
          0.013468390330672264,
          0.09669261425733566,
          0.0623006597161293,
          -0.1150408387184143,
          -0.3051486313343048,
          -0.01180030032992363,
          -0.01485301274806261,
          0.029009105637669563,
          -0.005663812626153231,
          0.13078488409519196,
          0.11631737649440765,
          -0.1507175862789154,
          -0.0214811060577631,
          0.06071430444717407,
          -0.024322066456079483,
          -0.07070794701576233,
          -0.12405850738286972,
          0.052588656544685364,
          0.07476518303155899,
          0.007643426302820444,
          0.13124550879001617,
          -0.08301308006048203,
          -0.1023220494389534,
          0.09528709948062897,
          0.08737387508153915,
          -0.11799994111061096,
          0.002944463863968849,
          -0.08772031962871552,
          0.2009878307580948,
          -0.13669511675834656,
          -0.07246793061494827,
          0.06844017654657364,
          0.1657789796590805,
          0.10718634724617004,
          -0.033899255096912384,
          -0.05711851269006729,
          0.1601029485464096,
          0.10381460189819336,
          -0.06178368255496025,
          0.011862069368362427,
          0.06548065692186356,
          -0.1471991389989853,
          -0.05035587400197983,
          -0.15128901600837708,
          0.20251783728599548,
          -0.0006414330564439297,
          -0.11958511918783188,
          -0.022274944931268692,
          0.12463384866714478,
          0.04569973796606064,
          -0.08554147928953171,
          0.15301543474197388,
          0.13936281204223633,
          0.07327041029930115,
          0.01737857609987259,
          -0.04381907358765602,
          0.06983716785907745,
          0.059116218239068985,
          0.21412888169288635,
          -0.058675702661275864,
          -0.003442642278969288,
          -0.08285192400217056,
          -0.10711770504713058,
          0.0529201366007328,
          0.0011803462402895093,
          -0.005493349861353636,
          -0.0648113414645195,
          -0.017408613115549088,
          0.0052367327734827995,
          0.05477115884423256,
          0.0215461365878582,
          0.0027034080121666193,
          -0.07074448466300964,
          -0.01767428033053875,
          -0.08311493694782257,
          0.031532566994428635,
          0.1770208477973938,
          -0.12216564267873764,
          -0.017845993861556053,
          -0.05675068870186806,
          -0.02322009578347206,
          -0.12138320505619049,
          0.14965644478797913,
          0.02758786454796791,
          0.030389275401830673,
          -0.14839424192905426,
          0.03503653034567833,
          0.008921698667109013,
          0.05801885947585106,
          0.05182122066617012,
          -0.049766283482313156,
          -0.0921807512640953,
          -0.09344862401485443,
          -0.20537644624710083,
          -0.17174646258354187,
          0.07196414470672607,
          -0.05353810265660286,
          -0.1623460352420807,
          0.06263037025928497,
          -0.04299952834844589,
          0.06869806349277496,
          0.001734384335577488,
          -0.08162316679954529,
          0.14133763313293457,
          0.1170031726360321,
          0.018473919481039047,
          0.03278651088476181,
          0.02258993871510029,
          -0.030489934608340263,
          0.09071794152259827,
          0.20545588433742523,
          0.06060077250003815,
          -0.06217915192246437,
          0.06529057025909424,
          -0.0760856494307518,
          0.005416321102529764,
          0.1907101422548294,
          0.03504444286227226,
          0.0802270919084549,
          -0.07103002816438675,
          -0.057854004204273224,
          0.0855492576956749,
          -0.1627615988254547,
          -0.013745661824941635,
          -0.08666527271270752,
          0.15638168156147003,
          -0.148537740111351,
          -0.043712496757507324,
          0.004494056571274996,
          0.07647890597581863,
          -0.07370965927839279,
          -0.08379390835762024,
          -0.136163592338562,
          0.05757133662700653,
          0.016820337623357773,
          -0.08867102116346359,
          -0.04788680747151375,
          0.0219650287181139,
          -0.08438603579998016,
          0.1705332100391388,
          -0.06363991647958755,
          0.049330662935972214,
          -0.01867234893143177,
          0.03805956244468689,
          0.08570220321416855,
          0.03916574642062187,
          0.1010507345199585,
          0.09802321344614029,
          0.09770406782627106,
          -0.0842357873916626,
          -0.09327704459428787,
          -0.10196605324745178,
          -0.06555447727441788,
          -0.317272424697876,
          0.10980389267206192,
          0.04158918187022209,
          0.008513973094522953,
          -0.07192215323448181,
          -0.021564457565546036,
          0.07871293276548386,
          0.08312739431858063,
          -0.010350761003792286,
          0.05881177634000778,
          -0.15901409089565277,
          -0.012142508290708065,
          0.19503505527973175,
          0.28866666555404663,
          0.29606184363365173,
          0.15748095512390137,
          -0.2603713870048523,
          0.08466140925884247,
          0.03190220519900322,
          -0.01549980416893959,
          -0.1815309375524521,
          -0.07051863521337509,
          0.07303858548402786,
          0.29401716589927673,
          0.04682471975684166,
          -0.18206477165222168,
          0.08410584181547165,
          0.11151602119207382,
          -0.13777673244476318,
          -0.22226858139038086,
          0.1283366084098816,
          0.008855053223669529,
          0.23250150680541992,
          0.05744939297437668,
          0.005812648683786392,
          -0.04307258129119873,
          0.014628813602030277,
          -0.24290704727172852,
          0.12884292006492615,
          0.003089308040216565,
          0.22483006119728088,
          -0.026958569884300232,
          -0.01952907256782055,
          0.01217571645975113,
          0.08980071544647217,
          0.08871277421712875,
          0.01965619996190071,
          0.09808642417192459,
          0.014054411090910435,
          -0.14867447316646576,
          0.09859572350978851,
          0.03006846457719803,
          -0.11553608626127243,
          -0.022401683032512665,
          0.011541464366018772,
          -0.18252520263195038,
          0.15809820592403412,
          0.12279535084962845,
          0.09423848241567612,
          -0.1526113599538803,
          -0.031873609870672226,
          0.18448783457279205,
          -0.19582335650920868,
          0.15891018509864807,
          -0.2474590539932251,
          -0.026598023250699043,
          0.1803705394268036,
          0.09035906195640564,
          0.15624909102916718,
          -0.11218168586492538,
          -0.11671110987663269,
          0.06712773442268372,
          -0.1562701165676117,
          0.2762444317340851,
          -0.056714076548814774,
          0.21395884454250336,
          -0.04926538094878197,
          0.176722452044487,
          0.20784449577331543,
          0.04584277793765068,
          0.05090752989053726,
          -0.13852612674236298,
          0.012018967419862747,
          -0.09512440115213394,
          -0.025884727016091347,
          0.177703395485878,
          0.028138143941760063,
          0.08688780665397644,
          -0.026623697951436043,
          0.09794285893440247,
          -0.0907999649643898,
          0.33231595158576965,
          0.12770339846611023,
          0.006304833106696606,
          -0.33211010694503784,
          0.030887238681316376,
          -0.18122385442256927,
          -0.07536455243825912,
          0.16201871633529663,
          -0.2536146342754364,
          0.03470778837800026,
          0.03615102171897888,
          -0.06518077850341797,
          0.02943473681807518,
          0.18153950572013855,
          0.11490988731384277,
          -0.03976133093237877,
          0.21459294855594635,
          -0.11146118491888046,
          -0.06856144964694977,
          -0.10166756808757782,
          0.032067373394966125,
          -0.11386559158563614,
          -0.05298048257827759,
          0.06368604302406311,
          -0.06925716251134872,
          -0.1418117880821228,
          -0.08843942731618881,
          -0.02227647230029106,
          -0.0712902843952179,
          -0.04909079894423485,
          -0.07032504677772522,
          -0.04375312849879265,
          -0.03398176282644272,
          -0.18814702332019806,
          -0.20978133380413055,
          -0.10055366903543472,
          0.07026193290948868,
          -0.28065770864486694,
          -0.07238119095563889,
          0.11376378685235977,
          0.06269408762454987,
          0.08328671753406525,
          -0.1580856442451477,
          -0.049339160323143005,
          0.1373545378446579,
          0.019349239766597748,
          -0.08687745034694672,
          -0.09681601077318192,
          0.004412181209772825,
          0.14385905861854553,
          -0.04430599510669708,
          0.05396520718932152,
          0.34348881244659424,
          -0.16476589441299438,
          0.28497275710105896,
          -0.09787693619728088,
          0.20073406398296356,
          0.016142530366778374,
          -0.19737710058689117,
          -0.11435386538505554,
          -0.09102233499288559,
          -0.0917360857129097,
          -0.26924535632133484,
          0.061909280717372894,
          0.007840665988624096,
          -0.19526681303977966,
          -0.21151995658874512,
          0.22496408224105835,
          -0.12195388227701187,
          -0.019698821008205414,
          -0.09834224730730057,
          -0.17497341334819794,
          -0.03168601170182228,
          0.007465846370905638,
          -0.12066023051738739,
          -0.06629438698291779,
          0.07127875834703445,
          0.03603232651948929,
          -0.1558230072259903,
          -0.03944673016667366,
          -0.0362999401986599,
          0.010452372021973133,
          -0.1914726197719574,
          -0.04908287152647972,
          -0.1500253528356552,
          -0.02078615315258503,
          -0.14007516205310822,
          -0.1456676572561264,
          0.12162070721387863,
          0.09591572731733322,
          0.014584680087864399,
          -0.11071188002824783,
          0.14284944534301758,
          0.027533724904060364,
          0.078348807990551,
          0.06474025547504425,
          -0.0645107626914978,
          -0.018757671117782593,
          0.1805441528558731,
          -0.053647033870220184,
          0.17228642106056213,
          0.07001809775829315,
          0.04665844887495041,
          -0.1387469470500946,
          -0.10399198532104492,
          -0.13118904829025269,
          0.15373483300209045,
          -0.03106985241174698,
          -0.014353001490235329,
          -0.029916780069470406,
          0.1295909285545349,
          0.022996922954916954,
          0.1878013163805008,
          0.003628078382462263,
          0.05592711269855499,
          -0.03271900862455368,
          -0.16185617446899414,
          0.12333531677722931,
          -0.1828426569700241,
          0.0762876346707344,
          -0.09226925671100616,
          0.04326069727540016,
          -0.0560188852250576,
          0.15257136523723602,
          -0.07256107032299042,
          0.012428000569343567,
          -0.08204853534698486,
          0.03297608718276024,
          -0.004928308539092541,
          0.1601882129907608,
          -0.0038399777840822935,
          -0.033992573618888855,
          0.10528645664453506,
          -0.0800369456410408,
          -0.02934318035840988,
          0.1524423211812973,
          -0.18182164430618286,
          0.07258009165525436,
          -0.05100341886281967,
          0.19684188067913055,
          -0.006230449303984642,
          -0.18761371076107025,
          0.16772343218326569,
          -0.13868547976016998,
          -0.019872955977916718,
          0.019120439887046814,
          -0.06567154824733734,
          0.11064788699150085,
          0.2695033550262451,
          0.05048512667417526,
          -0.14851634204387665,
          -0.2043277472257614,
          -0.1456061750650406,
          -0.044151369482278824,
          0.194979727268219,
          -0.1831129789352417,
          -0.12975789606571198,
          0.06523916125297546,
          -0.06578204035758972,
          -0.19138553738594055,
          -0.005655945744365454,
          -0.02912106178700924,
          -0.14838147163391113,
          0.16801075637340546,
          0.13989748060703278,
          -0.04914911091327667,
          -0.02915158122777939,
          -0.08553487062454224,
          -0.3275851309299469,
          -0.014617039822041988,
          -0.09485412389039993,
          0.08960604667663574,
          0.16959445178508759,
          0.07325294613838196,
          -0.00673923222348094,
          -0.0454232320189476,
          -0.023223770782351494,
          0.00875735655426979,
          -0.13174547255039215,
          -0.009189330041408539,
          0.20175926387310028,
          -0.0982261672616005,
          -0.10446751862764359,
          0.09980806708335876,
          -0.008630583994090557,
          -0.03978468105196953,
          -0.11608882993459702,
          -0.04259070008993149,
          -0.03901504725217819,
          -0.14855752885341644,
          0.002725446131080389,
          -0.03528812155127525,
          0.05819461867213249,
          -0.0817154198884964,
          0.1273987740278244,
          0.020333493128418922,
          0.10037484019994736,
          0.1319400668144226,
          0.04326000064611435,
          0.05216880887746811,
          -0.2231023758649826,
          -0.04260006174445152,
          -0.1290418654680252,
          0.005927528720349073,
          0.2811766564846039,
          0.03514125570654869,
          -0.11603288352489471,
          -0.14131766557693481,
          -0.1223236620426178,
          -0.22188742458820343,
          0.26407381892204285,
          0.23074328899383545,
          0.03039606288075447,
          0.05656515806913376,
          -0.008055731654167175,
          -0.02022194117307663,
          -0.005975536070764065,
          -0.1275787204504013,
          -0.10457994788885117,
          -0.15797841548919678,
          -0.06408454477787018,
          0.14736072719097137,
          -0.025491248816251755,
          0.048478491604328156,
          -0.3085521459579468,
          -0.045508984476327896,
          -0.08500409126281738,
          0.034440889954566956,
          0.020244425162672997,
          -0.04448836296796799,
          -0.07518032193183899,
          -0.1624256670475006,
          0.014813792891800404,
          0.1369330734014511,
          0.06351281702518463,
          -0.03536165505647659,
          -0.031026476994156837,
          0.05661677569150925,
          0.12349707633256912,
          0.2417856603860855,
          0.06503695249557495,
          -0.08910410106182098,
          -0.01977221667766571,
          -0.06823914498090744,
          0.02481958642601967,
          0.09266028553247452,
          0.061336349695920944,
          -0.021547501906752586,
          -0.05637609213590622,
          -0.15167908370494843,
          -0.026234986260533333,
          0.10858447849750519,
          -0.08516167849302292,
          0.07344512641429901,
          -0.12186168134212494,
          0.1701536625623703,
          0.2149766981601715,
          -0.015727490186691284,
          0.18295755982398987,
          -0.0045654065907001495,
          -0.03892914205789566,
          -0.31964728236198425,
          -0.17072808742523193,
          -0.11153411865234375,
          0.09886693209409714,
          -0.1272621899843216,
          -0.11054662615060806,
          -0.17580261826515198,
          0.04349350929260254,
          0.01893041841685772,
          -0.20712661743164062,
          -0.08809533715248108,
          0.0561412014067173,
          -0.02845899574458599,
          -0.16570089757442474,
          0.02056424506008625,
          -0.13633303344249725,
          0.05705280229449272,
          0.055173519998788834,
          -0.06289540976285934,
          0.16290973126888275,
          -0.089513398706913,
          -0.14924921095371246,
          -0.08079843968153,
          0.03038157895207405,
          -0.15622875094413757,
          -0.08825185894966125,
          -0.09676473587751389,
          0.16057030856609344,
          -0.02588479034602642,
          -0.04576425999403,
          -0.18219804763793945,
          0.10371115803718567,
          -0.16738374531269073,
          -0.071863554418087,
          0.1374959647655487,
          -0.023377439007163048,
          -0.11556734889745712,
          -0.04558619484305382,
          -0.01996631547808647,
          0.2614566385746002,
          -0.1707882136106491,
          0.26502829790115356,
          0.02822047844529152,
          -0.05357244983315468,
          0.05940178036689758,
          0.07289423048496246,
          0.05332464724779129,
          0.15301433205604553,
          -0.05441632494330406,
          -0.09220050275325775,
          0.048593103885650635,
          -0.15643107891082764,
          0.0726131796836853,
          -0.022182736545801163,
          0.05185726284980774,
          0.025770153850317,
          -0.1623600423336029,
          -0.15344350039958954,
          -0.19127702713012695,
          -0.005503438413143158,
          0.01150500401854515,
          0.14596353471279144,
          0.3266930878162384,
          0.04601634666323662,
          -0.06474361568689346,
          0.025371450930833817,
          -0.034317005425691605,
          -0.11622859537601471,
          0.4254806935787201,
          0.20694483816623688,
          -0.09710948169231415,
          -0.17113810777664185,
          -0.12268489599227905,
          0.03968614339828491,
          -0.07370448857545853,
          -0.1440945863723755,
          -0.07241544872522354,
          -0.06356716901063919,
          -0.055309463292360306,
          0.3401709198951721,
          0.16443729400634766,
          -0.01871979609131813,
          -0.24417559802532196,
          0.14480088651180267,
          0.162221759557724,
          -0.1409890353679657,
          0.02617332898080349,
          0.07227212935686111,
          -0.011587814427912235,
          -0.09092184901237488,
          0.029023269191384315,
          -0.2726005017757416,
          -0.12137530744075775,
          -0.14344900846481323,
          -0.05128254368901253,
          -0.1263953298330307,
          -0.0834999606013298,
          -0.09083758294582367,
          -0.12931106984615326,
          0.05912803113460541,
          -0.17625148594379425,
          -0.04122491553425789,
          0.054778169840574265,
          0.15105845034122467,
          -0.02593057230114937,
          -0.1425851732492447,
          0.19762583076953888,
          -0.15933553874492645,
          0.017749736085534096,
          0.07429143786430359,
          -0.03847508877515793,
          -0.10285640507936478,
          -0.15215975046157837,
          0.2291231006383896,
          0.1318068653345108,
          0.020726632326841354,
          0.0952240377664566,
          0.06155688688158989,
          -0.022211937233805656,
          -0.19585499167442322,
          -0.11716136336326599,
          -0.017759494483470917,
          0.16338644921779633,
          0.002788376295939088,
          0.10826554894447327,
          -0.06348913162946701,
          0.06733947992324829,
          -0.1028958261013031,
          -0.21854177117347717,
          -0.10810688138008118,
          -0.234360933303833,
          -0.03241359069943428,
          -0.03290543332695961,
          -0.1827286183834076,
          0.02669312059879303,
          0.013481088913977146,
          -0.0003639580390881747,
          0.14697277545928955,
          0.05082876235246658,
          0.08020608127117157,
          -0.09139881283044815,
          -0.015207388438284397,
          -0.04546211659908295,
          0.08252867311239243,
          -0.013144049793481827,
          0.00511678121984005,
          0.13179226219654083,
          -0.18617455661296844,
          0.007647899445146322,
          -0.18764230608940125,
          0.11615398526191711,
          -0.0578540600836277,
          -0.037450969219207764,
          -0.03786497563123703,
          -0.18032041192054749,
          0.10280083119869232,
          0.1184646412730217,
          -0.12507560849189758,
          -0.10086081176996231,
          -0.0004833636630792171,
          0.05671944469213486,
          0.1611374020576477,
          0.03217490762472153,
          0.08364453911781311,
          -0.06248738244175911,
          0.10384974628686905,
          -0.05536574125289917,
          0.08544804900884628,
          0.020325571298599243,
          0.0704503282904625,
          0.024761438369750977,
          -0.038125764578580856,
          -0.04579726234078407,
          0.10183277726173401,
          -0.2942127287387848,
          0.1706756055355072,
          0.010239810682833195,
          -0.09687580913305283,
          -0.07394584268331528,
          -0.16243264079093933,
          0.1312071979045868,
          -0.008376780897378922,
          -0.05243253335356712,
          -0.049375228583812714,
          -0.04938346892595291,
          -0.1460348516702652,
          -0.06986366212368011,
          0.03601953759789467,
          0.03643432632088661,
          0.08191457390785217,
          0.03296734020113945,
          0.226493701338768,
          -0.18590840697288513,
          0.10851369798183441,
          0.12526817619800568,
          0.03259816765785217,
          0.24505960941314697,
          0.07296622544527054,
          -0.09393343329429626,
          0.105947345495224,
          0.07781606912612915,
          -0.06744169443845749,
          0.06132620573043823,
          -0.22615981101989746,
          0.047571469098329544,
          0.09741624444723129,
          -0.11540456116199493,
          0.1337413489818573,
          0.019383152946829796,
          -0.048912402242422104,
          -0.04940471053123474,
          0.0015458035049960017,
          -0.02042538672685623,
          -0.09116771072149277,
          -0.07457457482814789,
          -0.01633959636092186,
          -0.06789356470108032,
          -0.14521996676921844,
          0.04399646446108818,
          -0.0929407849907875,
          0.025138821452856064,
          0.08056633174419403,
          -0.014670033007860184,
          0.006343729794025421,
          0.03435554727911949,
          0.053386516869068146,
          -0.07220122218132019,
          0.053551528602838516,
          0.2654343843460083,
          0.0485418476164341,
          0.08367779850959778,
          0.059528060257434845,
          -0.16454967856407166,
          0.005318397656083107,
          -0.20466667413711548,
          0.13774098455905914,
          0.1064801812171936,
          0.010459103621542454,
          -0.05267995968461037,
          0.055715203285217285,
          -0.03739195317029953,
          -0.04198535159230232,
          -0.09399548918008804,
          -0.26391562819480896,
          0.03248901292681694,
          0.11525706201791763,
          0.016325928270816803,
          0.09795798361301422,
          -0.13044162094593048,
          0.025790948420763016,
          -0.022200971841812134,
          0.047821421176195145,
          -0.11108697205781937,
          0.022753698751330376,
          0.08734632283449173,
          -0.012165006250143051,
          -0.018682757392525673,
          0.03744133189320564,
          -0.08322662115097046,
          -0.05320405960083008,
          0.15942060947418213,
          -0.03972562029957771,
          0.01130717433989048,
          -0.08422911167144775,
          0.23657046258449554,
          -0.10531916469335556,
          -0.2186533510684967,
          0.1299733966588974,
          -0.10947317630052567,
          0.002482082461938262,
          -0.04229997098445892,
          -0.025624556466937065,
          0.006636317819356918,
          0.09154582768678665,
          -0.16952449083328247,
          -0.08155462890863419,
          -0.1965758204460144,
          -0.021185502409934998,
          -0.10766454041004181,
          0.03616969659924507,
          0.06153024360537529,
          0.07872407883405685,
          0.15742400288581848,
          -0.020127836614847183,
          -0.07258902490139008,
          -0.08640405535697937,
          -0.04838015139102936,
          -0.07308628410100937,
          0.007912522181868553,
          -0.1426067352294922,
          -0.09302230924367905,
          -0.05273440107703209,
          -0.164963036775589,
          -0.14729197323322296,
          -0.1552765816450119,
          -0.16128583252429962,
          0.1520838588476181,
          -0.16139815747737885,
          0.18875974416732788,
          -0.038743387907743454,
          -0.13233350217342377,
          -0.006780210416764021,
          0.21433131396770477,
          -0.024185918271541595,
          0.01960447058081627,
          -0.05597897246479988,
          0.08681222796440125,
          -0.14034950733184814,
          0.05109161511063576,
          0.05477888882160187,
          -0.02877078205347061,
          -0.1341516226530075,
          0.10972246527671814,
          0.05278214067220688,
          0.10547564923763275,
          0.04846534878015518,
          -0.19181333482265472,
          -0.09960862249135971,
          -0.08299184590578079,
          0.11425744742155075,
          0.072304368019104,
          0.029592229053378105,
          0.10012521594762802,
          0.04758858680725098,
          0.12045102566480637,
          0.021591247990727425,
          0.04497886821627617,
          0.16227410733699799,
          -0.2607269287109375,
          -0.0024316601920872927,
          0.14668597280979156,
          -0.0313231386244297,
          0.19070479273796082,
          0.20980128645896912,
          -0.05380846560001373,
          -0.007904615253210068,
          -0.03569471836090088,
          0.16989926993846893,
          -0.09767885506153107,
          -0.051881492137908936,
          -0.0755082368850708,
          -0.12989291548728943,
          -0.02688152715563774,
          -0.07304803282022476,
          -0.08212358504533768,
          -0.12133200466632843,
          0.1396225541830063,
          0.13878145813941956,
          0.11812344193458557,
          -0.031725138425827026,
          -0.01641315408051014,
          0.14026100933551788,
          0.031083764508366585,
          0.006913704331964254,
          -0.00614158995449543,
          0.11185861378908157,
          -0.22049491107463837,
          -0.07606595009565353,
          -0.08123306185007095,
          -0.04156559705734253,
          0.0779128298163414,
          -0.013900387100875378,
          -0.015386664308607578,
          -0.006131418980658054,
          0.14136585593223572,
          -0.09359961003065109,
          0.23367910087108612,
          0.09263014048337936,
          0.1531088650226593,
          0.14239655435085297,
          -0.03832826018333435,
          -0.1458437293767929,
          -0.0034384361933916807,
          -0.09428586810827255,
          0.015407809056341648,
          -0.1780824214220047,
          -0.12979756295681,
          0.17258600890636444,
          -0.1012745201587677,
          -0.11775694787502289,
          -0.004806088283658028,
          -0.011102271266281605,
          0.09111900627613068,
          0.07771090418100357,
          0.11522266268730164,
          0.0003141915949527174,
          -0.06533833593130112,
          -0.037178706377744675,
          0.3422470986843109,
          -0.058206722140312195,
          0.03313424438238144,
          0.2262142449617386,
          -0.09089501947164536,
          -0.1167735680937767,
          -0.019891615957021713,
          0.17761898040771484,
          0.1728135198354721,
          0.04142054542899132,
          -0.04726492986083031,
          0.13931383192539215,
          -0.11535429209470749,
          -0.07052040845155716,
          0.10276126861572266,
          0.15603795647621155,
          0.17213433980941772,
          0.08258793503046036,
          -0.06736135482788086,
          0.0551648773252964,
          -0.09427445381879807,
          -0.08303157240152359,
          -0.0660676434636116,
          0.051593828946352005,
          -0.011747022159397602,
          0.15573538839817047,
          0.21086494624614716,
          -0.3307535946369171,
          -0.20820187032222748,
          -0.0013451457489281893,
          -0.04419834539294243,
          -0.08319512754678726,
          -0.17908890545368195,
          -0.13541007041931152,
          0.042308028787374496,
          -0.10114070028066635,
          -0.0020713014528155327,
          0.010620455257594585,
          0.008540593087673187,
          0.2876996695995331,
          0.06627250462770462,
          -0.03937189653515816,
          -0.19486208260059357,
          0.18742215633392334,
          0.2928512692451477,
          -0.09879188984632492,
          -0.18402598798274994,
          0.020941805094480515,
          -0.07806378602981567,
          0.11634040623903275,
          -0.1879197657108307,
          -0.15716755390167236,
          -0.19758416712284088,
          0.021527856588363647,
          0.015842564404010773,
          0.02269790880382061,
          -0.04304783418774605,
          0.015644792467355728,
          -0.027005525305867195,
          -0.028098993003368378,
          -0.01293799839913845,
          0.07121669501066208,
          0.11648726463317871,
          0.1641380339860916,
          -0.17071007192134857,
          0.26219579577445984,
          -0.016176775097846985,
          -0.21964141726493835,
          -0.2855605185031891,
          0.03906117379665375,
          0.15506987273693085,
          -0.2525492012500763,
          -0.020504716783761978,
          0.04522339254617691,
          0.006021546665579081,
          0.06729625165462494,
          0.12471895664930344,
          0.17268893122673035,
          -0.038441311568021774,
          -0.08407147228717804,
          0.03235232084989548,
          0.003910759463906288,
          0.0025853377301245928,
